-0.001035859109834, -0.005564455874264, 0.000917564262636, -0.002371803158894, 0.000396377145080, 0.021496390923858, 0.002638757228851, 0.013692412525415, -0.002375444397330, 0.017834577709436, -0.018543565645814, 0.003335108282045, -0.014003870077431, -0.006821250542998, 0.018625326454639, -0.000408695515944
-0.023388348519802, 0.142925754189491, -0.038091145455837, 0.049015216529369, -0.052134368568659, -0.020069334656000, -0.010875826701522, 0.084761910140514, 0.125669986009598, 0.021267063915730, -0.008368766866624, -0.062307931482792, 0.008078624494374, -0.015851348638535, -0.075127795338631, -0.096189431846142
-0.032368242740631, 0.038613561540842, -0.029718348756433, 0.038665860891342, -0.033689018338919, 0.027421321719885, -0.023874342441559, -0.001922617782839, 0.059133570641279, 0.050303656607866, 0.066395193338394, 0.055043313652277, 0.082386478781700, -0.056501377373934, -0.049912847578526, -0.006435503251851
0.052605513483286, -0.054109439253807, 0.039861097931862, -0.055237967520952, -0.005170144140720, -0.097672350704670, 0.033463329076767, 0.000324725173414, 0.018975920975208, -0.050590518862009, 0.011554239317775, -0.094291217625141, 0.012477080337703, -0.027169568464160, -0.025975370779634, -0.025431899353862
-0.002220928901806, -0.004215953871608, 0.000255996012129, 0.006286732386798, 0.004793686792254, 0.009605539031327, -0.007644376251847, 0.004443993791938, 0.008786082267761, 0.008792563341558, -0.005134239792824, 0.000637802411802, -0.010927235707641, -0.004072755109519, -0.007345031946898, 0.002686478197575
0.004276992287487, -0.042434949427843, 0.027582103386521, -0.031861767172813, 0.028825096786022, 0.045588783919811, 0.029432762414217, 0.034659236669540, 0.003986794967204, 0.032686434686184, -0.020067840814590, -0.026469500735402, -0.020569682121277, -0.027639310806990, 0.041271876543760, 0.025735406205058
0.014058681204915, -0.017979802563787, 0.021064268425107, -0.007288917433470, 0.013786827214062, -0.001414023572579, 0.001261237310246, 0.009306469000876, -0.008181657642126, 0.010631320066750, -0.015131275169551, -0.015830319374800, -0.002664641477168, -0.000045215758291, 0.036520250141621, 0.000140188523801
-0.083707660436630, 0.019583201035857, -0.122175037860870, 0.083040297031403, -0.054174449294806, -0.000575577316340, -0.101236350834370, -0.147242382168770, 0.010457418859005, 0.003567531239241, 0.103926323354244, 0.073789902031422, 0.096953593194485, -0.023005446419120, -0.053517561405897, -0.101648889482021
0.000002072775033, 0.000001196746325, -0.000001271480528, 0.000001896106596, -0.000000834467073, -0.000004809155598, 0.000001243571660, -0.000002298022764, -0.000003215320930, 0.000000105371669, -0.000001494964863, -0.000001181879270, 0.000001719625288, -0.000004301857189, 0.000000826041628, 0.000000505667401
0.074698522686958, -0.031475193798542, 0.010207582265139, 0.072494775056839, 0.136818170547485, -0.077619634568691, -0.005208451300859, -0.030995124951005, -0.070527218282223, -0.003078620880842, 0.007233427837491, 0.033748786896467, -0.006556747481227, 0.101293802261353, 0.084331423044205, -0.026313723996282
-0.000960457837209, 0.008696350269020, -0.008339461870492, 0.000590246869251, -0.000002516385848, 0.003041482530534, -0.001358956680633, -0.005022758617997, -0.009170503355563, -0.001510789617896, 0.003722596215084, 0.004477215465158, 0.000060425780248, 0.001259432989173, 0.005544760730118, 0.004741242155433
0.001335635199212, 0.079586885869503, 0.025047063827515, 0.070495374500751, -0.067061185836792, -0.032956037670374, -0.030100762844086, -0.004176023881882, 0.121319204568863, 0.034043915569782, -0.005522707011551, 0.015170350670815, 0.057398013770580, 0.052864469587803, -0.072862915694714, -0.059324365109205
0.001423473353498, -0.003675161860883, 0.000000511424901, -0.001285656588152, 0.003745422698557, -0.000000100221243, -0.000090840621851, -0.000001717633268, -0.002442232100293, -0.000001658619567, -0.002765019424260, 0.004375236108899, -0.000579192477744, -0.000159227347467, 0.000620179111138, -0.000006306349860
0.089163921773434, -0.112938739359379, -0.048830710351467, -0.073222041130066, 0.063027985394001, 0.000471837207442, 0.002570813754573, 0.013724133372307, -0.044110953807831, -0.009986337274313, -0.051646616309881, 0.007248897571117, -0.019478673115373, -0.009864155203104, 0.112225495278835, 0.067310817539692
0.010456192307174, -0.020294493064284, 0.004859785549343, -0.003328535240144, -0.000873531331308, -0.000177943627932, 0.004922667983919, -0.021198112517595, -0.008017953485250, -0.001009662402794, 0.016411554068327, -0.011079154908657, 0.047994721680880, -0.011338185518980, -0.003860415192321, 0.019705871120095
-0.008786439895630, 0.016545031219721, -0.002308554248884, -0.009392612613738, -0.004833051934838, 0.006735375616699, -0.007580385077745, -0.009501126594841, 0.015755718573928, -0.009555242024362, 0.036834307014942, 0.003384577576071, 0.022759636864066, -0.000921699102037, 0.004823869559914, 0.013616571202874
0.118392832577229, -0.197139739990234, 0.118832886219025, -0.083409637212753, 0.116526670753956, -0.194115415215492, 0.105490021407604, -0.030962765216827, -0.002684671897441, 0.028660140931606, 0.018028508871794, -0.161916568875313, -0.035900559276342, -0.213279947638512, -0.017224527895451, -0.021530414000154
0.001294019049965, 0.007509590592235, 0.007023182697594, -0.000313096446916, -0.002357020741329, -0.001219028839841, 0.001773856231011, 0.003975107800215, 0.006501263473183, -0.004051171708852, -0.005422809626907, -0.000732875312679, -0.005466646049172, 0.002091206144542, -0.004244058858603, -0.010742853395641
0.297991842031479, 0.010880238376558, -0.007357635535300, 0.095028780400753, -0.061834078282118, -0.121308408677578, 0.076539196074009, -0.159544900059700, 0.011720245704055, -0.070748053491116, 0.103573784232140, 0.142675578594208, 0.091999486088753, 0.110690698027611, -0.060297142714262, -0.075674250721931
0.005167369265109, 0.035099588334560, 0.068504363298416, 0.028915794566274, -0.006536506582052, -0.073256544768810, -0.013803431764245, 0.083044499158859, 0.092481367290020, 0.013487646356225, -0.094020575284958, -0.025693800300360, -0.035773899406195, 0.022051982581615, -0.021987129002810, -0.086835585534573
-0.002696646144614, 0.000405449885875, -0.001673274673522, -0.001264852937311, -0.000001138120297, 0.001675739069469, -0.000153933273396, -0.001683863229118, -0.002583883702755, -0.000483116396936, 0.001680800924078, 0.003047370119020, 0.001194532262161, 0.000800795736723, 0.003982982598245, 0.002677401527762
-0.016364930197597, 0.060213863849640, 0.052041102200747, 0.089093320071697, -0.024301785975695, -0.043352723121643, -0.038635570555925, 0.030937025323510, 0.094403386116028, 0.100271783769131, -0.001384546980262, -0.022041149437428, 0.055030390620232, -0.056759454309940, -0.047462310642004, -0.088221400976181
0.025395411998034, 0.021313972771168, -0.161023423075676, -0.075622834265232, 0.133282333612442, -0.080061197280884, -0.038353033363819, -0.022030312567949, -0.099402636289597, -0.234263762831688, 0.045360326766968, 0.037412416189909, -0.029250061139464, 0.223188906908035, 0.141014486551285, -0.029346525669098
0.002955898176879, -0.007042282726616, 0.005620378069580, -0.006321511697024, 0.006918993778527, 0.004328653682023, 0.002815329004079, 0.004321981221437, -0.004591931588948, 0.007494795601815, -0.002184330951422, -0.001573784858920, -0.002040279796347, -0.001988704083487, 0.005645334720612, 0.015024432912469
0.028456019237638, -0.042289335280657, 0.041608240455389, -0.043078072369099, 0.052719105035067, 0.042739711701870, 0.036462198942900, 0.088480524718761, -0.035280533134937, 0.061674293130636, -0.061378207057714, -0.024240357801318, -0.070732735097408, -0.015027664601803, 0.097041681408882, 0.023232933133841
-0.054535016417503, 0.092861920595169, -0.030909132212400, -0.050205670297146, -0.061302073299885, 0.083581656217575, 0.017253967002034, -0.096215829253197, -0.068354837596416, -0.017091395333409, 0.069158993661404, 0.030148191377521, -0.002991720801219, 0.077552840113640, 0.069324679672718, 0.140098482370377
-0.020093910396099, 0.017502883449197, 0.048846598714590, -0.022143226116896, -0.034871127456427, 0.010970446281135, 0.045269142836332, -0.036031249910593, -0.043569028377533, -0.028923928737640, 0.059452805668116, -0.005426644813269, 0.061566475778818, 0.012663068249822, 0.006288402713835, 0.092161484062672
-0.049762308597565, 0.044276174157858, -0.036555450409651, -0.036260817199945, -0.028761997818947, 0.047221567481756, 0.001052393927239, -0.006663003005087, -0.002643279032782, -0.021867688745260, 0.044270485639572, -0.007764846086502, 0.035908337682486, 0.005041648633778, -0.002912708325312, 0.042481511831284
-0.035360261797905, 0.031321484595537, -0.002633715979755, -0.050439178943634, -0.011251978576183, 0.021506853401661, 0.005740656983107, 0.018397456035018, -0.033064395189285, -0.040705177932978, 0.028582284227014, -0.020475061610341, -0.022367741912603, 0.028000790625811, 0.027034737169743, 0.056171871721745
-0.008720063604414, 0.041241046041250, 0.008235706947744, 0.007162802852690, 0.003754349192604, 0.035378310829401, -0.011744966730475, 0.075879901647568, 0.082753084599972, 0.045497871935368, -0.011564193293452, 0.033668827265501, -0.008643220178783, -0.025729890912771, -0.032597698271275, 0.019098727032542
-0.015493546612561, 0.002124114893377, -0.013813751749694, -0.016027791425586, -0.011194671504200, 0.036466982215643, 0.004329763818532, -0.024451849982142, -0.012552214786410, -0.005742534995079, 0.041570641100407, 0.017955156043172, 0.014868159778416, 0.012725979089737, 0.011069376952946, 0.028137933462858
-0.063583895564079, 0.006488184444606, -0.069525703787804, 0.089820764958858, -0.002957640914246, 0.078426539897919, -0.071635730564594, 0.008191707544029, 0.025437753647566, 0.052174050360918, 0.004243571776897, 0.098186641931534, 0.065323069691658, -0.086578816175461, -0.058625578880310, -0.069056339561939
0.216081008315086, -0.197462022304535, 0.019289501011372, 0.036521539092064, 0.011162132956088, -0.152008339762688, 0.056273140013218, -0.184323489665985, -0.068171761929989, 0.076310329139233, 0.248026102781296, 0.134812429547310, 0.376626729965210, -0.262871086597443, -0.156075701117516, 0.167539447546005
-0.002777700778097, 0.004488709382713, 0.003347929567099, 0.001958207227290, -0.008879648521543, -0.000346331100445, 0.000179065653356, 0.000000046702922, 0.000484697171487, 0.000322922598571, 0.000800781301223, 0.001225670217536, -0.001455153571442, 0.000809245451819, -0.000790846301243, -0.001499934704043
-0.047679193317890, -0.000928577384911, -0.066558912396431, -0.003549281507730, 0.126218363642693, -0.073354102671146, -0.070923708379269, 0.034463670104742, 0.032333202660084, -0.016667941585183, -0.068690225481987, -0.084759771823883, -0.113689012825489, -0.027633670717478, 0.112766556441784, -0.050057660788298
-0.004286104347557, 0.237362116575241, 0.131781235337257, -0.019281912595034, -0.038782760500908, -0.085266739130020, 0.061615850776434, 0.142097190022469, 0.104482807219028, -0.039692081511021, -0.096084371209145, -0.182001113891602, -0.063073769211769, 0.181698814034462, -0.066125191748142, -0.078549355268478
0.007147093303502, -0.029505871236324, 0.015929535031319, 0.019684813916683, -0.032593216747046, 0.000709413550794, -0.004674002062529, -0.052252978086472, 0.008340982720256, 0.006769922561944, 0.078111141920090, 0.036686643958092, 0.071370936930180, -0.023786721751094, -0.060372833162546, 0.015626208856702
-0.005336153320968, -0.033195096999407, -0.056746385991573, 0.089981973171234, 0.131264671683311, 0.193963006138802, 0.013456688262522, 0.065007828176022, 0.088946953415871, 0.312467157840729, -0.010074974969029, 0.113307841122150, 0.125932425260544, -0.126025944948196, 0.087239407002926, 0.027742577716708
0.246967718005180, 0.091571390628815, -0.091516375541687, 0.144718393683434, 0.130439192056656, -0.007128468714654, -0.016740908846259, -0.103697881102562, -0.184557646512985, -0.174011796712875, -0.146187126636505, 0.389767765998840, -0.206602498888969, 0.326780229806900, 0.157100632786751, -0.154258638620377
-0.009914856404066, -0.043982874602079, 0.035904832184315, -0.044424429535866, 0.019673930481076, 0.022519089281559, 0.031311318278313, 0.013833407312632, 0.072044081985950, -0.029800364747643, -0.061712246388197, -0.038407161831856, 0.003935087006539, -0.038912363350391, -0.002929595531896, 0.017661776393652
0.004591556265950, -0.008945335634053, 0.006151801906526, -0.026715006679296, 0.027255028486252, 0.018297446891665, 0.009439910762012, 0.017703911289573, 0.016576139256358, 0.053105715662241, -0.024526908993721, -0.020443690940738, -0.014113874174654, -0.027272488921881, 0.020855901762843, 0.013500891625881
0.061915624886751, -0.022349171340466, 0.041559431701899, 0.058878544718027, 0.011674410663545, -0.035659201443195, 0.040988195687532, -0.042607475072145, 0.018558088690042, 0.020261321216822, 0.061809558421373, -0.008164343424141, 0.069645628333092, -0.037161823362112, -0.045427281409502, -0.005731882527471
-0.003399237524718, 0.017519816756248, 0.000690637389198, 0.040404390543699, -0.000002378097633, 0.019277798011899, -0.011744584888220, -0.026010483503342, 0.031411901116371, 0.033359788358212, 0.006229168269783, 0.039108384400606, 0.028256267309189, -0.037665687501431, -0.024045303463936, -0.016994427889585
-0.004003881011158, 0.030362347140908, -0.007741048000753, 0.065560936927795, -0.076158508658409, 0.019683958962560, -0.008874017745256, -0.009673060849309, -0.024355357512832, 0.047723643481731, 0.067544601857662, 0.046083863824606, 0.119914129376411, -0.085509844124317, -0.054133180528879, -0.006283498369157
0.076678276062012, -0.058205220848322, 0.189159721136093, -0.110166013240814, 0.036118246614933, 0.086069054901600, 0.155716091394424, 0.022827573120594, -0.076137475669384, -0.004188228864223, 0.178723037242889, -0.006002503447235, 0.141651421785355, -0.159885764122009, -0.072745300829411, 0.226426139473915
0.120885811746120, -0.051081944257021, 0.079601839184761, -0.013840696774423, -0.041924018412828, -0.047157704830170, 0.127681180834770, -0.039768509566784, -0.063192814588547, -0.072305537760258, 0.187919676303864, -0.119908340275288, 0.144967660307884, -0.053320325911045, -0.045573413372040, 0.169886022806168
0.059921242296696, 0.093263462185860, 0.042126398533583, 0.196746870875359, -0.085180513560772, -0.013565684668720, 0.022193059325218, 0.070248469710350, 0.113997526466846, 0.074129566550255, 0.128001362085342, 0.062122274190187, 0.173115730285645, 0.106721431016922, -0.104116305708885, -0.010414492338896
-0.013397401198745, 0.012634786777198, -0.000177828522283, -0.004980049096048, -0.000808239099570, 0.017176631838083, -0.001813206239603, -0.000005445202987, 0.000105742808955, -0.000652071204968, 0.011221364140511, 0.000793513841927, 0.002611115342006, 0.009450607001781, 0.007332460489124, 0.010979139246047
0.004625634755939, -0.007497818209231, 0.006121122278273, 0.004664225038141, 0.007813507691026, -0.016549363732338, -0.001461206469685, 0.005924522411078, -0.001642845803872, -0.006776796188205, -0.006077613215894, -0.003148171817884, -0.003691841149703, 0.006083707790822, -0.000489480909891, -0.000239467975916
-0.106175743043423, 0.080667786300182, -0.070737347006798, 0.064612112939358, -0.046820499002934, 0.103332564234734, -0.060343705117702, -0.023449849337339, 0.020528078079224, 0.043795645236969, 0.080699734389782, 0.065839722752571, 0.054297488182783, -0.028669396415353, 0.014912007376552, 0.029178377240896
-0.060828637331724, 0.024304918944836, -0.029807701706886, 0.069101803004742, -0.005032205954194, 0.046586349606514, -0.064849689602852, -0.032576434314251, 0.063574321568012, 0.051015324890614, 0.066222712397575, 0.053359676152468, 0.054117079824209, -0.061894610524178, -0.003152027493343, -0.041820831596851
0.063855767250061, -0.013008245266974, -0.012875827029347, 0.064674049615860, 0.013903210870922, -0.035104952752590, 0.014458537101746, -0.064404472708702, -0.024234330281615, -0.028575180098414, 0.018996771425009, -0.009923331439495, 0.009280935861170, 0.066381543874741, 0.001441698055714, -0.030461957678199
0.019578959792852, -0.014049742370844, 0.018623549491167, -0.025976480916142, -0.003374829422683, -0.027615331113338, 0.027333186939359, 0.008203345350921, -0.026981197297573, -0.025916192680597, 0.005365045275539, -0.002625567372888, 0.004268669057637, 0.003510097507387, 0.000073787967267, 0.009143433533609
0.012108345516026, 0.084605678915977, -0.082209594547749, 0.086554743349552, -0.042510122060776, 0.040655277669430, -0.034397240728140, -0.023409685119987, 0.038153357803822, -0.020939677953720, 0.044492810964584, 0.172252669930458, 0.077925480902195, 0.047360826283693, 0.014984332956374, -0.128019839525223
0.083233505487442, -0.036207802593708, 0.069811336696148, 0.002692351583391, -0.030612939968705, -0.044125296175480, 0.077806860208511, -0.008946613408625, 0.004263683222234, -0.021049417555332, 0.055357705801725, -0.084164835512638, 0.039172735065222, 0.008145623840392, 0.003606629790738, 0.058060217648745
-0.030406037345529, 0.016170935705304, -0.019216733053327, 0.051373783499002, -0.015842042863369, 0.016745483502746, -0.023978220298886, -0.026788881048560, 0.030232720077038, 0.034853916615248, 0.035533420741558, 0.024274442344904, 0.011359997093678, -0.019117165356874, -0.019379539415240, -0.003089617937803
0.012138024903834, -0.023211343213916, -0.005124656483531, 0.008123485371470, 0.001727996161208, -0.005276132375002, -0.012029023841023, -0.014314762316644, 0.017580896615982, 0.003375983098522, -0.002335842233151, -0.017053674906492, 0.018338393419981, -0.033470027148724, -0.017677862197161, 0.012656582519412
-0.034241490066051, 0.056913550943136, -0.087510563433170, 0.087945163249969, 0.007437136024237, 0.016964036971331, -0.086215153336525, -0.066515371203423, 0.093187317252159, 0.041159141808748, 0.080405049026012, 0.059335865080357, 0.090614698827267, -0.063524045050144, -0.036607310175896, -0.054866209626198
-0.016698531806469, -0.002701354678720, -0.051153723150492, 0.043704479932785, 0.041914384812117, 0.047231137752533, -0.048267148435116, -0.054129604250193, -0.014651243574917, 0.077025927603245, 0.039234559983015, 0.015850896015763, 0.002123389625922, -0.026297900825739, 0.037753060460091, -0.015576214529574
-0.046409428119659, 0.006609854754061, -0.047857269644737, 0.041529476642609, 0.000105325365439, 0.025177326053381, -0.036337044090033, -0.039511118084192, 0.041165724396706, 0.039577905088663, 0.019885921850801, 0.051364097744226, 0.021577039733529, -0.016582617536187, -0.004846939817071, -0.040833991020918
-0.000001681065783, -0.000000157105177, -0.000005117751698, -0.000001111376264, 0.000001218272018, -0.000002072643383, 0.000001931081670, 0.000000461553242, -0.000000994358288, 0.000001163350134, 0.000001192318678, 0.000000739480299, 0.000000009730798, -0.000001659090913, -0.000000147172614, 0.000000718863248
-0.061408862471581, -0.021100826561451, -0.080853395164013, 0.150119960308075, -0.037453848868608, -0.004587824456394, -0.082763619720936, -0.033641297370195, 0.021667545661330, 0.006572266574949, 0.042394030839205, 0.135097220540047, 0.185586616396904, -0.143320456147194, -0.105909943580627, -0.047636847943068
0.006173764355481, -0.006622125394642, 0.000001642792768, 0.009764493443072, 0.004250938538462, 0.002048884052783, 0.004814508836716, 0.000006450425644, -0.005590767599642, -0.004707064479589, -0.007226832211018, 0.015542197041214, -0.002611505798995, 0.003446927759796, 0.005827294662595, -0.008930769748986
0.014722883701324, 0.000000230391947, 0.012315905652940, 0.002764485310763, -0.051946979016066, -0.000001359710154, 0.028737062588334, -0.005242439918220, -0.055096153169870, -0.057917624711990, 0.009886574000120, -0.034026794135571, 0.017845062538981, -0.000002377076726, 0.000012608744328, 0.001065984484740
-0.000001447250952, 0.000000564696563, -0.000002698907792, -0.000003162680969, 0.000000063100401, -0.000004113154773, 0.000000188452248, 0.000001505363343, -0.000001052358698, 0.000002365910859, 0.000000063616682, -0.000005820495517, 0.000002385204198, 0.000003552292583, -0.000000122441008, 0.000000496069390
0.033746324479580, -0.180407434701920, 0.145856603980064, 0.004429494030774, 0.248385533690453, 0.188698038458824, 0.202673032879829, 0.284321278333664, 0.209055304527283, 0.320740103721619, -0.105948902666569, -0.001259608194232, -0.204961895942688, -0.382267892360687, 0.338711678981781, 0.106611803174019
0.001200098311529, -0.009275158867240, 0.003790037473664, -0.008465854451060, 0.021869156509638, 0.021967530250549, 0.003805267624557, 0.013851786032319, 0.006705149076879, 0.020265771076083, -0.029465293511748, 0.001103588845581, -0.023755852133036, -0.007061072625220, 0.014835759997368, 0.006604133173823
0.024456169456244, -0.022068919613957, 0.022653428837657, -0.004935941658914, 0.017381820827723, 0.002118048025295, 0.002565519185737, 0.010192746296525, -0.006252406165004, 0.007698546163738, -0.016338115558028, -0.009974847547710, -0.003782871179283, -0.005491163115948, 0.038575228303671, 0.002497462555766
0.013301330618560, -0.012818819843233, 0.019227409735322, -0.025078060105443, 0.037488326430321, 0.044756088405848, 0.008947353810072, 0.047525011003017, -0.013927612453699, 0.048988327383995, -0.027050372213125, -0.002184280660003, -0.017473768442869, -0.025007089599967, 0.050151690840721, 0.048003882169724
0.068816944956779, -0.043302167207003, -0.017503242939711, 0.078484855592251, 0.084866486489773, -0.030873253941536, -0.064252659678459, -0.020206680521369, -0.029989572241902, -0.020650340244174, -0.017412338405848, 0.060757748782635, -0.003880752017722, 0.026509594172239, 0.040875777602196, -0.040405873209238
0.072798326611519, -0.158958569169044, 0.003325097262859, 0.052768550813198, -0.006200438365340, -0.063651897013187, 0.003387078875676, -0.034935411065817, -0.034144114702940, -0.002808859571815, -0.069504924118519, 0.034398507326841, -0.006751411594450, 0.014370640739799, 0.065536558628082, -0.035722393542528
0.011950659565628, -0.003864497411996, 0.005977765657008, -0.003057454247028, 0.008216517977417, 0.003456623759121, 0.001950090285391, 0.005499763414264, -0.009190299548209, 0.004438068252057, -0.009004266932607, -0.003048720071092, -0.005844203755260, -0.005911865737289, 0.003591887652874, 0.008920520544052
-0.020385619252920, 0.005502150394022, -0.002675501862541, 0.002117911586538, -0.000094525181339, 0.006697855889797, -0.002278493717313, -0.001543474732898, 0.003793452866375, 0.000004412686394, -0.000922574836295, 0.006226444151253, 0.003667228622362, 0.001261421595700, 0.004631843883544, -0.004022604320198
-0.034005220979452, -0.013805771246552, 0.036357253789902, -0.024857617914677, 0.045625437051058, 0.043429300189018, 0.029041187837720, 0.086942709982395, 0.105228528380394, 0.008847509510815, -0.065558470785618, -0.055627323687077, -0.042420208454132, -0.037486344575882, 0.008418524637818, -0.008495938032866
-0.019930914044380, 0.033177241683006, 0.044385813176632, -0.016454134136438, -0.005895980633795, -0.021434314548969, 0.024436328560114, 0.075532741844654, 0.054615855216980, -0.023393584415317, -0.033783458173275, -0.016713285818696, -0.040431905537844, 0.032227780669928, -0.007724913302809, -0.032824669033289
0.027469962835312, -0.012109525501728, 0.059498008340597, -0.005913673434407, 0.120747797191143, 0.113083697855473, 0.092900529503822, 0.171893119812012, 0.091715306043625, 0.153949871659279, -0.035098817199469, -0.079671293497086, -0.052680939435959, -0.066250368952751, 0.079671464860439, 0.156162530183792
0.000244256982114, 0.017938137054443, 0.027521805837750, 0.001736806007102, -0.003379049478099, -0.001117320964113, 0.006789900362492, 0.016041295602918, 0.036275047808886, -0.003827294101939, -0.017846964299679, -0.028089143335819, -0.002009505638853, 0.021447753533721, 0.001020177151076, 0.000079862082202
0.018018282949924, -0.087656751275063, -0.021169008687139, 0.113284856081009, -0.068461932241917, -0.051871404051781, -0.030207008123398, -0.021286576986313, 0.023363059386611, 0.025931335985661, -0.043467570096254, 0.043868921697140, 0.013324475847185, -0.028357410803437, 0.021051710471511, -0.091541603207588
-0.027870027348399, 0.004678419325501, -0.012384305708110, -0.005191836040467, -0.000936319585890, 0.019559897482395, -0.000706875522155, -0.003096923930570, -0.015359124168754, 0.003670183243230, 0.006111178081483, 0.002437833463773, -0.014700950123370, 0.008127112872899, 0.013268196024001, 0.014974934048951
-0.000002385526386, 0.000005550553396, 0.000001305669230, 0.000004098309091, 0.000000732408694, 0.000001352279810, -0.000000078559907, 0.000000372533236, -0.000000989711680, -0.000001862302497, 0.000000450576749, -0.000004793697826, -0.000000051310280, -0.000002238163461, -0.000001014075679, -0.000000846343596
0.020497292280197, -0.004946917295456, -0.016540803015232, 0.047016460448503, 0.030481372028589, -0.032899159938097, -0.007335972506553, -0.035072267055511, -0.035531751811504, -0.023069197311997, -0.017352793365717, 0.033257924020290, -0.007479874417186, 0.046374253928661, 0.024873288348317, -0.034389398992062
0.021877165883780, 0.016328305006027, 0.061344079673290, -0.005702447611839, -0.000666653562803, -0.079562857747078, 0.017601933330297, 0.103211589157581, 0.063687846064568, -0.003177766688168, -0.074976421892643, -0.076592199504375, -0.037797488272190, 0.031831864267588, -0.049067735671997, -0.072252623736858
-0.093931026756763, 0.094726853072643, -0.037858992815018, -0.038925442844629, 0.050140704959631, 0.157253220677376, 0.029512327164412, -0.080181404948235, -0.235665038228035, -0.042471434921026, 0.080746583640575, 0.080753698945045, -0.052276089787483, 0.107011243700981, 0.176391780376434, 0.140216872096062
0.004656660836190, -0.001719126710668, 0.003514162264764, 0.007909867912531, -0.024925116449594, -0.006019000895321, 0.002492695581168, -0.016806734725833, -0.001938923262060, -0.004348669666797, 0.036370359361172, -0.011750631965697, 0.048975903540850, -0.024028096348047, -0.015693362802267, 0.017823133617640
0.021888757124543, -0.024340128526092, 0.022595625370741, -0.030322387814522, 0.029098268598318, 0.023703848943114, 0.015062676742673, 0.027655625715852, -0.001199822640046, 0.014725572429597, -0.026492390781641, -0.022332007065415, -0.018222903832793, -0.009550719521940, 0.038446601480246, 0.018400261178613
-0.014323002658784, 0.022768618538976, -0.068175189197063, 0.046789523214102, -0.034336116164923, -0.009643143042922, -0.063596792519093, -0.062384922057390, 0.021072024479508, 0.018143869936466, 0.023213686421514, 0.099174544215202, 0.062664888799191, -0.000035695200495, -0.099182672798634, -0.064005523920059
0.002723797690123, 0.000018098382498, 0.005508955102414, -0.007824516855180, 0.041315093636513, 0.011219308711588, 0.005769032053649, 0.025600599125028, 0.006358880549669, 0.009492375887930, -0.017877072095871, -0.000294439727440, -0.041239056736231, 0.000002667379249, 0.032815247774124, 0.001624060678296
-0.031361185014248, 0.177517354488373, -0.039363346993923, 0.055387377738953, 0.015405613929033, 0.107562206685543, -0.070353262126446, -0.022954925894737, 0.087618581950665, -0.015757385641336, 0.056894972920418, 0.101590096950531, -0.022922225296497, 0.091175258159637, 0.030080523341894, 0.007291283458471
0.007283065002412, -0.033167950809002, 0.045881804078817, -0.000004124763109, -0.020293986424804, -0.032968837767839, 0.026828128844500, -0.030067497864366, -0.039336927235126, -0.027681903913617, 0.021648732945323, -0.002361845225096, 0.029271040111780, -0.032733835279942, -0.044790640473366, 0.012189886532724
-0.075842171907425, 0.029219966381788, -0.073187515139580, 0.072020135819912, -0.008900155313313, 0.058382470160723, -0.048702158033848, -0.023520542308688, 0.035261731594801, 0.039244763553143, 0.045610561966896, 0.046157572418451, 0.019667580723763, -0.021283028647304, -0.014268914237618, -0.061158727854490
0.027617525309324, -0.005900466348976, 0.033286027610302, -0.036725968122482, -0.002709720516577, -0.002445339458063, 0.031124329194427, 0.000000776368552, -0.010635025799274, -0.004097900819033, 0.016103351488709, -0.008027680218220, 0.022176371887326, -0.000337605830282, -0.004188896156847, 0.019989458844066
-0.095916748046875, 0.054172314703465, -0.101769283413887, 0.101255089044571, -0.024661915376782, 0.070971533656120, -0.080460391938686, -0.051723688840866, 0.060444496572018, 0.076085999608040, 0.066946789622307, 0.081375710666180, 0.039647918194532, -0.020181039348245, -0.023262131959200, -0.079009331762791
-0.047707572579384, 0.058308821171522, -0.068902850151062, -0.057000707834959, 0.006823153700680, 0.110282562673092, 0.021676288917661, -0.079805962741375, -0.100649327039719, -0.002482302021235, 0.057647075504065, 0.089637853205204, -0.031358622014523, 0.012073873542249, 0.007449250202626, 0.127427428960800
-0.004105981905013, 0.008881579153240, 0.008800168521702, 0.002784499200061, -0.001776268822141, -0.006014716811478, 0.000768786529079, 0.007517540827394, 0.005352203734219, -0.000362978782505, -0.007827610708773, -0.008863073773682, -0.002166861435398, 0.003396318294108, -0.010692511685193, -0.004612471908331
0.035760764032602, -0.034171178936958, -0.018450193107128, 0.027108719572425, 0.064654871821404, 0.029735330492258, -0.017063878476620, 0.001168201677501, 0.011917073279619, -0.008838691748679, -0.060473974794149, 0.036958582699299, -0.058347817510366, 0.013451284728944, 0.050411537289619, -0.004030856303871
-0.015250445343554, 0.051060158759356, 0.084577284753323, -0.002731058048084, -0.017906840890646, -0.057666044682264, -0.000385980471037, 0.083221584558487, 0.077965714037418, -0.023525282740593, -0.069120891392231, -0.031384840607643, -0.041057385504246, 0.067554958164692, -0.021469730883837, -0.045068826526403
0.082885958254337, 0.006924030371010, 0.055742625147104, -0.056995701044798, -0.039617955684662, -0.019036164507270, 0.066180147230625, 0.003498996375129, -0.034831255674362, -0.047078046947718, 0.057247895747423, -0.045030966401100, 0.014381334185600, 0.031617879867554, -0.044107504189014, 0.092529453337193
-0.028853943571448, 0.005075898952782, -0.069879651069641, -0.020118555054069, -0.007759411353618, 0.010228341445327, 0.010328494943678, 0.003557229880244, -0.005933652631938, -0.019618587568402, 0.035924158990383, 0.010689821094275, -0.027386980131269, 0.011558801867068, 0.007757782004774, 0.028958357870579
0.000191043945961, 0.004099084995687, 0.000581019907258, 0.004734605550766, -0.000566450413316, -0.000053612719057, -0.007855332456529, -0.001522192149423, 0.000532937934622, -0.000306392728817, -0.000353756360710, 0.002417156938463, 0.000838543404825, 0.000003523793339, -0.007922856137156, -0.004631026647985
0.017746573314071, -0.009535411372781, -0.001718067214824, 0.004974570125341, 0.010769054293633, -0.000541834917385, 0.007265790831298, -0.005155032034963, -0.017109196633101, -0.012125046923757, -0.005454750265926, 0.001536249066703, 0.000096449090051, 0.012302468530834, 0.001297415117733, -0.005939005408436
0.000005616508133, 0.000000166983739, 0.000006136373486, -0.000000320297175, 0.000000123066656, -0.000003669271337, -0.000000444914576, -0.000001285175813, 0.000000719997900, 0.000003306924327, 0.000000185739253, 0.000002239539072, -0.000004115569482, 0.000004749379514, -0.000005350712854, 0.000001341775942
-0.057958763092756, 0.001599741750397, -0.017441814765334, 0.033862713724375, -0.006806870922446, 0.009730258025229, -0.029238292947412, -0.004540055524558, 0.004383253864944, 0.084934428334236, 0.002449562773108, 0.022886756807566, 0.022550947964191, -0.024602709338069, 0.007093515247107, -0.033144112676382
-0.168882042169571, 0.306807726621628, 0.050264358520508, -0.014673780649900, -0.160202741622925, 0.103649929165840, 0.107132524251938, 0.117890089750290, 0.168189197778702, 0.093679495155811, 0.026201564818621, 0.052499536424875, -0.046580046415329, 0.131836906075478, -0.005814241245389, 0.012969208881259
-0.000690234825015, -0.000312724529067, 0.000647193752229, -0.001294797519222, 0.000650060479529, 0.001232906593941, -0.000098019532743, 0.000321180239553, -0.000215243082494, -0.000664567342028, -0.000682496000081, 0.000514417595696, -0.003030305029824, 0.004092407878488, 0.002261729678139, 0.002305973088369
0.012551473453641, -0.013919565826654, -0.001961576286703, -0.000018997910956, 0.000014049105630, 0.001669031451456, 0.003164445515722, -0.000008294937288, -0.000026530393370, 0.001236326294020, -0.000213135819649, -0.002987052779645, -0.001080072601326, -0.000622061721515, -0.000025961175197, 0.001001219963655
-0.053915400058031, 0.064148671925068, 0.056877866387367, -0.013926111161709, -0.062295537441969, -0.015084837563336, 0.026012178510427, 0.057165462523699, 0.054556664079428, -0.015413067303598, -0.079983331263065, -0.040066938847303, -0.021764909848571, 0.082093074917793, -0.022872434929013, -0.034277629107237
-0.021712377667427, 0.047344136983156, -0.052981343120337, -0.108020871877670, -0.036261834204197, 0.105687484145164, 0.069268092513084, -0.164167746901512, -0.204691499471664, -0.043949041515589, 0.203877568244934, -0.080742873251438, 0.081840641796589, -0.028616651892662, 0.041946344077587, 0.263666123151779
-0.002160857664421, 0.053313031792641, -0.009802953340113, -0.009963372722268, -0.030176067724824, 0.006565199699253, 0.009509201161563, -0.013199315406382, -0.003916763700545, -0.014481713995337, 0.027484223246574, 0.019082518294454, 0.012002146802843, 0.014903918839991, 0.004674804396927, 0.025510415434837
-0.041520975530148, 0.017198963090777, 0.000000370273852, -0.024333599954844, -0.011877516284585, 0.026369493454695, 0.001830622320995, -0.002720549236983, -0.000001419332420, -0.014030670747161, 0.018962332978845, -0.000713838788215, 0.004901219625026, 0.013143176212907, 0.006356094498187, 0.003043034579605
0.009209029376507, -0.011806876398623, 0.010294446721673, -0.011901539750397, 0.004066265188158, 0.015874281525612, 0.006259514950216, 0.014212928712368, 0.002415314083919, 0.023719929158688, -0.011022907681763, 0.000966861261986, 0.000102152247564, -0.025290593504906, -0.001687090029009, 0.008894645608962
-0.173679888248444, 0.102216355502605, -0.044198311865330, 0.055354543030262, -0.140169277787209, 0.097665600478649, 0.034683328121901, 0.182108134031296, 0.195238217711449, 0.097633242607117, 0.143955200910568, -0.027870250865817, -0.010532690212131, -0.051712263375521, 0.059686686843634, 0.040992300957441
0.001242490019649, -0.003930078819394, -0.000123133926536, 0.006284369621426, 0.002215300686657, 0.001127256779000, -0.001046600402333, -0.002170194871724, -0.005056360736489, 0.000008447277651, -0.004639922641218, 0.002311422256753, 0.000994059257209, 0.004646584857255, 0.002784245414659, 0.000939629622735
0.049234833568335, -0.017170641571283, -0.009141600690782, 0.043164707720280, 0.032507758587599, 0.000198950816412, 0.001797050936148, 0.007460867054760, -0.004209981765598, -0.000003850479516, -0.014194594696164, 0.040409613400698, 0.000612837437075, 0.034395273774862, 0.018892200663686, -0.006248543504626
0.000004487657861, -0.000002220125225, 0.000000235723306, -0.000003475162430, -0.000003005119879, -0.000003790876235, -0.000000088858272, -0.000004417777745, 0.000000273427702, 0.000002965783096, -0.000003972133072, -0.000004841150258, -0.000004449151675, -0.000003280254532, 0.000000657882651, 0.000000042283432
0.173955261707306, -0.081898234784603, 0.096449017524719, -0.037848748266697, 0.034423399716616, -0.088744774460793, 0.106374703347683, -0.034405771642923, -0.069210976362228, -0.085134714841843, 0.053162820637226, -0.145342662930489, 0.046865269541740, -0.013333285227418, -0.054450407624245, 0.058752171695232
-0.001128704054281, -0.002649713773280, -0.002216721652076, 0.001346229808405, 0.001864502672106, -0.004648872185498, 0.000851176446304, -0.005915881134570, -0.005892884451896, -0.001443928340450, 0.000111774686957, 0.000358940567821, -0.005196728277951, 0.002336971228942, 0.003326334059238, -0.000005886953204
0.008699128404260, -0.017653573304415, 0.028221035376191, -0.013214580714703, 0.029863907024264, 0.001437465776689, 0.007027515675873, 0.027743427082896, 0.003139878157526, 0.028038788586855, -0.000220575660933, -0.014745379798114, 0.001324184937403, 0.001904410775751, 0.018571197986603, 0.032717164605856
-0.117735370993614, 0.132414326071739, -0.073373652994633, -0.010237388312817, -0.064087480306625, 0.066570982336998, -0.101679682731628, 0.001418776344508, 0.031808774918318, 0.024164091795683, 0.075152814388275, -0.000273750512861, 0.019180826842785, 0.023560831323266, -0.010715452022851, -0.028929777443409
-0.001012324122712, 0.001461291103624, 0.007231221068650, -0.003056420944631, -0.004785225726664, 0.000196879642317, -0.001826042542234, -0.000001802966040, -0.000033127547795, -0.002520887879655, -0.000403921323596, -0.004007454495877, 0.006094540469348, -0.000155392655870, -0.001853156136349, 0.006633719429374
0.033040381968021, 0.001867254148237, 0.037374522536993, -0.005349825602025, -0.014662009663880, -0.054604347795248, 0.029946789145470, -0.003353445790708, -0.005204967688769, -0.046268805861473, 0.014767494052649, -0.020628806203604, 0.009760019369423, 0.013116973452270, -0.028718706220388, 0.002311143558472
0.021521544083953, -0.005184680689126, -0.000010815300811, 0.010636368766427, 0.011220957152545, -0.030338926240802, 0.002293033059686, -0.008892635814846, -0.010059513151646, -0.008404056541622, -0.021870227530599, 0.008815932087600, -0.004178762901574, 0.021528055891395, 0.005615834146738, -0.013373813591897
-0.011258704587817, -0.008833223953843, -0.006996446754783, -0.001770375762135, 0.004637225065380, -0.006706565618515, 0.006271326448768, 0.025970714166760, 0.007295995019376, -0.005911298561841, -0.008148929104209, 0.000916729797609, -0.028474261984229, 0.001554029877298, 0.003988650161773, -0.005639983341098
-0.008212614804506, 0.061417341232300, 0.035756781697273, 0.008851765654981, -0.022060021758080, -0.065389558672905, 0.004315342288464, 0.027939695864916, 0.033345509320498, -0.030512807890773, -0.024585489183664, -0.016920644789934, -0.009729460813105, 0.050081074237823, -0.021006250753999, -0.038722943514585
-0.017042752355337, 0.019313976168633, -0.020138431340456, 0.042462777346373, -0.040643047541380, 0.010089432820678, -0.026821898296475, -0.034295249730349, 0.020951228216290, 0.040504515171051, 0.005463247187436, 0.028081495314837, 0.073681101202965, -0.046743154525757, -0.032252628356218, -0.054037496447563
0.037724051624537, -0.007042740471661, -0.009447505697608, 0.052895784378052, 0.007885822094977, 0.024761490523815, -0.023714076727629, -0.022909028455615, 0.019758796319366, 0.034483037889004, -0.024728877469897, 0.067120619118214, 0.020351154729724, -0.017193313688040, -0.005845801904798, -0.044436659663916
-0.018435135483742, 0.046550069004297, 0.035070974379778, 0.057132177054882, 0.043878749012947, 0.014419104903936, 0.026470111683011, 0.065030448138714, 0.032115615904331, 0.001412451732904, -0.026531459763646, 0.030386511236429, 0.009296901524067, 0.083515994250774, -0.033437199890614, -0.024643726646900
0.000003221767656, -0.000002996767080, 0.000002318873840, 0.000000545098203, 0.000001497156063, -0.000000202269007, -0.000004790819730, -0.000002679888439, -0.000000229573004, -0.000000232322975, -0.000004954137694, -0.000001963625209, 0.000001491951934, -0.000000062140032, -0.000001572603878, -0.000003704769370
-0.015641862526536, 0.051745884120464, -0.089809961616993, -0.017061799764633, 0.002584810368717, 0.039562925696373, 0.028591981157660, -0.153846919536591, -0.146824195981026, -0.082586437463760, 0.078906655311584, 0.090369328856468, 0.005868711508811, 0.079491421580315, -0.008718305267394, 0.094135969877243
-0.004831861704588, 0.003990869503468, -0.000935178599320, -0.002725222613662, 0.000983100035228, 0.003084721276537, -0.000109105487354, -0.008581951260567, -0.004179918672889, 0.000482616305817, 0.003388106822968, 0.001819050870836, -0.000833034981042, 0.000672434689477, 0.004276865161955, 0.003732275217772
-0.016283730044961, 0.005832722876221, 0.032506614923477, -0.024715831503272, 0.021576156839728, -0.002004698151723, 0.005217920988798, 0.040990352630615, 0.029453830793500, 0.008690270595253, -0.064647182822227, -0.011283475905657, -0.031715456396341, 0.033748306334019, -0.003783206688240, -0.001593843568116
0.058150194585323, -0.001472169882618, -0.094527922570705, 0.050648380070925, 0.018606916069984, 0.007007355801761, -0.062451608479023, -0.036009177565575, 0.007443400565535, -0.007281234487891, 0.016058428213000, 0.080905079841614, 0.025221189484000, 0.008935244753957, -0.007755602244288, -0.028577538207173
0.009516973979771, 0.206805750727654, 0.201559096574783, -0.073132544755936, -0.112435989081860, -0.045735105872154, 0.134704872965813, 0.123970359563828, 0.133192002773285, -0.141816481947899, 0.044631090015173, -0.138315632939339, -0.078705698251724, 0.195703282952309, -0.038885571062565, 0.078889667987823
0.002643653657287, 0.003378925379366, 0.000002264474460, 0.002098544267938, 0.002582253422588, -0.006776112131774, 0.002056521596387, 0.010456608608365, -0.001022301614285, 0.000873271026649, -0.001097893225960, 0.002694873604923, -0.001786268432625, -0.002626533387229, -0.001393617829308, -0.003141784109175
-0.048537649214268, 0.069978937506676, 0.083838872611523, -0.031338397413492, -0.006321790628135, 0.058323789387941, 0.023387800902128, 0.122879378497601, 0.081858061254025, 0.007511734962463, -0.025416210293770, -0.050803404301405, -0.010892255231738, -0.004001283552498, -0.010370170697570, 0.031520556658506
-0.008031633682549, -0.023768950253725, 0.011875051073730, 0.000784957548603, 0.013020576909184, 0.019250700250268, 0.016783198341727, 0.015390927903354, 0.010233493521810, 0.017459081485868, -0.008227399550378, -0.009887051768601, -0.007360448595136, -0.018037347123027, 0.014315670356154, 0.003527709515765
-0.000001434210162, 0.000000239627184, 0.000005238940957, -0.000002107191449, 0.000005628219242, -0.000000221276139, 0.000005385713848, 0.000000925684731, -0.000004367356723, 0.000004038588486, 0.000001930740609, 0.000000319867638, 0.000006797084552, 0.000003473357992, -0.000003006685802, 0.000000696029758
0.001648084027693, -0.002617569407448, -0.000460272567580, 0.003600283758715, 0.000358301243978, -0.021307393908501, 0.000574442557991, -0.001056715729646, -0.014613093808293, -0.005278656724840, -0.000106301631604, 0.002713169669732, -0.000111488436232, 0.002549310680479, 0.004198281094432, -0.008145904168487
0.007137673906982, -0.048625145107508, 0.015066772699356, -0.014328702352941, 0.019002884626389, 0.034020528197289, -0.008651882410049, 0.034458126872778, 0.005717352963984, 0.036982022225857, -0.037302818149328, -0.012549180537462, -0.011116849258542, -0.017897058278322, 0.028046308085322, -0.002177466638386
0.038872171193361, 0.015533458441496, -0.080382272601128, 0.160489261150360, -0.012512595392764, -0.154077038168907, -0.064933821558952, -0.076081454753876, -0.047039348632097, -0.050367627292871, 0.010614516213536, 0.070727474987507, 0.028185470029712, 0.123705655336380, -0.041214764118195, -0.156687229871750
-0.032396167516708, 0.009823056869209, -0.001940475893207, -0.004111465066671, 0.000706741469912, 0.003199796192348, -0.005859449971467, 0.003929668571800, 0.009174438193440, 0.000000094711140, 0.016339136287570, -0.008338741958141, -0.000599359336775, 0.019985165446997, 0.014471398666501, 0.013362940400839
-0.045346856117249, 0.075277321040630, 0.022951841354370, -0.024844944477081, -0.010363833047450, 0.035969875752926, 0.033260356634855, 0.002109647262841, 0.029298661276698, -0.009215398691595, 0.091732650995255, -0.028901234269142, 0.105890333652496, 0.019714856520295, -0.019593434408307, 0.097883008420467
0.002401273231953, -0.004239692352712, 0.002207139506936, -0.004473912529647, 0.002090611262247, 0.000267497671302, 0.002351911971346, 0.008554886095226, 0.003662608563900, 0.001541203004308, -0.003968435805291, -0.002694504568353, -0.002913549775258, -0.002756387228146, 0.010622005909681, 0.006617055274546
0.081456743180752, -0.071696370840073, 0.077872477471828, -0.043409701436758, 0.076298236846924, 0.015733655542135, 0.025514012202621, 0.029597539454699, -0.003970322199166, 0.008154707960784, -0.092546977102757, -0.012305914424360, -0.024398582056165, -0.030724177137017, 0.046947401016951, 0.012006890960038
-0.024915512651205, 0.052387051284313, -0.020210459828377, 0.022348379716277, -0.065505839884281, 0.056390509009361, -0.009147108532488, -0.089152932167053, -0.008763508871198, 0.026342589408159, 0.034746322780848, 0.053211119025946, 0.013497132807970, 0.011839716695249, 0.005448461510241, 0.057916454970837
-0.032018046826124, 0.043928958475590, -0.054618615657091, -0.019369171932340, -0.006424708757550, 0.060275726020336, 0.003037292510271, -0.029089365154505, -0.030565232038498, 0.005890191998333, 0.024027356877923, 0.020565902814269, -0.006340761203319, 0.034748103469610, 0.060979556292295, 0.074429035186768
0.007789801806211, -0.014186069369316, 0.030206048861146, -0.017007574439049, 0.022610273212194, -0.001088498858735, 0.006800173781812, 0.017976511269808, 0.004914266522974, 0.023901408538222, -0.000457139627542, -0.015391245484352, -0.001156070968136, 0.000201918854145, 0.013762578368187, 0.017872055992484
0.137520715594292, -0.060769066214561, 0.042335048317909, 0.067900404334068, 0.084492795169353, -0.087370194494724, 0.016551913693547, 0.035404227674007, -0.004835782572627, -0.017551787197590, -0.074994869530201, 0.017380433157086, -0.020455714315176, 0.097354270517826, 0.003207238856703, -0.036674462258816
0.047384142875671, -0.036853235214949, 0.022829245775938, -0.006110162939876, -0.024627994745970, -0.050201486796141, 0.052876234054565, -0.018630111590028, -0.030745597556233, -0.041346512734890, 0.084713526070118, -0.038241423666477, 0.061754737049341, -0.025622555986047, -0.044840894639492, 0.094950310885906
-0.019814228639007, 0.021294081583619, -0.024495370686054, 0.046241447329521, 0.005920089781284, 0.001894197193906, -0.024302046746016, -0.018539145588875, 0.016361152753234, 0.033699609339237, 0.020720819011331, 0.019332801923156, 0.016062682494521, -0.013788012787700, -0.009752529673278, -0.003412159159780
0.075713410973549, -0.012922408059239, 0.007851988077164, 0.149193838238716, 0.126730799674988, -0.041940521448851, -0.007365906145424, 0.018619669601321, 0.004018261097372, -0.016948906704783, -0.045105412602425, 0.085367374122143, -0.013105095364153, 0.151238441467285, 0.024497104808688, -0.032491721212864
-0.000004474804882, -0.000003509007229, 0.000001988554914, 0.000004076118785, -0.000000449180902, -0.000002150903583, -0.000004821620678, -0.000003170622222, -0.000004856027772, 0.000001199910685, 0.000002246782742, -0.000001638214599, 0.000000767319762, -0.000003099429932, 0.000004645213266, 0.000002352213869
0.059608869254589, -0.009720971807837, 0.059300955384970, -0.066516585648060, -0.027694476768374, 0.000005981915365, 0.049062699079514, -0.006076362449676, -0.046878166496754, -0.001478469115682, 0.070547223091125, -0.044588286429644, 0.056944087147713, -0.055597990751266, -0.031624142080545, 0.098826162517071
-0.049301914870739, 0.019131362438202, -0.014918712899089, 0.056504245847464, -0.006508447695524, 0.040570940822363, -0.031132586300373, -0.028658021241426, 0.054107993841171, 0.041215494275093, 0.056404069066048, 0.042951792478561, 0.046474162489176, -0.051741890609264, 0.005357331596315, -0.020618662238121
0.010173506103456, -0.006141389720142, 0.000185214652447, 0.041976552456617, 0.007993126288056, -0.032169122248888, -0.004716218914837, -0.012827644124627, -0.021541556343436, -0.018416438251734, -0.000383438396966, 0.012809989042580, -0.000002634251814, 0.020060690119863, 0.007501322310418, -0.023642946034670
-0.000502504175529, 0.015897894278169, 0.038094278424978, -0.007460064254701, -0.013787929899991, -0.022896248847246, 0.018785454332829, 0.032070264220238, 0.003506826469675, -0.003946050070226, -0.007912681438029, -0.065692923963070, -0.027144655585289, 0.024116685613990, -0.019636733457446, 0.018092771992087
-0.007329241838306, 0.004834701772779, -0.002670490881428, -0.002173185814172, -0.000172775369720, 0.006768335588276, -0.001076971413568, -0.003732820274308, -0.004883160814643, -0.005971397273242, 0.002850882476196, 0.001995483646169, -0.000200739843422, 0.004568397998810, 0.004495144821703, 0.003087913850322
0.000003095831062, 0.000001148464321, -0.000001893288527, 0.000000293349103, 0.000003584453225, 0.000001192770014, -0.000002305506086, -0.000001694643288, 0.000006586598829, 0.000002083223762, 0.000006462308193, -0.000000283058881, 0.000000088915471, -0.000001475377189, 0.000004721022378, -0.000006595981176
0.000001194899824, 0.000003043154265, -0.000004700972568, 0.000002218882628, 0.000000530331818, 0.000001983987659, -0.000003674795607, 0.000000703435887, -0.000001942207746, -0.000005573623184, 0.000001038491746, 0.000004126635304, -0.000000088602945, -0.000001053708161, 0.000000443183382, 0.000002346867632
0.048114076256752, -0.011172075755894, -0.024178789928555, 0.043587189167738, 0.041057728230953, -0.007083641830832, -0.055845800787210, -0.043303694576025, -0.005198429338634, -0.047696370631456, -0.054295923560858, 0.022603204473853, -0.044701270759106, 0.080012597143650, 0.032825071364641, -0.035961709916592
-0.000001685240932, 0.000001116176691, 0.000003197142405, 0.000000594570395, 0.000002157239123, 0.000000835662149, -0.000001995553703, 0.000001275370323, -0.000006958033737, -0.000001825583013, -0.000000954892016, 0.000004682863164, -0.000000219548454, -0.000000852827327, -0.000002331193855, 0.000000227399369
0.020096004009247, -0.036784298717976, 0.016100060194731, -0.013354265131056, 0.016572354361415, 0.009454600512981, 0.004865134600550, 0.028816489502788, -0.010171201080084, 0.053692005574703, -0.018979994580150, -0.018525633960962, -0.005959417670965, -0.005488607101142, 0.039941627532244, 0.003832409158349
0.004696844145656, 0.014128857292235, 0.019459536299109, -0.009213812649250, -0.017713161185384, -0.021474255248904, 0.008863568305969, 0.016632672399282, 0.014349393546581, -0.037248309701681, -0.006432072725147, -0.030776094645262, -0.008230314590037, 0.012170683592558, -0.045149613171816, -0.003621387993917
-0.007706699892879, -0.012186932377517, -0.000828060205095, -0.004662203136832, -0.003913128282875, 0.003427356481552, -0.001124334987253, -0.000787279102951, 0.000786905584391, -0.004049730487168, 0.006330336444080, 0.006437390111387, 0.014895637519658, -0.011991610750556, 0.002624886343256, 0.006879602558911
-0.003862104844302, -0.061838719993830, 0.105956174433231, -0.108272999525070, 0.076224811375141, -0.008325089700520, 0.022019237279892, 0.087196916341782, 0.018595745787024, 0.084700740873814, -0.050542682409286, -0.047570738941431, -0.008913196623325, -0.076305545866489, 0.011312080547214, 0.068531215190887
0.008633144199848, 0.000576091872063, -0.009504415094852, 0.019327566027641, 0.008353839628398, -0.003224248066545, -0.000408870168030, 0.000384715734981, 0.002453635912389, -0.005158760584891, -0.000735514506232, 0.018984865397215, 0.003555580507964, -0.018498824909329, -0.009446153417230, -0.011069728061557
-0.018533963710070, 0.101723685860634, 0.082257732748985, 0.201337248086929, 0.072942622005939, 0.147581815719604, -0.060110520571470, 0.146129161119461, 0.280621051788330, 0.166423335671425, -0.146306991577148, 0.229332596063614, -0.101492226123810, 0.233209788799286, 0.159489095211029, -0.137259289622307
-0.161742970347404, 0.149094298481941, -0.090654529631138, 0.088641062378883, -0.057329446077347, 0.121887043118477, -0.119947500526905, 0.024073868989944, 0.177937120199203, 0.138834208250046, -0.005897418595850, 0.108826912939548, 0.003227749373764, -0.024756593629718, -0.016199145466089, -0.054388780146837
-0.000002661499593, 0.000003522917268, 0.000002154308731, -0.000000442747762, -0.000000098088435, -0.000005294429684, -0.000004771057775, -0.000004339279712, -0.000006787502571, 0.000004821220045, -0.000000790557181, 0.000000800839359, 0.000000315140142, -0.000006976871191, 0.000004825183623, 0.000000348948390
0.155348673462868, -0.147431626915932, 0.269774585962296, 0.077910192310810, 0.207459792494774, -0.114371255040169, 0.347295463085175, 0.063225135207176, -0.111776120960712, -0.250789552927017, -0.172199517488480, -0.096345812082291, -0.016189467161894, 0.239846736192703, 0.054841186851263, 0.091828636825085
0.180144429206848, 0.159513175487518, 0.342237681150436, -0.190342724323273, -0.107746876776218, -0.174085646867752, 0.239032030105591, 0.089382998645306, 0.153223037719727, -0.072759605944157, 0.142376452684402, -0.131294310092926, 0.029067628085613, 0.305933386087418, -0.035492129623890, 0.125873938202858
0.041994251310825, 0.134991139173508, 0.066474966704845, 0.172613993287086, -0.061675850301981, -0.126237958669662, 0.014691076241434, 0.011523852124810, 0.177076011896133, 0.031868111342192, -0.036269683390856, 0.022341253235936, 0.054282389581203, 0.031062569469213, -0.154039442539215, -0.138652682304382
-0.048421770334244, 0.095398694276810, 0.004198529757559, 0.026811851188540, -0.035655800253153, -0.000069986563176, -0.014027250930667, 0.024338517338037, 0.065924063324928, 0.009987563826144, 0.024150403216481, -0.011638673022389, 0.046382203698158, -0.029944503679872, -0.059453692287207, -0.020313715562224
0.035144969820976, -0.021321158856153, 0.085167810320854, -0.075975745916367, -0.014107054099441, -0.073023080825806, 0.068169839680195, 0.000008608544704, -0.028754413127899, 0.012464575469494, 0.046271953731775, -0.032425552606583, 0.035134285688400, -0.057951100170612, -0.061811041086912, 0.075230725109577
0.044251564890146, -0.102141998708248, 0.060716390609741, -0.070238329470158, 0.056693114340305, 0.095014214515686, 0.072187796235085, 0.130426675081253, -0.001984207658097, 0.124395631253719, -0.036293447017670, -0.042528022080660, -0.043129533529282, -0.041019469499588, 0.112973302602768, 0.092513822019100
0.047284286469221, -0.001733783865348, 0.017333688214421, 0.000010197580195, -0.002002893015742, -0.002241544891149, 0.065130248665810, 0.000208282843232, -0.000845776987262, -0.001079255598597, 0.033148333430290, -0.074476875364780, 0.010528534650803, -0.000004229206752, -0.000002703014616, 0.028563905507326
-0.016022045165300, 0.026214102283120, 0.038196079432964, -0.002644669963047, -0.012290908023715, -0.053147945553064, -0.014531893655658, 0.064757145941257, 0.046129856258631, -0.038597647100687, -0.069005779922009, -0.032029628753662, -0.017028072848916, 0.044072728604078, -0.010757937096059, -0.023848755285144
0.009034177288413, 0.011092046275735, -0.060570470988750, 0.049848899245262, -0.045156553387642, -0.020721072331071, -0.041446961462498, -0.057932380586863, 0.005644594319165, 0.003923705313355, 0.035662252455950, 0.095178358256817, 0.082546420395374, -0.012633946724236, -0.108973249793053, -0.058644190430641
-0.136527344584465, 0.018358426168561, -0.011187930591404, -0.046315398067236, -0.002377148950472, 0.178586989641190, -0.019608715549111, 0.001394486287609, 0.027562174946070, 0.069566302001476, 0.219531849026680, 0.115195944905281, 0.205735817551613, -0.170445278286934, 0.052584093064070, 0.267390012741089
-0.052731771022081, -0.002235722960904, -0.042665906250477, 0.015501340851188, -0.063718438148499, 0.036439362913370, -0.011136868968606, -0.060125466436148, -0.007231345865875, 0.020503908395767, 0.094279423356056, 0.057716511189938, 0.016263211145997, -0.057356685400009, -0.052851293236017, 0.001254088943824
0.059509500861168, -0.004208153113723, 0.062216944992542, -0.012231131084263, 0.051237925887108, -0.017838751897216, 0.051719266921282, 0.096635237336159, 0.000463670876343, 0.003803625935689, -0.057624828070402, -0.014090896584094, -0.035714820027351, 0.053671788424253, 0.059788841754198, 0.045216601341963
-0.012293607927859, 0.014664169400930, 0.041214775294065, 0.003237028373405, -0.001642846735194, -0.017362372949719, 0.013822825625539, 0.035564791411161, 0.007792955730110, -0.001586028374732, -0.020109562203288, -0.024206487461925, -0.020629635080695, 0.019421845674515, -0.067829318344593, -0.020340885967016
0.003902144497260, -0.005669812206179, 0.000003686189302, 0.012840124778450, 0.004300907719880, 0.002404642291367, 0.000962383986916, -0.000001659602390, -0.007342817261815, -0.005405665840954, -0.007344326935709, 0.015537907369435, -0.001663291361183, 0.002983392216265, 0.005444346461445, -0.008981140330434
-0.067474290728569, -0.006308311596513, -0.002680495614186, -0.008486713282764, 0.044680237770081, 0.069036208093166, -0.009318799711764, 0.065919928252697, 0.128566443920135, 0.067586004734039, -0.037895366549492, -0.009287145920098, -0.025347188115120, -0.038938526064157, 0.000282565393718, -0.034535173326731
0.000884875189513, -0.000004770987744, -0.001688227755949, -0.003725706599653, 0.004553345963359, 0.000084874656750, 0.000304574030451, 0.000882610213012, -0.001889165607281, 0.000507257645950, -0.000352708972059, 0.001011073589325, -0.000328527414240, 0.001946688280441, 0.000320662831655, -0.001773760770448
0.000005668128324, -0.000000366504821, -0.000000251111317, 0.000005191573564, -0.000000927754456, -0.000006132325780, 0.000005339653399, 0.000001981222113, 0.000003556672709, -0.000000587142722, 0.000003760261961, 0.000002850960072, 0.000002809563966, -0.000003888128049, -0.000000104779922, -0.000000006839912
0.000568594841752, 0.001194125507027, 0.000731765525416, 0.000100095981907, -0.000303762004478, -0.001354662701488, 0.000674772367347, 0.000177988869837, 0.001252026529983, -0.000101845638710, -0.000416384689743, 0.000987562234513, -0.001301434705965, 0.000028106893296, 0.000115983006253, -0.002552464604378
0.032172393053770, -0.029297146946192, 0.016496863216162, 0.060177508741617, 0.036672215908766, -0.004896636120975, 0.017841663211584, 0.016273787245154, -0.009925412014127, -0.034604344516993, -0.010839625261724, 0.051149040460587, -0.022876041010022, 0.056395288556814, 0.031818535178900, 0.009141205810010
0.060838274657726, -0.090179912745953, 0.007497068028897, 0.024080483242869, 0.066416412591934, -0.009433988481760, 0.007737771142274, 0.022658072412014, -0.056660626083612, 0.036682613193989, -0.030826443806291, 0.009528679773211, -0.026038212701678, 0.011362830176950, 0.059617992490530, -0.007654010318220
0.012694993987679, -0.025575289502740, 0.013271816074848, -0.021934349089861, 0.056171543896198, 0.029790394008160, 0.015309217385948, 0.039708539843559, -0.004004012793303, 0.027506006881595, -0.036716263741255, -0.006582314148545, -0.058980867266655, 0.000004304257800, 0.062910743057728, 0.022861188277602
-0.045592557638884, -0.032036948949099, -0.002705660415813, -0.002634322736412, 0.040984760969877, 0.070828109979630, 0.002019990934059, 0.019637888297439, 0.098185837268829, 0.026887144893408, -0.024543866515160, -0.006412990391254, -0.011303955689073, -0.074510358273983, -0.004712096415460, -0.016805320978165
0.000000480809035, -0.000000084112926, -0.000000498531335, -0.000002153215746, 0.000003697442025, 0.000003795588327, -0.000006951536307, 0.000000388137323, 0.000001395943286, 0.000006915787708, 0.000003033574103, 0.000004430561603, -0.000000423327265, -0.000000054754253, -0.000001373847226, -0.000004988463843
-0.007310894317925, -0.001171594136395, -0.012019948102534, -0.080131679773331, 0.105827204883099, 0.054440513253212, 0.021783521398902, 0.043450102210045, -0.028952881693840, 0.019768878817558, -0.013324885629117, -0.081773042678833, -0.004302057437599, -0.000566346221603, 0.033854324370623, 0.009189776144922
-0.000001171077429, 0.000000199153220, -0.000000196285782, 0.000002347916279, -0.000000578681181, 0.000002077685167, -0.000000370617300, -0.000001435884769, 0.000000200360802, 0.000001076376179, 0.000001658551810, -0.000005029152817, 0.000003510623856, -0.000000088033659, 0.000000109295229, -0.000005164663889
-0.021716108545661, 0.104421943426132, -0.105752713978291, 0.034595087170601, 0.048964370042086, 0.132062628865242, 0.020348437130451, -0.072547890245914, -0.141938298940659, 0.006444899365306, 0.030712809413671, 0.118364676833153, -0.058945517987013, 0.112484425306320, 0.076427914202213, 0.041348055005074
0.002879071049392, -0.023627828806639, 0.004497105255723, -0.019978903234005, 0.012495845556259, 0.024014638736844, 0.008284722454846, 0.021874973550439, 0.005593662615865, 0.033042758703232, -0.002495408756658, -0.000789531681221, -0.001325179589912, -0.042008042335510, 0.008362331427634, 0.031113771721721
-0.029420139268041, -0.032556820660830, 0.010623169131577, 0.000390068598790, 0.052329573780298, 0.032319385558367, 0.013709634542465, 0.033388786017895, 0.080704748630524, -0.004864975810051, -0.050737340003252, -0.012113779783249, -0.036881934851408, -0.041678577661514, 0.012484533712268, -0.025168810039759
0.022074503824115, -0.000340061029419, 0.005135774146765, 0.048654962331057, -0.008716538548470, -0.043793514370918, -0.000478073721752, -0.004948570858687, 0.019103869795799, -0.007687634322792, 0.010071233846247, 0.028674520552158, 0.026479749009013, -0.013851919211447, -0.032712716609240, -0.017661958932877
-0.165928140282631, 0.286507755517960, 0.106926143169403, -0.009906300343573, 0.008505574427545, 0.203873440623283, 0.118922434747219, 0.110219255089760, 0.171645969152451, 0.155413106083870, -0.093477360904217, -0.029708810150623, -0.057231277227402, 0.137436956167221, -0.017028946429491, 0.029502438381314
-0.051591236144304, -0.015676885843277, 0.008426715619862, 0.003262482583523, -0.025787424296141, -0.051825899630785, 0.025083461776376, -0.037574809044600, -0.030128782615066, -0.006454890593886, 0.045802555978298, -0.014573380351067, 0.087689526379108, -0.041652999818325, -0.037512425333261, 0.006856976076961
0.002862354740500, 0.016493218019605, 0.017800748348236, -0.009350301697850, 0.037720419466496, -0.000390069501009, 0.012975055724382, 0.035072144120932, 0.012168994173408, 0.006616273429245, -0.021124133840203, 0.000192925683223, -0.041874106973410, 0.014993685297668, 0.026642782613635, -0.005127920303494
0.023927811533213, 0.100831367075443, 0.192565917968750, -0.045842662453651, 0.071906432509422, 0.038129840046167, 0.140951320528984, 0.305773973464966, 0.150992244482040, 0.098117351531982, -0.073162607848644, -0.101815551519394, -0.066076450049877, 0.055607270449400, 0.015122669748962, 0.103980369865894
-0.023829311132431, 0.018163941800594, -0.020984733477235, 0.028360437601805, -0.016724573448300, 0.003540426027030, -0.018802441656590, -0.017754910513759, 0.014474450610578, 0.013012387789786, 0.022583167999983, 0.018070662394166, 0.013005941174924, -0.004394843708724, -0.028163310140371, -0.011379939503968
0.000188962614629, 0.003871063003317, 0.000656100164633, 0.005101656075567, -0.002962984377518, 0.000473286258057, -0.007801271043718, -0.001489330665208, 0.000831823563203, -0.000288100942271, -0.000250993762165, 0.001603333279490, 0.000610596965998, 0.000002040915206, -0.004262476228178, -0.004117641597986
-0.005264309234917, 0.005818314384669, -0.004103185143322, 0.001300959265791, 0.006845109630376, 0.003307553939521, 0.000537453277502, 0.004051934927702, -0.007799038663507, -0.003483666107059, -0.002285795053467, 0.003555168164894, -0.004500785842538, -0.000255442428170, 0.001867536804639, 0.010144206695259
-0.042900417000055, 0.040788680315018, -0.047893099486828, -0.019330056384206, 0.013568087480962, 0.033305879682302, 0.002706041559577, -0.010970272123814, 0.018943179398775, 0.024874452501535, -0.003056066576391, 0.037404581904411, -0.007723656948656, 0.003296192735434, 0.035583190619946, -0.005087599623948
-0.025663344189525, 0.024820448830724, -0.027353664860129, 0.044555738568306, -0.016712892800570, -0.011622794903815, -0.044265430420637, -0.031680006533861, 0.040142118930817, 0.060637116432190, -0.001582034281455, 0.056487441062927, 0.050723213702440, -0.015839466825128, -0.031661037355661, -0.032600898295641
-0.178408682346344, 0.201914757490158, -0.219104290008545, 0.062186133116484, -0.020187234506011, 0.296730309724808, -0.101202763617039, -0.062159288674593, 0.096123702824116, 0.224617570638657, 0.016725560650229, 0.227193593978882, 0.061929065734148, -0.081209629774094, 0.090492479503155, -0.013742970302701
-0.010586540214717, 0.034373484551907, -0.017752911895514, 0.069885894656181, -0.066633485257626, 0.024142211303115, -0.040656257420778, -0.005460618063807, 0.048568114638329, 0.080446802079678, 0.034880358725786, 0.075410604476929, 0.025260068476200, -0.020945511758327, -0.023059340193868, -0.037732329219580
-0.031419795006514, 0.037812486290932, -0.013968516141176, -0.071475803852081, -0.040903374552727, 0.083127386868000, 0.029182523488998, -0.072523467242718, -0.068136461079121, -0.018618682399392, 0.090712025761604, 0.004512103274465, 0.046134758740664, 0.022167550399899, 0.024667518213391, 0.070975370705128
-0.002881127642468, 0.023978138342500, 0.014444029890001, -0.036484465003014, -0.016263986006379, 0.006424083840102, 0.028055660426617, -0.018933931365609, -0.037870712578297, -0.026437291875482, 0.045673850923777, -0.007842201739550, 0.012297365814447, 0.033256676048040, 0.020739270374179, 0.070474579930305
-0.026391081511974, -0.019838267937303, -0.034236405044794, 0.064766295254230, 0.015561879612505, 0.084773875772953, 0.003095864551142, -0.028390385210514, 0.088883996009827, 0.142850950360298, -0.034562472254038, 0.067319557070732, 0.035137988626957, -0.078746825456619, 0.054690409451723, 0.044349104166031
-0.020844547078013, 0.128940835595131, -0.029470004141331, 0.092208832502365, -0.057501547038555, -0.059381499886513, -0.049718718975782, -0.047281004488468, -0.041450172662735, -0.021678689867258, 0.083900921046734, 0.105599351227283, 0.090276382863522, -0.096227832138538, -0.065081939101219, -0.012745156884193
-0.014623865485191, -0.000488937599584, -0.043335746973753, 0.039616148918867, -0.006485003512353, -0.004527096170932, -0.038024354726076, -0.024219412356615, 0.014726817607880, 0.034168969839811, 0.014059387147427, 0.026495149359107, 0.015887856483459, -0.017773205414414, -0.033526085317135, -0.022479601204395
-0.034052077680826, 0.055925495922565, 0.092067614197731, -0.020255910232663, -0.047832835465670, -0.046093724668026, 0.044011902064085, 0.102021962404251, 0.096622355282307, -0.034420102834702, -0.104800291359425, -0.065161101520061, -0.035478938370943, 0.115836530923843, -0.035509571433067, -0.040870565921068
0.014837231487036, -0.058882061392069, 0.054524548351765, -0.056200742721558, 0.069389648735523, 0.076921217143536, 0.048611681908369, 0.068370349705219, 0.015549689531326, 0.034924548119307, -0.039861451834440, -0.050833005458117, -0.023919178172946, -0.084631495177746, 0.037213798612356, 0.076922491192818
-0.073238514363766, -0.009706128388643, -0.097181640565395, -0.017879122868180, 0.081890910863876, 0.014206157065928, -0.077183797955513, -0.014675707556307, 0.005790160968900, -0.039830982685089, -0.050168663263321, -0.030155485495925, -0.113489329814911, -0.108016408979893, 0.102450296282768, -0.071509525179863
-0.003575447481126, 0.065931655466557, -0.014049770310521, -0.039161965250969, -0.013780138455331, -0.005657531786710, 0.027393732219934, 0.016632568091154, -0.011117639951408, -0.003774426877499, -0.020274389535189, 0.006156467832625, -0.049775026738644, 0.028023445978761, -0.041268441826105, 0.045337319374084
0.030897831544280, -0.110951490700245, 0.003871356602758, 0.003004014724866, 0.000768233207054, -0.070547096431255, -0.010116051882505, -0.028888532891870, -0.018773628398776, -0.000635194475763, -0.032124474644661, 0.015907041728497, 0.003621371928602, 0.021685393527150, 0.018028892576694, -0.039214082062244
0.027587996795774, -0.030514912679791, 0.081498824059963, -0.011517755687237, 0.043235886842012, 0.007788864895701, 0.039200007915497, 0.024187454953790, -0.002155615016818, 0.040911387652159, -0.010931510478258, -0.018863882869482, 0.018073227256536, -0.019079610705376, 0.012342290021479, 0.046587839722633
0.006946423556656, -0.028702013194561, 0.054478600621223, -0.046061474829912, 0.070364966988564, 0.113883554935455, 0.020603487268090, 0.081825174391270, -0.021659584715962, 0.104584157466888, -0.058921538293362, -0.008200481534004, -0.046659514307976, -0.036412082612514, 0.093195840716362, 0.052738361060619
0.038617938756943, 0.023712376132607, -0.007436029147357, 0.001500201295130, -0.031283631920815, 0.008222128264606, 0.016537627205253, -0.034603241831064, -0.063549369573593, -0.053160022944212, 0.036542639136314, 0.013843580149114, 0.021523687988520, 0.033530987799168, 0.006980206817389, 0.002864006441087
-0.078548781573772, 0.003261883510277, 0.073301911354065, -0.036710325628519, 0.077917836606503, 0.074668750166893, 0.034130323678255, 0.224371284246445, 0.179826393723488, 0.029315581545234, -0.186580494046211, -0.051323570311069, -0.153285354375839, 0.018935114145279, 0.053007125854492, -0.059227876365185
0.106147520244122, -0.088828809559345, -0.030265897512436, 0.042439434677362, 0.038523610681295, 0.027075935155153, 0.046593502163887, -0.159848943352699, -0.162733212113380, 0.032963611185551, 0.165273115038872, 0.015650616958737, 0.079872623085976, -0.090686440467834, -0.052150405943394, 0.116360060870647
0.023866720497608, -0.027599170804024, 0.053031809628010, -0.012070181779563, -0.013481805101037, -0.000758800422773, 0.062229275703430, 0.010168473236263, 0.024957943707705, -0.007796711288393, 0.055688828229904, -0.030590251088142, 0.085145346820354, -0.031772963702679, -0.023443112149835, 0.038735285401344
-0.035682011395693, 0.037749048322439, -0.047448821365833, 0.076069951057434, 0.008327554911375, 0.011096475645900, -0.040746457874775, -0.050383307039738, 0.045941375195980, 0.069697059690952, 0.040536995977163, 0.059951640665531, 0.033190056681633, -0.026525115594268, -0.023338839411736, -0.023805398494005
0.026085011661053, 0.103928856551647, -0.015551132149994, 0.057084206491709, -0.001477259211242, -0.034565880894661, 0.008609786629677, 0.050633341073990, 0.030994359403849, -0.024379873648286, -0.052976522594690, -0.023326013237238, -0.044887654483318, 0.094211712479591, -0.043596252799034, -0.066802293062210
0.161483123898506, 0.015444397926331, 0.102063693106174, -0.020483639091253, 0.044061835855246, -0.123557001352310, 0.092871055006981, 0.130925819277763, 0.068032123148441, -0.113089300692081, -0.052595123648643, -0.151420339941978, -0.023191632702947, 0.133716359734535, -0.028051767498255, -0.037217445671558
-0.002551657613367, 0.031592555344105, -0.007369368802756, -0.005043548531830, 0.004591910168529, 0.020895762369037, -0.002290732227266, 0.000047865061788, 0.004977471195161, -0.008251888677478, -0.026414943858981, 0.062147486954927, -0.032121330499649, 0.047305867075920, 0.033377029001713, 0.010807091370225
-0.007887347601354, 0.090516306459904, -0.001956114312634, 0.004086341708899, 0.034797579050064, 0.081446424126625, 0.040234502404928, 0.051815118640661, -0.010632712393999, -0.004840101115406, 0.000530895544216, 0.044535752385855, -0.067524030804634, 0.101356431841850, 0.055879760533571, 0.004076032899320
-0.069283440709114, 0.146497666835785, 0.122547194361687, 0.004878855776042, -0.095142684876919, -0.093771457672119, 0.071741648018360, 0.034506596624851, 0.146428108215332, -0.126109957695007, -0.035158477723598, -0.070767775177956, -0.073952175676823, 0.077151827514172, -0.060110893100500, -0.040835898369551
0.054267253726721, -0.155006140470505, 0.070393949747086, -0.086299665272236, 0.111669756472111, 0.089431144297123, 0.065659061074257, 0.145809546113014, 0.003038852009922, 0.082605883479118, -0.092507049441338, -0.028191268444061, -0.076156087219715, -0.036049116402864, 0.099104993045330, 0.114971742033958
0.018261073157191, -0.016495412215590, -0.000016622534531, 0.012257906608284, 0.004293039906770, -0.001835424453020, 0.001095422310755, 0.000004084130069, -0.003276281524450, -0.000661836471409, -0.001025181962177, 0.003766797482967, -0.003550354391336, 0.002731122542173, 0.004047511145473, -0.003704025875777
0.000002624762828, 0.000001078193236, 0.000005735455943, 0.000000208396756, 0.000000538177858, 0.000000206283715, 0.000000121265757, 0.000004070893738, -0.000003281096951, 0.000003524681006, -0.000005330061867, 0.000001590764782, -0.000000905518050, -0.000002804373480, 0.000000057492898, 0.000001809939931
-0.060799907892942, 0.024266315624118, -0.028283976018429, 0.063552759587765, -0.004727947525680, 0.046659424901009, -0.065275602042675, -0.032547086477280, 0.063395433127880, 0.050941389054060, 0.066151656210423, 0.053355805575848, 0.054563693702221, -0.062978252768517, -0.002136521041393, -0.051910776644945
0.008669774048030, 0.043279118835926, 0.057874437421560, -0.088675163686275, -0.034246876835823, 0.004422897472978, 0.012920431792736, -0.027038427069783, -0.038779709488153, -0.138433530926704, 0.083814091980457, -0.030628986656666, -0.004598263185471, 0.090555079281330, 0.035504098981619, 0.137360796332359
0.045531891286373, -0.169519945979118, -0.036523222923279, 0.087270945310593, 0.003653884865344, -0.040032535791397, -0.026234773918986, -0.046313311904669, 0.002176383510232, 0.061025749891996, -0.082234501838684, 0.079096905887127, 0.004946229048073, -0.010047126561403, 0.068935066461563, -0.065559729933739
0.117841079831123, -0.040982857346535, 0.059438776224852, -0.050737038254738, -0.011847149580717, 0.035342328250408, 0.125957891345024, -0.043055199086666, -0.098961822688580, -0.064254254102707, 0.109379194676876, -0.078248813748360, 0.082493565976620, 0.016028242185712, 0.068522430956364, 0.204628646373749
-0.029943391680717, -0.043827995657921, 0.071425065398216, 0.006438984069973, -0.030174873769283, 0.008369408547878, 0.013883570209146, 0.001115923863836, 0.024550680071115, 0.016231583431363, 0.092174574732780, -0.037443537265062, 0.167038664221764, -0.110354945063591, -0.092975564301014, 0.041780795902014
-0.042795587331057, 0.053097702562809, -0.026950003579259, 0.066741771996021, -0.075854599475861, -0.009438172914088, -0.052000954747200, -0.008379217237234, 0.037338618189096, 0.051393650472164, 0.024142099544406, 0.041430391371250, 0.103428572416306, -0.063180275261402, -0.053660154342651, -0.056853499263525
0.011485663242638, 0.019354710355401, 0.002256833948195, 0.005589091219008, 0.037029914557934, 0.031042229384184, -0.007405440788716, 0.000424517609645, -0.001159745152108, -0.005868959706277, 0.021759284660220, 0.036164455115795, -0.002849222160876, 0.043889898806810, 0.026559755206108, 0.004562613554299
0.011366035789251, -0.043238319456577, 0.034941259771585, -0.018542826175690, 0.014723634347320, -0.019234035164118, 0.025203252211213, -0.022453786805272, 0.001275006681681, -0.031149744987488, -0.015045847743750, -0.034052554517984, 0.005917449016124, -0.013405368663371, 0.027705505490303, 0.026104742661119
0.001609438215382, 0.003095032880083, 0.009805053472519, 0.000104266859125, -0.001532803638838, -0.008716125972569, 0.000159389834153, 0.001748588401824, -0.000745509169064, -0.014440435916185, -0.002640673425049, -0.008538642898202, -0.004407190252095, 0.005029086954892, -0.004339498002082, -0.000937881064601
0.088767208158970, -0.066268503665924, 0.059103712439537, -0.041236408054829, 0.025391910225153, 0.004146608989686, 0.040342140942812, -0.006657714489847, -0.017449321225286, 0.018915217369795, 0.025084510445595, -0.023384915664792, 0.017474776133895, -0.037300884723663, -0.005885926075280, 0.052970379590988
0.030063761398196, -0.008821135386825, 0.030575102195144, -0.036836534738541, 0.013284664601088, 0.051117267459631, 0.023330010473728, 0.047505855560303, -0.033574938774109, 0.027970340102911, -0.028812400996685, -0.018528098240495, -0.015319709666073, -0.027092816308141, 0.049299050122499, 0.035974368453026
-0.072288058698177, 0.057988807559013, -0.062631897628307, 0.028448592871428, -0.121264323592186, -0.008901165798306, -0.049425270408392, -0.152970135211945, -0.041889153420925, 0.011105381883681, 0.194692790508270, 0.014615691266954, 0.214638426899910, -0.142721980810165, -0.093005761504173, 0.038766250014305
-0.005397710483521, 0.261040270328522, 0.230143696069717, -0.117002002894878, -0.066928781569004, -0.092785112559795, 0.105633705854416, 0.125405341386795, 0.086471721529961, -0.076190054416656, 0.007884867489338, -0.130015268921852, -0.086141102015972, 0.239103451371193, -0.074274383485317, 0.004904644563794
0.000278624123894, -0.000652024697047, 0.000707623665221, -0.000873207638506, 0.000660698628053, 0.001007226295769, -0.000160905794473, 0.000147299579112, -0.001223422819749, -0.001225280342624, -0.000803454895504, 0.000278548453934, 0.000162940006703, 0.000153121829499, 0.001762827741913, 0.001525374827906
0.027421616017818, -0.150754496455193, -0.037206966429949, -0.014791311696172, 0.174675077199936, 0.240289688110352, -0.002152442932129, 0.012007690966129, 0.010356546379626, 0.261977344751358, -0.118661098182201, 0.066976331174374, 0.033386491239071, -0.101359874010086, 0.122125819325447, 0.082915671169758
-0.055526532232761, 0.019362758845091, -0.020904360339046, 0.019328106194735, -0.059694848954678, 0.052119117230177, -0.019606787711382, 0.006538460496813, 0.011300143785775, 0.021733680739999, 0.024276236072183, -0.004732155706733, 0.021988026797771, -0.058419212698936, -0.007694076746702, -0.019901584833860
0.061662416905165, 0.050423327833414, -0.054971992969513, 0.097365371882915, 0.081719972193241, -0.045287080109119, -0.067436143755913, 0.037529055029154, 0.014858087524772, -0.048311170190573, -0.096180126070976, 0.218854427337646, -0.070736728608608, 0.262863039970398, 0.140541747212410, -0.147090181708336
-0.018419632688165, -0.037075098603964, 0.035387117415667, -0.041630640625954, 0.045788664370775, 0.071310825645924, 0.023735504597425, 0.080829389393330, 0.081898570060730, 0.022632725536823, -0.091141507029533, -0.039203893393278, -0.049905035644770, -0.042471852153540, 0.030696189031005, 0.018048159778118
-0.006903444416821, 0.007125080563128, -0.000298032362480, 0.001690799253993, -0.000900738639757, -0.001751738018356, 0.002392299240455, 0.005451434757560, 0.005215293262154, -0.001803701743484, 0.001094259438105, -0.000045486201998, -0.002270729513839, -0.000781683600508, -0.006631406024098, 0.002142498036847
0.023793820291758, 0.000135112306452, -0.103918895125389, 0.013797153718770, 0.027057563886046, -0.000331756775267, -0.081350304186344, -0.011991258710623, -0.000525284674950, -0.006803152151406, -0.034380469471216, 0.050392385572195, -0.014642020687461, 0.038809079676867, 0.036705918610096, -0.037299960851669
0.005179054103792, -0.009300164878368, 0.016497647389770, -0.007025430444628, 0.006567257922143, 0.009165828116238, 0.005633853375912, 0.015408897772431, -0.001203602412716, 0.008516293019056, -0.009755591861904, -0.012014524079859, -0.010757495649159, -0.012082302011549, 0.002402865793556, 0.016189675778151
0.084037005901337, -0.017378976568580, 0.048054303973913, -0.056349996477365, -0.051262550055981, 0.060948595404625, 0.108566895127296, -0.035901628434658, -0.068898998200893, -0.043128881603479, 0.213449865579605, -0.045539334416389, 0.144438326358795, -0.092219717800617, -0.053181432187557, 0.225024893879890
0.012669179588556, -0.004962785169482, -0.000825269497000, 0.006049048621207, 0.004184932913631, -0.006126324646175, 0.000332663068548, 0.011217458173633, -0.002523154020309, -0.003269528504461, -0.001313211047091, 0.008140186779201, -0.000594779732637, -0.000540182983968, 0.003132557962090, -0.003637647256255
0.012253402732313, -0.004811471328139, 0.030703851953149, -0.018961161375046, 0.012764776125550, 0.014492904767394, 0.009491484612226, 0.022654060274363, -0.029047910124063, 0.014749349094927, -0.013451639562845, -0.022398812696338, -0.021721614524722, -0.004030082374811, 0.014396250247955, 0.028863644227386
0.019997058436275, 0.002055345568806, 0.024279823526740, 0.010313886217773, 0.000728267710656, -0.043838012963533, 0.004567244555801, 0.012478995136917, 0.010209420695901, -0.011999210342765, -0.018413707613945, -0.014076248742640, -0.003933646716177, 0.015969932079315, -0.012439819984138, -0.032692547887564
-0.017659533768892, 0.006949045695364, -0.005979320965707, -0.003345339326188, 0.000149985848111, -0.000002750195563, -0.004228522535414, 0.005792792886496, -0.001859170850366, -0.001914287568070, 0.002903781365603, 0.002705179853365, 0.005418362095952, -0.000389201886719, 0.006744951475412, 0.010107995010912
-0.007581514772028, 0.010650113224983, 0.029974535107613, -0.027622498571873, -0.000453943794128, -0.018149822950363, 0.001991519937292, -0.006506076548249, -0.009090421721339, -0.005760070402175, 0.015670377761126, -0.022291159257293, -0.005288935732096, 0.032584570348263, -0.020663851872087, -0.019152494147420
-0.000006711382412, 0.000000491298408, 0.000002201295047, -0.000005747062460, -0.000003553944225, -0.000005261928436, -0.000002946098903, -0.000000771844725, 0.000004803093361, 0.000006014525297, -0.000000643576527, -0.000000494444919, -0.000000402081128, -0.000000788021509, 0.000001354099368, -0.000000037734651
0.003604770870879, 0.012673910707235, 0.010606662370265, 0.005365305580199, 0.007937582209706, 0.015546619892120, -0.009111764840782, 0.009476399049163, 0.000709081883542, 0.007213006261736, 0.004896792583168, 0.009746393188834, 0.019638326019049, -0.002881272230297, -0.006050651893020, 0.000964380684309
0.003862326499075, 0.044199924916029, 0.041612196713686, 0.010594665072858, 0.016496816650033, 0.082754306495190, 0.019416168332100, -0.016624471172690, -0.020792687311769, 0.000626619963441, 0.082820758223534, 0.012821390293539, 0.030182667076588, 0.072031937539577, 0.052955005317926, 0.121389091014862
-0.027025146409869, 0.010586220771074, -0.019530668854713, 0.000019872146368, -0.007770068943501, 0.018091134727001, -0.003295982023701, -0.010737863369286, -0.016968809068203, -0.000281547545455, 0.011050821281970, 0.005584150552750, -0.008278915658593, 0.013019151985645, 0.007457838859409, 0.005578194744885
-0.010058820247650, 0.002570940880105, -0.001472103176638, -0.001785783329979, 0.000112597030238, 0.003016388975084, -0.000929033034481, 0.000503534392919, 0.002015721052885, -0.000001669784524, 0.000647949171253, 0.000286038382910, -0.000801192247309, -0.002172052860260, 0.002190471626818, 0.002673951676115
0.078645899891853, -0.020460790023208, 0.022882705554366, 0.045044828206301, 0.029594929888844, -0.027151785790920, 0.006106148473918, 0.018523467704654, 0.020289380103350, -0.022397551685572, -0.048549931496382, -0.010450665839016, -0.032158631831408, 0.066417425870895, 0.016005003824830, -0.042277246713638
-0.005702490452677, -0.001569371903315, 0.001547535532154, -0.000979707576334, 0.004551886580884, -0.008049773052335, 0.005446093156934, 0.009857187047601, 0.001115558901802, -0.003896045498550, -0.001817071693949, 0.001558979856782, -0.002497457433492, -0.002609831746668, -0.003749229945242, -0.012971264310181
-0.018392885103822, 0.006297213491052, -0.003053816035390, 0.002121670870110, 0.001304864417762, 0.017892800271511, -0.003884119214490, 0.012072231620550, 0.004851693753153, 0.012828623875976, -0.015449704602361, 0.007892019115388, -0.008632602170110, 0.000309320195811, 0.020216226577759, 0.006699581164867
-0.000001300594704, 0.000002630690460, -0.000000599480074, -0.000001708518312, -0.000000620242929, 0.000001099582164, -0.000000447436520, -0.000005650415915, -0.000000252337884, 0.000002056510311, 0.000006674579254, 0.000003541464821, 0.000002553219474, -0.000000051527891, 0.000000061153187, 0.000000279287207
-0.015422854572535, 0.002703634323552, -0.055647317320108, 0.054340593516827, 0.000017627424313, 0.017918117344379, -0.031446494162083, -0.009627727791667, 0.065154790878296, 0.035214580595493, 0.009008076973259, 0.054579254239798, 0.062118172645569, -0.039643075317144, -0.024104280397296, 0.001436716993339
-0.002757315523922, 0.012361574918032, 0.011642711237073, -0.001627460704185, -0.003938559442759, 0.002419427968562, -0.000168976286659, 0.001159013714641, 0.031453371047974, -0.000559211359359, -0.003435970051214, -0.004694664385170, 0.000226517004194, 0.018295144662261, -0.000823229493108, 0.000005203483852
0.089154183864594, -0.104551963508129, 0.157696828246117, 0.049640763550997, 0.109194025397301, -0.011313925497234, 0.063685461878777, 0.190745592117310, 0.041787657886744, 0.050999861210585, -0.088095992803574, -0.060053013265133, -0.062747374176979, 0.062267564237118, 0.047541741281748, 0.011824090033770
0.062199551612139, 0.009674703702331, 0.142212942242622, -0.026934564113617, 0.003443921450526, -0.060524512082338, 0.087548926472664, 0.081366881728172, -0.009490105323493, -0.022796150296926, -0.073651991784573, -0.041391979902983, -0.068134084343910, 0.083338186144829, 0.052933052182198, 0.010552950203419
0.046421784907579, -0.001714306185022, 0.016981162130833, -0.000006805303656, -0.002172174397856, -0.002383431419730, 0.063611067831516, 0.000301176798530, -0.000551097327843, -0.001027379301377, 0.032241284847260, -0.074592657387257, 0.010629939846694, -0.000000613373572, 0.000002424662853, 0.030546605587006
0.003200052538887, 0.019843509420753, -0.038481805473566, -0.008235767483711, 0.004986387211829, 0.009718256071210, 0.012381669133902, 0.003183215856552, -0.000348940026015, -0.015132624655962, 0.016774481162429, 0.003426789771765, -0.024377826601267, 0.026382520794868, -0.002856660401449, 0.008277960121632
0.011617177166045, 0.019467426463962, 0.029611350968480, -0.003845367114991, 0.000423902441980, -0.051301591098309, -0.011595735326409, 0.028963485732675, 0.040987677872181, -0.037283431738615, -0.016990840435028, -0.035532843321562, -0.000449293409474, 0.012786754406989, -0.020096592605114, -0.040911734104156
-0.007502837106586, 0.001983469119295, -0.000935295131058, 0.000560999847949, -0.000033414558857, 0.002269695047289, -0.000619957689196, -0.000147766637383, -0.004685006570071, -0.000000969734060, 0.000171795836650, 0.001885301200673, 0.001157097402029, 0.000418744777562, 0.002502968301997, 0.001580372219905
0.026877591386437, -0.145309850573540, 0.090140044689178, -0.081209003925323, 0.093992002308369, 0.118869595229626, 0.057803791016340, 0.153504461050034, -0.002370281843469, 0.155461341142654, -0.050752591341734, -0.067631542682648, -0.018551856279373, -0.046444293111563, 0.112488590180874, 0.113938644528389
0.031316466629505, -0.094011425971985, 0.013026850298047, 0.058007609099150, 0.071191906929016, -0.054784003645182, 0.034467719495296, 0.028280708938837, 0.031595941632986, -0.063708320260048, -0.102502115070820, 0.020981885492802, -0.066015660762787, 0.036882799118757, 0.020840039476752, -0.055648289620876
0.000804095529020, 0.003691145218909, 0.005884302780032, -0.008170423097908, -0.001922911033034, -0.001531640416943, -0.000208469835343, 0.005173982586712, 0.000884640670847, -0.004091164562851, -0.001601469586603, 0.002918596146628, -0.005449253134429, 0.006555770523846, -0.000284128822386, 0.004756510257721
0.068298362195492, 0.061228625476360, -0.099744640290737, 0.181703597307205, 0.087409637868404, 0.054473135620356, 0.001043925993145, -0.002371023874730, 0.129323810338974, 0.125582143664360, -0.070944368839264, 0.261281222105026, 0.032263688743114, 0.074344426393509, 0.124567866325378, -0.052225936204195
0.016671262681484, -0.017168708145618, 0.026220498606563, -0.012690683826804, -0.009220624342561, -0.000151594605995, 0.024188464507461, -0.049611572176218, 0.003594225738198, 0.009482544846833, 0.021131673827767, -0.030520450323820, 0.011973615735769, -0.032587278634310, 0.000000068967211, 0.017334725707769
0.026778601109982, -0.038033865392208, 0.086110763251781, -0.018903942778707, -0.028586342930794, -0.085689812898636, 0.078537367284298, -0.045803822577000, -0.024926090613008, -0.090694487094879, 0.056164056062698, -0.083967432379723, 0.108959048986435, -0.021221056580544, -0.076793707907200, 0.056464251130819
0.003972960170358, -0.006389491260052, 0.006218576803803, -0.003747006878257, 0.011355142109096, 0.004286733455956, 0.002104787155986, 0.005073778796941, 0.000775812193751, 0.006768264342099, -0.002025352325290, -0.009449846111238, -0.003337780945003, -0.004136739764363, 0.002524307463318, 0.016524838283658
0.007499244995415, 0.006295414175838, 0.050634056329727, 0.014256102032959, -0.001051303232089, -0.046741053462029, 0.011507503688335, 0.056391816586256, 0.052275471389294, 0.000542697263882, -0.038594771176577, -0.037906501442194, -0.014568390324712, 0.006377746351063, -0.046152029186487, -0.049667835235596
-0.016841087490320, 0.017925061285496, -0.026703981682658, -0.005689975805581, -0.009236443787813, 0.019872037693858, -0.000873833661899, -0.015998760238290, -0.013744410127401, 0.000004175687081, 0.016555346548557, 0.006175958551466, 0.003536564530805, 0.010361642576754, 0.014119406230748, 0.026707313954830
0.170735284686089, -0.130241826176643, 0.073852211236954, -0.139736682176590, 0.189971834421158, 0.109899699687958, 0.168275132775307, 0.135107815265656, -0.066379919648170, 0.135693252086639, -0.132760882377625, -0.113946683704853, -0.108120083808899, -0.026347337290645, 0.179304078221321, 0.184683844447136
0.035116542130709, -0.115795016288757, 0.026896668598056, 0.005980852525681, 0.108384169638157, 0.073546811938286, 0.024730212986469, 0.037422340363264, -0.039393022656441, 0.100982837378979, -0.021022537723184, -0.027853408828378, -0.038803264498711, 0.039983365684748, 0.104275412857533, 0.010659693740308
0.008816285058856, -0.099743030965328, -0.019159004092216, -0.145626828074455, 0.065542675554752, 0.074615299701691, 0.039652042090893, 0.009867474436760, -0.014608389697969, -0.074455991387367, -0.061312228441238, -0.091741494834423, -0.094195872545242, -0.184627592563629, 0.164455115795135, 0.079709559679031
0.008821729570627, -0.028140677139163, -0.014473680406809, 0.038137204945087, -0.014806928113103, 0.020470710471272, 0.011619431897998, -0.056141100823879, -0.011309049092233, -0.016309231519699, 0.081302635371685, 0.002846555784345, 0.089280657470226, -0.046539917588234, -0.029982659965754, 0.020483992993832
0.051114179193974, -0.041136242449284, -0.049021724611521, 0.070770159363747, 0.083767518401146, -0.016082281246781, -0.009840420447290, -0.098355032503605, -0.019521126523614, 0.000049768528697, -0.014789333567023, 0.062847085297108, -0.010773775167763, 0.025928232818842, 0.036607436835766, -0.048040177673101
-0.014396742917597, 0.036068208515644, -0.009237118065357, -0.018912117928267, -0.000008530658306, 0.039170321077108, 0.011322012171149, -0.002908900845796, -0.015778167173266, -0.004193332977593, 0.025967607274652, 0.001117898500524, -0.013152582570910, 0.026049690321088, 0.037865832448006, 0.017589334398508
0.008656797930598, 0.036781936883926, -0.049737229943275, -0.007914813235402, -0.005869706626981, 0.012287478893995, -0.000984950223938, 0.006855503190309, -0.016564719378948, -0.007251804228872, 0.016176247969270, 0.032155521214008, -0.012054407037795, 0.011125756427646, 0.006265566218644, 0.036197464913130
0.016992274671793, -0.031107608228922, -0.044027056545019, 0.068460866808891, 0.041446894407272, -0.051426846534014, -0.006860313005745, -0.001636315952055, -0.039028905332088, -0.027945617213845, -0.008142747916281, 0.032833643257618, -0.038468137383461, 0.042334638535976, 0.020723113790154, -0.012653206475079
0.044770129024982, -0.059241089969873, 0.100990585982800, -0.092629060149193, -0.004619731102139, -0.060345008969307, 0.080942451953888, 0.001535722753033, -0.022399796172976, 0.016204189509153, 0.042544718831778, -0.043754316866398, 0.048152863979340, -0.094951547682285, -0.057087421417236, 0.117510944604874
-0.003270765300840, 0.003771213814616, -0.002762086223811, -0.002622943371534, 0.000001924900062, 0.004102094098926, -0.002200991148129, -0.010971136391163, -0.004050248768181, -0.000329332135152, 0.001483386382461, 0.002013836754486, 0.000178844667971, 0.002009633695707, 0.002939592581242, 0.003696389263496
0.006715939380229, -0.011549760587513, 0.003538864664733, -0.003474317025393, -0.001960155088454, 0.000232750651776, 0.005323819816113, -0.023963663727045, 0.001593209337443, 0.003937585745007, 0.010464052669704, -0.012324710376561, 0.005526777356863, -0.010815553367138, 0.000109667256766, 0.012192536145449
0.000000860487603, 0.000001042016379, -0.000004750520020, -0.000004894019639, 0.000002068658887, -0.000000419613116, 0.000000879623258, 0.000000152237703, 0.000000278409374, 0.000003489982191, 0.000000344576620, 0.000002429201686, 0.000001378597631, -0.000001058491421, 0.000001785823883, -0.000002364811508
-0.008470238186419, 0.025408750399947, 0.014122130349278, -0.003485006978735, -0.010225891135633, -0.016961403191090, -0.003548499662429, 0.002984313294291, 0.005902055185288, -0.005499454680830, 0.000604680099059, -0.008289809338748, 0.002198463538662, 0.017437566071749, -0.010663496330380, -0.003274051472545
-0.053615000098944, 0.022881735116243, -0.012160318903625, -0.007179166190326, -0.008821359835565, 0.027388585731387, 0.006695753894746, -0.013780527748168, -0.023526545614004, 0.005136558786035, 0.037076022475958, 0.004506772849709, 0.010431254282594, 0.027320895344019, 0.022307667881250, 0.046299666166306
-0.051715828478336, 0.088747344911098, 0.017995277419686, 0.021085096523166, -0.051147140562534, 0.007613915484399, -0.001831680070609, -0.020209211856127, 0.042333889752626, 0.021861171349883, 0.054775394499302, -0.024220405146480, 0.020745338872075, 0.027654293924570, -0.073673039674759, -0.032922353595495
-0.004005467984825, 0.011041499674320, -0.046833995729685, 0.043773710727692, -0.004354086704552, 0.028162231668830, -0.025197822600603, 0.009969580918550, 0.012404883280396, 0.058273874223232, -0.004279552493244, 0.082564219832420, 0.042419463396072, -0.019937582314014, -0.040588542819023, -0.031723149120808
0.038010664284229, 0.051632408052683, 0.058345176279545, 0.007287562824786, -0.020354604348540, -0.043578229844570, 0.068129733204842, 0.033650107681751, 0.045558039098978, -0.022836176678538, 0.006396501790732, -0.073347896337509, 0.001593033317477, 0.030246173962951, -0.048643004149199, -0.023971099406481
0.022438721731305, -0.023345123976469, 0.007276945747435, 0.001794509124011, 0.000614432268776, -0.003500508377329, 0.003728928044438, -0.000018844157239, -0.007296747993678, -0.004562469199300, 0.004270619712770, -0.007527104113251, 0.010689823888242, 0.000344841333572, -0.003860093653202, 0.010519040748477
0.000004851620815, 0.000000835277660, -0.000003074605956, 0.000001644447593, 0.000006030311852, 0.000003945536264, -0.000002349059059, 0.000001840682216, 0.000002358929578, -0.000000167944549, 0.000002341205573, 0.000005934927231, -0.000001115668169, 0.000004761511263, 0.000000422480099, 0.000000248531364
0.002329633105546, -0.000002517375151, -0.003911375533789, 0.000228635908570, -0.000195628119400, -0.000002737311888, 0.003023946192116, -0.001112010912038, -0.000978917698376, -0.000002305673661, 0.000060985745222, 0.006587738636881, -0.000000700633393, 0.000943829189055, 0.000473168038297, 0.002790954662487
-0.010631495155394, 0.013869461603463, -0.008141909725964, 0.000378979078960, -0.001744533656165, 0.007059632334858, -0.001693743746728, -0.000437521928689, -0.000820263929199, 0.001741954358295, 0.005332542583346, 0.003926016855985, -0.003017326816916, 0.011838776990771, 0.005085891112685, 0.006431348156184
0.142380312085152, -0.171698406338692, 0.038326606154442, -0.061975628137589, 0.041361473500729, -0.023498080670834, 0.033887051045895, 0.001467970432714, -0.052477221935987, 0.096814572811127, -0.074097201228142, 0.083484098315239, -0.057928606867790, -0.089517749845982, 0.126926526427269, 0.047170758247375
0.000005221487754, -0.000000423372001, 0.000000317114882, -0.000004249653102, 0.000004825213637, 0.000004335567155, -0.000005729914847, -0.000001734625471, 0.000002897220838, -0.000003199391358, 0.000003406788665, 0.000000311213626, -0.000001314323754, 0.000004964208529, 0.000002656802280, 0.000002930138407
-0.079922959208488, 0.032655935734510, -0.098365426063538, 0.093146160244942, -0.054144293069839, -0.000410764536355, -0.068881757557392, -0.113770693540573, 0.010457072407007, 0.005546678323299, 0.102418668568134, 0.073639176785946, 0.097004041075706, -0.022026646882296, -0.053507789969444, -0.092144899070263
-0.000169762584846, 0.002602029591799, 0.011964333243668, -0.003384007373825, -0.004463473334908, -0.000080024081399, 0.019872028380632, 0.024147961288691, 0.016298618167639, -0.002156898379326, 0.010281204245985, -0.009862927719951, 0.016334295272827, -0.005846660118550, -0.011380111798644, 0.008033625781536
0.011637950316072, 0.012906594201922, 0.035230506211519, 0.001327330013737, -0.016077253967524, -0.030423134565353, 0.022753950208426, -0.004224990494549, 0.024881632998586, -0.018623869866133, 0.004873270634562, -0.016470151022077, 0.012968009337783, 0.013958680443466, -0.029532253742218, 0.008334159851074
-0.009936266578734, 0.002248326549307, 0.000037525140215, 0.000926166074350, 0.001724798814394, 0.003735233563930, -0.000264418777078, 0.000145097103086, -0.001007452839985, -0.001956444932148, -0.001223798841238, 0.000939542311244, 0.001444046851248, -0.003237051423639, 0.004264532122761, 0.002216626657173
-0.012467585504055, 0.018283069133759, 0.004586647730321, 0.017019409686327, -0.008272185921669, -0.007987922988832, -0.001345369732007, 0.005890773609281, 0.008073301985860, 0.014316423796117, -0.002478330396116, -0.001549346023239, 0.002789255930111, 0.000353695882950, 0.000058380654082, 0.001449136063457
0.059808701276779, -0.000070658483310, 0.052718747407198, -0.006217775400728, -0.018442230299115, 0.000000166296076, 0.085775703191757, -0.005384835880250, -0.064997695386410, 0.000408137973864, 0.062625817954540, -0.003389829536900, 0.089221864938736, -0.077182985842228, 0.002152120694518, 0.067629255354404
0.000002722621730, -0.000006500986728, 0.000001006751290, -0.000001607315539, -0.000000852105700, -0.000003748572908, -0.000002914844799, -0.000000121969720, -0.000002977966005, -0.000000112721978, 0.000001213782980, 0.000000542831287, -0.000004199470368, -0.000001508804871, -0.000005634517493, -0.000005458876331
-0.018601747229695, -0.037321180105209, -0.060771692544222, 0.058647338300943, -0.070452556014061, -0.102953478693962, -0.046644512563944, -0.049889735877514, -0.035399522632360, -0.075499132275581, 0.157920300960541, 0.055006805807352, 0.280070096254349, -0.154140010476112, -0.149779945611954, -0.054057896137238
-0.019556667655706, 0.057654816657305, -0.015869205817580, -0.030967174097896, 0.001712415134534, 0.055397648364305, 0.013807605020702, -0.022561358287930, -0.038843832910061, -0.007320016156882, 0.040274553000927, 0.008568373508751, -0.013828800059855, 0.038123689591885, 0.060310065746307, 0.040930274873972
0.010753631591797, -0.007412745617330, 0.012674914672971, -0.003548380685970, 0.006207554135472, 0.006059729494154, 0.006826344411820, 0.009225974790752, 0.001021748175845, 0.006016588769853, -0.004696112591773, -0.011611547321081, -0.008361007086933, -0.007848549634218, 0.010536977089942, 0.015974501147866
0.000004706756044, -0.000000254004192, 0.000001305183446, 0.000001124174105, -0.000000076900776, 0.000000591167804, -0.000000123448871, -0.000004665110282, -0.000001095570951, 0.000000157625294, 0.000002394303465, -0.000000347902812, -0.000001130182682, 0.000004267152690, 0.000004595879545, -0.000000245601598
-0.000000256478927, 0.000002560088888, 0.000003366099008, 0.000000177472685, -0.000003130507821, 0.000002510895683, -0.000000149676680, 0.000001738181936, 0.000001309327217, -0.000002442304321, 0.000000467907654, 0.000006740587196, 0.000000139343584, 0.000006555343134, -0.000003322074463, 0.000002995419663
-0.042663000524044, 0.041593875735998, 0.005280409473926, 0.047499019652605, -0.015161022543907, 0.042112320661545, -0.041172318160534, 0.014058178290725, 0.064311005175114, 0.038366220891476, 0.025665104389191, 0.005032991524786, 0.018191663548350, -0.031567279249430, -0.007278231903911, -0.033679239451885
