0.080656282603741, 0.130876213312149, 0.050539828836918, 0.028765523806214, 0.000925931788515, 0.059568434953690, 0.016336664557457, -0.000483982264996, 0.058327473700047, 0.000990418135189, -0.102362796664238, -0.026746844872832, 0.011510988697410, 0.012670623138547, -0.036074511706829, -0.009533787146211
0.096317827701569, 0.060539584606886, -0.053373590111732, 0.033696923404932, 0.002080587204546, 0.090088173747063, 0.056933574378490, 0.092352576553822, 0.048684574663639, -0.044179182499647, -0.010253597982228, -0.063505470752716, 0.005101752467453, -0.031180268153548, 0.027540169656277, -0.010202208533883
0.114460326731205, -0.000321432016790, -0.213679671287537, 0.139550775289536, 0.022899182513356, 0.113196320831776, 0.093687176704407, 0.212188631296158, 0.092243641614914, -0.031311050057411, 0.158626645803452, -0.040668152272701, 0.033257458359003, 0.000618216174189, 0.114664718508720, 0.004804742522538
0.008998098783195, 0.096896514296532, -0.075800597667694, 0.151557102799416, -0.132542505860329, 0.119191572070122, 0.089185334742069, 0.014565769582987, 0.162367641925812, 0.054795023053885, -0.076553709805012, 0.011697985231876, 0.050799861550331, -0.171498015522957, 0.125779628753662, -0.092073462903500
-0.437202244997025, 0.319194763898849, -0.191380441188812, 0.243259653449059, 0.271343737840652, -0.490148693323135, 0.025405930355191, -0.397468596696854, 0.487583577632904, -0.391154497861862, 0.143057242035866, -0.224968925118446, 0.106610417366028, 0.224706217646599, 0.247682243585587, 0.421762108802795
-0.016304329037666, 0.006270358338952, 0.013608255423605, -0.003259803866968, -0.007400801405311, -0.000453914166428, 0.015534978359938, -0.016310112550855, -0.002147739520296, -0.003531640162691, 0.016936030238867, -0.000471719715279, -0.010512105189264, 0.020911628380418, -0.010378958657384, 0.027010586112738
-0.083538159728050, -0.030063472688198, 0.086241610348225, -0.042886637151241, -0.026443535462022, -0.037885803729296, 0.029258541762829, -0.037308543920517, -0.042986314743757, 0.014200396835804, 0.104823537170887, -0.025513069704175, -0.048845171928406, 0.018416894599795, -0.006444937549531, 0.128584444522858
0.032421849668026, 0.055670995265245, -0.034096002578735, 0.061319470405579, 0.047875434160233, 0.033721558749676, 0.021076209843159, 0.004185634665191, -0.010979441925883, 0.007215126417577, 0.022100590169430, -0.076929062604904, 0.094440907239914, 0.068723596632481, -0.116755306720734, 0.007091916166246
-0.113421693444252, 0.144236654043198, -0.025370936840773, 0.199256643652916, 0.076408065855503, -0.095469877123833, 0.062599435448647, -0.226296469569206, 0.142959415912628, -0.069213375449181, 0.088155560195446, -0.083853676915169, 0.153471261262894, 0.167081758379936, -0.068365044891834, 0.052089776843786
-0.042706754058599, 0.013403940014541, -0.000722842349205, 0.018640320748091, 0.015209775418043, -0.035659871995449, -0.021329183131456, -0.032516106963158, -0.000975355738774, -0.041420452296734, 0.020015075802803, -0.011625241488218, -0.003799665253609, 0.008140661753714, 0.013940610922873, 0.020440252497792
0.081101045012474, 0.064070694148540, -0.003180196275935, -0.074348412454128, -0.015878694131970, 0.054134219884872, 0.050361182540655, 0.016948407515883, 0.045838069170713, -0.044103734195232, -0.012202485464513, -0.056151930242777, -0.079164922237396, 0.024711951613426, 0.041289374232292, 0.011063905432820
-0.028749661520123, 0.000826164847240, 0.043086498975754, -0.012155089527369, 0.002866474911571, -0.046706773340702, -0.001080501009710, -0.040966026484966, 0.007493336685002, -0.003675844985992, 0.014781595207751, 0.001452966011129, 0.006633194163442, 0.012593968771398, -0.003243824932724, 0.031695071607828
0.206201955676079, -0.124103672802448, 0.172845274209976, -0.223328083753586, 0.079367712140083, 0.071125224232674, -0.091093048453331, 0.164588227868080, -0.146147623658180, 0.041754540055990, -0.000624568201602, 0.244813263416290, 0.008252268657088, -0.042833317071199, -0.005401779897511, 0.006817299872637
0.099743381142616, 0.069535031914711, -0.000442266929895, -0.050804410129786, -0.064038388431072, 0.099351085722446, 0.099936582148075, 0.096121154725552, 0.012484483420849, -0.004047345370054, -0.028894988819957, -0.038178499788046, -0.056194268167019, -0.000733681546990, -0.002066154265776, 0.002587497932836
-0.006352738942951, 0.027365330606699, 0.022859724238515, 0.022604547441006, 0.015751590952277, -0.025767827406526, 0.002694315044209, -0.043087434023619, -0.006725993938744, -0.012842515483499, -0.012502541765571, -0.013273057527840, 0.046527206897736, 0.035155765712261, -0.028716789558530, -0.005265871994197
-0.129455372691154, -0.130329042673111, -0.014129322953522, -0.077635094523430, 0.086523227393627, -0.110926397144794, -0.158655568957329, 0.044111441820860, -0.074103303253651, -0.094028614461422, 0.117922641336918, 0.092884078621864, -0.107945047318935, -0.071075245738029, 0.079926840960979, 0.101455636322498
-0.033667728304863, 0.063074931502342, 0.133129283785820, 0.075112968683243, -0.045669890940189, -0.018550528213382, -0.051382239907980, -0.121646225452423, 0.062225077301264, 0.128605887293816, -0.025865659117699, 0.114436902105808, 0.056160423904657, -0.046420406550169, 0.070430919528008, -0.034565709531307
0.037492353469133, -0.014873279258609, 0.080878898501396, -0.046786848455667, 0.007692523766309, -0.001557564246468, 0.022039623931050, 0.004155078902841, -0.031330421566963, 0.047104328870773, -0.004314372316003, 0.000077835575212, -0.009069786407053, 0.057741772383451, -0.067375943064690, 0.008952195756137
-0.009747808799148, 0.077863834798336, 0.162947610020638, 0.073867358267307, -0.082755014300346, 0.024556288495660, -0.061888016760349, -0.085886500775814, 0.044207755476236, 0.154190361499786, -0.077142536640167, 0.140769854187965, 0.082294568419456, -0.091745890676975, 0.057746760547161, -0.095491461455822
0.219567328691483, 0.454324781894684, -0.343254894018173, -0.026700062677264, -0.370580255985260, 0.448673397302628, 0.557819187641144, 0.499842464923859, 0.256434559822083, -0.159220129251480, -0.216248691082001, -0.251079589128494, -0.081562101840973, -0.268202632665634, 0.533094525337219, -0.110281623899937
-0.011360951699317, 0.022969404235482, 0.035849269479513, 0.031348839402199, -0.004663537722081, -0.009199911728501, -0.021802701056004, -0.020011732354760, 0.016660286113620, 0.043543342500925, -0.018904175609350, 0.034815710037947, 0.023753421381116, 0.002073908224702, 0.024998914450407, -0.020487988367677
0.056153707206249, -0.107897862792015, -0.017397163435817, -0.057264450937510, -0.032923374325037, 0.051603734493256, -0.024185156449676, 0.107252769172192, -0.105694562196732, 0.059279363602400, 0.063775099813938, 0.053832519799471, -0.099578849971294, -0.011231289245188, 0.030250091105700, 0.016572833061218
0.013295565731823, 0.005215457640588, 0.005242050159723, -0.025335637852550, 0.025763306766748, -0.020439736545086, -0.002957357559353, 0.000565984752029, -0.021611975505948, -0.008370932191610, -0.013859391212463, 0.005888920277357, 0.009334147907794, 0.001350697013550, -0.003693777834997, 0.003119675209746
0.054495576769114, 0.107798494398594, 0.013921004720032, -0.061174150556326, -0.013619808480144, 0.039051398634911, 0.027432011440396, 0.034348808228970, 0.069819018244743, -0.021880993619561, -0.039807282388210, -0.005626928526908, -0.021371211856604, -0.033363666385412, 0.084336534142494, 0.021226275712252
0.008399509824812, 0.015230418182909, -0.012073544785380, -0.000343282241374, -0.011010817252100, 0.009049435146153, 0.021641932427883, -0.000353968469426, 0.022102331742644, -0.012943282723427, -0.026594743132591, -0.015868214890361, 0.000919775804505, -0.010936981067061, 0.000580952735618, 0.005403343122452
-0.059871532022953, 0.304755687713623, 0.113267742097378, 0.201908096671104, 0.214397996664047, -0.096457436680794, 0.079949915409088, -0.257528901100159, 0.204783871769905, 0.174642428755760, 0.052153501659632, 0.052041150629520, 0.283614337444305, 0.241722062230110, 0.056008331477642, 0.168759331107140
-0.213315680623055, 0.277234822511673, -0.148608505725861, 0.199406027793884, 0.279504626989365, -0.081924423575401, -0.181189462542534, -0.060006532818079, 0.217313781380653, -0.246067628264427, 0.069067046046257, 0.064361415803432, 0.233261987566948, 0.027498476207256, 0.014391879551113, 0.092557601630688
-0.031861558556557, 0.076040811836720, 0.116365127265453, 0.007250046357512, -0.012739939615130, -0.002247228287160, -0.071627989411354, -0.019018018618226, 0.103144161403179, 0.020979341119528, -0.158161729574203, 0.118857115507126, 0.001069243997335, -0.047537468373775, 0.064960211515427, -0.030509350821376
0.005466244183481, -0.006300887092948, -0.011014550924301, 0.013390166684985, -0.010282483883202, 0.011257262900472, 0.009746369905770, 0.002586410380900, -0.009775828570127, 0.006719006225467, 0.009874355979264, -0.010653714649379, 0.014301178045571, 0.023940490558743, -0.005791476462036, -0.016390632838011
-0.052465345710516, -0.027924936264753, -0.039424389600754, -0.026788104325533, 0.015360461547971, -0.015795461833477, -0.037219051271677, 0.043735399842262, 0.002846416784450, -0.027285343036056, 0.039204794913530, 0.017051978036761, -0.080782890319824, -0.052950594574213, 0.037970054894686, 0.034777071326971
0.077050939202309, -0.054079681634903, 0.102013982832432, -0.079417787492275, 0.086928941309452, -0.002989537082613, -0.060400146991014, 0.066527441143990, -0.076846808195114, 0.016772095113993, -0.041021879762411, 0.112045399844646, 0.087356820702553, 0.039010606706142, -0.044983092695475, -0.007014241535217
-0.037850223481655, -0.022686399519444, -0.021525964140892, 0.014685735106468, 0.009686972945929, -0.027432506904006, -0.001335312379524, -0.008903675712645, -0.010200224816799, -0.007947971113026, 0.011184818111360, 0.003080557100475, -0.022802025079727, -0.039367120712996, 0.025045935064554, 0.026157822459936
0.065733984112740, -0.019752724096179, 0.044159408658743, -0.054834086447954, 0.058300562202930, 0.001825166400522, -0.040444392710924, 0.033095106482506, -0.025566695258021, -0.008112848736346, -0.005765443667769, 0.035215999931097, 0.046905934810638, 0.012714866548777, -0.022826360538602, 0.002366065979004
-0.003396987682208, -0.001706826500595, 0.009006491862237, 0.000432444794569, -0.003295127768070, 0.002454317640513, 0.000610972987488, 0.007206061389297, 0.003228949615732, 0.007421891670674, -0.008522006683052, 0.003084215102717, -0.002181745367125, -0.007134596817195, 0.009181086905301, 0.001061122631654
-0.017010312527418, 0.057379387319088, -0.083904042840004, 0.068531252443790, -0.017161719501019, -0.008305348455906, 0.073360368609428, -0.046968001872301, 0.030664641410112, 0.020862186327577, 0.054857041686773, -0.068602144718170, 0.072458349168301, 0.035661395639181, -0.021527625620365, 0.012808345258236
-0.060891445726156, 0.058094680309296, -0.049805555492640, -0.034768458455801, 0.025890028104186, -0.059334877878428, 0.014506839215755, -0.059741538017988, 0.028182463720441, -0.136703819036484, 0.030215365812182, -0.067689217627048, -0.021758044138551, 0.042521949857473, -0.022378455847502, 0.049744889140129
-0.083677820861340, -0.073271065950394, 0.014102553017437, 0.035840563476086, 0.004529195837677, -0.037488173693419, -0.014207739382982, -0.021352261304855, -0.030858790501952, 0.002526851138100, 0.032753814011812, 0.061688806861639, 0.038589049130678, -0.043097555637360, 0.005978452041745, -0.011165188625455
-0.008805733174086, 0.000437702285126, 0.003585618454963, -0.001030378974974, -0.004813308827579, -0.016040751710534, -0.000140770978760, -0.000873415789101, -0.000987978419289, 0.004129464272410, 0.018307287245989, 0.009798183105886, -0.008802944794297, -0.005936082452536, 0.018711119890213, 0.009461921639740
0.040082659572363, -0.100591100752354, -0.133705899119377, 0.238634258508682, -0.270898878574371, 0.325356811285019, 0.232349440455437, 0.128114283084869, -0.092430718243122, 0.174138858914375, 0.091400660574436, -0.073234312236309, 0.192110821604729, 0.106751278042793, -0.001868817256764, -0.285886108875275
0.060501430183649, -0.107705250382423, -0.071596741676331, 0.044133368879557, 0.069061875343323, 0.073548391461372, -0.054090090095997, 0.281540542840958, 0.072387203574181, 0.053297340869904, 0.129347771406174, 0.129358232021332, -0.156796991825104, -0.121508747339249, 0.296300321817398, 0.147332832217216
-0.058508560061455, 0.115761198103428, -0.081805564463139, 0.215064004063606, 0.147324085235596, -0.090484552085400, 0.030581943690777, -0.026394190266728, 0.173455819487572, -0.133870422840118, 0.228545576334000, -0.075154952704906, 0.144893169403076, 0.073892578482628, 0.007772395852953, 0.200278803706169
-0.118644520640373, 0.082195542752743, -0.058821190148592, 0.319298833608627, -0.081160835921764, 0.069136708974838, 0.070607699453831, -0.020705765113235, 0.121861547231674, 0.145169541239738, 0.248688459396362, -0.113829173147678, 0.136799514293671, 0.038611948490143, -0.007527050562203, 0.040647748857737
0.027907369658351, 0.024236565455794, -0.005102576222271, -0.002954692812636, -0.019453298300505, 0.030527813360095, 0.037972014397383, 0.026183312758803, 0.028202345594764, 0.001107779797167, -0.007164569105953, -0.011125709861517, -0.010997197590768, -0.003821777878329, 0.034830037504435, 0.004847125150263
0.078254759311676, -0.035826470702887, -0.031572472304106, -0.050497666001320, 0.007140816189349, 0.059602487832308, 0.041841670870781, 0.074461124837399, -0.051962826400995, 0.000953248760197, -0.007868481799960, 0.023634761571884, 0.005134979728609, -0.019523305818439, 0.021934531629086, -0.031386259943247
0.026325874030590, -0.079252041876316, 0.149482533335686, -0.016341300681233, -0.162431269884109, 0.075139634311199, 0.090224653482437, -0.023443333804607, -0.064163558185101, 0.155268117785454, -0.021888682618737, -0.019205166026950, -0.054563723504543, 0.113371334969997, -0.097627513110638, -0.041659735143185
0.133985877037048, 0.068695440888405, -0.054509177803993, -0.038301173597574, -0.035220950841904, 0.104270964860916, 0.130906075239182, 0.169168099761009, 0.085260078310966, -0.002911733929068, 0.001463985652663, 0.022344455122948, -0.057948391884565, -0.082063779234886, 0.091601207852364, 0.019514089450240
0.007557551842183, -0.040659062564373, 0.004986710846424, -0.034782510250807, 0.013398285023868, -0.002067493973300, -0.047992676496506, 0.040053162723780, -0.050609771162271, -0.008547946810722, 0.017798164859414, 0.036677841097116, 0.002542879432440, 0.001365378033370, -0.031566895544529, 0.017073292285204
0.166436403989792, -0.039983447641134, 0.194356098771095, -0.043984193354845, 0.129811361432076, -0.068770393729210, -0.118748024106026, 0.191621154546738, -0.089359618723392, 0.003782260464504, -0.017811987549067, 0.117558531463146, 0.080852821469307, 0.109184026718140, -0.038445770740509, -0.056558616459370
0.027279630303383, 0.177588090300560, -0.006844245363027, 0.172555670142174, 0.043407790362835, 0.008667353540659, -0.000948213040829, -0.060783799737692, 0.033110488206148, 0.083872139453888, -0.040372058749199, 0.008955410681665, 0.177568510174751, 0.041013643145561, -0.077179089188576, -0.091758832335472
-0.050620909780264, -0.018569510430098, 0.019342411309481, 0.010140220634639, -0.045641668140888, -0.037850607186556, 0.033457819372416, -0.074691966176033, 0.016463734209538, 0.012498602271080, 0.010857974179089, 0.007740800268948, 0.018701002001762, 0.024378033354878, 0.015832064673305, 0.034620784223080
0.160780087113380, -0.048244815319777, 0.119509346783161, -0.061925623565912, 0.092140398919582, -0.062314603477716, -0.097794748842716, 0.124173730611801, -0.061500679701567, 0.019112201407552, -0.057324972003698, 0.170157074928284, 0.093527831137180, 0.106205217540264, -0.052831936627626, -0.041280288249254
-0.206782832741737, 0.148095950484276, 0.272268116474152, 0.243861019611359, -0.181335240602493, 0.039750900119543, -0.236057862639427, -0.196430712938309, 0.118077024817467, 0.255570381879807, -0.150306254625320, 0.258608669042587, 0.139240324497223, -0.185529306530952, 0.245008409023285, -0.188783362507820
0.064369715750217, 0.141152024269104, -0.137950286269188, 0.052900549024343, 0.199599549174309, 0.065322302281857, 0.096141256392002, -0.021701421588659, 0.033443473279476, -0.079929120838642, -0.194320335984230, -0.237014934420586, 0.143263623118401, 0.044408250600100, -0.141193360090256, -0.001629308913834
0.127238288521767, 0.050139203667641, -0.084127686917782, -0.004135971888900, -0.075938448309898, 0.088346935808659, 0.098724581301212, 0.083015903830528, 0.067864142358303, 0.007822873070836, -0.038556531071663, -0.060697376728058, -0.012703914195299, -0.049160443246365, 0.048882979899645, -0.014728415757418
-0.212980493903160, 0.512832045555115, -0.239845350384712, 0.375212430953979, 0.436864852905273, -0.202210053801537, -0.058456171303988, -0.270319253206253, 0.410589128732681, -0.377534508705139, 0.067942947149277, -0.167586386203766, 0.456978589296341, 0.150529652833939, -0.025721551850438, 0.144549846649170
-0.046327993273735, 0.125121578574181, -0.059859938919544, 0.076273448765278, 0.032620456069708, -0.033252645283937, 0.002074180636555, -0.098869018256664, 0.109180867671967, -0.057779446244240, 0.029872659593821, -0.076693534851074, 0.033778198063374, 0.064249090850353, -0.000829914701171, 0.019016817212105
-0.035803087055683, 0.011856263503432, -0.078213237226009, -0.021656725555658, 0.014980765059590, -0.009014085866511, 0.010818663984537, 0.011472431011498, -0.006570788566023, -0.038319431245327, 0.078015089035034, 0.046846382319927, -0.051980026066303, -0.037693426012993, 0.089568816125393, 0.105473093688488
0.136248603463173, 0.040620625019073, 0.022460777312517, -0.013998793438077, -0.009405584074557, 0.077578842639923, 0.003184850560501, 0.030733661726117, 0.014545132406056, -0.006736913230270, -0.087471455335617, -0.009964903816581, 0.069547697901726, -0.021086294203997, -0.023497039452195, -0.092078663408756
-0.110913507640362, 0.155765444040298, 0.209743753075600, 0.138414204120636, -0.043900743126869, -0.005773476790637, -0.129126787185669, -0.068087935447693, 0.161407813429832, 0.142030686140060, -0.145616188645363, 0.221076115965843, 0.058233708143234, -0.220659434795380, 0.227539777755737, -0.143111795186996
0.168812721967697, -0.015636552125216, 0.000006686779670, 0.101720295846462, -0.132786184549332, 0.180236190557480, 0.125608503818512, 0.082787372171879, -0.002693111309782, 0.176176413893700, -0.125242069363594, 0.006566270720214, 0.174276158213615, 0.025766381993890, -0.067913338541985, -0.143918812274933
-0.053626865148544, 0.021029844880104, 0.007023908663541, 0.009735140018165, 0.019904782995582, -0.029117004945874, -0.010237826965749, -0.046725690364838, 0.002463779412210, -0.025909578427672, 0.008032083511353, -0.003408053657040, 0.036612633615732, 0.006230935454369, 0.008686026558280, 0.002068986417726
-0.204677879810333, 0.082600876688957, 0.185929939150810, -0.024477103725076, -0.079394266009331, -0.111845456063747, 0.228429481387138, -0.163863718509674, 0.033914644271135, 0.168824031949043, 0.139527603983879, -0.218327090144157, -0.056855790317059, 0.235345602035522, -0.121026203036308, 0.325215756893158
-0.001778872101568, 0.082863830029964, 0.048222687095404, 0.034690350294113, -0.052638281136751, 0.013271262869239, 0.027643600478768, -0.019137404859066, 0.043176967650652, 0.056350067257881, -0.024065965786576, 0.012354883365333, 0.031100615859032, 0.012047661468387, 0.022055100649595, -0.019385872408748
-0.016497531905770, 0.016477104276419, 0.016521532088518, -0.039209473878145, 0.008721467107534, -0.003948805388063, 0.047107800841331, -0.028204206377268, -0.010351497679949, -0.021522687748075, -0.009589266963303, -0.064509145915508, -0.009152473881841, 0.085009485483170, -0.044095262885094, 0.052022516727448
-0.049956962466240, -0.061735205352306, -0.023927075788379, -0.091234326362610, -0.017635714262724, -0.001570674125105, -0.113396555185318, 0.093219421803951, 0.025456389412284, -0.059812605381012, -0.000714958063327, 0.173213541507721, -0.096360974013805, -0.144034788012505, 0.169642940163612, 0.040372669696808
-0.061358693987131, 0.000640725018457, 0.001577208517119, -0.003007302526385, 0.131856516003609, -0.072740018367767, -0.072272129356861, 0.019055401906371, -0.041474040597677, -0.052776478230953, 0.095290243625641, 0.103037983179092, 0.016451368108392, -0.039465703070164, 0.055885568261147, 0.086280159652233
-0.030208915472031, -0.050944507122040, -0.017967507243156, 0.061089430004358, -0.077670283615589, 0.056478142738342, 0.024638257920742, -0.001144591718912, -0.076266296207905, 0.069508783519268, 0.060963951051235, -0.020905125886202, 0.038520950824022, 0.035487115383148, 0.000180047587492, -0.086394682526588
0.200200825929642, -0.008121255785227, 0.150852963328362, -0.060500554740429, 0.151624664664268, -0.057828847318888, 0.001118709682487, 0.053414385765791, 0.034766905009747, 0.022698827087879, -0.117443852126598, 0.100203894078732, 0.109536640346050, 0.114235118031502, -0.046820055693388, -0.027582444250584
-0.022180693224072, 0.018757462501526, 0.031867463141680, 0.075236789882183, 0.000947172637098, -0.014051849022508, -0.044464357197285, -0.053077287971973, 0.019801456481218, 0.046733096241951, -0.001205310225487, 0.044886261224747, 0.048047944903374, -0.038125496357679, 0.047789271920919, -0.013092904351652
-0.018288467079401, -0.004841370973736, -0.015921192243695, -0.015926793217659, 0.024587381631136, -0.008805433288217, -0.043199364095926, 0.025373583659530, -0.008193122223020, -0.015296683646739, 0.031444769352674, 0.031317275017500, -0.051502529531717, -0.013645298779011, 0.030260717496276, 0.023084292188287
0.016861196607351, 0.256896227598190, -0.248709157109261, 0.146573826670647, 0.213516965508461, 0.019946241751313, -0.053067762404680, -0.046578537672758, 0.229383438825607, -0.258971989154816, -0.107532337307930, -0.089529782533646, 0.209388196468353, -0.078199088573456, 0.005271807312965, -0.015964170917869
-0.035383556038141, 0.017666285857558, -0.025775868445635, -0.013405598700047, 0.070722453296185, -0.036524966359138, -0.050458066165447, 0.018180044367909, 0.015200305730104, -0.044794332236052, 0.020729292184114, 0.008947561495006, -0.016843052580953, 0.002584643429145, 0.024522149935365, 0.026491058990359
0.013851697556674, 0.004445181228220, -0.006295549683273, -0.000541844521649, -0.012289649806917, 0.010851271450520, 0.011705741286278, 0.007763877976686, 0.003940905444324, -0.008145998232067, -0.005273082759231, -0.012508788146079, -0.010045406408608, -0.007628737017512, 0.003197537735105, -0.004392885137349
0.021729819476604, 0.013658343814313, -0.000407354295021, 0.003277915995568, -0.014370828866959, 0.016213728114963, 0.014304984360933, 0.021226363256574, 0.007357293274254, -0.001918720197864, -0.002903738291934, -0.001782534993254, -0.005682385992259, -0.011188688687980, 0.014956272207201, -0.002405959181488
0.147114530205727, -0.022477094084024, 0.129203617572784, -0.031457226723433, 0.106533899903297, -0.013385138474405, -0.001411790726706, 0.034990333020687, -0.024841047823429, 0.023928979411721, -0.097026415169239, 0.048526026308537, 0.101912990212440, 0.116818033158779, -0.112936981022358, -0.017734209075570
0.001356991007924, 0.000728020444512, 0.000921818718780, 0.005349856801331, -0.005845634266734, 0.004827694036067, 0.007374843582511, 0.003715808503330, 0.005043657030910, 0.001215568277985, -0.000808641780168, -0.006264530122280, 0.003262920770794, -0.001980813685805, -0.002544262679294, -0.006839529611170
0.204119503498077, -0.007593350484967, 0.063554026186466, -0.066602982580662, 0.154216840863228, 0.074635446071625, -0.040800582617521, 0.130861356854439, 0.044090729206800, -0.024039724841714, -0.097598999738693, 0.073005244135857, 0.044349431991577, 0.036890160292387, 0.020870639011264, -0.016803774982691
-0.005346194375306, 0.030409151688218, 0.046221707016230, 0.039651252329350, -0.045732181519270, 0.032063636928797, -0.026675818488002, 0.054703347384930, 0.062315024435520, 0.050484552979469, -0.048371259123087, 0.067496523261070, -0.017640324309468, -0.068126082420349, 0.092505320906639, -0.021545834839344
0.233132719993591, 0.173937842249870, 0.064400933682919, 0.058926798403263, 0.120111435651779, 0.147044122219086, 0.073042571544647, 0.076046556234360, 0.073846749961376, 0.107578940689564, -0.197519138455391, -0.003238101722673, 0.193465113639832, 0.044515158981085, -0.042584143579006, -0.126591712236404
0.000362054386642, 0.006834157742560, 0.009947708807886, -0.012262112461030, -0.001531893503852, 0.002518946537748, -0.010836116038263, -0.023698719218373, 0.015013545751572, -0.001168686663732, -0.022242328152061, 0.007451659999788, -0.001246747910045, -0.025218347087502, 0.008543296717107, -0.003838676959276
0.099428229033947, -0.038626790046692, -0.096577756106853, 0.044928483664989, -0.102927029132843, 0.092200011014938, 0.088021963834763, 0.085703596472740, -0.038752548396587, 0.037647172808647, -0.013358938507736, -0.059004284441471, -0.039173778146505, -0.051863960921764, 0.008189623244107, -0.062090247869492
0.140123665332794, -0.125471249222755, 0.010306245647371, -0.119696386158466, -0.012439733371139, 0.090734727680683, -0.042027812451124, 0.184376582503319, -0.126430794596672, 0.000035003060475, -0.204736888408661, 0.124079190194607, 0.006312654353678, -0.050230506807566, -0.091141335666180, -0.116628371179104
-0.060681920498610, 0.077185221016407, 0.015849774703383, 0.150274291634560, 0.037664748728275, -0.031580172479153, 0.009531199932098, -0.077260717749596, 0.068751767277718, -0.005997285712510, 0.092736549675465, -0.033497083932161, 0.126191258430481, 0.071943752467632, -0.032831471413374, 0.029776971787214
-0.103329524397850, -0.082046732306480, -0.166961356997490, -0.013978867791593, -0.020091146230698, 0.015891730785370, 0.003688339609653, 0.205331504344940, -0.014465657062829, -0.021368769928813, 0.278509765863419, 0.063840776681900, -0.032810077071190, -0.145935773849487, 0.188986495137215, 0.184684500098228
0.013303303159773, -0.007015120703727, 0.042338438332081, 0.001252878224477, 0.003243773709983, -0.006098916754127, -0.046353936195374, 0.005239320918918, -0.010636621154845, 0.018552217632532, -0.037857417017221, 0.027408223599195, 0.025947518646717, -0.004307845607400, -0.029085353016853, -0.000850118114613
0.147313803434372, 0.075500138103962, 0.004834769293666, -0.085959196090698, -0.062947459518909, 0.072738409042358, 0.097377799451351, 0.125138521194458, 0.133436679840088, -0.044613491743803, -0.097652949392796, 0.005226743407547, -0.059885263442993, -0.063783757388592, 0.063753910362720, 0.019078852608800
-0.041738953441381, 0.108127154409885, -0.089021191000938, 0.215101569890976, 0.066050790250301, -0.048245497047901, 0.079604305326939, -0.141742959618568, 0.105643332004547, -0.089153520762920, 0.028303565457463, -0.160005018115044, 0.105817861855030, 0.099166512489319, -0.031515955924988, 0.032785132527351
0.115895435214043, 0.006669493857771, -0.014293544925749, -0.014442782849073, 0.091600917279720, 0.016142187640071, 0.016208657994866, 0.002182243857533, 0.017955528572202, -0.022206805646420, -0.168653771281242, 0.002380018122494, 0.142091929912567, 0.069002211093903, -0.061103645712137, -0.085771918296814
0.204192280769348, 0.156557634472847, -0.021974151954055, -0.145873680710793, -0.019338637590408, 0.153453186154366, 0.196417510509491, 0.248172566294670, 0.113580554723740, -0.101890817284584, -0.179481863975525, 0.004911715164781, -0.076532103121281, -0.036699447780848, 0.030558450147510, -0.015402414835989
-0.099118702113628, 0.006179906427860, 0.087667852640152, 0.024959564208984, -0.173865377902985, -0.010859488509595, 0.051909457892179, 0.072929002344608, 0.039089985191822, 0.081245258450508, 0.050613511353731, 0.181153699755669, -0.121238291263580, -0.040570706129074, 0.194811731576920, 0.129945665597916
0.035879898816347, 0.038030344992876, -0.015765605494380, -0.041361246258020, -0.016452271491289, 0.027395579963923, 0.041453082114458, 0.017587946727872, 0.014155522920191, -0.022383753210306, -0.027912106364965, -0.024548055604100, -0.045836482197046, -0.006491657812148, 0.027267208322883, 0.004409309010953
-0.081482060253620, -0.033185299485922, -0.016056399792433, 0.019035942852497, 0.062065143138170, -0.044341821223497, -0.086481884121895, -0.021794060245156, -0.044266998767853, -0.023672651499510, -0.032175321131945, -0.013999715447426, 0.051038455218077, -0.021613482385874, -0.038326673209667, 0.014827478677034
0.147954270243645, 0.013972942717373, 0.034467168152332, -0.047871101647615, 0.194981426000595, -0.067740783095360, -0.098448991775513, 0.049167346209288, -0.073387466371059, -0.066307857632637, 0.013599419966340, 0.053183872252703, 0.128757506608963, 0.151484742760658, -0.050931077450514, 0.013299241662025
-0.207591176033020, 0.075217016041279, -0.147790938615799, 0.049156047403812, 0.277723699808121, -0.177172660827637, -0.049755796790123, 0.068784877657890, -0.101935788989067, -0.112225845456123, 0.428869068622589, 0.177534893155098, 0.089999191462994, 0.025729697197676, 0.256954282522202, 0.291637808084488
-0.116404287517071, -0.090419232845306, 0.104265868663788, 0.009469007141888, -0.051634408533573, -0.026135921478271, -0.078666128218174, -0.053692158311605, -0.039208266884089, 0.081458993256092, 0.050457056611776, 0.027882516384125, -0.027848295867443, 0.007482894230634, 0.021140944212675, 0.058344911783934
-0.052690364420414, 0.057791743427515, 0.063679642975330, 0.066126264631748, -0.045999675989151, -0.005334299057722, -0.039700336754322, -0.094968527555466, 0.044646102935076, 0.096977539360523, -0.008889100514352, 0.085107699036598, 0.040758755058050, -0.071861825883389, 0.054930102080107, -0.032438613474369
-0.006763747893274, -0.041755653917789, -0.048285797238350, -0.101115912199020, 0.039076682180166, -0.013769922778010, -0.046091750264168, 0.134197041392326, -0.008850039914250, -0.066736318171024, 0.052583158016205, 0.133246168494225, -0.144294857978821, -0.078781291842461, 0.169356346130371, 0.107934661209583
0.124629996716976, 0.023733796551824, 0.149559170007706, -0.043891567736864, -0.043722201138735, 0.072724200785160, 0.051304854452610, 0.008285717107356, 0.040386643260717, 0.081527203321457, -0.051439531147480, 0.045281518250704, 0.018820920959115, 0.056963998824358, -0.044995252043009, -0.020864685997367
0.109959691762924, -0.129196763038635, 0.140372395515442, -0.284090369939804, 0.167370706796646, -0.072010546922684, -0.046499729156494, 0.103669822216034, -0.131215378642082, -0.080201372504234, -0.117788612842560, 0.176621273159981, -0.135250821709633, -0.025923937559128, 0.013828721828759, 0.156128317117691
-0.113492526113987, -0.119105927646160, -0.165757924318314, 0.083422452211380, -0.187767118215561, 0.140838503837585, 0.333952844142914, 0.090845823287964, -0.030612356960773, 0.016473388299346, 0.488330692052841, -0.391412407159805, -0.213748320937157, 0.158482849597931, 0.049468051642179, 0.298850923776627
0.089343339204788, 0.022266717627645, 0.048708353191614, -0.099390313029289, -0.003318853909150, 0.053845111280680, 0.044777102768421, 0.049101572483778, -0.015870125964284, 0.004039976745844, -0.063558466732502, 0.015125058591366, -0.046388976275921, -0.030763089656830, 0.035094879567623, -0.005822368897498
0.019231649115682, 0.030460324138403, -0.008690888062119, -0.030748883262277, -0.005072454456240, 0.012547755613923, 0.015083846636117, 0.015283148735762, 0.013493930920959, -0.023757597431540, -0.008384674787521, -0.015641184523702, -0.043870188295841, -0.033476032316685, 0.007678965106606, 0.012136416509748
-0.083283238112926, 0.044017728418112, 0.151290416717529, 0.116916410624981, -0.026999840512872, -0.015051907859743, -0.125175952911377, -0.126980453729630, 0.033970162272453, 0.111988767981529, -0.065973155200481, 0.151944816112518, 0.081554085016251, -0.040335997939110, 0.065977968275547, -0.061617132276297
0.051650572568178, 0.067414723336697, 0.006129989400506, -0.073679812252522, -0.017742071300745, 0.013660338707268, 0.002702499972656, 0.030526598915458, 0.098913013935089, -0.055573511868715, -0.051459018141031, -0.013871415518224, -0.098464012145996, -0.097306422889233, 0.077977538108826, 0.009163415059447
0.090554565191269, -0.005547147244215, -0.119415983557701, 0.097016751766205, -0.304465949535370, 0.221695035696030, 0.223462820053101, 0.037799619138241, -0.050476755946875, 0.152712911367416, -0.015430096536875, -0.260726928710938, 0.067585818469524, 0.077008642256260, -0.052758406847715, -0.271235018968582
0.065418362617493, -0.051587849855423, 0.104651913046837, -0.050185374915600, 0.058766681700945, 0.006683305837214, -0.036023221910000, 0.032889984548092, -0.068159878253937, 0.014440472237766, -0.025527451187372, 0.027484791353345, 0.070411503314972, 0.033665578812361, -0.024477252736688, -0.024234483018517
-0.087689302861691, 0.149757668375969, -0.064421422779560, 0.109918124973774, 0.131562232971191, -0.047666225582361, 0.012272674590349, -0.141061723232269, 0.066601209342480, -0.045952193439007, 0.054034505039454, -0.162924736738205, 0.105320423841476, 0.084697440266609, -0.073728308081627, 0.071560293436050
0.104333713650703, 0.009511587210000, 0.022173319011927, -0.086855463683605, 0.030908947810531, 0.032826200127602, 0.000797007582150, 0.079185619950294, 0.032074991613626, -0.063981644809246, -0.041192002594471, -0.024243216961622, -0.071206159889698, -0.033858291804790, 0.009344410151243, 0.017624948173761
0.035529833287001, -0.028967358171940, 0.050160825252533, -0.019227283075452, 0.051241528242826, -0.000824961811304, -0.030536772683263, 0.026880018413067, -0.049939140677452, 0.012415330857038, -0.006477217655629, 0.043534770607948, 0.034265376627445, 0.015108975581825, -0.020412402227521, -0.002528706332669
-0.004555540159345, 0.001809235662222, 0.014673779718578, -0.000647941778880, -0.018323825672269, 0.006313097663224, 0.012395560741425, 0.004488276317716, 0.013291100040078, -0.004918296821415, -0.016326794400811, -0.006873788312078, -0.002047335496172, -0.000694022630341, 0.006175920367241, -0.000099785276689
-0.024878844618797, -0.046091038733721, 0.078474029898643, -0.007135163526982, -0.020233344286680, -0.017065336927772, 0.060071039944887, 0.034938029944897, -0.035436771810055, 0.152680471539497, 0.156565815210342, 0.033232387155294, -0.028881918638945, 0.086477078497410, -0.003685722360387, 0.122214488685131
0.005109234247357, 0.018668608739972, -0.078625567257404, 0.049888443201780, -0.001028806436807, 0.030264217406511, 0.008892279118299, 0.020631335675716, 0.032182477414608, -0.011451890692115, -0.012012244202197, -0.011512111872435, 0.039623919874430, -0.010228425264359, 0.007807288318872, -0.014657528139651
0.015265880152583, -0.093452095985413, 0.004977589473128, -0.038518991321325, 0.047357104718685, -0.025971719995141, -0.042343605309725, 0.056521177291870, -0.037530418485403, 0.027920512482524, -0.001957535278052, 0.074236504733562, -0.020237226039171, -0.030021604150534, 0.019760839641094, 0.025839138776064
-0.003628204343840, -0.055323950946331, 0.219833105802536, -0.000000201972114, -0.012168847955763, -0.000007409413683, 0.147382274270058, 0.023430420085788, -0.033153641968966, 0.269423782825470, 0.112147711217403, -0.006530464161187, -0.036463338881731, 0.226794943213463, -0.098060406744480, 0.185978353023529
-0.018988907337189, -0.004711349029094, 0.075127467513084, -0.026870623230934, -0.069488056004047, -0.029056645929813, 0.065299935638905, -0.021444968879223, 0.002408897271380, 0.023586735129356, 0.052081480622292, -0.024476174265146, -0.091796942055225, 0.021423587575555, 0.015240688808262, 0.060083169490099
0.055473715066910, -0.077916085720062, -0.015332214534283, -0.019715612754226, -0.030044332146645, 0.065589159727097, 0.063609741628170, 0.054090015590191, -0.075325995683670, 0.022553551942110, -0.011273112148046, -0.008558169938624, 0.020687777549028, 0.021216457709670, -0.024714460596442, -0.066125251352787
0.000002477816906, 0.000005667719051, 0.000004626865120, 0.000002382044840, -0.000001584882170, 0.000000786399198, 0.000002503368478, -0.000006816163022, 0.000001329240945, -0.000001826162588, 0.000000412028101, 0.000000487099840, -0.000006119961199, -0.000006503899385, -0.000002717126563, 0.000005717494787
0.052655119448900, 0.048290137201548, -0.003662175266072, -0.005523034371436, -0.013673561625183, 0.039902772754431, 0.040992818772793, 0.026116939261556, 0.055515464395285, -0.015934940427542, -0.026502357795835, -0.042790189385414, -0.017203073948622, -0.003562533529475, 0.032909411936998, 0.010280114598572
0.064188040792942, 0.016417598351836, 0.181871294975281, -0.179395854473114, -0.026042737066746, -0.045803416520357, 0.185689598321915, 0.013076692819595, 0.044250044971704, 0.008214412257075, 0.163247421383858, -0.072732098400593, -0.090968474745750, 0.152843281626701, -0.068179227411747, 0.219161152839661
0.001728153089061, 0.018073020502925, -0.008339155465364, 0.051475252956152, 0.004949456080794, 0.004645129200071, 0.020163225010037, -0.032603517174721, -0.007939778268337, 0.021643182262778, 0.007625839207321, 0.000112221780000, 0.094739235937595, 0.011537754908204, -0.078767687082291, -0.026147732511163
0.085974387824535, -0.007238223217428, 0.047195855528116, -0.000564230373129, 0.032868009060621, 0.054500840604305, -0.036248717457056, 0.055168453603983, -0.016470454633236, 0.033801302313805, -0.104826115071774, 0.021401835605502, 0.052691496908665, 0.040965337306261, -0.059034414589405, -0.047610286623240
-0.121187806129456, 0.075660526752472, -0.028198782354593, 0.157787278294563, 0.132354572415352, -0.110086232423782, 0.037673681974411, -0.133391842246056, 0.074496783316135, -0.001519837067463, 0.000457830727100, -0.003231000155210, 0.131165891885757, 0.057728901505470, -0.032053004950285, 0.035085063427687
-0.024744614958763, 0.222385644912720, -0.218131929636002, 0.153048112988472, 0.202731192111969, -0.006572460290045, -0.073832452297211, -0.038719404488802, 0.233635976910591, -0.221641331911087, -0.052734609693289, -0.017172152176499, 0.191127493977547, -0.016859650611877, -0.015825930982828, 0.005154038779438
0.019086118787527, 0.072759062051773, -0.002097652759403, 0.008316038176417, 0.038668069988489, -0.030226975679398, 0.031794540584087, -0.042468056082726, 0.054990444332361, -0.035279199481010, 0.018915385007858, -0.040866550058126, 0.030574761331081, 0.049103047698736, -0.024445202201605, 0.033755227923393
-0.015279034152627, -0.009345795959234, -0.032732460647821, 0.110165327787399, -0.104528553783894, 0.086700394749641, 0.068405382335186, 0.023770339787006, 0.018178895115852, 0.124054871499538, 0.067149542272091, 0.015349145978689, 0.038113057613373, 0.009540573693812, 0.067170888185501, -0.083772994577885
0.165768101811409, 0.191642850637436, 0.071558006107807, -0.051180962473154, -0.160546362400055, 0.147548049688339, 0.091259464621544, 0.004322473425418, 0.195083424448967, -0.010033542290330, -0.190979033708572, -0.143251106142998, -0.064672730863094, -0.108276732265949, 0.135561525821686, -0.133909672498703
-0.005610381253064, -0.086001217365265, 0.195414468646049, -0.045532234013081, -0.006826582364738, -0.015573490411043, 0.002429392188787, -0.008171896450222, -0.042479738593102, 0.085549585521221, 0.011770839802921, 0.129464015364647, -0.010704289190471, -0.000079190416727, 0.015573475509882, 0.087020576000214
-0.129077136516571, -0.012625069357455, -0.029799504205585, 0.081583686172962, 0.029877625405788, -0.079157598316669, -0.073922254145145, -0.029975052922964, 0.015982817858458, -0.017825201153755, 0.029835026711226, 0.019813245162368, -0.003607270307839, -0.021665392443538, 0.002045503351837, 0.028940696269274
-0.068816430866718, -0.114706702530384, -0.125229701399803, -0.100255884230137, 0.106507301330566, -0.121569812297821, -0.165948659181595, 0.189009130001068, -0.021856481209397, -0.122367665171623, 0.127131387591362, 0.175996661186218, -0.136706620454788, -0.213492318987846, 0.182340696454048, 0.155937597155571
-0.055138725787401, 0.177673950791359, 0.345024019479752, 0.212636187672615, -0.125613465905190, 0.052191555500031, -0.069748982787132, -0.189259856939316, 0.151597291231155, 0.366436868906021, -0.141694620251656, 0.278781294822693, 0.260885715484619, -0.014761949889362, 0.208843424916267, -0.187650009989738
0.006415428128093, 0.146629035472870, -0.020415991544724, 0.028119567781687, -0.006241572089493, 0.078230172395706, 0.195060297846794, 0.129517540335655, 0.123968169093132, -0.099970579147339, 0.155166953802109, -0.045023471117020, -0.068665526807308, 0.099095582962036, 0.120552808046341, 0.146979436278343
0.182716056704521, 0.060388747602701, 0.138267099857330, -0.006583146750927, -0.018734125420451, 0.033713262528181, -0.072725310921669, 0.038946852087975, 0.125018939375877, 0.042863111943007, -0.207932367920876, 0.099058099091053, 0.026701791211963, -0.107380151748657, 0.118173740804195, 0.006163601763546
-0.022349111735821, -0.053586110472679, 0.026876119896770, -0.081617958843708, 0.111991047859192, 0.020074753090739, 0.106446951627731, 0.245880708098412, 0.105035521090031, 0.109840057790279, 0.477095544338226, 0.221460893750191, -0.090971998870373, 0.164842933416367, 0.369233518838882, 0.170910075306892
-0.074572071433067, 0.043852459639311, -0.033206429332495, 0.082429051399231, 0.008966116234660, -0.016602421179414, -0.069518268108368, -0.007577581331134, 0.051431588828564, 0.015146726742387, 0.008520271629095, 0.071557521820068, 0.016563424840569, -0.072647005319595, 0.066408656537533, -0.019912159070373
0.016732739284635, -0.055976424366236, -0.020887523889542, -0.025087259709835, -0.162876754999161, 0.015797041356564, 0.115495570003986, -0.008844475261867, -0.023724071681499, 0.010340284556150, 0.079387895762920, -0.118763722479343, -0.099781565368176, 0.070780523121357, -0.004650849383324, -0.022408990189433
0.209298416972160, 0.121574729681015, 0.275732457637787, 0.233070820569992, -0.418521612882614, 0.429220497608185, 0.006055641919374, 0.136382043361664, 0.341311812400818, 0.406336635351181, -0.274094760417938, 0.031238017603755, -0.026979248970747, -0.302263170480728, 0.405902951955795, -0.426258265972137
0.199131667613983, 0.094936557114124, 0.036595225334167, -0.078146882355213, -0.024921897798777, 0.098540201783180, 0.023727558553219, 0.138305976986885, 0.147694617509842, -0.019143348559737, -0.141628190875053, 0.024368647485971, -0.071953155100346, -0.118373379111290, 0.103622801601887, -0.012119786813855
0.002962113358080, -0.029975416138768, -0.022187801077962, -0.042132914066315, 0.020563347265124, -0.009423622861505, 0.004969952628016, 0.044848483055830, -0.008501353673637, -0.030920498073101, 0.017055861651897, 0.011637637391686, -0.035330768674612, -0.050721202045679, 0.052792772650719, 0.044855337589979
-0.020932577550411, 0.017325727269053, -0.073140017688274, 0.036227259784937, 0.032749958336353, -0.017350420355797, -0.028433397412300, -0.013473711907864, 0.036705508828163, -0.033775832504034, -0.015953080728650, 0.009388925507665, 0.020897671580315, -0.011047870852053, 0.011279434897006, -0.006708662025630
0.075237907469273, -0.026408100500703, 0.087172433733940, -0.010575746186078, 0.028208110481501, 0.019023599103093, -0.041580740362406, 0.039066627621651, -0.039992798119783, 0.051214985549450, -0.073776833713055, 0.047550871968269, 0.064699858427048, 0.025087572634220, -0.043693110346794, -0.045307807624340
-0.169086948037148, -0.297034561634064, 0.407217502593994, -0.336829990148544, -0.210734084248543, -0.143131256103516, 0.237796857953072, -0.270668029785156, -0.162981569766998, 0.252775192260742, 0.186327874660492, -0.181000694632530, -0.332676053047180, 0.227332368493080, -0.184634074568748, 0.369732260704041
-0.037918191403151, 0.062580563127995, -0.000577750150114, 0.004945031832904, 0.029050696641207, -0.026712983846664, -0.008032576180995, -0.069495171308517, 0.023298535495996, -0.016547292470932, 0.009754749014974, -0.016906177625060, 0.039030902087688, 0.041378822177649, -0.033836107701063, 0.030683433637023
-0.008533592335880, 0.021305667236447, 0.013625997118652, 0.061463538557291, -0.091447561979294, 0.054522853344679, 0.040763814002275, -0.051624253392220, 0.002535633044317, 0.083118721842766, 0.054247830063105, -0.069753229618073, 0.040939655154943, 0.082739584147930, -0.061516828835011, -0.058505367487669
-0.108304902911186, 0.009649518877268, -0.105924099683762, -0.030717412009835, 0.105107389390469, -0.127998292446136, -0.041342731565237, 0.052729077637196, 0.027843363583088, -0.131178215146065, 0.104758337140083, 0.084144465625286, -0.119970552623272, -0.097136922180653, 0.077252581715584, 0.117796644568443
-0.049141991883516, 0.063547886908054, 0.087613932788372, 0.095759309828281, -0.003768996568397, -0.026772446930408, -0.059420909732580, -0.064978770911694, 0.047493129968643, 0.100685134530067, -0.027079358696938, 0.076007314026356, 0.090692207217216, -0.012740982696414, 0.064965315163136, -0.035598516464233
-0.022478617727757, 0.015485163778067, 0.030273579061031, 0.033654328435659, -0.007243972737342, -0.009586806409061, -0.022689865902066, -0.030533814802766, 0.015690859407187, 0.035868737846613, -0.011685319244862, 0.028806636109948, 0.043176472187042, 0.001312892884016, 0.022430879995227, -0.013287330046296
-0.004254398401827, -0.013583105057478, -0.047399535775185, 0.018690377473831, -0.033869303762913, 0.027979293838143, 0.000174780143425, 0.043502867221832, 0.020452689379454, -0.013415137305856, 0.000899219943676, -0.012539138086140, -0.017566930502653, -0.032354079186916, 0.005059003829956, -0.014686616137624
-0.054383225739002, -0.062874928116798, -0.039408009499311, -0.018013956025243, 0.015943398699164, -0.029628822579980, -0.013937954790890, 0.014580021612346, -0.011481412686408, -0.016857447102666, 0.058413565158844, 0.040490802377462, -0.026272732764482, -0.029467500746250, 0.016474002972245, 0.059334214776754
0.008826401084661, 0.004365318920463, 0.008206827566028, -0.008899760432541, 0.011811261065304, 0.008526448160410, 0.011347462423146, 0.007774033118039, -0.002163032768294, -0.006199644878507, -0.019906880334020, -0.001923352479935, -0.012247213162482, 0.001082672970369, 0.010275751352310, 0.007173075806350
0.026396647095680, 0.136658042669296, -0.020124468952417, 0.116368867456913, 0.058095678687096, -0.021717065945268, -0.029252421110868, -0.045362539589405, 0.121345110237598, -0.029587130993605, -0.078905805945396, 0.013525358401239, 0.135010391473770, -0.002499413443729, 0.019450254738331, -0.027291804552078
0.021440071985126, -0.020059464499354, 0.059684973210096, -0.072275765240192, 0.058893505483866, -0.018669102340937, -0.041924804449081, 0.024069903418422, -0.065422140061855, -0.014502199366689, -0.003765624016523, 0.053419135510921, -0.009671141393483, 0.004239727277309, 0.022253543138504, 0.028430368751287
-0.026668721809983, 0.322266370058060, 0.136049270629883, 0.278337657451630, -0.089123517274857, 0.115687191486359, 0.082659304141998, -0.214143112301826, 0.230257183313370, 0.204045817255974, -0.112349435687065, -0.110710985958576, 0.185769781470299, 0.093057557940483, -0.031607814133167, -0.142508000135422
-0.017890458926558, 0.037904471158981, -0.002709736349061, 0.009473152458668, 0.026255432516336, 0.000813914462924, 0.027012784034014, -0.006349283270538, 0.021817984059453, -0.030491024255753, 0.014969832263887, -0.031398739665747, 0.036521621048450, 0.028073215857148, 0.003430479206145, 0.016733817756176
-0.032145328819752, 0.120662324130535, 0.092868246138096, 0.115498416125774, -0.026444386690855, -0.000333774660248, -0.035167511552572, -0.088044382631779, 0.072932131588459, 0.092506892979145, -0.003349137259647, 0.043007750064135, 0.077807806432247, -0.050771374255419, 0.079581744968891, -0.029012374579906
-0.059837169945240, 0.040468078106642, 0.005098595283926, 0.034072350710630, -0.108775742352009, 0.037598438560963, 0.077054925262928, -0.103622935712337, 0.077355980873108, 0.061142779886723, 0.149695515632629, -0.183193489909172, -0.031674426048994, 0.120710238814354, -0.059113897383213, 0.037933606654406
-0.016286980360746, 0.034696478396654, -0.045917987823486, -0.020020402967930, 0.019747115671635, 0.012044746428728, 0.002745307050645, 0.001341845607385, 0.009653746150434, -0.032644446939230, 0.033393468707800, -0.007970910519361, -0.057627998292446, -0.041601248085499, 0.079815231263638, 0.050172492861748
0.038325659930706, -0.006348858587444, 0.016405124217272, -0.034969530999660, 0.003541095182300, 0.012691112235188, -0.034414310008287, 0.023733798414469, 0.010761423036456, -0.002312927041203, -0.032800264656544, 0.028301566839218, -0.010980937629938, 0.002613779157400, 0.014612532220781, -0.009678011760116
0.118043884634972, 0.022673552855849, -0.007728918921202, -0.042097236961126, -0.014171680435538, 0.070602655410767, 0.026010645553470, 0.094492882490158, 0.024292128160596, -0.043242383748293, -0.046449497342110, -0.033958569169044, -0.040242329239845, -0.028033604845405, 0.058215990662575, 0.002074018120766
0.032541636377573, 0.036690056324005, 0.076105110347271, 0.022615067660809, -0.018436724320054, -0.003817033022642, 0.042375266551971, -0.054910246282816, 0.003632244188339, 0.044567972421646, -0.013725205324590, -0.014008627273142, 0.004550741985440, 0.097685538232327, -0.032529756426811, 0.009356033056974
0.032854322344065, 0.038805998861790, 0.069990999996662, 0.023574169725180, -0.013687578029931, -0.004710300359875, 0.039783094078302, -0.051005981862545, 0.003578160190955, 0.039647489786148, -0.020736478269100, -0.013101821765304, 0.006646634079516, 0.088240958750248, -0.031553238630295, 0.000489999074489
-0.025521932169795, 0.045774746686220, 0.015140033327043, 0.012912568636239, -0.016003528609872, 0.011464618146420, -0.008446234278381, -0.033258371055126, 0.014649953693151, -0.013701198622584, -0.029361359775066, -0.002089711138979, -0.009587536565959, -0.017388971522450, 0.023405751213431, -0.017871167510748
-0.118560977280140, -0.086021780967712, 0.025981571525335, -0.118419297039509, 0.018155777826905, -0.087808288633823, -0.040495768189430, 0.042356140911579, -0.021836692467332, -0.019278185442090, 0.174735739827156, 0.070653371512890, -0.195232287049294, -0.024947667494416, 0.112938977777958, 0.225042015314102
-0.040666181594133, -0.104740194976330, 0.022614480927587, -0.076850801706314, -0.014849702827632, -0.025835916399956, -0.037146467715502, -0.034217406064272, -0.028041528537869, -0.006358704529703, 0.007495385129005, 0.064110808074474, -0.028740100562572, 0.011682525277138, 0.041533201932907, 0.015235965140164
-0.003633751533926, -0.034596994519234, 0.110666856169701, -0.035975798964500, -0.078392416238785, 0.000196334964130, 0.058047268539667, -0.021250862628222, -0.043882437050343, 0.065109126269817, 0.070201486349106, -0.027990300208330, -0.028173469007015, 0.094149075448513, -0.030667997896671, 0.071652509272099
-0.016220808029175, -0.010201646015048, 0.062170501798391, -0.035611785948277, -0.030029948800802, -0.036275729537010, 0.027779074385762, -0.022646898403764, -0.048271939158440, 0.031524378806353, 0.018506461754441, -0.003138268133625, -0.009395299479365, 0.067037440836430, -0.011577397584915, 0.048012323677540
0.008918333798647, -0.007738079875708, -0.024604953825474, -0.016388937830925, -0.029200576245785, 0.015712406486273, 0.006962617859244, 0.027892295271158, -0.005991565529257, -0.017799159511924, 0.009103469550610, 0.013434848748147, -0.025255450978875, -0.021380074322224, 0.016441633924842, 0.003148943884298
0.076069891452789, 0.003513510571793, 0.025691695511341, -0.001402882626280, 0.028002170845866, -0.080837868154049, -0.074137352406979, 0.006078545469791, -0.039416257292032, -0.002334485296160, -0.000353545910912, 0.041279695928097, 0.053845945745707, 0.078727900981903, -0.019294625148177, 0.008477766998112
-0.027012962847948, -0.044164989143610, 0.039865382015705, -0.050448693335056, -0.044727034866810, 0.001577386399731, 0.027120916172862, 0.007227802649140, -0.024021279066801, 0.000569135998376, 0.087727442383766, -0.024580365046859, -0.047305438667536, 0.031402900815010, 0.017633721232414, 0.097017124295235
0.223966479301453, -0.156528338789940, -0.063849814236164, 0.453767269849777, -0.033464517444372, 0.386885493993759, 0.354064375162125, 0.251787245273590, -0.223535075783730, 0.337017327547073, 0.035420041531324, -0.114789783954620, 0.360601395368576, 0.279621988534927, -0.252435207366943, -0.321008384227753
-0.041449520736933, 0.113944433629513, -0.054895076900721, 0.053721159696579, 0.074544206261635, -0.072687089443207, 0.030832942575216, -0.072977006435394, 0.129112273454666, -0.079837508499622, 0.022605389356613, -0.039488501846790, 0.072014100849628, 0.078464351594448, -0.011793540790677, 0.054173655807972
-0.032750423997641, -0.085742644965649, -0.028846891596913, -0.038300581276417, 0.029488671571016, -0.043215576559305, -0.048375330865383, 0.102018423378468, -0.017949413508177, -0.036511950194836, 0.203327745199203, 0.080199532210827, -0.028933368623257, -0.078956723213196, 0.147246703505516, 0.147016212344170
0.001961573027074, 0.000729344610590, -0.001603277865797, -0.005797443445772, -0.005523435771465, -0.000410012231441, 0.000629146932624, 0.000768358528148, 0.000016168574803, -0.002572372090071, -0.002876318525523, -0.003796913195401, 0.000238487002207, 0.000043184070819, 0.000141294396599, 0.000592678319663
0.052767492830753, 0.068542838096619, 0.046443946659565, 0.008471522480249, -0.024106176570058, 0.030632013455033, 0.002149359788746, -0.038628865033388, 0.053379390388727, 0.018010444939137, -0.063689351081848, 0.005299392621964, 0.000989906839095, 0.002827978460118, 0.066374868154526, -0.032775536179543
0.032980151474476, 0.010187371633947, 0.080116011202335, 0.083477325737476, 0.122826270759106, -0.067961849272251, -0.049694579094648, 0.066388577222824, 0.008548841811717, 0.009747640229762, 0.020584121346474, 0.110625013709068, 0.102768361568451, -0.020068751648068, 0.080382965505123, 0.040727432817221
0.015124307014048, -0.011534498073161, 0.022320827469230, -0.018049694597721, -0.000643557519652, 0.002740930067375, -0.007629312109202, 0.013104602694511, -0.020142795518041, 0.007845510728657, -0.004085379652679, 0.016589682549238, 0.021963465958834, 0.000439046707470, -0.004912983160466, -0.005373313091695
0.004602184519172, 0.052772387862206, 0.072792485356331, -0.057478956878185, -0.017148673534393, -0.012436184100807, 0.023620260879397, -0.052696939557791, 0.032618224620819, 0.028918471187353, 0.022956870496273, -0.011291787959635, -0.048009268939495, 0.066952407360077, -0.038607534021139, 0.051110502332449
0.004000633023679, -0.164243310689926, 0.008142463862896, 0.014720328152180, -0.069013744592667, 0.138046681880951, -0.053233977407217, 0.240575850009918, 0.000780352507718, 0.091827340424061, 0.015729110687971, 0.245083540678024, -0.047972489148378, -0.238533467054367, 0.359775215387344, -0.012574155814946
0.090351410210133, 0.089577086269855, 0.015195301733911, -0.052895754575729, 0.010017611086369, -0.002777993446216, 0.011859903112054, -0.000706237275153, 0.034796666353941, -0.050747711211443, -0.112213671207428, -0.030389450490475, -0.011687391437590, -0.024754626676440, 0.035714421421289, -0.025017732754350
-0.052876435220242, 0.042901497334242, -0.000680437544361, 0.063046947121620, 0.007096794899553, -0.015417596325278, 0.001639037393034, -0.071949735283852, 0.016946757212281, 0.013049637898803, 0.000290259718895, -0.032791342586279, 0.063346192240715, 0.037622243165970, -0.026350375264883, -0.032493878155947
-0.126344993710518, 0.158646315336227, 0.017896272242069, -0.013809949159622, 0.024054011330009, -0.091458626091480, 0.164967626333237, 0.044362623244524, 0.166239872574806, 0.033214163035154, 0.221653059124947, 0.029287405312061, 0.021595187485218, 0.075369954109192, 0.213637530803680, 0.293103277683258
0.030441354960203, 0.075760275125504, -0.033029597252607, 0.046345934271812, 0.096161536872387, -0.019493548199534, -0.003038820577785, -0.030686590820551, 0.056119639426470, -0.045117281377316, -0.071359522640705, 0.004754226654768, 0.135494619607925, 0.024023581296206, 0.010813895612955, -0.002533707302064
-0.011266634799540, -0.003825820516795, 0.020833769813180, 0.000410927081248, -0.031734116375446, -0.001882219919935, 0.019181901589036, -0.028418933972716, 0.001261236611754, 0.014585187658668, 0.022615049034357, -0.006625964771956, -0.017379781231284, 0.023934995755553, -0.002576874336228, 0.020429523661733
-0.044352218508720, 0.056664507836103, 0.011460251174867, 0.051105678081512, 0.079927116632462, -0.054726511240005, 0.005812423303723, -0.031273581087589, 0.058802995830774, -0.006049208808690, 0.061866294592619, -0.033966928720474, 0.056484594941139, 0.062754184007645, -0.066667966544628, 0.063426859676838
0.017896983772516, -0.002265087328851, 0.050125442445278, 0.033730793744326, 0.036859914660454, 0.004943045321852, -0.043010499328375, -0.003276007715613, 0.001885632285848, 0.039111960679293, -0.041339762508869, 0.048498094081879, 0.050306480377913, 0.011309978552163, 0.002032353077084, -0.013013649731874
0.043072152882814, 0.004200723487884, 0.013440880924463, -0.062063183635473, 0.006787641439587, -0.005225825589150, -0.000034329248592, 0.051908567547798, -0.010905623435974, -0.020541001111269, -0.011420386843383, 0.027353987097740, -0.037434160709381, -0.035154450684786, 0.000980589422397, 0.038836497813463
-0.001592701766640, 0.008933501318097, 0.013539193198085, 0.010723955929279, -0.003180658211932, 0.000719275849406, -0.017824895679951, -0.016087431460619, 0.006980177480727, 0.010101857595146, -0.002184932818636, 0.007140255533159, 0.008958918973804, -0.000336299592163, 0.008776209317148, -0.002632166724652
-0.116586714982986, -0.102328732609749, -0.065142251551151, 0.040402930229902, 0.020019078627229, 0.018112925812602, -0.029711924493313, 0.104085609316826, 0.005867366679013, -0.003198645077646, 0.103762969374657, 0.071013294160366, -0.084397010505199, -0.093246176838875, 0.067269310355186, 0.055930454283953
0.038638129830360, 0.152037635445595, -0.081212230026722, 0.244776248931885, 0.232746049761772, 0.036209829151630, 0.178512856364250, -0.175131559371948, 0.003371238242835, 0.131849721074104, 0.255559861660004, -0.346402376890182, 0.371973752975464, 0.359101772308350, -0.305524826049805, 0.098843179643154
0.033814135938883, -0.028779368847609, 0.066500872373581, -0.028937224298716, 0.048613939434290, -0.009824154898524, -0.044814500957727, 0.027271116152406, -0.036558043211699, 0.009899874217808, -0.012351611629128, 0.027175201103091, 0.035671412944794, 0.021786764264107, -0.021150985732675, -0.000709075946361
0.033147655427456, 0.024817835539579, 0.002931563649327, -0.020559044554830, -0.014456450939178, 0.021725602447987, 0.022665292024612, 0.028983863070607, 0.018703380599618, -0.023331327363849, -0.018605263903737, -0.006847927812487, -0.004905352368951, -0.010500595904887, 0.024816006422043, 0.001823856728151
0.021524893119931, 0.045993015170097, 0.035511668771505, 0.005291329696774, -0.010123318061233, -0.017210913822055, 0.017192037776113, -0.052032746374607, 0.016436647623777, -0.008185873739421, -0.029718548059464, 0.015156132169068, 0.024821177124977, -0.001545379753225, -0.048542618751526, -0.001124700414948
0.208559915423393, -0.170539796352386, 0.189005360007286, -0.123529493808746, 0.060294069349766, -0.004349628463387, -0.107939891517162, 0.058492131531239, -0.241042032837868, 0.125284090638161, -0.045745104551315, 0.095488235354424, 0.145906075835228, 0.156743183732033, -0.209682285785675, -0.069966271519661
0.145957440137863, -0.019376376643777, 0.121456705033779, 0.055812701582909, -0.059575736522675, 0.042609531432390, 0.146859124302864, -0.013059332966805, -0.041877653449774, 0.096753008663654, -0.074091665446758, -0.098735854029655, 0.086204849183559, 0.186049938201904, -0.138353794813156, -0.017542518675327
-0.001626902143471, -0.000427935912739, 0.011497325263917, 0.005417475476861, -0.004547338001430, -0.002122972859070, -0.004544308874756, -0.001482404768467, 0.003374834544957, 0.011572907678783, -0.004209950566292, 0.010288019664586, 0.002158821793273, -0.003208151552826, 0.006746389437467, -0.007516868878156
-0.016546389088035, -0.055551316589117, 0.113272435963154, -0.032968875020742, -0.045527990907431, -0.008033598773181, -0.012917732819915, -0.002528454642743, -0.007535319309682, 0.148864120244980, 0.048476863652468, 0.096102006733418, -0.107542708516121, -0.025029281154275, 0.118429400026798, 0.045167088508606
0.019461844116449, 0.049450255930424, 0.041638150811195, -0.021974720060825, -0.094225622713566, 0.002252829726785, 0.065012887120247, -0.035728368908167, 0.044420480728149, 0.054489240050316, -0.019228305667639, -0.001303739962168, 0.003066033357754, 0.024438869208097, -0.011536329053342, 0.011213688179851
-0.037556029856205, -0.086714781820774, -0.058523140847683, 0.038647916167974, -0.140919029712677, 0.026834540069103, 0.111958086490631, -0.031963005661964, 0.008318928070366, 0.051932115107775, 0.196675553917885, -0.108153976500034, -0.081375204026699, 0.129869222640991, -0.062102813273668, -0.004606269299984
0.037754822522402, 0.116640426218510, 0.008202821016312, 0.021411629393697, -0.005752644967288, 0.037307094782591, 0.029518960043788, -0.033860109746456, 0.021501524373889, -0.036156266927719, -0.090067960321903, -0.075124420225620, 0.033839911222458, 0.000466345460154, -0.018060097470880, 0.022164739668369
-0.000955270312261, -0.004912615288049, 0.011613617651165, 0.009600181132555, -0.008540817536414, 0.007279629353434, 0.004468569997698, -0.001541745266877, 0.000209017656744, 0.008688266389072, -0.003678254550323, 0.009365461766720, -0.002364079467952, 0.000144398945849, 0.013627541251481, 0.000060630089138
-0.001522111357190, 0.001299053430557, 0.001274239271879, 0.002271592384204, -0.000473247026093, -0.000606765621342, 0.002398636424914, -0.001541519188322, -0.002022961620241, -0.000124448561110, -0.003494814503938, -0.001879928284325, -0.005257725715637, 0.000677365169395, 0.001597473165020, 0.002511857775971
0.116835735738277, -0.072518646717072, 0.166279271245003, -0.122571937739849, 0.160839647054672, -0.009254598990083, -0.118586651980877, 0.119082406163216, -0.104256734251976, 0.007993747480214, -0.065323419868946, 0.183346107602119, 0.108341909945011, 0.058052003383636, -0.034486368298531, -0.007702739443630
0.005956026725471, 0.006793911103159, 0.000759689894039, -0.008017493411899, 0.002638196339831, 0.006388564594090, 0.007543578278273, 0.006333752069622, 0.002491429448128, -0.007014128379524, -0.006372753996402, -0.000426284037530, -0.005949989426881, -0.011779658496380, 0.006869409233332, -0.000564852380194
-0.035767883062363, 0.071392454206944, -0.023532142862678, -0.020420284941792, 0.005529542919248, -0.053372312337160, 0.023992313072085, -0.069558031857014, 0.085384957492352, -0.033617414534092, 0.025785375386477, -0.076525680720806, 0.011644229292870, 0.036286812275648, 0.015747072175145, 0.029863778501749
0.014925392344594, -0.028770685195923, 0.033341836184263, 0.009162609465420, 0.083429686725140, -0.083311103284359, 0.048974566161633, -0.112649731338024, 0.025757171213627, -0.067163266241550, -0.018860751762986, -0.147315993905067, -0.017073513939977, 0.134493187069893, -0.074729971587658, 0.063804708421230
0.055160667747259, 0.022374367341399, 0.022722262889147, 0.008762117475271, -0.034675985574722, 0.055803887546062, 0.063576042652130, 0.032792855054140, -0.009844312444329, 0.015606489032507, -0.033602856099606, 0.005536708515137, 0.045527335256338, -0.004025291651487, 0.030585540458560, -0.057426877319813
-0.113926179707050, -0.286247938871384, -0.110352903604507, -0.189874872565269, 0.119491249322891, -0.077315360307693, -0.175281837582588, 0.437960237264633, -0.111084744334221, -0.109149806201458, 0.150200173258781, 0.260874271392822, -0.212732955813408, 0.026819728314877, 0.070320568978786, 0.378306090831757
-0.007042390294373, -0.005718449130654, -0.011089187115431, 0.068676404654980, -0.067298091948032, 0.040991250425577, 0.052845906466246, -0.000806060852483, 0.017564274370670, 0.064753226935863, 0.058152001351118, -0.009444797411561, 0.044135000556707, 0.019249783828855, 0.028587482869625, -0.035485755652189
0.030037518590689, -0.006671723444015, 0.022405773401260, 0.000496256223414, -0.028792746365070, 0.029361611232162, -0.015511997044086, 0.012303560040891, -0.001817771466449, 0.017383620142937, -0.041732154786587, 0.011644784361124, 0.007625412195921, -0.017236039042473, 0.008685340173542, -0.021124511957169
0.094878062605858, -0.001664489973336, -0.077504009008408, 0.105121530592442, -0.150024816393852, 0.176869451999664, 0.193453475832939, 0.054216429591179, -0.024889547377825, 0.080643244087696, 0.093441970646381, -0.202748626470566, 0.022366993129253, 0.098972514271736, -0.034508686512709, -0.157312646508217
0.008043650537729, -0.012475659139454, 0.044928837567568, -0.024054065346718, -0.031169723719358, 0.007427145261317, 0.021161828190088, 0.004202125128359, -0.020606398582458, 0.021534945815802, 0.010272861458361, -0.011895645409822, -0.016143947839737, 0.013515888713300, -0.008746761828661, -0.000842344597913
0.008634382858872, 0.033483628183603, 0.001428175601177, -0.005153770558536, -0.000546370400116, 0.014605203643441, 0.016456011682749, -0.012683786451817, 0.025390144437551, -0.012332450598478, -0.026471970602870, -0.018725698813796, 0.007004787679762, 0.019529199227691, 0.000377616117476, 0.000031298142858
-0.070940934121609, 0.163260966539383, -0.056983981281519, -0.039771638810635, 0.125740319490433, -0.043749023228884, 0.020517233759165, 0.123185046017170, 0.067685410380363, -0.093446761369705, 0.033608160912991, 0.189524233341217, -0.012867820449173, -0.041540857404470, 0.085056647658348, 0.160100489854813
-0.064420223236084, -0.099779784679413, -0.070490397512913, -0.007863422855735, 0.014271268621087, 0.048710338771343, -0.008078308776021, 0.134160295128822, -0.017220510169864, -0.028292128816247, 0.114554673433304, 0.050529725849628, -0.119518056511879, -0.095971733331680, 0.062285419553518, 0.056868333369493
0.055843468755484, -0.101142965257168, 0.059333130717278, 0.016045764088631, 0.048846259713173, 0.016044469550252, 0.026436610147357, 0.046483010053635, -0.138547480106354, 0.035802483558655, 0.085216410458088, 0.056655868887901, 0.021297072991729, 0.061376843601465, -0.114626847207546, 0.062126751989126
-0.016803344711661, 0.027335762977600, 0.024892196059227, 0.054083827883005, 0.007343468256295, -0.017381900921464, -0.029917443171144, -0.040593709796667, 0.015029291622341, 0.057126428931952, 0.008193890564144, 0.064582206308842, 0.019869793206453, -0.029215274378657, 0.067394413053989, 0.003276513423771
0.197937369346619, -0.030766861513257, 0.140642434358597, -0.024970963597298, 0.059601254761219, 0.028227932751179, -0.069389298558235, 0.074913054704666, -0.031740475445986, 0.080110788345337, -0.238120958209038, 0.124626889824867, 0.149289146065712, 0.075362026691437, -0.078457385301590, -0.135509610176086
0.143182858824730, 0.071174137294292, -0.037058502435684, -0.104665577411652, -0.012297420762479, 0.084363266825676, 0.099502108991146, 0.092382498085499, 0.023640247061849, -0.045163553208113, -0.062294896692038, -0.020262546837330, -0.068227633833885, -0.053631141781807, 0.056835986673832, -0.006474308669567
-0.150958612561226, -0.053521547466516, -0.040102839469910, -0.046751819550991, 0.026523483917117, -0.045906681567430, -0.089623212814331, 0.015442564152181, -0.020030807703733, -0.053946584463120, 0.063543520867825, 0.100167371332645, -0.087953850626945, -0.088557757437229, 0.091978408396244, 0.097884245216846
-0.042878836393356, -0.094174288213253, -0.013172535225749, -0.005796787794679, 0.044926155358553, -0.080485008656979, -0.016178259626031, 0.031323272734880, -0.014631142839789, -0.031094208359718, 0.060340370982885, 0.101859562098980, -0.017145639285445, -0.053350705653429, 0.037850804626942, 0.033924929797649
-0.011174302548170, -0.009411077946424, 0.022721039131284, -0.015355987474322, -0.006106595974416, -0.009161580353975, -0.006141182966530, -0.004767413251102, -0.015766046941280, 0.007347526028752, 0.028652686625719, 0.014945950359106, -0.045178558677435, 0.021715430542827, 0.016147090122104, 0.037734594196081
0.020187921822071, -0.018093377351761, 0.037972260266542, -0.025653472170234, -0.001186278648674, -0.010122454725206, -0.007952682673931, -0.000416845898144, -0.013199064880610, 0.000835962244309, 0.009619843214750, 0.012922028079629, -0.033740177750587, 0.019000722095370, -0.006024296395481, 0.025213237851858
0.055037237703800, 0.000379882927518, 0.052408725023270, -0.021823946386576, 0.027355208992958, 0.010401081293821, -0.010752183385193, 0.035192608833313, -0.007495130877942, -0.002782783936709, -0.066473491489887, 0.052748184651136, 0.021108461543918, -0.002400169614702, -0.028182495385408, -0.025728365406394
-0.070951536297798, -0.021167960017920, 0.107592597603798, 0.026997864246368, 0.051277492195368, -0.054470472037792, -0.126293316483498, 0.015055164694786, 0.009334079921246, -0.001958729233593, 0.016865948215127, 0.158893957734108, -0.024923278018832, -0.117752999067307, 0.114620871841908, 0.034565638750792
0.010990214534104, 0.000808002310805, 0.009376863017678, -0.020950546488166, -0.007082180120051, 0.003348488826305, 0.008493062108755, 0.005185958929360, -0.002446099650115, -0.005158181302249, 0.004703234415501, -0.006327662151307, -0.012925778515637, -0.009618377313018, 0.000270266085863, 0.009309682995081
-0.010793549008667, 0.150056719779968, -0.034849211573601, 0.016041938215494, 0.004395442549139, 0.023742415010929, 0.026915725320578, 0.013050775043666, 0.133238986134529, -0.027991052716970, -0.093747824430466, 0.027131823822856, 0.069628268480301, -0.058888331055641, 0.060526322573423, -0.035253625363111
-0.101942032575607, 0.311640590429306, -0.094056963920593, 0.186709716916084, 0.107670359313488, -0.113497652113438, 0.164597108960152, -0.297033339738846, 0.233112901449203, -0.127111330628395, 0.060939874500036, -0.291476398706436, 0.123851239681244, 0.157973438501358, -0.105896964669228, 0.115725837647915
-0.139814600348473, 0.004341640509665, 0.059322822839022, 0.042703282088041, -0.000031344476156, -0.055121272802353, -0.076296664774418, -0.071173951029778, 0.004429526627064, 0.064554825425148, 0.070805095136166, 0.054054740816355, 0.023521745577455, 0.006720134988427, 0.011659964919090, 0.043693345040083
-0.020773071795702, 0.002811468206346, 0.017041716724634, -0.017135908827186, -0.014285702258348, 0.002391886431724, 0.022532422095537, -0.008524332195520, -0.000268025847618, -0.000293183402391, 0.008642562665045, -0.011765301227570, -0.031067794188857, 0.011121663264930, 0.005169746000320, 0.026931170374155
0.136090025305748, -0.065782107412815, 0.107446044683456, 0.092628702521324, 0.202619880437851, 0.101358696818352, 0.010124184191227, 0.129676342010498, -0.072948358952999, 0.108931466937065, 0.058678932487965, 0.170180425047874, 0.235193967819214, 0.081804536283016, -0.083342067897320, 0.009030252695084
0.005541060585529, -0.050682265311480, -0.004285847302526, 0.087366335093975, -0.003611140651628, 0.059547550976276, 0.019030744209886, 0.059837836772203, -0.021028054878116, 0.063119329512119, 0.041915986686945, -0.008640091866255, 0.046271506696939, 0.050077125430107, -0.010557399131358, 0.004597308114171
0.023197682574391, 0.110791496932507, -0.097699925303459, 0.018682276830077, 0.101216696202755, -0.043267719447613, 0.053499519824982, 0.025157304480672, 0.133791297674179, -0.119997508823872, 0.081597708165646, -0.087436102330685, 0.009234875440598, 0.017807859927416, -0.006437330506742, 0.132963046431541
0.122640982270241, 0.413171440362930, -0.150189995765686, 0.185462400317192, 0.019477652385831, 0.116905301809311, 0.302140057086945, -0.088863983750343, 0.395099490880966, -0.161784857511520, -0.124003037810326, -0.249813705682755, 0.164718210697174, 0.050411164760590, 0.065286375582218, 0.012702268548310
-0.005688050296158, 0.004081835038960, -0.001768308342434, -0.003237625351176, -0.010698267258704, -0.007981135509908, -0.003024619538337, -0.009040919132531, 0.004974115639925, -0.001497074612416, 0.000194142281543, 0.001767789595760, 0.000743617594708, 0.004681651946157, 0.009915215894580, 0.000890841649380
0.006975043565035, -0.073418729007244, -0.005456584971398, -0.127054020762444, 0.006502723321319, -0.092811390757561, 0.024091962724924, 0.060818124562502, 0.039801158010960, -0.085323080420494, 0.010236939415336, -0.022899469360709, -0.155690535902977, -0.003045247169212, 0.011831764131784, 0.083726480603218
-0.260795593261719, 0.207456201314926, -0.140934824943542, 0.190960213541985, 0.274911701679230, -0.264746844768524, 0.066407665610313, -0.411159485578537, 0.093955099582672, -0.186106890439987, 0.103415004909039, -0.236347943544388, 0.131389185786247, 0.123293489217758, -0.143153041601181, 0.227415740489960
0.046551227569580, 0.013737731613219, 0.006485433783382, -0.101012386381626, 0.035054136067629, -0.010850735008717, 0.024662068113685, 0.018540279939771, -0.046072982251644, -0.037131655961275, -0.043967932462692, 0.000860095489770, -0.009296702221036, -0.003426654031500, 0.001806627260521, 0.025859287008643
-0.028897412121296, 0.015953661873937, -0.011957227252424, 0.024935081601143, 0.005055286455899, -0.009637280367315, 0.001142225461081, -0.046251647174358, 0.009405426681042, -0.010778035968542, 0.026580806821585, -0.010879128240049, 0.031570877879858, 0.027977226302028, -0.010737325064838, 0.011669181287289
-0.001243176055141, -0.227040097117424, -0.180430084466934, -0.059065792709589, 0.046288877725601, 0.109972111880779, -0.083936572074890, 0.281491726636887, -0.107784114778042, -0.053707465529442, 0.195457831025124, 0.203847467899323, -0.063222177326679, -0.137178689241409, 0.184956118464470, 0.048577703535557
0.287396699190140, 0.184519559144974, 0.004913924261928, -0.155776515603065, -0.216569498181343, 0.119551375508308, 0.095308579504490, 0.279052108526230, 0.276967525482178, -0.203460961580276, -0.317435592412949, -0.044979125261307, -0.300156116485596, -0.339867651462555, 0.299390822649002, -0.029671534895897
-0.013531818054616, -0.004529908765107, -0.010911772027612, -0.001327149802819, 0.022289553657174, 0.000507361080963, -0.007591983303428, -0.008148167282343, -0.001718687009998, -0.060188714414835, 0.007068267092109, 0.005748307332397, 0.017649171873927, 0.004349782131612, 0.014167251996696, -0.001004848862067
0.020716231316328, -0.070978678762913, 0.095671556890011, -0.056772500276566, -0.033923383802176, 0.037177782505751, 0.067028000950813, -0.022413242608309, -0.055406924337149, 0.070140361785889, 0.023554475978017, -0.038541160523891, 0.021234776824713, 0.074251815676689, -0.067951291799545, 0.015824697911739
0.170781522989273, 0.119003288447857, 0.000023376669560, -0.009302377700806, 0.000239986606175, 0.062565430998802, 0.095550604164600, 0.171586215496063, 0.164376050233841, 0.000078561868577, -0.000240866051172, -0.009974442422390, -0.001207123976201, 0.000034573768062, 0.108795471489429, -0.000098410702776
0.026968128979206, 0.005677648819983, 0.033733066171408, -0.006217439658940, 0.050100028514862, -0.099832899868488, -0.050556745380163, -0.023924341425300, -0.029699482023716, -0.040358051657677, 0.026618892326951, 0.033472895622253, 0.030655518174171, 0.106524653732777, -0.021081039682031, 0.045725367963314
0.028275707736611, -0.069828599691391, 0.135984122753143, -0.107436135411263, 0.004686433821917, -0.075892217457294, 0.012367233633995, -0.030165320262313, -0.102290309965611, 0.038720328360796, 0.069038927555084, 0.013764741830528, -0.103477425873280, 0.083066493272781, -0.101374574005604, 0.056194305419922
0.002304599620402, 0.025400597602129, 0.010431426577270, 0.059077408164740, 0.024026520550251, 0.001615796703845, -0.057934757322073, -0.027629159390926, 0.018996987491846, 0.013018790632486, -0.065615087747574, 0.023872712627053, 0.072737805545330, 0.030085967853665, -0.036771610379219, -0.039489381015301
-0.053908873349428, -0.063152022659779, -0.098124414682388, -0.067042894661427, 0.027045108377934, -0.008118984289467, -0.014128027483821, 0.068746045231819, -0.014155782759190, -0.058064222335815, 0.056906368583441, 0.055043868720531, -0.092155411839485, -0.155338689684868, 0.087861597537994, 0.065169192850590
0.000395373324864, -0.012514146044850, -0.006787202786654, 0.006974348798394, -0.000946692249272, -0.003076051594689, -0.024377195164561, 0.009624602273107, 0.008700864389539, -0.010478481650352, -0.003748418996111, 0.019962189719081, -0.015610412694514, -0.031827166676521, 0.005491759162396, 0.011964274570346
0.046270295977592, 0.028505060821772, -0.001599285169505, -0.114981405436993, -0.018254451453686, 0.001464514993131, 0.061921272426844, 0.057875558733940, -0.016005387529731, -0.024790210649371, -0.005377181340009, 0.008105220273137, -0.089250758290291, 0.017409896478057, -0.010904186405241, 0.038095328956842
-0.028494972735643, 0.028493836522102, -0.023224517703056, 0.008951567113400, 0.030552830547094, -0.046406641602516, -0.016015738248825, -0.022900054231286, 0.011058225296438, -0.045374214649200, -0.071801610291004, -0.004671340808272, 0.056511178612709, 0.017937151715159, -0.010005021467805, -0.028293862938881
0.027262989431620, 0.047449555248022, -0.009197056293488, 0.006696828640997, 0.023986162617803, 0.025435507297516, -0.008712544105947, -0.039254017174244, 0.016350243240595, 0.017414445057511, -0.041987903416157, -0.010587716475129, 0.093514680862427, 0.036805953830481, -0.057473327964544, -0.014730227179825
0.049288392066956, 0.063450753688812, 0.186754167079926, 0.247320771217346, -0.216467544436455, 0.131238281726837, 0.110075131058693, -0.099719405174255, 0.027567280456424, 0.177106797695160, -0.013279888778925, 0.054864715784788, 0.139318019151688, 0.159320548176765, -0.098201252520084, -0.251707881689072
-0.004282301291823, -0.137918710708618, -0.171403586864471, 0.050023749470711, -0.057310663163662, 0.070328786969185, 0.035413734614849, 0.137847185134888, -0.077306166291237, 0.065599478781223, 0.093787044286728, 0.052301071584225, 0.041687134653330, -0.108323633670807, 0.016812177374959, -0.025920426473022
0.078315466642380, 0.000059085432440, 0.071032427251339, -0.059974465519190, 0.024570496752858, 0.011510026641190, 0.040071498602629, 0.005312721244991, -0.025569001212716, -0.017834126949310, -0.014325367286801, -0.022857289761305, 0.015611263923347, 0.047951914370060, -0.082229651510715, 0.041162550449371
-0.013437087647617, -0.049531932920218, -0.005044747609645, -0.007168462034315, 0.005135233979672, -0.000978199299425, -0.024414587765932, 0.013950679451227, -0.015522643923759, 0.009305962361395, 0.005730057135224, 0.027093367651105, -0.026368485763669, -0.000577656377573, 0.010415563359857, -0.002839965978637
0.073302298784256, 0.002985232276842, -0.055415902286768, 0.021114151924849, 0.004397984128445, 0.044910412281752, 0.060488395392895, 0.049323275685310, -0.031628560274839, 0.015814196318388, -0.025600638240576, -0.029100172221661, 0.037713654339314, -0.007027950137854, -0.060394216328859, -0.054111056029797
0.042417660355568, -0.014168488793075, 0.057796820998192, -0.037013716995716, -0.000226927601034, 0.003310414729640, 0.017190953716636, 0.000517520937137, -0.005329429637641, 0.008655422367156, -0.021650971844792, 0.012606066651642, -0.017991755157709, 0.021516734734178, -0.017529156059027, 0.013988899998367
-0.026348005980253, -0.007574044167995, 0.139865398406982, 0.017578033730388, 0.003647750476375, -0.017403902485967, -0.035636469721794, -0.058923762291670, -0.040434584021568, 0.070093013346195, -0.014030772261322, 0.005536205135286, 0.053297512233257, 0.051194660365582, -0.026722488924861, -0.023024268448353
0.006174265872687, -0.003341224743053, 0.006446767598391, -0.040561754256487, 0.000110196240712, -0.001338909729384, -0.007074958179146, 0.012015605345368, 0.004846157506108, 0.000006179005140, 0.013365644961596, 0.006569902412593, -0.031631689518690, 0.000920656486414, -0.004189124330878, 0.022124048322439
-0.009060991927981, -0.006781314965338, -0.049711816012859, -0.000418964889832, -0.029875382781029, 0.046951930969954, -0.023091033101082, 0.085712879896164, 0.004970834590495, 0.011577467434108, 0.040054786950350, 0.040329083800316, -0.040396723896265, -0.049035925418139, 0.067112728953362, 0.030257303267717
-0.043961770832539, 0.008385400287807, 0.023872815072536, -0.007536326069385, 0.010258199647069, -0.026851939037442, 0.001534425537102, -0.038359068334103, -0.011599673889577, 0.007301699835807, 0.069811090826988, -0.019161544740200, -0.018392153084278, 0.028646379709244, 0.019677489995956, 0.079353161156178
0.081978075206280, 0.079419061541557, -0.050976891070604, 0.145345523953438, -0.016799155622721, 0.041704393923283, 0.078619882464409, -0.057923614978790, 0.086143769323826, -0.011825370602310, -0.035713803023100, -0.114309839904308, 0.101438403129578, 0.094362027943134, -0.043816965073347, -0.070701539516449
-0.007309804670513, 0.274722814559937, -0.261075496673584, 0.231236860156059, 0.140307813882828, 0.023647032678127, 0.139068201184273, -0.147249415516853, 0.229698464274406, -0.169800072908401, 0.134807527065277, -0.333787530660629, 0.080997474491596, -0.015024909749627, 0.127958208322525, 0.117750279605389
0.192870497703552, -0.147764533758163, 0.071526527404785, -0.090669065713882, 0.134046033024788, -0.010575950145721, -0.091728039085865, 0.201288953423500, -0.205986678600311, 0.060521662235260, -0.030346387997270, 0.160611838102341, -0.003732033306733, 0.063850775361061, -0.049514483660460, 0.002790821716189
-0.027352964505553, 0.102502778172493, 0.008419722318649, 0.164011895656586, -0.148676738142967, 0.080541178584099, 0.059442006051540, -0.061934329569340, 0.072449460625648, 0.152311697602272, 0.032660942524672, 0.024252228438854, 0.121138148009777, -0.011540193110704, 0.020447809249163, -0.074110202491283
0.088274605572224, -0.052659422159195, -0.047536406666040, -0.063705854117870, -0.003450450021774, 0.069425351917744, 0.068530909717083, 0.070019483566284, -0.054568506777287, -0.033765010535717, -0.038006518036127, -0.020666019991040, -0.015925280749798, 0.001521079102531, -0.007420886307955, -0.057176765054464
-0.007029600441456, 0.012850352562964, 0.015203774906695, 0.000896796642337, 0.022772476077080, -0.012696132995188, -0.003763686865568, -0.023448878899217, -0.000192357751075, 0.001233765389770, -0.019860459491611, -0.008792438544333, 0.030331145972013, 0.008751178160310, -0.009255621582270, -0.006293277721852
0.003484109649435, -0.033102400600910, 0.069131113588810, -0.041765201836824, 0.152451753616333, -0.045445870608091, -0.086233578622341, -0.057297214865685, -0.038585714995861, -0.019868016242981, 0.004674248397350, 0.009005667641759, 0.102452054619789, 0.059314247220755, -0.055375710129738, 0.020354572683573
-0.050118282437325, 0.007211798336357, 0.007387300021946, 0.004071272443980, 0.001585676567629, -0.028426105156541, 0.008857726119459, -0.037949029356241, 0.026388119906187, 0.008381223306060, 0.020634703338146, -0.007267846260220, -0.019541993737221, 0.023635318502784, -0.002645462052897, 0.033757396042347
0.084481947124004, 0.070177860558033, -0.000151150292368, -0.063440807163715, -0.039918273687363, 0.060108300298452, 0.079009518027306, 0.079455956816673, 0.085365049540997, -0.006057295948267, -0.120928719639778, -0.001799530815333, -0.035196479409933, -0.058962877839804, 0.053353596478701, -0.037778347730637
0.037192542105913, 0.113490618765354, -0.041578035801649, 0.153980582952499, -0.026985792443156, -0.015955993905663, 0.060122527182102, -0.127784624695778, 0.014237396419048, 0.061200905591249, -0.155467882752419, -0.125657334923744, 0.210913643240929, 0.099649459123611, -0.176037237048149, -0.220123216509819
-0.015106410719454, -0.014569081366062, 0.042447645217180, -0.016161860898137, -0.022771606221795, -0.000280889566056, 0.022059882059693, -0.021563485264778, -0.010590063408017, 0.014666305854917, 0.015794994309545, -0.011446449905634, -0.030076311901212, 0.019348021596670, -0.003690225072205, 0.019010672345757
0.052327666431665, 0.025045350193977, 0.006185621954501, -0.060713812708855, 0.003023857716471, 0.016048287972808, 0.011857976205647, 0.027894427999854, -0.003983084578067, -0.016456052660942, -0.032793242484331, -0.011961283162236, -0.015943322330713, -0.008315109647810, -0.015032614581287, 0.002025900408626
-0.030955294147134, 0.001420654938556, 0.078661143779755, -0.040147483348846, -0.027524895966053, -0.048884257674217, 0.025581832975149, -0.035090204328299, -0.002939213532954, 0.012917809188366, 0.028176564723253, -0.010079939849675, -0.059676472097635, 0.002218390814960, -0.008437735028565, 0.035498723387718
0.140163004398346, 0.201500028371811, -0.041228823363781, 0.100786894559860, -0.014438722282648, 0.064150728285313, 0.110420145094395, -0.047630574554205, 0.153194352984428, -0.032391563057899, -0.072484388947487, -0.116938360035419, 0.107975631952286, 0.076187022030354, 0.015779562294483, -0.035017259418964
-0.058093640953302, 0.038828577846289, -0.146574199199677, -0.063289202749729, -0.124066807329655, 0.031415686011314, 0.079684227705002, 0.084131665527821, 0.150188311934471, -0.113650500774384, 0.072522550821304, -0.044226501137018, -0.088592343032360, -0.037932183593512, 0.202378004789352, 0.117042824625969
0.036007657647133, -0.043848253786564, 0.030433995649219, -0.058034170418978, 0.025751875713468, 0.006805624812841, -0.056395500898361, 0.021392237395048, -0.079875938594341, 0.014274041168392, 0.000090510628070, 0.039343018084764, 0.046404182910919, 0.029997844249010, -0.069378964602947, -0.015070388093591
-0.030157521367073, -0.066494934260845, 0.004557656124234, -0.007285004016012, -0.025477260351181, -0.004895363003016, -0.027460809797049, 0.039915140718222, -0.033033948391676, -0.007308866828680, 0.025914633646607, 0.059280592948198, -0.028104051947594, -0.067224517464638, 0.007199301850051, -0.016550308093429
-0.030378870666027, -0.121764950454235, -0.008855708874762, -0.122012384235859, 0.031416058540344, -0.006684423424304, -0.050579775124788, 0.092485442757607, -0.078716270625591, -0.040215380489826, 0.062006808817387, 0.072962269186974, -0.110921137034893, -0.038425911217928, 0.078799851238728, 0.092295542359352
-0.038139596581459, 0.018507817760110, 0.031178044155240, 0.022632170468569, -0.022800015285611, -0.018529027700424, -0.035903707146645, -0.026850491762161, 0.019896820187569, 0.029874950647354, -0.046688828617334, 0.042910657823086, 0.009281007573009, -0.022294772788882, 0.039268195629120, -0.023602243512869
0.054087784141302, -0.006870222743601, 0.001817316748202, 0.032112080603838, 0.036333706229925, 0.009490366093814, 0.007238244172186, 0.016876187175512, 0.034159693866968, 0.002009136602283, -0.004635470919311, -0.007350191008300, 0.054039102047682, 0.050583995878696, 0.004795622546226, 0.005678928457201
-0.082336090505123, 0.021059919148684, 0.086742900311947, 0.046754784882069, -0.058783441781998, -0.046291992068291, 0.028155529871583, -0.126447930932045, -0.011104945093393, 0.111644230782986, 0.045305021107197, -0.036146577447653, 0.004644582979381, 0.028625354170799, -0.010340794920921, -0.020933350548148
0.018861770629883, 0.092007711529732, -0.040335580706596, 0.088147625327110, 0.005951128900051, 0.023191884160042, 0.068581819534302, -0.023745799437165, 0.102227970957756, -0.061581436544657, 0.010864935815334, -0.055719420313835, 0.074003279209137, 0.024668209254742, 0.030176764354110, 0.020940519869328
0.008566519245505, 0.032274439930916, 0.023563141003251, -0.009859284386039, 0.026313928887248, -0.003146141767502, 0.004022427834570, -0.004002984147519, 0.020939974114299, -0.014796560630202, -0.044833559542894, 0.012953825294971, 0.017101390287280, 0.016255348920822, -0.010516758076847, -0.007370390463620
0.063231877982616, -0.061298780143261, -0.160387381911278, 0.348272055387497, 0.185868859291077, 0.012499899603426, 0.018033664673567, 0.005465759430081, -0.052229002118111, 0.010006504133344, -0.012403409928083, -0.036749552935362, 0.316393166780472, 0.122693963348866, -0.095541611313820, -0.134870260953903
0.091615937650204, 0.131519749760628, 0.217269495129585, 0.081276737153530, -0.272562891244888, 0.102420531213284, 0.153134435415268, -0.146589845418930, 0.080140203237534, 0.228583946824074, -0.070760555565357, -0.024079021066427, -0.033818881958723, 0.021145731210709, 0.082511559128761, -0.139779776334763
0.001382903079502, -0.007591649889946, 0.009499970823526, 0.007436764426529, -0.009727918542922, 0.009531093761325, 0.000962456921116, 0.001857092604041, 0.003448886331171, 0.006821403279901, -0.001127247000113, 0.006214317865670, 0.001347271027043, 0.000002267570380, 0.014483792707324, -0.001329290331341
0.008911198005080, -0.002015632111579, 0.031071739271283, -0.006897261366248, 0.014740142971277, -0.004654272459447, -0.002817871049047, -0.007796234916896, -0.014709445647895, 0.002031818497926, -0.037802550941706, 0.000654848699924, 0.021450117230415, 0.010803564451635, -0.018482403829694, -0.009195538237691
-0.236123606562614, 0.181608319282532, 0.206815540790558, 0.176453739404678, -0.182863160967827, 0.069185487926006, -0.095050185918808, -0.242101967334747, 0.190526619553566, 0.207690671086311, -0.090675979852676, 0.323425501585007, 0.129897788167000, -0.160257413983345, 0.165490671992302, -0.128191813826561
0.018996860831976, 0.009002034552395, 0.013252791948617, 0.015432793647051, -0.013106774538755, 0.007216659374535, 0.010553397238255, 0.000925511587411, 0.009188414551318, 0.005230219569057, -0.007033101748675, 0.009293809533119, -0.003089402103797, -0.010258888825774, 0.019223807379603, -0.007764877751470
-0.029123652726412, -0.049760013818741, -0.028407109901309, -0.033652860671282, 0.053180992603302, 0.002719847019762, -0.053595367819071, 0.064738862216473, -0.011883787810802, -0.041119053959846, 0.005234484095126, 0.069252386689186, -0.013608603738248, -0.050537969917059, -0.042037483304739, 0.040735449641943
-0.006611170247197, 0.007059134077281, 0.047303296625614, -0.008553457446396, -0.007420388981700, 0.010545081458986, 0.040801219642162, -0.000785312498920, 0.011081579141319, 0.036378376185894, 0.019199652597308, -0.010463429614902, -0.036553289741278, 0.049572952091694, 0.000981050776318, 0.028475366532803
-0.011314265429974, 0.012799993157387, 0.014953639358282, -0.008624553680420, 0.016184363514185, -0.011266283690929, 0.005925839766860, -0.014912742190063, -0.001182012376375, -0.008077175356448, -0.021168431267142, -0.038664780557156, 0.018543066456914, 0.014343859627843, -0.025202427059412, -0.003067094599828
0.086684845387936, -0.013117614202201, -0.212462037801743, 0.269541829824448, -0.111389085650444, 0.351108282804489, 0.151345461606979, 0.323500752449036, -0.081171654164791, 0.117129161953926, 0.190084084868431, -0.070841833949089, 0.001786962850019, -0.042858131229877, 0.145693585276604, -0.077528908848763
-0.000002361277666, -0.000000986926807, 0.000004821275070, 0.000001198746531, 0.000002930525625, 0.000000107272946, 0.000001468489700, -0.000000195139592, -0.000005382431027, -0.000003029319714, 0.000000771204100, 0.000000425358991, -0.000004633952813, 0.000000297553044, 0.000004111597264, 0.000001567327558
-0.022403867915273, -0.002355965087190, 0.004907572641969, 0.012855487875640, -0.000222560891416, -0.013214125297964, -0.016059903427958, -0.025375958532095, -0.001169304247014, 0.017544778063893, -0.000378703756724, 0.004178648814559, -0.003438977291808, 0.000144320045365, 0.000311780633638, -0.006660389713943
0.083419710397720, 0.236966669559479, -0.122767552733421, 0.176136896014214, -0.062235254794359, 0.045235365629196, 0.218387931585312, -0.130795150995255, 0.173221394419670, 0.029205551370978, -0.101967655122280, -0.191746622323990, 0.117311708629131, 0.145243927836418, -0.092509999871254, -0.110722817480564
0.129771366715431, -0.044880267232656, 0.024226533249021, -0.023203056305647, -0.194339409470558, 0.125685006380081, 0.152769550681114, 0.028583591803908, -0.022166727110744, 0.074689321219921, -0.015008760616183, -0.108701556921005, -0.080410398542881, 0.047824181616306, -0.025749161839485, -0.077111862599850
0.038963586091995, 0.088120788335800, -0.051261462271214, -0.016060393303633, -0.015023714862764, 0.027077870443463, 0.083516500890255, 0.039883367717266, 0.114271476864815, -0.049725364893675, -0.056707385927439, -0.035205684602261, -0.013275420293212, -0.030963644385338, 0.051364179700613, 0.001909100101329
0.124052599072456, -0.074807949364185, 0.029542613774538, -0.055913560092449, -0.044755700975657, 0.092975787818432, 0.137557744979858, 0.076280646026134, -0.103783987462521, 0.041300378739834, -0.003879061900079, -0.014180426485837, -0.016647977754474, 0.037248745560646, -0.028667103499174, -0.063459947705269
-0.059623118489981, -0.355083078145981, 0.430991888046265, -0.035022266209126, -0.192431718111038, -0.093640960752964, 0.295071601867676, -0.182229191064835, -0.253619462251663, 0.454354047775269, 0.240801781415939, -0.112525865435600, -0.164313510060310, 0.252435654401779, -0.262029677629471, 0.207338914275169
0.003022715216503, -0.055232279002666, 0.030356038361788, 0.015134067274630, 0.042852025479078, -0.006221581250429, -0.031417757272720, 0.022406557574868, -0.002989330329001, 0.001639719703235, 0.004884920548648, 0.058640211820602, 0.051482185721397, -0.015521517023444, -0.088633641600609, -0.017826801165938
0.016602924093604, 0.012226477265358, 0.110631570219994, 0.118187986314297, -0.126942589879036, 0.077488280832767, 0.010120431892574, -0.046373371034861, 0.005769738461822, 0.183687493205070, -0.060678370296955, 0.057774279266596, 0.059084314852953, -0.013280487619340, 0.031019197776914, -0.158513471484184
0.136333629488945, 0.067949280142784, 0.144939973950386, -0.013914203271270, 0.060185860842466, -0.019658409059048, 0.002802766859531, 0.025204993784428, 0.010899296030402, 0.064019910991192, -0.108821250498295, 0.097393028438091, 0.099874041974545, 0.009689419530332, 0.010681859217584, -0.063180766999722
0.016972795128822, 0.052597533911467, -0.032534994184971, -0.032361660152674, 0.005921880714595, 0.041061710566282, 0.065188266336918, 0.047696683555841, 0.055417470633984, -0.065646760165691, -0.024857353419065, -0.022617273032665, -0.044797692447901, -0.031483806669712, 0.027150787413120, 0.014569984748960
0.015215530060232, 0.074892498552799, 0.011133708059788, -0.013352847658098, -0.006756913848221, 0.010141565464437, 0.020891826599836, 0.027127156034112, 0.019642330706120, 0.007756033912301, -0.018379352986813, 0.006918393541127, 0.006957681849599, 0.002637576311827, -0.006247343495488, 0.004086784552783
-0.061068058013916, 0.021510003134608, 0.015776921063662, -0.069652177393436, 0.086186349391937, -0.061823643743992, -0.009925525635481, -0.022576954215765, 0.049229539930820, -0.047256737947464, 0.096954442560673, 0.005495795980096, -0.077941149473190, 0.083008781075478, 0.024615095928311, 0.183476015925407
0.079942986369133, -0.011782795190811, 0.043698266148567, -0.038544498383999, 0.014670073054731, -0.012465541251004, -0.003430036827922, 0.049099795520306, -0.005329921841621, -0.030256137251854, -0.176328927278519, 0.043203607201576, 0.048270735889673, 0.005568788386881, -0.004872790537775, -0.067889980971813
-0.048979822546244, 0.088057495653629, 0.133448228240013, 0.162991374731064, -0.066412076354027, -0.009526236914098, -0.023519026115537, -0.121435835957527, 0.086085565388203, 0.199926048517227, -0.039936654269695, 0.194977223873138, 0.158623635768890, -0.030013509094715, 0.085891321301460, -0.113681010901928
-0.000527305121068, 0.000031258212402, 0.028058957308531, -0.039300028234720, -0.030179129913449, 0.000267679162789, 0.016218690201640, -0.010161626152694, -0.006356718949974, 0.012675791978836, 0.015849918127060, -0.002473392523825, -0.039567545056343, 0.020967302843928, -0.005402214359492, 0.012147334404290
-0.025452496483922, -0.044279273599386, -0.003545027226210, -0.027579521760345, 0.025496937334538, -0.048611525446177, -0.002878974191844, 0.008673585020006, -0.007913497276604, -0.050516176968813, -0.013337400741875, 0.022652894258499, -0.032995644956827, -0.057080153375864, 0.011585277505219, 0.011362587101758
0.049963656812906, -0.152499869465828, 0.158017531037331, 0.039902418851852, -0.027786210179329, -0.028290938585997, 0.072937726974487, 0.005949209444225, -0.127703294157982, 0.153977274894714, 0.048310633748770, 0.057731799781322, 0.031474307179451, 0.170425310730934, -0.146166399121284, 0.104202292859554
0.034297347068787, 0.045151688158512, 0.060075573623180, 0.029541172087193, -0.016806557774544, 0.029446166008711, 0.018440231680870, -0.011936428956687, 0.062765896320343, 0.039143096655607, -0.082670584321022, 0.078939989209175, 0.060611907392740, -0.020225295796990, 0.041287004947662, -0.037343632429838
-0.051530003547668, 0.011120349168777, 0.065672144293785, 0.058201093226671, -0.085686616599560, -0.020131433382630, -0.009991793893278, -0.059166930615902, 0.031781714409590, 0.090697191655636, -0.000137084047310, 0.116940550506115, 0.023334652185440, -0.026112681254745, 0.044460359960794, -0.067139886319637
-0.244653522968292, -0.265209972858429, -0.146268606185913, -0.113420441746712, 0.125859990715981, -0.120950818061829, -0.169317811727524, 0.198848217725754, -0.101571351289749, -0.122461535036564, 0.309281945228577, 0.239754229784012, -0.144020065665245, -0.134239524602890, 0.173644468188286, 0.291592150926590
0.134218513965607, 0.023536685854197, -0.078744530677795, -0.026975307613611, 0.015235328115523, 0.068972930312157, 0.113105580210686, 0.072995379567146, -0.023369951173663, -0.080300666391850, -0.088164679706097, -0.053978484123945, 0.002607196336612, -0.002436429727823, 0.003474011784419, -0.084491923451424
0.058593872934580, 0.063732065260410, -0.021421892568469, -0.073345974087715, -0.039014719426632, 0.055030971765518, 0.072853177785873, 0.093520417809486, 0.094664469361305, -0.030990222468972, -0.087487250566483, 0.020612884312868, -0.054867628961802, -0.076690122485161, 0.082148216664791, -0.018339656293392
-0.153279691934586, 0.290179967880249, -0.144363954663277, 0.176557049155235, 0.232085645198822, -0.123512685298920, 0.001239260658622, -0.174417421221733, 0.136822223663330, -0.161142587661743, 0.088894911110401, -0.137527585029602, 0.182864814996719, 0.094011880457401, -0.045201964676380, 0.084584578871727
-0.023194817826152, -0.003891721833497, -0.017245985567570, -0.008682291954756, 0.006384950596839, -0.008878416381776, -0.001306696562096, 0.010161476209760, 0.001600429881364, -0.010971634648740, 0.009672917425632, 0.013936696574092, -0.020257502794266, -0.022332282736897, 0.019227322191000, 0.020751263946295
-0.026217304170132, -0.026582507416606, -0.035353481769562, -0.050316520035267, 0.023619215935469, -0.015785444527864, -0.021442690864205, 0.038417290896177, -0.032883375883102, -0.031037062406540, 0.051547691226006, 0.054149787873030, -0.076034136116505, -0.054268024861813, 0.047522109001875, 0.063823200762272
-0.075109533965588, -0.093547619879246, -0.018061753362417, -0.014809549786150, 0.111041903495789, -0.078148469328880, -0.087764143943787, 0.056639242917299, -0.064014360308647, -0.032585285604000, 0.107735998928547, 0.138389021158218, -0.041894782334566, -0.029145844280720, 0.059685025364161, 0.080455347895622
0.003155136015266, 0.008276229724288, -0.061971690505743, 0.013686429709196, 0.032503053545952, -0.005126101896167, -0.035031020641327, 0.020090991631150, 0.014647844247520, -0.045565944164991, 0.011352260597050, 0.028625899925828, -0.000772211235017, -0.005929064005613, 0.028041996061802, 0.002532559679821
-0.044070608913898, -0.005073621403426, -0.004441579803824, 0.008195394650102, -0.015962937846780, -0.011374176479876, -0.018591579049826, -0.001086410135031, 0.027880307286978, -0.005655206739902, 0.016248825937510, 0.040753960609436, -0.020666407421231, -0.050533857196569, 0.042105618864298, 0.010197417810559
