1.171342492103577, 0.949857473373413, 0.902492880821228, 1.116354227066040, -0.221988886594772, -0.258733659982681, -1.106945991516113, 0.980483055114746, 1.314041495323181, -0.447869807481766, -0.200306653976440, -0.227195978164673, -0.214583724737167, -0.181151628494263, 0.875236511230469, -0.484503149986267
-0.071740031242371, -0.087815873324871, -0.072299726307392, -0.068612515926361, -0.078715279698372, -0.070199117064476, 0.341717183589935, -0.089157804846764, -0.106360092759132, -0.050644099712372, -0.075703680515289, -0.102494679391384, -0.078094497323036, -0.067904293537140, -0.079282857477665, 0.348869234323502
-0.083300486207008, -0.056688230484724, -0.057863075286150, -0.071316286921501, 0.203823268413544, 0.224990323185921, 0.381631553173065, -0.069941163063049, -0.111735783517361, 0.204459726810455, 0.193089991807938, 0.213811099529266, 0.209139347076416, 0.191526964306831, -0.053864419460297, 0.230943366885185
0.086014382541180, 0.048926346004009, 0.054656907916069, 0.056378558278084, 0.035638187080622, 0.073705278337002, 0.159498378634453, 0.048114925622940, 0.053791146725416, 0.084598742425442, 0.053412966430187, 0.067109942436218, 0.073490470647812, 0.036934323608875, 0.040100477635860, 0.098075062036514
-0.018358279019594, -0.000670574372634, -0.036934457719326, -0.027572097256780, -0.113129228353500, -0.094746015965939, 0.111650943756104, -0.015597220510244, -0.006692114286125, -0.122200481593609, -0.086768232285976, -0.075961805880070, -0.077620342373848, -0.084368191659451, -0.033711992204189, 0.141383349895477
-0.009974001906812, 0.004824938718230, 0.011476745828986, -0.010852172039449, 0.742600798606873, 0.749846220016479, -0.391424298286438, 0.020747913047671, -0.002290327567607, 0.738607227802277, 0.704780519008636, 0.695104062557220, 0.735673546791077, 0.749656498432159, 0.031842499971390, -0.807159483432770
0.114733733236790, 0.142055869102478, 0.067984014749527, 0.083652526140213, 0.164574384689331, 0.244134038686752, -0.148256704211235, 0.114717878401279, 0.097603954374790, 0.179539889097214, 0.184878736734390, 0.140819653868675, 0.200605988502502, 0.220834195613861, 0.156391218304634, -0.231642335653305
-0.002316329162568, 0.012546731159091, -0.010533617809415, -0.009486110880971, 0.007081512361765, 0.010190489701927, 0.365958541631699, -0.001752062700689, -0.000234166625887, -0.010268891230226, 0.003449104027823, -0.001365403295495, 0.015217737294734, -0.006157149560750, -0.010212894529104, 0.347198456525803
0.544773817062378, 0.547241091728210, 0.452856928110123, 0.480487257242203, -0.213362649083138, -0.255968362092972, -0.351986795663834, 0.502503156661987, 0.557438313961029, -0.379889398813248, -0.267744183540344, -0.201775521039963, -0.203783780336380, -0.225904360413551, 0.526786565780640, -0.190213218331337
0.010575417429209, 0.079792298376560, -0.026344873011112, -0.043017059564590, 0.066401630640030, 0.067697934806347, 0.163738459348679, 0.010681195184588, 0.001579589094035, 0.059708420187235, 0.071688570082188, 0.035806708037853, 0.080919742584229, 0.069299288094044, -0.015039484947920, 0.110699556767941
-0.087927937507629, -0.041076153516769, -0.078824199736118, -0.080624863505363, -0.070202738046646, -0.029599292203784, 0.268726527690887, -0.063994780182838, -0.078317530453205, -0.058934751898050, -0.073403269052505, -0.039887424558401, -0.022013919427991, -0.002392307389528, -0.092677280306816, 0.279159456491470
0.088747762143612, 0.078296348452568, 0.084191240370274, 0.077324293553829, -0.165257647633553, -0.134577155113220, 0.219228565692902, 0.077888824045658, 0.091939434409142, -0.124265789985657, -0.174881309270859, -0.197995513677597, -0.164367482066154, -0.164116263389587, 0.115128427743912, 0.239053651690483
0.162080138921738, 0.163090139627457, 0.119113713502884, 0.091428644955158, -0.135156720876694, -0.181303262710571, 0.176469206809998, 0.136553943157196, 0.122572511434555, -0.165743544697762, -0.215051725506783, -0.173336699604988, -0.167595177888870, -0.175405174493790, 0.107048638164997, 0.206560164690018
0.027350174263120, 0.092966929078102, 0.014442814514041, 0.003032868262380, 0.090905435383320, 0.138819739222527, 0.132042691111565, 0.058233261108398, 0.056065216660500, 0.075137600302696, 0.090345367789268, 0.095770761370659, 0.148866310715675, 0.111341729760170, 0.041948907077312, 0.126499786973000
0.016920786350965, 0.020507976412773, 0.025864824652672, 0.020576534792781, 0.035675972700119, 0.055287580937147, 0.071359120309353, 0.031979013234377, 0.033185437321663, 0.017376082018018, 0.056428179144859, 0.050079934298992, 0.050599455833435, 0.060139521956444, 0.023660546168685, 0.088665120303631
0.652465522289276, 0.615904510021210, 0.504654228687286, 0.502433061599731, -0.196879014372826, -0.234154835343361, -0.619901597499847, 0.642988920211792, 0.584242165088654, -0.206275463104248, -0.193797007203102, -0.291184604167938, -0.216623932123184, -0.267849832773209, 0.531202971935272, -0.216401949524879
-0.131968587636948, -0.118032738566399, -0.110235139727592, -0.099801771342754, -0.352151691913605, -0.472572863101959, 1.259461402893066, -0.127286940813065, -0.150043472647667, -0.392771393060684, -0.412141174077988, -0.389574557542801, -0.419125646352768, -0.452557533979416, -0.118759542703629, 1.190207839012146
-0.108543537557125, -0.152064621448517, -0.112512469291687, -0.143391445279121, 0.273638337850571, 0.423182904720306, 0.063504487276077, -0.100970312952995, -0.091781787574291, 0.265524715185165, 0.324109971523285, 0.412205100059509, 0.361134946346283, 0.409014314413071, -0.148746639490128, -0.165149450302124
0.098543941974640, 0.101460658013821, 0.094898410141468, 0.076998189091682, 0.025792282074690, -0.006671996321529, 0.230658039450645, 0.086880333721638, 0.097761332988739, 0.028020253404975, 0.006759903393686, 0.006392021663487, 0.019843243062496, 0.016558598726988, 0.083414286375046, 0.184887617826462
0.041347447782755, 0.016035564243793, -0.001484574284405, 0.009350469335914, -0.120805539190769, -0.137910544872284, 0.342819869518280, -0.012462179176509, 0.011594481766224, -0.079743079841137, -0.115654818713665, -0.162804886698723, -0.157194003462791, -0.124819055199623, -0.018350386992097, 0.422959208488464
0.017942592501640, 0.064378023147583, 0.046721495687962, 0.005419351626188, 0.022265916690230, 0.088101468980312, 0.225381523370743, 0.032858919352293, 0.011557579040527, 0.042587637901306, 0.043701700866222, 0.040659677237272, 0.019252177327871, 0.056268438696861, 0.023794177919626, 0.188250303268433
0.639673888683319, 0.631001532077789, 0.479523688554764, 0.549250245094299, -0.325828582048416, -0.397077083587646, -0.253738433122635, 0.532191634178162, 0.638114213943481, -0.394989520311356, -0.344787597656250, -0.373947232961655, -0.386769056320190, -0.394024610519409, 0.551362514495850, -0.027986776083708
-0.042105730623007, -0.094044469296932, -0.035083133727312, -0.030440684407949, 0.067822977900505, 0.102123409509659, 0.462769687175751, -0.051967635750771, -0.035750333219767, 0.106257110834122, 0.065360471606255, 0.098478563129902, 0.079586714506149, 0.070778235793114, -0.047831937670708, 0.344257682561874
0.200376823544502, 0.203319922089577, 0.172041133046150, 0.156045883893967, 0.171826764941216, 0.217482134699821, -0.286788791418076, 0.225520417094231, 0.217378094792366, 0.203487396240234, 0.232714712619781, 0.202421277761459, 0.222144857048988, 0.202219262719154, 0.233205661177635, -0.388857930898666
0.128131374716759, 0.143671095371246, 0.122858680784702, 0.117417715489864, 0.097768507897854, 0.147637277841568, -0.175673112273216, 0.163067594170570, 0.107198700308800, 0.002063586842269, 0.115907736122608, 0.114691168069839, 0.146859094500542, 0.122419692575932, 0.167475327849388, -0.244246304035187
0.380527794361115, 0.407630443572998, 0.272125869989395, 0.302744209766388, -0.040499262511730, -0.028052950277925, -0.065243303775787, 0.371974259614944, 0.401304632425308, -0.188672661781311, -0.037692803889513, -0.000816957675852, -0.005484557244927, -0.044392090290785, 0.404528260231018, -0.074048399925232
0.554444670677185, 0.792096495628357, 0.436561554670334, 0.473998695611954, -0.671509206295013, -0.777381956577301, 0.310025811195374, 0.498605638742447, 0.596994459629059, -0.756070852279663, -0.759376227855682, -0.721338272094727, -0.708024382591248, -0.754723370075226, 0.503699123859406, 0.880130410194397
0.135942101478577, 0.177696809172630, 0.140552207827568, 0.138520017266273, -0.004691627807915, -0.012397719547153, -0.025144435465336, 0.123362965881824, 0.189379259943962, 0.001193390809931, -0.008206043392420, -0.004035000689328, -0.003613623790443, -0.027877271175385, 0.131304278969765, 0.041889108717442
0.227386027574539, 0.232196211814880, 0.188019111752510, 0.171363979578018, -0.215402737259865, -0.275006502866745, -0.013075711205602, 0.205514788627625, 0.276399523019791, -0.248817965388298, -0.259375542402267, -0.265067964792252, -0.231480792164803, -0.229654714465141, 0.183038830757141, 0.111384883522987
0.001361275557429, 0.060734003782272, 0.010858101770282, 0.012894653715193, -0.118407167494297, -0.115828275680542, 0.349101006984711, 0.005318389274180, 0.001556602772325, -0.121433682739735, -0.116218090057373, -0.060700051486492, -0.079995177686214, -0.087918564677238, 0.042028993368149, 0.446004331111908
-0.122744388878345, -0.096745774149895, -0.132764354348183, -0.110781945288181, -0.204096034169197, -0.258950710296631, 0.505899250507355, -0.133902832865715, -0.174585551023483, -0.171760201454163, -0.245092421770096, -0.262465804815292, -0.278385818004608, -0.233387604355812, -0.116991743445396, 0.597504913806915
0.280121564865112, 0.392332285642624, 0.246628329157829, 0.227744787931442, -0.333647459745407, -0.383501917123795, 0.317422837018967, 0.255074679851532, 0.263335376977921, -0.278055161237717, -0.339669317007065, -0.345383733510971, -0.391172260046005, -0.347570896148682, 0.243444591760635, 0.417342841625214
0.727764546871185, 0.498519301414490, 0.595223307609558, 0.568660378456116, -0.260908424854279, -0.265976250171661, -0.175112724304199, 0.639083564281464, 0.735283553600311, -0.198068499565125, -0.267252445220947, -0.239351689815521, -0.257616668939590, -0.276411503553391, 0.698796153068542, 0.137954726815224
0.341657549142838, 0.469109356403351, 0.320007503032684, 0.287139624357224, -0.232694268226624, -0.239336147904396, -0.123977392911911, 0.345725059509277, 0.362540364265442, -0.306266993284225, -0.221620589494705, -0.234318688511848, -0.214318051934242, -0.243109211325645, 0.353973895311356, 0.072946511209011
0.272610902786255, 0.341843754053116, 0.297905653715134, 0.278389275074005, -0.059915158897638, -0.100686147809029, 0.027351567521691, 0.279847502708435, 0.233483910560608, -0.056636188179255, -0.082940988242626, -0.074669472873211, -0.082980886101723, -0.097595557570457, 0.317912936210632, 0.000335057498887
0.062635332345963, 0.111402757465839, 0.104302398860455, 0.055940248072147, -0.008851340971887, 0.007846763357520, 0.374838292598724, 0.090408831834793, 0.082250148057938, -0.029470736160874, 0.021208304911852, -0.009664602577686, -0.028085980564356, 0.015050314366817, 0.120768614113331, 0.544446349143982
0.012673485092819, 0.036408849060535, 0.027137475088239, -0.003430221695453, 0.030078565701842, 0.028198476880789, 0.184051409363747, -0.024678705260158, 0.049567963927984, 0.002368119545281, 0.003398157656193, 0.017645811662078, 0.052828792482615, 0.024820683524013, 0.026325814425945, 0.205149948596954
-0.019663538783789, -0.012162240222096, -0.004670039750636, -0.032475933432579, 0.103116184473038, 0.147127389907837, 0.287425428628922, 0.001742761116475, -0.048298999667168, 0.105083815753460, 0.113155826926231, 0.126324415206909, 0.127212002873421, 0.130692288279533, -0.007722627837211, 0.241922318935394
0.415782392024994, 0.539800882339478, 0.383173495531082, 0.395495712757111, 0.129372373223305, 0.153413057327271, -0.188426628708839, 0.430848062038422, 0.463678240776062, 0.011493408121169, 0.125702992081642, 0.162385389208794, 0.169046670198441, 0.135973006486893, 0.395804136991501, -0.197561547160149
0.692993283271790, 0.518954694271088, 0.638722956180573, 0.693537116050720, -0.118848010897636, -0.096132874488831, -0.626171946525574, 0.612669765949249, 0.771007120609283, 0.004091987386346, -0.087594918906689, -0.087279595434666, -0.123177468776703, -0.118710242211819, 0.530963361263275, -0.486253410577774
0.050351776182652, 0.037051316350698, 0.026863582432270, 0.011314275674522, -0.008042865432799, -0.019256390631199, 0.035929687321186, 0.001993174897507, 0.062367387115955, 0.101466789841652, -0.029239427298307, -0.023534055799246, -0.056688763201237, -0.067593298852444, 0.016318511217833, 0.020279621705413
-0.034074250608683, -0.075802028179169, -0.013070787303150, -0.019711645320058, 0.314266949892044, 0.390116751194000, 0.149134993553162, -0.043443560600281, -0.039796002209187, 0.336869657039642, 0.334595561027527, 0.387609720230103, 0.374281674623489, 0.358901202678680, -0.025795567780733, -0.038091327995062
0.157057031989098, 0.143796920776367, 0.126038193702698, 0.137148618698120, 0.023956771939993, -0.000602612213697, -0.085756830871105, 0.140970408916473, 0.187835916876793, -0.025892551988363, 0.023019639775157, 0.005238275043666, -0.005770709831268, -0.012585510499775, 0.106430798768997, -0.072900630533695
-0.021343411877751, -0.001739689614624, -0.009230891242623, -0.041391588747501, 0.098557345569134, 0.162788823246956, 0.139708817005157, -0.025528948754072, -0.033487502485514, 0.071800343692303, 0.131400033831596, 0.093010455369949, 0.116263858973980, 0.138774320483208, -0.038306664675474, 0.078891038894653
-0.035517781972885, -0.003583668963984, -0.029368031769991, -0.029120191931725, -0.045879058539867, -0.039510093629360, 0.341996371746063, -0.003425315022469, -0.072664760053158, -0.007805899716914, -0.057655815035105, -0.042813796550035, -0.042128521949053, -0.039037365466356, -0.015633089467883, 0.313519299030304
-0.113611742854118, -0.088347718119621, -0.089863739907742, -0.108916819095612, -0.047701150178909, -0.035540744662285, 0.211833238601685, -0.090436190366745, -0.110138870775700, -0.026657672598958, -0.069536566734314, -0.085857495665550, -0.054213214665651, -0.050260528922081, -0.085226655006409, 0.239907026290894
-0.021679071709514, -0.020372664555907, -0.028186369687319, -0.047412808984518, -0.326601445674896, -0.375474512577057, 0.612551331520081, -0.027007229626179, -0.055042129009962, -0.237209603190422, -0.356101393699646, -0.372274667024612, -0.385772883892059, -0.347832024097443, -0.024902539327741, 0.719982802867889
-0.044806905090809, -0.000420681899413, -0.022026099264622, -0.057874936610460, -0.157738566398621, -0.190011039376259, 0.271940469741821, -0.026944870129228, -0.020718730986118, -0.179796203970909, -0.173557549715042, -0.179216265678406, -0.170383930206299, -0.192516684532166, -0.049844734370708, 0.343333959579468
0.018030883744359, 0.037803918123245, 0.034861505031586, 0.035526920109987, 0.333077728748322, 0.493607789278030, -0.118589907884598, 0.057666372507811, 0.066826894879341, 0.467903763055801, 0.478068739175797, 0.371930420398712, 0.457353979349136, 0.427137047052383, 0.055616799741983, -0.338917404413223
-0.204634189605713, -0.242775410413742, -0.190864637494087, -0.189302146434784, 0.285155981779099, 0.334862083196640, 0.633593022823334, -0.222178921103477, -0.244355469942093, 0.223624676465988, 0.328253924846649, 0.341788768768311, 0.294608503580093, 0.297687113285065, -0.203941941261292, 0.380121082067490
0.057212274521589, 0.021336827427149, 0.012576039880514, 0.079600326716900, 0.100310243666172, 0.088752634823322, 0.264340013265610, 0.027182089164853, -0.008961550891399, -0.164321303367615, 0.076464712619781, 0.112818494439125, 0.123303689062595, 0.115621641278267, 0.051334504038095, 0.235862746834755
-0.212866827845573, -0.230172917246819, -0.193461194634438, -0.185845807194710, 0.124955669045448, 0.152642175555229, 0.429107099771500, -0.194101050496101, -0.271628051996231, 0.203511103987694, 0.122472897171974, 0.109268277883530, 0.158961296081543, 0.110230691730976, -0.186135590076447, 0.333899676799774
0.251249521970749, 0.299376398324966, 0.187359273433685, 0.310736209154129, -0.246387854218483, -0.251661390066147, 0.354832142591476, 0.237569183111191, 0.279388159513474, -0.284222185611725, -0.255514621734619, -0.237884461879730, -0.274618268013000, -0.279384136199951, 0.297317773103714, 0.514358460903168
0.103162713348866, 0.116683028638363, 0.093534924089909, 0.104729272425175, 0.238141030073166, 0.356689900159836, 0.165340647101402, 0.104941219091415, 0.124905832111835, 0.379358708858490, 0.328625351190567, 0.255431085824966, 0.280347526073456, 0.312259823083878, 0.121626220643520, 0.050396170467138
0.126758217811584, 0.221404567360878, 0.184256672859192, 0.145718097686768, 0.099333941936493, 0.279545009136200, -0.255755811929703, 0.171388417482376, 0.183260440826416, 0.313699007034302, 0.242633238434792, 0.229205489158630, 0.255019843578339, 0.296448737382889, 0.226980999112129, -0.238928422331810
0.057020179927349, 0.071430735290051, 0.057388782501221, 0.064170457422733, -0.156788170337677, -0.164820119738579, 0.318943589925766, 0.083491869270802, 0.078727610409260, -0.051829658448696, -0.166864231228828, -0.196351587772369, -0.183377966284752, -0.140632703900337, 0.040703102946281, 0.408056706190109
0.003502414561808, 0.010613604448736, -0.009064121171832, 0.014025179669261, -0.006775496993214, 0.000640194397420, 0.190090864896774, 0.006471338681877, 0.000709841493517, 0.073359958827496, -0.012034622952342, 0.027213227003813, -0.040065892040730, 0.050487384200096, 0.001368305413052, 0.184870883822441
0.077285550534725, 0.095688290894032, 0.059537392109632, 0.069931052625179, -0.023497439920902, -0.027355562895536, 0.235291510820389, 0.091214038431644, 0.098474845290184, -0.005046706646681, -0.022648686543107, -0.073383927345276, -0.023384690284729, -0.015668282285333, 0.065691798925400, 0.174499869346619
0.254026204347610, 0.246464788913727, 0.127101480960846, 0.201479077339172, -0.245560228824615, -0.326908946037292, 0.159903958439827, 0.211368113756180, 0.285738229751587, -0.306807607412338, -0.265599578619003, -0.288590848445892, -0.319155335426331, -0.350428700447083, 0.170247629284859, 0.246815279126167
-0.169402703642845, -0.179528743028641, -0.157331630587578, -0.143940836191177, 0.016468811780214, 0.021988574415445, 0.496002912521362, -0.156010434031487, -0.225074872374535, 0.037982180714607, 0.010089525021613, 0.022269494831562, 0.055614039301872, 0.010342013090849, -0.153472781181335, 0.435333758592606
0.208020120859146, 0.284298509359360, 0.244492352008820, 0.227833732962608, -0.135614633560181, -0.165926218032837, 0.162938594818115, 0.216365531086922, 0.234738573431969, -0.095049388706684, -0.153386324644089, -0.158780828118324, -0.145423531532288, -0.144782051444054, 0.283280342817307, 0.320588290691376
0.072979249060154, 0.076930165290833, 0.077508397400379, 0.078210093080997, -0.171550944447517, -0.220261007547379, 0.508634150028229, 0.077726423740387, 0.058543141931295, -0.122789770364761, -0.195021629333496, -0.189186125993729, -0.205541804432869, -0.202225744724274, 0.075500838458538, 0.581430971622467
0.219142675399780, 0.276371449232101, 0.240994736552238, 0.268812179565430, -0.038340263068676, -0.041374545544386, 0.128931015729904, 0.257769823074341, 0.266746222972870, 0.017608717083931, -0.014428747817874, -0.005642364732921, -0.008546755649149, -0.018976159393787, 0.313804090023041, 0.193523690104485
0.151152133941650, 0.120000153779984, 0.118581488728523, 0.176334992051125, -0.036737605929375, 0.011214567348361, 0.002324372529984, 0.161578118801117, 0.185799539089203, -0.044701788574457, -0.006634395103902, -0.009137772023678, -0.035984374582767, -0.010559088550508, 0.187014698982239, -0.037342768162489
-0.044690448790789, -0.057716730982065, -0.065511204302311, -0.056721422821283, 0.155008837580681, 0.238021776080132, -0.023654622957110, -0.045515496283770, -0.102265156805515, 0.178265467286110, 0.211435079574585, 0.272234827280045, 0.248406708240509, 0.244495823979378, -0.062562279403210, -0.093144722282887
0.104296527802944, 0.091492280364037, 0.128771513700485, 0.075397074222565, 0.014302300289273, 0.087996810674667, 0.001225808635354, 0.077827766537666, 0.102388896048069, 0.056119419634342, 0.039559975266457, 0.090594023466110, 0.068401925265789, 0.092294134199619, 0.072427518665791, -0.053336735814810
0.164959087967873, 0.174858942627907, 0.163650095462799, 0.143365457653999, 0.014765148982406, 0.051163941621780, -0.191021591424942, 0.124367900192738, 0.200520411133766, 0.001584584708326, 0.012997325509787, 0.045393455773592, 0.059157270938158, 0.066123805940151, 0.157556563615799, -0.227916598320007
0.135516628623009, 0.108675517141819, 0.103181332349777, 0.137344852089882, -0.070560507476330, -0.066744409501553, 0.502268195152283, 0.127131015062332, 0.166158452630043, -0.033013451844454, -0.061853628605604, -0.041691869497299, -0.081130020320415, -0.056182991713285, 0.102978900074959, 0.535369217395782
-0.025039998814464, 0.023148940876126, -0.040575094521046, -0.041569318622351, -0.098706416785717, -0.144027248024940, 0.418903410434723, -0.019704084843397, -0.063015580177307, -0.096313118934631, -0.140139088034630, -0.160429701209068, -0.127716362476349, -0.124386787414551, -0.019932040944695, 0.441997498273849
0.149914219975471, 0.086861968040466, 0.128777310252190, 0.084087803959846, -0.008331479504704, -0.071027778089046, 0.222367927432060, 0.130970135331154, 0.085015222430229, -0.083710752427578, -0.063279762864113, -0.046385094523430, -0.036023486405611, -0.021850241348147, 0.091300517320633, 0.324818462133408
-0.298330873250961, -0.241116151213646, -0.261523872613907, -0.259582817554474, -0.159081429243088, -0.207996055483818, 1.133988022804260, -0.272991150617599, -0.301289647817612, -0.154888510704041, -0.193320170044899, -0.170150339603424, -0.161333233118057, -0.216573938727379, -0.278188616037369, 1.123624444007874
0.105515621602535, 0.072569832205772, 0.085681639611721, 0.112960800528526, 0.207143411040306, 0.219822853803635, -0.118821077048779, 0.100421309471130, 0.121625758707523, 0.220662534236908, 0.211236566305161, 0.190028935670853, 0.205926731228828, 0.209076225757599, 0.101258441805840, -0.181294828653336
0.044076986610889, 0.017790343612432, 0.046875555068254, 0.031288195401430, -0.090253286063671, -0.129981994628906, 0.422188222408295, 0.042731374502182, 0.055486448109150, -0.056420996785164, -0.091354459524155, -0.104548498988152, -0.092721991240978, -0.087523698806763, 0.013151603750885, 0.465713322162628
-0.083681195974350, -0.083719380199909, -0.088969200849533, -0.086709864437580, 0.052000708878040, 0.058499455451965, 0.128549158573151, -0.092692583799362, -0.069982841610909, 0.075627461075783, 0.048006083816290, 0.054970815777779, 0.102917946875095, 0.010511700995266, -0.075728833675385, 0.111912697553635
0.061985775828362, 0.073625311255455, 0.071380168199539, 0.051249083131552, 0.156163990497589, 0.194765359163284, -0.026146482676268, 0.088301792740822, 0.056471582502127, 0.117475345730782, 0.192325487732887, 0.177360340952873, 0.219569131731987, 0.177941486239433, 0.071370370686054, -0.093214906752110
-0.054521985352039, -0.007857721298933, -0.017457738518715, -0.064473226666451, 0.277384191751480, 0.289304643869400, -0.058279983699322, -0.014418898150325, -0.078821316361427, 0.048258204013109, 0.279070824384689, 0.256702482700348, 0.288234204053879, 0.254815131425858, -0.032479912042618, -0.179882317781448
-0.038574177771807, -0.050787497311831, -0.024661704897881, -0.035610049962997, 0.165684908628464, 0.291835069656372, -0.135184898972511, -0.034386303275824, -0.051587417721748, 0.255305320024490, 0.248439356684685, 0.282710969448090, 0.294012546539307, 0.259583771228790, -0.046525482088327, -0.252140045166016
0.125257119536400, 0.116706229746342, 0.085263893008232, 0.086756318807602, -0.149323791265488, -0.146301507949829, 0.099042780697346, 0.087356418371201, 0.116390332579613, -0.133709266781807, -0.152336567640305, -0.135107025504112, -0.138722732663155, -0.128491356968880, 0.101526036858559, 0.150631949305534
0.067387595772743, 0.046456400305033, 0.069086916744709, 0.042872756719589, 0.087215922772884, 0.088662065565586, 0.012257097288966, 0.051942098885775, 0.059488609433174, 0.080777466297150, 0.062824003398418, 0.125376492738724, 0.076739586889744, 0.049256913363934, 0.066483274102211, -0.081865839660168
0.241941869258881, 0.226809278130531, 0.196263223886490, 0.182437986135483, -0.113688662648201, -0.083965115249157, -0.042815688997507, 0.180770114064217, 0.232890322804451, 0.130356580018997, -0.097480744123459, -0.111644789576530, -0.120266027748585, -0.107345007359982, 0.215123802423477, -0.066179521381855
0.137576386332512, 0.174358114600182, 0.125390976667404, 0.166868045926094, 0.031260881572962, 0.064253948628902, 0.061874989420176, 0.149043589830399, 0.191655531525612, 0.064053930342197, 0.039268214255571, 0.040483698248863, 0.055529158562422, 0.040181960910559, 0.130595877766609, 0.007280869409442
0.045362643897533, 0.073891006410122, 0.044131826609373, 0.023802431300282, 0.085018090903759, 0.081252485513687, 0.049570824950933, 0.058154109865427, 0.072400897741318, 0.120329380035400, 0.096208184957504, 0.087074950337410, 0.141164556145668, 0.067046001553535, 0.052488166838884, 0.026435239240527
0.141428142786026, 0.225965797901154, 0.146247476339340, 0.155576854944229, 0.117772459983826, 0.209634706377983, -0.235075578093529, 0.173723056912422, 0.161286726593971, 0.178071558475494, 0.188998132944107, 0.224064096808434, 0.222505435347557, 0.193974927067757, 0.220721408724785, -0.334875971078873
-0.081204943358898, -0.031740192323923, -0.059694129973650, -0.100343436002731, 0.167927756905556, 0.169829383492470, 0.097221083939075, -0.078280501067638, -0.071475349366665, 0.098983049392700, 0.146225392818451, 0.210238128900528, 0.214446321129799, 0.188636437058449, -0.071217760443687, -0.009956215508282
0.007317892275751, -0.002614351222292, -0.014512440189719, -0.037372622638941, -0.090345889329910, -0.100429676473141, 0.263046324253082, -0.017705397680402, 0.005305364727974, -0.086673103272915, -0.122817672789097, -0.095835603773594, -0.085543133318424, -0.062684915959835, -0.030782721936703, 0.249651819467545
-0.013026639819145, 0.021315775811672, -0.035184331238270, 0.019149707630277, -0.245373144745827, -0.284970730543137, 0.539639413356781, -0.023857500404119, -0.000455505214632, -0.292572736740112, -0.284247249364853, -0.241111844778061, -0.284955382347107, -0.288381457328796, -0.009037304669619, 0.619664072990417
-0.027968572452664, -0.047918189316988, -0.029310939833522, -0.014515979215503, 0.007118759676814, -0.044313602149487, 0.364719897508621, -0.040425974875689, -0.056815344840288, -0.044358313083649, -0.057124447077513, 0.001614802749828, -0.020580574870110, -0.043277841061354, -0.026372965425253, 0.312916666269302
-0.059369161725044, -0.053946301341057, -0.039095114916563, -0.030379408970475, -0.168136209249496, -0.200488388538361, 0.415413707494736, -0.054414551705122, -0.054512109607458, -0.200359672307968, -0.190437942743301, -0.168943449854851, -0.202593460679054, -0.194566234946251, -0.043807376176119, 0.499853312969208
-0.167946532368660, -0.105855397880077, -0.072581633925438, -0.114769861102104, 0.136337026953697, 0.161270320415497, 0.059002358466387, -0.107452303171158, -0.117834813892841, 0.170176431536674, 0.155794247984886, 0.184948459267616, 0.183651357889175, 0.122783608734608, -0.089318998157978, -0.097889617085457
-0.514753162860870, -0.547427952289581, -0.438120782375336, -0.473366618156433, 0.273378700017929, 0.370516896247864, 1.125271201133728, -0.478394627571106, -0.500896215438843, 0.608284413814545, 0.303372293710709, 0.389081835746765, 0.470525383949280, 0.360440045595169, -0.557329356670380, 0.665029227733612
-0.107131317257881, -0.084366783499718, -0.078377269208431, -0.097145095467567, -0.044407442212105, -0.038649607449770, 0.637852132320404, -0.082328490912914, -0.099873423576355, 0.023891814053059, -0.038749974220991, -0.086718186736107, -0.106105588376522, -0.045149803161621, -0.103841111063957, 0.558928489685059
-0.046974517405033, -0.007419160567224, -0.054887320846319, -0.057487554848194, 0.255610734224319, 0.315265655517578, 0.127257063984871, -0.035547185689211, -0.013529198244214, 0.296222299337387, 0.281979322433472, 0.298999220132828, 0.354780495166779, 0.284689813852310, -0.046281132847071, -0.017439374700189
0.405421942472458, 0.463256001472473, 0.372241437435150, 0.423046261072159, 0.115099601447582, 0.079533651471138, -0.420887649059296, 0.442578643560410, 0.379723489284515, 0.141057655215263, 0.061723288148642, 0.075616233050823, 0.074408352375031, 0.051336437463760, 0.423495650291443, -0.495676219463348
0.470725655555725, 0.478309959173203, 0.324436843395233, 0.388247042894363, -0.219442859292030, -0.274235397577286, -0.211385771632195, 0.374793738126755, 0.457906097173691, -0.241867989301682, -0.229228720068932, -0.250293046236038, -0.236395120620728, -0.300628930330276, 0.393595188856125, -0.072484992444515
0.059893172234297, 0.080432742834091, 0.089256845414639, 0.048897553235292, -0.053736332803965, -0.013798526488245, 0.125308156013489, 0.066005982458591, 0.057251632213593, -0.006830611731857, -0.017343651503325, -0.041188098490238, -0.004296004772186, -0.028574930503964, 0.093386657536030, 0.131391778588295
0.185730159282684, 0.171083435416222, 0.116671286523342, 0.120758675038815, -0.096253000199795, -0.052118197083473, 0.123572088778019, 0.155882835388184, 0.200147598981857, 0.093582637608051, -0.061025150120258, -0.077660001814365, -0.066103361546993, -0.084178760647774, 0.135828092694283, 0.039059001952410
-0.006253243889660, -0.041691102087498, -0.024633854627609, -0.011653544381261, -0.120306424796581, -0.122828654944897, 0.321350216865540, -0.011546352878213, -0.036940574645996, -0.134831666946411, -0.105759039521217, -0.130262970924377, -0.112777106463909, -0.117573007941246, -0.009979343041778, 0.434934645891190
0.088376127183437, 0.126835793256760, 0.118559837341309, 0.072797045111656, -0.098891593515873, -0.095436394214630, 0.073775902390480, 0.076292894780636, 0.102342255413532, -0.117441348731518, -0.116024427115917, -0.094682104885578, -0.084068119525909, -0.066259950399399, 0.076070003211498, 0.136138260364532
0.037239935249090, 0.007220676634461, 0.022765830159187, 0.005966468714178, 0.002265760675073, 0.016674060374498, 0.127695664763451, 0.026036221534014, 0.011159010231495, 0.082061536610126, 0.001681846450083, -0.008282922208309, 0.006480740383267, 0.006115184631199, 0.004667915403843, 0.105480074882507
0.045814830809832, 0.070488683879375, 0.027890818193555, 0.007897751405835, -0.052097953855991, -0.047772690653801, 0.015108350664377, 0.034863002598286, 0.074651911854744, -0.021909508854151, -0.065908432006836, -0.012507717125118, 0.020452998578548, -0.004027877002954, 0.007372396066785, 0.042031902819872
0.222790464758873, 0.232545420527458, 0.138040497899055, 0.187668994069099, 0.044662836939096, 0.143167078495026, -0.036575593054295, 0.214259415864944, 0.267153382301331, 0.123511388897896, 0.147527202963829, 0.123776257038116, 0.140305131673813, 0.079008288681507, 0.169225797057152, -0.074113920331001
0.028271446004510, 0.055512692779303, 0.020732866600156, 0.022556751966476, -0.241744741797447, -0.255943238735199, 0.350948035717010, 0.037438072264194, 0.064605668187141, -0.209379702806473, -0.259209334850311, -0.268789917230606, -0.283415377140045, -0.263882607221603, 0.010487057268620, 0.454889327287674
-0.020117834210396, -0.037503767758608, -0.031658556312323, -0.024171741679311, -0.106627292931080, -0.067787170410156, 0.971849739551544, -0.020041065290570, -0.029867373406887, -0.182843640446663, -0.084707200527191, -0.141526147723198, -0.155941650271416, -0.188553571701050, -0.048874106258154, 0.684700846672058
-0.087346926331520, -0.095641605556011, -0.059566024690866, -0.092651262879372, -0.028664566576481, -0.031384471803904, 0.405550509691238, -0.077619694173336, -0.088747940957546, -0.006306104362011, -0.069852031767368, -0.029286328703165, -0.049719497561455, -0.045131787657738, -0.067882791161537, 0.482817679643631
0.009776191785932, -0.027245867997408, 0.042092222720385, 0.014906294643879, 0.028563871979713, 0.021083001047373, 0.271956562995911, 0.022236904129386, -0.006426354404539, 0.066492512822151, 0.044993340969086, 0.037087962031364, 0.059363298118114, 0.063299864530563, 0.021748680621386, 0.289593070745468
0.101169832050800, 0.117568276822567, 0.078473217785358, 0.083332851529121, -0.011380963027477, 0.004388645291328, 0.150489285588264, 0.099462389945984, 0.092118419706821, 0.019923187792301, 0.005787030793726, -0.007766985334456, 0.012532276101410, 0.031082732602954, 0.098309725522995, 0.104554168879986
0.180814981460571, 0.144066214561462, 0.157949566841125, 0.156804382801056, 0.192298904061317, 0.252832561731339, -0.031274013221264, 0.140688747167587, 0.197563022375107, 0.216602593660355, 0.240303993225098, 0.223446294665337, 0.233741551637650, 0.215651646256447, 0.175161033868790, -0.132388398051262
0.064671628177166, 0.055117808282375, 0.040724247694016, 0.043031882494688, -0.126294404268265, -0.114617176353931, 0.132577478885651, 0.046024132519960, 0.021952319890261, -0.165471225976944, -0.140058025717735, -0.112736843526363, -0.095529235899448, -0.094876810908318, 0.019897345453501, 0.158167600631714
0.008180912584066, -0.045295659452677, 0.007878066971898, -0.007601855788380, 0.500671744346619, 0.591960251331329, -0.286978244781494, -0.007549044676125, -0.015278870239854, 0.576503336429596, 0.536370873451233, 0.562392652034760, 0.616612493991852, 0.626392602920532, 0.011533536016941, -0.589080333709717
0.010184623301029, -0.078964769840240, 0.005135252140462, -0.002474798820913, 0.094907805323601, 0.145731806755066, 0.253725171089172, -0.022103644907475, -0.001263902056962, 0.128592386841774, 0.102111220359802, 0.131274521350861, 0.128028154373169, 0.109020143747330, 0.000667605374474, 0.133136287331581
0.280389159917831, 0.351490497589111, 0.277518153190613, 0.281981796026230, -0.165224120020866, -0.237693265080452, -0.102431587874889, 0.325193315744400, 0.320335954427719, -0.228759735822678, -0.157289296388626, -0.212031230330467, -0.215134695172310, -0.202506646513939, 0.410571306943893, 0.199332341551781
0.060263104736805, 0.040967538952827, 0.041496660560369, 0.051641479134560, 0.410718142986298, 0.527057766914368, -0.269555866718292, 0.077226996421814, 0.088447302579880, 0.493552654981613, 0.507218360900879, 0.527799189090729, 0.539684236049652, 0.514539361000061, 0.053022149950266, -0.589561343193054
0.083330243825912, 0.078649468719959, 0.072392292320728, 0.045577574521303, 0.182148486375809, 0.229283630847931, 0.042717985808849, 0.081687629222870, 0.099420793354511, 0.203423708677292, 0.199545457959175, 0.169758617877960, 0.161778151988983, 0.185040622949600, 0.053460225462914, -0.036939170211554
0.043303597718477, 0.065757684409618, -0.020392160862684, -0.012493934482336, 0.072502397000790, 0.046235803514719, 0.109081409871578, 0.020927589386702, 0.048571903258562, -0.046526692807674, 0.042133525013924, 0.089527189731598, 0.104530811309814, 0.071941070258617, 0.009172610938549, 0.068754345178604
-0.074021458625793, -0.089559301733971, -0.063830673694611, -0.063599683344364, 0.221676379442215, 0.330369859933853, 0.124782346189022, -0.074167758226395, -0.098595619201660, 0.297352910041809, 0.281760722398758, 0.291377454996109, 0.310005873441696, 0.286577284336090, -0.076156638562679, -0.040930189192295
0.040628295391798, 0.091444492340088, 0.003458887571469, -0.003311236388981, 0.157608687877655, 0.204397454857826, 0.126293420791626, 0.036425642669201, 0.072353363037109, 0.143152326345444, 0.185978546738625, 0.127606168389320, 0.132798790931702, 0.165952086448669, 0.012972977943718, 0.065104268491268
0.017572101205587, 0.065871059894562, 0.040235072374344, 0.024950675666332, -0.132737621665001, -0.122654505074024, 0.347053229808807, 0.044087931513786, 0.048888169229031, -0.185934081673622, -0.112607069313526, -0.147252738475800, -0.172604650259018, -0.139389827847481, 0.039621427655220, 0.394252538681030
-0.056268610060215, -0.058958239853382, -0.040219575166702, -0.050372555851936, 0.054945822805166, 0.032034412026405, 0.150679230690002, -0.038576509803534, -0.076894961297512, 0.077869921922684, 0.010280082002282, 0.019250260666013, 0.030882528051734, 0.029516356065869, -0.043357901275158, 0.119249902665615
0.215654373168945, 0.249152854084969, 0.144761189818382, 0.218208163976669, -0.114740572869778, -0.116029992699623, -0.046195924282074, 0.225724846124649, 0.285677999258041, -0.043003689497709, -0.113110847771168, -0.087506331503391, -0.109622806310654, -0.135178998112679, 0.226382181048393, -0.074334092438221
0.611472725868225, 0.605317234992981, 0.504778921604156, 0.577335894107819, 0.035592995584011, 0.006475386209786, -0.442279040813446, 0.578315138816833, 0.541327476501465, 0.055918723344803, -0.008950214833021, 0.005919095128775, -0.006185225211084, -0.054911281913519, 0.612592101097107, -0.439390689134598
0.008934762328863, 0.012821931391954, -0.019273338839412, -0.017529373988509, 0.006526817567647, -0.000904404092580, 0.157184034585953, 0.003337938804179, -0.008042537607253, 0.038940034806728, 0.005315460264683, 0.018156599253416, 0.032710000872612, -0.010188510641456, -0.012777933850884, 0.158311381936073
-0.197514981031418, -0.196170538663864, -0.142053291201591, -0.168921306729317, 0.250976115465164, 0.259317576885223, 0.479658752679825, -0.169997021555901, -0.224096432328224, 0.067595049738884, 0.232841745018959, 0.286136686801910, 0.252641618251801, 0.278175771236420, -0.150896340608597, 0.303579628467560
-0.020820215344429, -0.064424023032188, 0.007396346889436, -0.013722773641348, 0.269773453474045, 0.371775448322296, 0.268412113189697, -0.028612546622753, -0.005726721603423, 0.253885895013809, 0.335920810699463, 0.378657430410385, 0.314451366662979, 0.360864579677582, -0.030006112530828, 0.040871411561966
0.096506312489510, 0.168514728546143, 0.087784774601460, 0.129085943102837, -0.373984843492508, -0.456870377063751, 0.925617694854736, 0.133336201310158, 0.122000612318516, -0.387095898389816, -0.365304946899414, -0.336542993783951, -0.377481251955032, -0.378873735666275, 0.096590861678123, 1.104028701782227
0.004633890464902, -0.017052970826626, 0.027615865692496, 0.003544976469129, -0.058284670114517, -0.021606869995594, 0.299000471830368, 0.021106641739607, -0.010598711669445, -0.009737584739923, -0.030392479151487, -0.012759651988745, -0.008817121386528, -0.039922423660755, -0.003113321727142, 0.232715755701065
-0.023093886673450, -0.032795563340187, -0.027525270357728, 0.009688446298242, -0.009166300296783, -0.053882349282503, 0.065214931964874, -0.030420038849115, -0.026092942804098, -0.013429091311991, -0.049213092774153, -0.001075573032722, -0.051960077136755, -0.031393136829138, -0.004145070910454, 0.129079148173332
-0.045749478042126, -0.049483153969049, -0.045455224812031, -0.016965541988611, 0.007010980509222, -0.036775272339582, 0.090103752911091, -0.048754289746284, -0.066070742905140, -0.007684862241149, -0.039587706327438, 0.013442903757095, -0.032641187310219, -0.016174111515284, -0.032452072948217, 0.142731919884682
-0.065299369394779, -0.059122364968061, -0.034791402518749, 0.005199681967497, 0.078948289155960, 0.076034881174564, 0.162769839167595, -0.048937305808067, -0.035981826484203, 0.079982809722424, 0.056947920471430, 0.118510045111179, 0.081999987363815, 0.092391625046730, -0.039928417652845, 0.155160292983055
-0.053017556667328, -0.061407569795847, -0.029160059988499, -0.022159539163113, 0.089522764086723, 0.088191345334053, 0.120371863245964, -0.036642838269472, -0.057310946285725, 0.029496852308512, 0.049563013017178, 0.066480807960033, 0.034762050956488, 0.087469421327114, -0.030339015647769, 0.102630250155926
-0.160195887088776, -0.163980811834335, -0.121822379529476, -0.123001009225845, 0.102025471627712, 0.138145357370377, 0.260307848453522, -0.137892082333565, -0.152860358357430, 0.112283244729042, 0.080445393919945, 0.094315208494663, 0.122617155313492, 0.074929840862751, -0.147760659456253, 0.206598967313766
0.011268971487880, 0.052665367722511, 0.063389077782631, 0.010561085306108, 0.070808529853821, 0.119488194584846, 0.227145820856094, 0.019061913713813, 0.034662943333387, 0.138341054320335, 0.118785113096237, 0.025027127936482, 0.039623521268368, 0.071953020989895, 0.039509467780590, 0.206668555736542
-0.128731817007065, -0.147354900836945, -0.086920231580734, -0.110090807080269, 0.143781319260597, 0.189472734928131, 0.513581275939941, -0.097830265760422, -0.142561838030815, 0.175681933760643, 0.172507926821709, 0.112536400556564, 0.186710014939308, 0.175219237804413, -0.139143332839012, 0.408084720373154
-0.135109394788742, -0.124222949147224, -0.094151258468628, -0.129970744252205, 0.186941415071487, 0.257938772439957, 0.095535762608051, -0.132829755544662, -0.130093827843666, 0.159364596009254, 0.226736292243004, 0.189884409308434, 0.168924793601036, 0.208514392375946, -0.141970932483673, -0.040020015090704
-0.075847551226616, -0.057116094976664, -0.062654487788677, -0.067973814904690, -0.011254795826972, -0.032210640609264, 0.238763853907585, -0.075986616313457, -0.107261151075363, 0.042878277599812, -0.022716892883182, -0.038308277726173, -0.039069272577763, -0.033560156822205, -0.046059541404247, 0.278380483388901
-0.040559411048889, 0.031572345644236, -0.016562875360250, -0.018218208104372, -0.007004834245890, -0.014415550976992, 0.207720831036568, 0.007492062635720, 0.008633291348815, 0.013735917396843, -0.010901809670031, 0.010521776042879, 0.020197568461299, 0.004461845848709, -0.011262093670666, 0.211135968565941
-0.048053190112114, -0.015242068096995, -0.023132719099522, -0.068691074848175, -0.057555437088013, -0.049464832991362, 0.188737839460373, -0.050605442374945, -0.078209869563580, -0.126452937722206, -0.088831812143326, -0.022495519369841, -0.095675304532051, -0.061103925108910, -0.021366998553276, 0.215656995773315
-0.042524691671133, -0.059301648288965, -0.048841994255781, -0.013377176597714, -0.062256854027510, -0.048830255866051, 0.395177394151688, -0.024051869288087, -0.049094654619694, -0.054388750344515, -0.041866391897202, -0.047607995569706, -0.042683325707912, -0.053844284266233, -0.047097563743591, 0.427816838026047
-0.080316156148911, -0.065365947782993, -0.062806554138660, -0.069214418530464, -0.514125168323517, -0.606717050075531, 1.075865030288696, -0.077763162553310, -0.115180589258671, -0.399172872304916, -0.581426680088043, -0.581860482692719, -0.628822922706604, -0.591131329536438, -0.082658149302006, 1.323621869087219
0.184400558471680, 0.141195058822632, 0.121757239103317, 0.151916593313217, -0.021136159077287, -0.020272636786103, 0.089124001562595, 0.136323153972626, 0.209712445735931, 0.040239259600639, -0.020524384453893, 0.008446524851024, -0.043709415942430, -0.027590731158853, 0.126351505517960, 0.136780798435211
0.069858387112617, 0.045169025659561, 0.062221627682447, 0.065404497087002, 0.179211258888245, 0.233876541256905, 0.376600116491318, 0.057498168200254, 0.100945346057415, 0.244462430477142, 0.214034453034401, 0.205397501587868, 0.218229293823242, 0.224572896957397, 0.058356866240501, 0.180803850293159
0.295306265354156, 0.295349776744843, 0.228224009275436, 0.246626004576683, -0.216135248541832, -0.282023370265961, 0.070415765047073, 0.270250052213669, 0.346016496419907, -0.247219741344452, -0.251071184873581, -0.281507462263107, -0.274712324142456, -0.292246371507645, 0.223876237869263, 0.132352069020271
0.065255120396614, 0.072844415903091, 0.073324091732502, 0.075193464756012, -0.011478294618428, -0.042839888483286, 0.012414504773915, 0.072941645979881, 0.122780568897724, -0.062218852341175, -0.005758280400187, -0.037809781730175, 0.016997219994664, 0.001499859616160, 0.054528661072254, 0.038667354732752
-0.081173710525036, -0.092174559831619, -0.043094035238028, -0.025659041479230, -0.008150856941938, -0.011453613638878, 0.259922832250595, -0.070250831544399, -0.057308256626129, 0.052347309887409, -0.021940782666206, -0.046254832297564, 0.000720584997907, -0.032401997596025, -0.064384199678898, 0.272298991680145
-0.057942986488342, -0.059660568833351, -0.048233687877655, -0.048823252320290, 0.406729608774185, 0.512394368648529, -0.123410500586033, -0.037338264286518, -0.084767885506153, 0.378219127655029, 0.464300662279129, 0.403142005205154, 0.429145961999893, 0.458018422126770, -0.036222238093615, -0.289444833993912
-0.007653567008674, -0.022571559995413, -0.002225146628916, 0.003208497073501, 0.110135711729527, 0.126116514205933, 0.079424768686295, -0.034619849175215, -0.017324591055512, 0.110135123133659, 0.111264236271381, 0.102709218859673, 0.126569852232933, 0.096322976052761, -0.013116818852723, 0.020369365811348
-0.040036778897047, -0.067259654402733, -0.045027989894152, -0.036459088325500, 0.123465389013290, 0.128188312053680, 0.176831200718880, -0.040486957877874, -0.085578240454197, 0.105313979089260, 0.112176701426506, 0.130368679761887, 0.128443703055382, 0.086801648139954, -0.037821594625711, 0.060323156416416
0.123733893036842, 0.078611105680466, 0.086368069052696, 0.048265121877193, 0.165068536996841, 0.222776189446449, 0.161790147423744, 0.046567395329475, 0.106342233717442, 0.046964015811682, 0.188657686114311, 0.226162537932396, 0.135134831070900, 0.233527466654778, 0.108043767511845, 0.084891550242901
-0.050515022128820, -0.096570499241352, -0.016200419515371, -0.043235063552856, 0.216963380575180, 0.293262571096420, 0.172247931361198, -0.032502669841051, -0.064191490411758, 0.241558611392975, 0.246456623077393, 0.292253702878952, 0.272148281335831, 0.290618628263474, -0.039982467889786, 0.093252867460251
-0.054908238351345, -0.030856706202030, -0.042192388325930, -0.067021779716015, -0.161855414509773, -0.168254539370537, 0.581084370613098, -0.054581105709076, -0.022292550653219, -0.166739016771317, -0.161747261881828, -0.130794137716293, -0.179894983768463, -0.158320367336273, -0.054463613778353, 0.654237568378448
-0.337904036045074, -0.363994807004929, -0.273582875728607, -0.289901554584503, 0.481626898050308, 0.430413693189621, 0.808553636074066, -0.324817419052124, -0.365970313549042, 0.483733981847763, 0.397414654493332, 0.509749889373779, 0.532074749469757, 0.523935437202454, -0.302447706460953, 0.471138745546341
0.104564316570759, 0.108376070857048, 0.044745527207851, 0.087034620344639, -0.221350789070129, -0.322935670614243, 0.396719455718994, 0.071183100342751, 0.139657065272331, -0.317732840776443, -0.262210309505463, -0.330558896064758, -0.300875902175903, -0.328209966421127, 0.050114892423153, 0.472208946943283
0.031813655048609, 0.075239025056362, 0.002205701079220, 0.048082653433084, -0.102607220411301, -0.133203893899918, 0.255847781896591, 0.036093734204769, 0.015214387327433, -0.110128901898861, -0.107626661658287, -0.138374581933022, -0.123048119246960, -0.103827543556690, 0.026974180713296, 0.342537671327591
-0.005668596830219, -0.031752280890942, -0.016300579532981, -0.025244280695915, 0.126155659556389, 0.140080794692039, 0.026496775448322, -0.015898033976555, -0.010271573439240, 0.161651015281677, 0.122767902910709, 0.143174692988396, 0.162303611636162, 0.106214791536331, -0.023568348959088, -0.093045979738235
0.098010830581188, 0.103353485465050, 0.126478552818298, 0.104283742606640, -0.086745969951153, -0.113704495131969, 0.302892208099365, 0.098310522735119, 0.114474557340145, -0.129033505916595, -0.113962016999722, -0.097575217485428, -0.088105916976929, -0.098380617797375, 0.071580961346626, 0.473440796136856
-0.121854960918427, -0.144071891903877, -0.124536491930485, -0.123773477971554, 0.222465530037880, 0.250758409500122, 0.045815244317055, -0.133137583732605, -0.162100180983543, 0.214642420411110, 0.206138908863068, 0.263078302145004, 0.274277001619339, 0.235558018088341, -0.137464880943298, -0.101046338677406
-0.005314366426319, 0.000246449373662, 0.018566198647022, 0.026735307648778, -0.056234389543533, -0.054507009685040, 0.467967242002487, -0.011262462474406, 0.009527118876576, -0.023371495306492, -0.013242717832327, -0.085914134979248, -0.072230748832226, -0.077961690723896, 0.032820999622345, 0.494455605745316
0.160483166575432, 0.156977549195290, 0.151575699448586, 0.131186485290527, 0.048206105828285, 0.048886518925428, -0.143683031201363, 0.139543399214745, 0.185072630643845, 0.015823049470782, 0.035173423588276, 0.026597768068314, 0.051276396960020, 0.066338375210762, 0.137907892465591, -0.093468464910984
0.230842277407646, 0.305043458938599, 0.173920199275017, 0.248211607336998, -0.089150488376617, -0.106420837342739, -0.001274931710213, 0.262605309486389, 0.284702271223068, -0.081514038145542, -0.099420040845871, -0.137562051415443, -0.130748271942139, -0.111013382673264, 0.257015317678452, 0.033269122242928
-0.000317487574648, 0.031000420451164, 0.001234294380993, 0.006992708891630, 0.221580594778061, 0.349119573831558, 0.059241183102131, 0.025271797552705, -0.018866086378694, 0.223804384469986, 0.331392526626587, 0.198882892727852, 0.240281298756599, 0.260662466287613, 0.016761990264058, -0.086654290556908
0.126390263438225, 0.168502792716026, 0.160957798361778, 0.105081364512444, -0.005285649560392, 0.001369123114273, 0.034945059567690, 0.123072609305382, 0.141625940799713, -0.034095101058483, 0.019299088045955, 0.005974452476948, 0.017172088846564, 0.018687855452299, 0.184460550546646, 0.210205629467964
-0.244898870587349, -0.234739243984222, -0.197629734873772, -0.234571203589439, 0.163876488804817, 0.209631875157356, 0.416374146938324, -0.214361682534218, -0.255062460899353, 0.184814482927322, 0.201235070824623, 0.150012388825417, 0.156450510025024, 0.187256559729576, -0.211097180843353, 0.388294190168381
0.005513699259609, -0.020208448171616, -0.020730035379529, -0.010788149200380, 0.020690897479653, 0.011833422817290, 0.084941327571869, -0.029657397419214, -0.049173187464476, 0.043894078582525, 0.018574988469481, 0.045901481062174, 0.016861472278833, 0.010827113874257, -0.011005656793714, 0.078489802777767
-0.051629077643156, -0.064875580370426, -0.050460483878851, -0.029481180012226, 0.390531539916992, 0.480297714471817, 0.896918237209320, -0.037529896944761, -0.044133927673101, 0.418703258037567, 0.455359786748886, 0.445558607578278, 0.365854740142822, 0.475575178861618, -0.046409104019403, 0.591780424118042
-0.122355550527573, -0.140044465661049, -0.082939147949219, -0.114625357091427, 0.015268284827471, 0.064691394567490, 0.335836768150330, -0.078881911933422, -0.150090858340263, 0.044583566486835, 0.021309912204742, 0.084945656359196, 0.027177263051271, 0.028759732842445, -0.107006132602692, 0.292177736759186
-0.112172417342663, -0.140510946512222, -0.076913811266422, -0.119813263416290, 0.021179985255003, 0.074611999094486, 0.196088165044785, -0.085157364606857, -0.154301166534424, 0.027626810595393, 0.041330117732286, 0.074478887021542, 0.037169508635998, 0.050124373286963, -0.098014034330845, 0.194744184613228
0.046201083809137, 0.066499248147011, 0.048135280609131, 0.043297667056322, 0.071303918957710, 0.056784871965647, 0.130614101886749, 0.039891298860312, 0.056849014014006, 0.036672309041023, 0.026700772345066, 0.071720734238625, 0.115964896976948, 0.041328381747007, 0.033444572240114, 0.182043731212616
0.120877899229527, 0.096552334725857, 0.092657327651978, 0.091211721301079, 0.100879512727261, 0.130848854780197, 0.168639719486237, 0.107787959277630, 0.079150699079037, 0.108266688883305, 0.102087222039700, 0.141663953661919, 0.106535635888577, 0.111297801136971, 0.109835699200630, 0.082347981631756
-0.060183424502611, -0.069742649793625, -0.096012517809868, -0.087574645876884, 0.033111438155174, 0.003000907134265, 0.076839186251163, -0.086097754538059, -0.096353396773338, -0.054962109774351, 0.003889495739713, 0.044010065495968, 0.006421153433621, 0.017519922927022, -0.085766397416592, 0.118198789656162
0.362711668014526, 0.433546453714371, 0.465747952461243, 0.468906968832016, 0.036458935588598, 0.044753879308701, -0.351853460073471, 0.396840870380402, 0.493109822273254, 0.048051375895739, 0.072962425649166, 0.071289218962193, 0.043298207223415, 0.066311925649643, 0.354177594184875, -0.310880154371262
0.240833222866058, 0.271116822957993, 0.221729591488838, 0.227478951215744, -0.023463519290090, -0.006049572490156, 0.152281716465950, 0.232962623238564, 0.252820670604706, -0.131854549050331, -0.004384830594063, -0.042947933077812, -0.043408960103989, 0.000021316925995, 0.261160761117935, 0.218790218234062
-0.002938234712929, -0.028432287275791, -0.017189892008901, -0.016255602240562, 0.011459292843938, 0.017285022884607, 0.029669975861907, -0.003742824774235, -0.023343561217189, 0.015423418954015, -0.001432155375369, 0.027133759111166, 0.042259126901627, 0.032385963946581, -0.013122025877237, 0.033863615244627
-0.031660214066505, -0.006733301095665, -0.062593668699265, -0.032683521509171, -0.150112286210060, -0.226563990116119, 0.214243933558464, -0.036948665976524, -0.026647118851542, -0.198258906602859, -0.181746974587440, -0.178753614425659, -0.184661522507668, -0.205263555049896, -0.068933315575123, 0.237113535404205
0.290837168693542, 0.294146180152893, 0.220102861523628, 0.227293044328690, -0.159878417849541, -0.195726424455643, -0.004058180842549, 0.265543550252914, 0.319538861513138, -0.183580204844475, -0.174542188644409, -0.197225928306580, -0.191768944263458, -0.212812557816505, 0.255932867527008, 0.032464053481817
-0.025723760947585, 0.010384380817413, -0.016692088916898, -0.066797703504562, -0.090278878808022, -0.106680467724800, 0.138420552015305, -0.050301816314459, -0.020012829452753, -0.125999316573143, -0.143894881010056, -0.134328126907349, -0.117032535374165, -0.123755894601345, -0.036589086055756, 0.242275103926659
-0.071471624076366, -0.036230478435755, -0.062823355197906, -0.080888323485851, -0.037444662302732, -0.062384828925133, 0.284593790769577, -0.053654372692108, -0.059917256236076, -0.074475340545177, -0.034054562449455, -0.049605414271355, -0.046997003257275, -0.052130311727524, -0.059009511023760, 0.260455965995789
0.420271337032318, 0.508795797824860, 0.442629486322403, 0.420081824064255, -0.183062985539436, -0.233762249350548, 0.013594868592918, 0.408730626106262, 0.448836207389832, -0.174774557352066, -0.199476212263107, -0.166589170694351, -0.240785419940948, -0.190381512045860, 0.425716131925583, 0.388206303119659
-0.059307284653187, -0.029440175741911, -0.017385689541698, -0.034054953604937, 0.016798367723823, 0.026169996708632, 0.215898558497429, -0.037342231720686, -0.039953526109457, 0.011885147541761, 0.004455170128495, 0.017766576260328, 0.016949392855167, 0.007388893980533, -0.012298956513405, 0.228034526109695
0.211466267704964, 0.164451628923416, 0.194861799478531, 0.185192853212357, 0.479665786027908, 0.448249787092209, -0.607462644577026, 0.184344977140427, 0.243144467473030, 0.308296740055084, 0.452169716358185, 0.426432013511658, 0.455863922834396, 0.417720973491669, 0.259370595216751, -0.743341624736786
0.163318842649460, 0.163873359560966, 0.164916411042213, 0.097512945532799, -0.008869167417288, -0.024842707440257, -0.099075034260750, 0.129259243607521, 0.155783072113991, -0.013608619570732, -0.039221029728651, -0.026889732107520, -0.025815157219768, -0.015542712062597, 0.126445844769478, -0.010023046284914
0.003822656115517, 0.016958322376013, 0.005680845584720, -0.003516091732308, -0.119196116924286, -0.086594805121422, 0.129332616925240, 0.000400132848881, 0.011728953570127, -0.097182594239712, -0.101360440254211, -0.070369765162468, -0.090280026197433, -0.074075810611248, 0.014398436993361, 0.144764974713326
-0.019151240587234, 0.016181085258722, -0.007388627622277, -0.034860700368881, -0.099595248699188, -0.035433933138847, 0.530261933803558, -0.011018373072147, -0.036550216376781, 0.056469060480595, -0.054232794791460, -0.077518552541733, -0.067423969507217, -0.050357632339001, -0.026905743405223, 0.537870585918427
0.014890776947141, 0.001761286752298, 0.004948710557073, 0.001592858461663, -0.093947850167751, -0.056774664670229, 0.123278729617596, 0.010470218956470, 0.031503211706877, -0.089707642793655, -0.069768063724041, -0.054205704480410, -0.062365859746933, -0.077611356973648, 0.000918818695936, 0.136411905288696
-0.041284352540970, -0.054615657776594, -0.032717093825340, -0.018038267269731, -0.022112099453807, -0.012263212352991, 0.257745683193207, -0.028110010549426, -0.065302118659019, -0.005400787107646, -0.029899496585131, -0.053695544600487, -0.056936837732792, -0.047770097851753, -0.022856218740344, 0.291876882314682
0.518513679504395, 0.496843695640564, 0.463801205158234, 0.428259402513504, -0.071299351751804, -0.063863150775433, -0.519836306571960, 0.465707272291183, 0.450136274099350, -0.060482151806355, -0.071925096213818, -0.079018376767635, -0.045350991189480, -0.060625631362200, 0.383346676826477, -0.226155981421471
0.401839375495911, 0.378508269786835, 0.346285104751587, 0.353920489549637, -0.079152360558510, -0.063906282186508, -0.376504600048065, 0.362319320440292, 0.360164403915405, -0.050273887813091, -0.066726744174957, -0.071850068867207, -0.086131431162357, -0.058404490351677, 0.389242440462112, -0.289216041564941
0.188864588737488, 0.152737006545067, 0.140455678105354, 0.109716914594173, -0.046806775033474, -0.031148422509432, -0.042520456016064, 0.142500862479210, 0.201356694102287, -0.045915167778730, -0.050363030284643, -0.016275674104691, 0.000318783218972, 0.003827307838947, 0.113845057785511, -0.023961925879121
-0.043058365583420, -0.022111946716905, -0.007242674939334, -0.005729198921472, 0.092223554849625, 0.073833391070366, 0.147738471627235, -0.008456152863801, -0.035759449005127, 0.014583762735128, 0.072886578738689, 0.095631681382656, 0.083749055862427, 0.107426322996616, -0.007260151673108, 0.134024307131767
0.061835344880819, 0.045863829553127, 0.048452574759722, 0.026980061084032, -0.041622128337622, -0.050761055201292, 0.113939650356770, 0.055707540363073, 0.049372486770153, -0.000300195737509, -0.058301165699959, -0.051084876060486, -0.074004866182804, -0.102752014994621, 0.026258630678058, 0.103342302143574
0.215914353728294, 0.301587700843811, 0.203147456049919, 0.212960660457611, -0.107300497591496, -0.100626155734062, 0.043054051697254, 0.249501794576645, 0.262768208980560, -0.113280162215233, -0.096175506711006, -0.076977811753750, -0.078350618481636, -0.109739892184734, 0.288564026355743, 0.083076551556587
-0.033168584108353, -0.054340526461601, -0.022978628054261, -0.022019103169441, 0.156627565622330, 0.175660774111748, 0.022750644013286, -0.030133279040456, -0.045637972652912, 0.167401552200317, 0.164803534746170, 0.208569467067719, 0.199343338608742, 0.240393906831741, -0.029505884274840, -0.056417450308800
-0.025297721847892, -0.039931382983923, 0.005292409099638, -0.018294947221875, 0.080994650721550, 0.072933688759804, 0.114061243832111, -0.028932483866811, -0.026305694133043, 0.077218934893608, 0.080796964466572, 0.110838912427425, 0.116126284003258, 0.137009069323540, -0.031225644052029, 0.057608146220446
0.120360583066940, 0.076788298785686, 0.119278892874718, 0.104794479906559, -0.099430739879608, -0.100198082625866, 0.348345249891281, 0.101266995072365, 0.140796512365341, -0.028580840677023, -0.134931489825249, -0.104376569390297, -0.135944113135338, -0.113016784191132, 0.136540919542313, 0.359936058521271
0.234475955367088, 0.243852585554123, 0.187946423888206, 0.195612579584122, 0.003339624498039, 0.046290051192045, -0.089372269809246, 0.192446768283844, 0.267865717411041, -0.032676458358765, 0.040181946009398, 0.012202728539705, -0.037921208888292, -0.015335269272327, 0.209944605827332, -0.011340579017997
0.098390705883503, 0.121537573635578, 0.086600780487061, 0.065965265035629, 0.089159257709980, 0.089811466634274, -0.056024223566055, 0.108690083026886, 0.129954278469086, 0.034743867814541, 0.068461596965790, 0.110179588198662, 0.105314277112484, 0.088543646037579, 0.051607783883810, -0.086356475949287
0.083979226648808, 0.137731924653053, 0.084682933986187, 0.091085605323315, -0.004204560536891, 0.012986006215215, -0.040198102593422, 0.130318358540535, 0.101146481931210, -0.058678917586803, 0.002234457060695, 0.048180110752583, -0.011265931650996, -0.015749068930745, 0.168111518025398, -0.020969757810235
-0.107507750391960, -0.111065126955509, -0.091521233320236, -0.107673466205597, -0.016900926828384, 0.008854763582349, 0.676026165485382, -0.094502970576286, -0.143351912498474, 0.064534902572632, -0.013125968165696, -0.041184697300196, -0.004516517743468, 0.010221820324659, -0.105504706501961, 0.701866090297699
-0.003029233077541, -0.043429698795080, -0.048215255141258, -0.051224943250418, 0.381785690784454, 0.433506906032562, 0.152680501341820, -0.009162887930870, -0.069454289972782, 0.445121169090271, 0.502689301967621, 0.335228055715561, 0.500593066215515, 0.377536445856094, 0.008194332011044, -0.125533014535904
-0.034065410494804, -0.065785415470600, -0.047725066542625, -0.052774995565414, 0.155318066477776, 0.162690415978432, -0.025344792753458, -0.024683479219675, -0.060646649450064, 0.176909148693085, 0.181450128555298, 0.171323314309120, 0.224455341696739, 0.180520743131638, -0.031306955963373, -0.091295227408409
0.235389605164528, 0.250302523374557, 0.240962877869606, 0.219606578350067, -0.010435374453664, -0.026327280327678, -0.191677168011665, 0.226335763931274, 0.264981687068939, 0.066134452819824, -0.006173240020871, 0.001697345986031, -0.011354806832969, -0.026461074128747, 0.300708860158920, -0.263024657964706
0.034329593181610, 0.017568444833159, 0.003429368836805, 0.018525188788772, 0.075917772948742, 0.061365634202957, 0.081924974918365, 0.022171592339873, 0.063935391604900, 0.108219213783741, 0.072611644864082, 0.080159716308117, 0.086058646440506, 0.030473230406642, 0.010122062638402, 0.023052502423525
0.359838396310806, 0.380615025758743, 0.329348802566528, 0.309629887342453, -0.029372103512287, -0.027035474777222, -0.351012110710144, 0.356301695108414, 0.318953096866608, -0.042076487094164, -0.082733042538166, -0.030583292245865, -0.041926056146622, -0.035697445273399, 0.372178822755814, -0.263821840286255
0.002100710989907, 0.022450584918261, 0.018755104392767, -0.011266348883510, -0.057710640132427, -0.097905583679676, 0.587079942226410, 0.014848664402962, -0.026868583634496, -0.050544247031212, -0.078372389078140, -0.079847566783428, -0.074100509285927, -0.095756553113461, -0.009839651174843, 0.552691519260406
0.023994185030460, 0.064343288540840, 0.059631124138832, -0.005095862783492, -0.068881645798683, -0.032339401543140, 0.340397834777832, 0.060371406376362, -0.028537990525365, -0.061428844928741, -0.071420975029469, -0.106552414596081, -0.065680451691151, -0.067202046513557, 0.047255441546440, 0.482802420854568
-0.107064239680767, -0.110461056232452, -0.085278555750847, -0.081112168729305, 0.731932163238525, 0.884133458137512, 0.000391056295484, -0.108844578266144, -0.119472585618496, 0.697570323944092, 0.838991820812225, 0.712876021862030, 0.756625592708588, 0.788023114204407, -0.106088288128376, -0.450765848159790
0.589559376239777, 0.561379075050354, 0.519999027252197, 0.558253586292267, -0.193945214152336, -0.147078350186348, -0.365478128194809, 0.570542633533478, 0.664920508861542, -0.023735005408525, -0.153841421008110, -0.182468190789223, -0.183911427855492, -0.120937600731850, 0.535843670368195, -0.177407473325729
-0.321115076541901, -0.312292158603668, -0.236325234174728, -0.263290226459503, 0.032783951610327, 0.085459776222706, 0.592865228652954, -0.316338658332825, -0.303725063800812, 0.018730375915766, 0.048787921667099, 0.091387584805489, 0.034252006560564, 0.110850855708122, -0.294513672590256, 0.453178137540817
-0.135262489318848, -0.112744942307472, -0.099875107407570, -0.102655842900276, -0.127691581845284, -0.150752708315849, 0.480787277221680, -0.139064207673073, -0.136337667703629, -0.152396619319916, -0.145603582262993, -0.113017573952675, -0.146868556737900, -0.124183028936386, -0.126073971390724, 0.550586223602295
0.029234010726213, 0.014250813052058, 0.006259144749492, 0.009408078156412, -0.084355957806110, -0.056468438357115, 0.193591579794884, 0.015640676021576, 0.081796355545521, -0.120046958327293, -0.090641558170319, -0.117722727358341, -0.067555941641331, -0.063149966299534, -0.023533452302217, 0.151478067040443
-0.016893431544304, -0.023419603705406, -0.003818143624812, -0.052420143038034, 0.029619067907333, 0.020131932571530, 0.065803691744804, -0.029083916917443, -0.026250723749399, -0.026352029293776, -0.034284472465515, 0.065733440220356, 0.000233627040870, -0.009380808100104, -0.023784982040524, 0.049424316734076
-0.103810183703899, -0.018441308289766, -0.034775070846081, -0.062951460480690, -0.079911775887012, -0.095547594130039, 0.323211431503296, -0.042913697659969, -0.037852443754673, -0.040850900113583, -0.068475469946861, -0.120742477476597, -0.102843344211578, -0.088267154991627, -0.050557315349579, 0.300627976655960
-0.034657377749681, -0.023355858400464, -0.020207909867167, -0.045314136892557, -0.077154062688351, -0.078641004860401, 0.234819859266281, -0.011328903026879, -0.039274897426367, -0.038459423929453, -0.113979928195477, -0.095352791249752, -0.076656930148602, -0.072254903614521, -0.030574200674891, 0.249720796942711
0.050193864852190, 0.032180935144424, 0.045098267495632, 0.042012300342321, -0.069566138088703, -0.093290187418461, 0.125435426831245, 0.025540413334966, 0.021272199228406, -0.035582140088081, -0.046452507376671, -0.068794496357441, -0.107645161449909, -0.057334538549185, 0.055456593632698, 0.208406478166580
-0.044045411050320, -0.072649523615837, -0.060750816017389, -0.060303837060928, -0.147166654467583, -0.217523157596588, 0.293353468179703, -0.047721914947033, -0.086353570222855, -0.125771626830101, -0.215640425682068, -0.188605561852455, -0.188536286354065, -0.158249318599701, -0.034146763384342, 0.463421225547791
-0.087392933666706, -0.105522513389587, -0.075632795691490, -0.068523399531841, -0.180994912981987, -0.206867530941963, 0.543962419033051, -0.086989484727383, -0.137343749403954, -0.169775351881981, -0.213989183306694, -0.208126366138458, -0.203563719987869, -0.223313078284264, -0.080915428698063, 0.558208703994751
0.010458574630320, -0.002523326547816, -0.005430464167148, -0.019925510510802, -0.051024299114943, -0.079575762152672, 0.118796743452549, -0.008881013840437, -0.001549345906824, -0.023488542065024, -0.057236865162849, -0.083244442939758, -0.067043706774712, -0.059275280684233, -0.012787842191756, 0.165682703256607
-0.010849720798433, -0.026307549327612, 0.004967696964741, 0.007538697682321, 0.019221790134907, -0.003308375831693, 0.136314883828163, -0.011609187349677, 0.000275549478829, 0.054426584392786, 0.020589524880052, 0.017727047204971, 0.015030630864203, 0.045535482466221, -0.021625131368637, 0.159173905849457
-0.079990379512310, -0.066128022968769, -0.053685247898102, -0.040792368352413, 0.243996724486351, 0.311043471097946, 0.280999213457108, -0.034802466630936, -0.075490370392799, 0.294079869985580, 0.272173672914505, 0.249838709831238, 0.280838131904602, 0.256048887968063, -0.046932395547628, 0.111426576972008
-0.069272466003895, -0.065400511026382, -0.038634732365608, -0.045695830136538, -0.172072425484657, -0.220540195703506, 0.445748478174210, -0.064408048987389, -0.050027605146170, -0.047971464693546, -0.229080379009247, -0.216817229986191, -0.248420163989067, -0.213051304221153, -0.029279479756951, 0.443675905466080
-0.035067807883024, -0.067626520991325, -0.037200488150120, -0.023369582369924, 0.041443537920713, 0.024110434576869, 0.476581692695618, -0.062294438481331, -0.062470987439156, 0.029758423566818, 0.056986920535564, 0.030095603317022, 0.055863592773676, -0.002796410350129, -0.037562519311905, 0.389882206916809
0.073830105364323, 0.116318345069885, 0.046840187162161, 0.059749726206064, -0.177242174744606, -0.239601865410805, 0.535288095474243, 0.066752381622791, 0.086612232029438, -0.187085479497910, -0.216047778725624, -0.232050627470016, -0.212806969881058, -0.233840137720108, 0.065477944910526, 0.635738730430603
-0.022075513377786, 0.021105475723743, 0.029661083593965, -0.014617159031332, -0.013778445310891, 0.005431453697383, 0.074615858495235, 0.036382202059031, -0.014883941039443, 0.040289293974638, -0.009499253705144, -0.026722617447376, -0.009014935232699, 0.049265976995230, -0.006036561448127, 0.002490389160812
-0.005962308496237, -0.010408476926386, -0.006218269467354, 0.004472200293094, 0.089538194239140, 0.097495324909687, 0.295158624649048, 0.004044888075441, -0.019290708005428, 0.060650005936623, 0.062119472771883, 0.072230204939842, 0.065232746303082, 0.040184624493122, 0.005703817121685, 0.287876069545746
0.020212905481458, -0.045820198953152, 0.008617485873401, 0.003186899470165, 0.153643906116486, 0.185123249888420, 0.107968606054783, -0.011088221333921, -0.019576355814934, 0.218196213245392, 0.178635135293007, 0.191883713006973, 0.206496834754944, 0.176232978701591, -0.001443034037948, 0.048557464033365
-0.075958780944347, -0.122938320040703, -0.086801610887051, -0.078398212790489, 0.187072813510895, 0.201737105846405, 0.020868623629212, -0.103683844208717, -0.111437238752842, 0.103159345686436, 0.184179484844208, 0.221571639180183, 0.190503999590874, 0.159134179353714, -0.090413160622120, -0.094976760447025
-0.045874331146479, -0.084887273609638, -0.033222787082195, -0.047486793249846, 0.173927858471870, 0.205108091235161, 0.433591693639755, -0.055740125477314, -0.081380434334278, 0.152304336428642, 0.201468557119370, 0.241981744766235, 0.195768997073174, 0.154378980398178, -0.043932240456343, 0.251573204994202
-0.041587535291910, -0.062871187925339, -0.034813530743122, -0.040236182510853, 0.131831958889961, 0.189475134015083, 0.115274988114834, -0.051547218114138, -0.073092721402645, 0.159485056996346, 0.167787745594978, 0.182835310697556, 0.170370891690254, 0.170040681958199, -0.039727132767439, 0.086429923772812
-0.015702962875366, -0.062285050749779, -0.015508497133851, -0.027807967737317, 0.181918799877167, 0.199203401803970, 0.208265349268913, -0.038210056722164, -0.062868930399418, 0.160990744829178, 0.206028491258621, 0.234316676855087, 0.191127896308899, 0.143601015210152, -0.024575799703598, -0.035257462412119
-0.109588831663132, -0.067482106387615, -0.060146655887365, -0.071346297860146, -0.057750176638365, -0.058771479874849, 0.454100221395493, -0.108329325914383, -0.071023955941200, -0.036583624780178, -0.049113433808088, -0.061985999345779, -0.057750683277845, -0.027506994083524, -0.065043143928051, 0.485334932804108
0.040363438427448, 0.029459776356816, 0.067585244774818, 0.023148274049163, -0.132716029882431, -0.121789366006851, 0.194261118769646, 0.007562750019133, 0.056873332709074, -0.236914038658142, -0.098114937543869, -0.060239691287279, -0.136797726154327, -0.116909526288509, 0.004551164805889, 0.249485418200493
-0.007076529785991, 0.065380290150642, 0.011190516874194, 0.026609335094690, 0.216013431549072, 0.307558864355087, -0.128423795104027, 0.011783663183451, 0.048662833869457, 0.203213602304459, 0.271517813205719, 0.211490899324417, 0.197798281908035, 0.265373378992081, 0.029229668900371, -0.237486660480499
-0.015844671055675, -0.008019141852856, 0.009631311520934, -0.045541040599346, 0.228420466184616, 0.326857149600983, -0.018077127635479, 0.004860396962613, -0.045797847211361, 0.218063101172447, 0.300008177757263, 0.235632643103600, 0.234897062182426, 0.280501425266266, -0.013151442632079, -0.082578368484974
-0.115082487463951, -0.106568366289139, -0.098153106868267, -0.090065725147724, 0.240493193268776, 0.297250151634216, 0.539222896099091, -0.139401361346245, -0.105637744069099, 0.350581020116806, 0.276095569133759, 0.298911184072495, 0.257716715335846, 0.232766941189766, -0.098288163542747, 0.266446828842163
-0.245676085352898, -0.188910260796547, -0.182407379150391, -0.217063561081886, 0.610965132713318, 0.656445503234863, 0.130620345473289, -0.199340358376503, -0.241207733750343, 0.556532144546509, 0.663272082805634, 0.606183767318726, 0.643284261226654, 0.655921638011932, -0.201553732156754, -0.342632025480270
-0.064726606011391, -0.045850649476051, -0.050920724868774, -0.045931722968817, 0.096634022891521, 0.185882866382599, 0.119304738938808, -0.020341860130429, -0.072922185063362, 0.199120551347733, 0.180761605501175, 0.171913176774979, 0.194199547171593, 0.174071088433266, -0.021695576608181, 0.062383200973272
-0.133377581834793, -0.073652639985085, -0.122081771492958, -0.111070834100246, 0.001023275777698, -0.031135048717260, 0.747403204441071, -0.108640037477016, -0.144305273890495, 0.021593138575554, -0.059267736971378, -0.024622071534395, -0.019459962844849, -0.033215254545212, -0.101244360208511, 0.669297814369202
-0.134521275758743, -0.166059941053391, -0.158399894833565, -0.146006584167480, -0.329559177160263, -0.429078936576843, 1.132405161857605, -0.154522210359573, -0.216132640838623, -0.296290487051010, -0.359178274869919, -0.375324010848999, -0.417339056730270, -0.350118428468704, -0.172135114669800, 1.305236220359802
0.038991697132587, 0.060110583901405, 0.060832485556602, 0.026893656700850, -0.030341792851686, 0.016274318099022, 0.122486278414726, 0.025411527603865, 0.052355453372002, -0.008854230865836, 0.000532933627255, -0.001384878181852, -0.036658640950918, 0.004702133592218, 0.081440202891827, 0.203770384192467
-0.066261537373066, -0.076701626181602, -0.101074524223804, -0.050347249954939, 0.361495673656464, 0.435200333595276, -0.005870627239347, -0.068298868834972, -0.069639764726162, 0.302657604217529, 0.368580758571625, 0.409887462854385, 0.394714534282684, 0.416267663240433, -0.072980143129826, -0.210928276181221
-0.237455204129219, -0.218110114336014, -0.167856171727180, -0.185793668031693, -0.008784557692707, -0.014670960605145, 0.452142298221588, -0.233128130435944, -0.190106451511383, -0.013397864997387, -0.006533124484122, -0.066980913281441, -0.028636744245887, -0.016584366559982, -0.211020573973656, 0.432093262672424
-0.125287756323814, -0.176530987024307, -0.128422111272812, -0.140052214264870, -0.180439993739128, -0.242687895894051, 0.714319288730621, -0.141994491219521, -0.192907333374023, -0.124408952891827, -0.188003033399582, -0.197228655219078, -0.201978042721748, -0.212361514568329, -0.148115858435631, 0.803472518920898
-0.049587428569794, -0.069729961454868, -0.064157851040363, -0.060064863413572, 0.228852137923241, 0.378022640943527, 0.106270454823971, -0.052213214337826, -0.070289246737957, 0.403584241867065, 0.336105495691299, 0.331456661224365, 0.372576594352722, 0.329572796821594, -0.078935228288174, -0.106368429958820
0.026258962228894, 0.048275917768478, 0.002487753052264, 0.010684484615922, -0.087559178471565, -0.056745082139969, 0.197152987122536, 0.030046876519918, 0.030114313587546, 0.006402930710465, -0.068328075110912, -0.098964922130108, -0.079496622085571, -0.083461165428162, 0.014929073862731, 0.229355871677399
-0.039485808461905, -0.066091999411583, -0.054010417312384, -0.047313526272774, 0.270990699529648, 0.346532106399536, -0.003369709942490, -0.043252035975456, -0.076358690857887, 0.186005070805550, 0.269632250070572, 0.304605752229691, 0.342154145240784, 0.286141842603683, -0.026914980262518, -0.156385987997055
-0.091053895652294, -0.081920951604843, -0.058714117854834, -0.057194743305445, 0.144463852047920, 0.138390451669693, 0.084368593990803, -0.068312585353851, -0.094988808035851, 0.180469825863838, 0.094835668802261, 0.122616969048977, 0.100435346364975, 0.079208008944988, -0.076195709407330, 0.028290897607803
-0.068550422787666, -0.042281258851290, -0.087000496685505, -0.071768239140511, -0.093210063874722, -0.076696507632732, 0.623614907264709, -0.081233128905296, -0.100160241127014, -0.147414728999138, -0.073711320757866, -0.116527765989304, -0.090765431523323, -0.080271087586880, -0.067673422396183, 0.567573010921478
0.133880212903023, 0.135692760348320, 0.071293964982033, 0.104420632123947, -0.238835573196411, -0.300170212984085, 0.211309283971786, 0.103214062750340, 0.191634178161621, -0.271883577108383, -0.257700860500336, -0.276196062564850, -0.294494688510895, -0.333840727806091, 0.081914544105530, 0.292050302028656
-0.049083229154348, -0.041842520236969, -0.032029278576374, -0.032053019851446, -0.129509583115578, -0.167248621582985, 0.479320764541626, -0.058249793946743, -0.002819914137945, -0.065626710653305, -0.156291112303734, -0.184306040406227, -0.162753060460091, -0.164583459496498, -0.057429760694504, 0.480746120214462
-0.136483952403069, -0.166044116020203, -0.118639588356018, -0.111439399421215, 0.178035989403725, 0.257008939981461, 0.632564246654510, -0.125948622822762, -0.134794473648071, 0.370035946369171, 0.176772996783257, 0.195613846182823, 0.173831373453140, 0.263083040714264, -0.138129323720932, 0.419240593910217
0.158811688423157, 0.173164978623390, 0.133179679512978, 0.170874133706093, -0.285719484090805, -0.351751178503036, 0.378316789865494, 0.156330287456512, 0.230228766798973, -0.275770008563995, -0.297352492809296, -0.285731196403503, -0.340610295534134, -0.311426639556885, 0.143441960215569, 0.541429221630096
-0.019299140200019, -0.030043892562389, -0.029494855552912, -0.000983152305707, 0.186622723937035, 0.195588290691376, -0.072669349610806, -0.021697703748941, -0.035362873226404, 0.189287722110748, 0.187468141317368, 0.233370244503021, 0.196731761097908, 0.239066645503044, -0.012935946695507, -0.062389858067036
0.076527699828148, 0.110036149621010, 0.059870794415474, 0.059080854058266, 0.015294209122658, -0.021709661930799, 0.012618144042790, 0.083266742527485, 0.100510179996490, 0.030802074819803, -0.017193840816617, -0.017189243808389, -0.010439139790833, 0.011159045621753, 0.088252499699593, 0.024439282715321
-0.424098372459412, -0.437741279602051, -0.366641521453857, -0.393998593091965, 0.115424022078514, 0.126849755644798, 0.949160277843475, -0.402221024036407, -0.480600088834763, 0.052475430071354, 0.112403817474842, 0.072423100471497, 0.123713247478008, 0.097526282072067, -0.422754973173141, 0.990624725818634
0.128253474831581, 0.107105091214180, 0.085244506597519, 0.104083940386772, -0.007687557488680, -0.043751399964094, -0.037338789552450, 0.096249505877495, 0.138694971799850, -0.067073605954647, -0.011512228287756, 0.050053250044584, -0.007880004122853, -0.008181142620742, 0.116897776722908, -0.059598632156849
-0.040771454572678, -0.035506077110767, -0.019123593345284, -0.035837948322296, -0.138002008199692, -0.108130499720573, 0.360674709081650, -0.049667239189148, -0.048528369516134, -0.131156563758850, -0.127309769392014, -0.089635975658894, -0.134819149971008, -0.120202377438545, -0.043405376374722, 0.444271504878998
-0.032480251044035, -0.045573797076941, -0.002180620795116, -0.044556614011526, 0.106175228953362, 0.162223055958748, 0.062642797827721, -0.032072070986032, -0.043504703789949, 0.136179998517036, 0.132708132266998, 0.156349450349808, 0.125522524118423, 0.156358450651169, -0.059978775680065, -0.000123040284961
-0.158681139349937, -0.141187116503716, -0.148031383752823, -0.110922701656818, -0.072307929396629, -0.082105197012424, 0.577650487422943, -0.138655766844749, -0.208699285984039, -0.114695422351360, -0.095026776194572, -0.102079339325428, -0.109722614288330, -0.056312229484320, -0.146420493721962, 0.606355726718903
-0.011325001716614, 0.011581256054342, -0.002178319962695, 0.007627700921148, -0.130006104707718, -0.206299349665642, 0.548175036907196, 0.002331580501050, -0.014528457075357, -0.192354127764702, -0.185686722397804, -0.111038260161877, -0.150088995695114, -0.182034939527512, 0.015715474262834, 0.724529802799225
-0.059967141598463, -0.055438712239265, -0.084994092583656, -0.098226733505726, -0.018178408965468, 0.012210890650749, 0.296887606382370, -0.072132535278797, -0.069838963449001, -0.047759369015694, -0.016430879011750, 0.053712513297796, -0.030750686302781, -0.023012138903141, -0.083506055176258, 0.264806896448135
-0.085247941315174, -0.104603886604309, -0.061951026320457, -0.052151653915644, 0.006279367487878, 0.042640641331673, 0.575854003429413, -0.068835616111755, -0.079217575490475, 0.093032918870449, 0.015578404068947, 0.041798546910286, 0.013393878936768, 0.022475803270936, -0.069424398243427, 0.427155911922455
-0.057755600661039, -0.043186869472265, -0.044393792748451, -0.047761458903551, -0.005861858837306, 0.002423022408038, 0.243941381573677, -0.037186488509178, -0.096394807100296, 0.004110242240131, -0.011877859011292, 0.043594848364592, 0.016374001279473, 0.024190504103899, -0.062282364815474, 0.175197273492813
-0.102709077298641, -0.095477260649204, -0.089243210852146, -0.075858615338802, 0.053872887045145, 0.159664168953896, 0.074228145182133, -0.079990290105343, -0.115572601556778, 0.223521053791046, 0.133766993880272, 0.143788203597069, 0.135652005672455, 0.155142307281494, -0.094968199729919, -0.018721060827374
-0.034502297639847, 0.007143946364522, -0.020256804302335, -0.023403471335769, -0.225170478224754, -0.264982104301453, 0.440802156925201, -0.007074243389070, -0.004663368221372, -0.224198460578918, -0.230497524142265, -0.207797139883041, -0.254626274108887, -0.232729837298393, 0.018016513437033, 0.572682023048401
0.085387542843819, 0.090363584458828, 0.041403789073229, 0.058328054845333, 0.130233407020569, 0.168663069605827, -0.080702714622021, 0.064296752214432, 0.132120281457901, 0.166555956006050, 0.148885905742645, 0.129496589303017, 0.143092468380928, 0.118578068912029, 0.039135348051786, -0.150069043040276
-0.117965415120125, -0.143476009368896, -0.086983002722263, -0.117447502911091, 0.110311008989811, 0.177904099225998, 0.211033895611763, -0.123119771480560, -0.139391928911209, 0.119998231530190, 0.140201985836029, 0.154681801795959, 0.171950727701187, 0.168039634823799, -0.103919789195061, 0.155525088310242
-0.202606335282326, -0.154829069972038, -0.154104739427567, -0.165584683418274, -0.133279934525490, -0.193923920392990, 0.718241095542908, -0.216080620884895, -0.147103071212769, -0.139237120747566, -0.169683501124382, -0.186722770333290, -0.167516201734543, -0.179175883531570, -0.197158381342888, 0.773213446140289
-0.205826267600060, -0.192977294325829, -0.172860980033875, -0.170368000864983, 0.131630778312683, 0.147332042455673, 0.585900664329529, -0.199236348271370, -0.234846800565720, 0.095073290169239, 0.123929284512997, 0.127737358212471, 0.169174984097481, 0.123095415532589, -0.195039346814156, 0.376829028129578
0.009428074583411, 0.008748108521104, 0.000043368432671, 0.018631953746080, 0.105910852551460, 0.115952774882317, -0.012169992551208, 0.014394895173609, 0.018167318776250, 0.091535896062851, 0.122332133352757, 0.216873943805695, 0.109435766935349, 0.175191879272461, -0.006625154055655, -0.093680337071419
0.030810611322522, 0.039399072527885, 0.058385591953993, 0.003717083483934, -0.030771097168326, -0.028290489688516, 0.130590379238129, 0.028574561700225, 0.040564112365246, -0.067457787692547, -0.032609824091196, 0.007981023751199, -0.076998598873615, 0.002132762921974, 0.009430332109332, 0.203180506825447
0.055695451796055, 0.090543575584888, 0.044953148812056, 0.056925371289253, 0.086375750601292, 0.054268471896648, 0.054812498390675, 0.071130588650703, 0.097547024488449, 0.114772289991379, 0.072699837386608, 0.058222353458405, 0.105130776762962, 0.061021659523249, 0.068686924874783, -0.035595890134573
-0.002270741155371, 0.030915640294552, 0.046759519726038, -0.018830059096217, -0.092938102781773, -0.098209500312805, 0.284138470888138, 0.020893879234791, -0.023813568055630, -0.073478884994984, -0.094335034489632, -0.058258410543203, -0.090108051896095, -0.087750673294067, -0.023778345435858, 0.353678286075592
0.101942427456379, 0.089341267943382, 0.078068211674690, 0.060748912394047, 0.033817078918219, 0.052934989333153, -0.071648232638836, 0.100350752472878, 0.141445815563202, -0.009969247505069, 0.008859175257385, 0.060105770826340, 0.007200635503978, 0.040199544280767, 0.042364493012428, -0.124938108026981
-0.169121429324150, -0.148475274443626, -0.114578768610954, -0.137727305293083, 0.049798708409071, 0.031056158244610, 0.306533247232437, -0.175748914480209, -0.161941453814507, 0.014303973875940, 0.042651936411858, 0.042545683681965, 0.058347862213850, 0.051156621426344, -0.150593250989914, 0.298096686601639
-0.061157893389463, -0.053668763488531, -0.061458658427000, -0.074598342180252, -0.187121793627739, -0.246971204876900, 0.373511731624603, -0.047011803835630, -0.087231561541557, -0.163518875837326, -0.217606484889984, -0.216352328658104, -0.203772678971291, -0.235635384917259, -0.055177617818117, 0.571558594703674
0.336541950702667, 0.334165096282959, 0.280917733907700, 0.320738643407822, -0.280106246471405, -0.337037116289139, 0.068917207419872, 0.355281859636307, 0.385050624608994, -0.302913367748260, -0.360789746046066, -0.296097069978714, -0.357882022857666, -0.295870631933212, 0.310621351003647, 0.148531571030617
-0.097555704414845, -0.101816929876804, -0.074109077453613, -0.085422053933144, 0.268250703811646, 0.297365874052048, -0.116640314459801, -0.080177880823612, -0.074217386543751, 0.270481407642365, 0.265744388103485, 0.303992837667465, 0.291797727346420, 0.324465721845627, -0.085504762828350, -0.225050821900368
0.009921717457473, 0.007097310386598, 0.002619439270347, 0.012728035449982, 0.032144993543625, 0.089016355574131, 0.086219608783722, 0.033708281815052, 0.002678721211851, 0.052715018391609, 0.064967721700668, 0.097562290728092, 0.117115423083305, 0.079940475523472, 0.003935562912375, 0.074097886681557
-0.112695656716824, -0.093794383108616, -0.061163060367107, -0.082705453038216, -0.093431018292904, -0.109319567680359, 0.431658804416656, -0.098154522478580, -0.084067121148109, -0.074123613536358, -0.104647085070610, -0.086775779724121, -0.081203989684582, -0.059831771999598, -0.084822796285152, 0.463120847940445
-0.171351835131645, -0.146839708089828, -0.104820825159550, -0.129557937383652, 0.393617272377014, 0.399484753608704, -0.161513060331345, -0.140251964330673, -0.179363667964935, 0.472630798816681, 0.380982369184494, 0.385212868452072, 0.387321352958679, 0.405168026685715, -0.116490893065929, -0.338094294071198
-0.030962705612183, -0.056963287293911, -0.059494547545910, -0.046935144811869, -0.052495207637548, -0.066822990775108, 0.399923622608185, -0.043590538203716, -0.020455868914723, 0.032276265323162, -0.033381167799234, -0.072596088051796, -0.034909524023533, -0.055406071245670, -0.042978294193745, 0.389797955751419
0.377791076898575, 0.462041944265366, 0.305839717388153, 0.336901634931564, 0.003683456685394, -0.011321592144668, 0.099946655333042, 0.373485207557678, 0.440654307603836, -0.040217090398073, -0.035318113863468, -0.022550143301487, 0.005621027201414, -0.044601060450077, 0.358015030622482, 0.199047535657883
-0.027683101594448, -0.041216302663088, -0.029441172257066, -0.022729912772775, 0.129376202821732, 0.155252054333687, 0.179939568042755, -0.041254371404648, -0.054904330521822, 0.112853422760963, 0.153106570243835, 0.086359247565269, 0.161557331681252, 0.150912836194038, -0.033599425107241, 0.076820537447929
-0.086782187223434, -0.058740906417370, -0.125190809369087, -0.075972795486450, 0.014087050221860, 0.029810721054673, 0.191372260451317, -0.080306075513363, -0.096149265766144, 0.004360395018011, 0.015371622517705, 0.032186403870583, 0.053020227700472, 0.027518909424543, -0.107602335512638, 0.106997415423393
0.136326268315315, 0.104443117976189, 0.115407079458237, 0.110788531601429, -0.049058776348829, -0.036733314394951, -0.123935893177986, 0.078936718404293, 0.198194518685341, -0.031584914773703, -0.007397478446364, -0.013754405081272, -0.045798506587744, -0.021858744323254, 0.063286289572716, -0.079287804663181
-0.126785144209862, -0.123426079750061, -0.068654477596283, -0.096941590309143, -0.017978204414248, -0.015705782920122, 0.164840400218964, -0.133654117584229, -0.104493670165539, -0.104444682598114, 0.018270971253514, 0.037489917129278, -0.036955844610929, -0.031155001372099, -0.103166885674000, 0.126354366540909
-0.106688506901264, -0.154383212327957, -0.084718912839890, -0.112819425761700, 0.058182295411825, 0.107250198721886, 0.199409544467926, -0.105996057391167, -0.136963322758675, 0.028225567191839, 0.070245198905468, 0.046435806900263, 0.114552155137062, 0.047686967998743, -0.094983175396919, 0.109948351979256
-0.240667641162872, -0.395055264234543, -0.221369400620461, -0.221404030919075, 0.738897204399109, 0.612886726856232, -0.051945861428976, -0.285047084093094, -0.239770084619522, 0.012523461133242, 0.733884155750275, 0.533937513828278, 0.711353182792664, 0.633783221244812, -0.159797400236130, -0.652625501155853
0.567348361015320, 0.513631999492645, 0.508918166160583, 0.506117582321167, -0.111653864383698, -0.107933737337589, -0.630072474479675, 0.565510988235474, 0.555001139640808, -0.081772759556770, -0.121259562671185, -0.091076284646988, -0.114684775471687, -0.103428907692432, 0.627754211425781, -0.404933094978333
-0.282111108303070, -0.429981470108032, -0.318582773208618, -0.345594763755798, 0.507550477981567, 0.573548853397369, 0.154322668910027, -0.344909757375717, -0.354839652776718, -0.018951499834657, 0.505171418190002, 0.576490104198456, 0.516149342060089, 0.533071160316467, -0.352666735649109, -0.225115254521370
-0.112817518413067, -0.052429422736168, -0.095895245671272, -0.109320208430290, 0.017380442470312, -0.008691716007888, 0.316927164793015, -0.085782684385777, -0.114258795976639, -0.039812766015530, -0.009581017307937, -0.003819357603788, 0.016389908269048, 0.002187864156440, -0.083819612860680, 0.290038406848907
-0.066075302660465, -0.039517346769571, -0.017450090497732, -0.017830725759268, 0.109776966273785, 0.149966970086098, -0.024459442123771, -0.026614321395755, -0.004641495645046, 0.126101478934288, 0.151121079921722, 0.158783257007599, 0.188815474510193, 0.161664471030235, -0.029056059196591, -0.068444669246674
0.272450894117355, 0.372062146663666, 0.275202721357346, 0.254372626543045, -0.080760590732098, -0.044537805020809, -0.206686884164810, 0.339229911565781, 0.294303297996521, -0.052458237856627, -0.086461946368217, -0.017754053696990, -0.026748554781079, -0.041129875928164, 0.354164838790894, -0.219697624444962
-0.278686195611954, -0.353291958570480, -0.285775959491730, -0.305827438831329, -0.196516603231430, -0.227143302559853, 0.751125931739807, -0.309884756803513, -0.345965355634689, -0.413492351770401, -0.272073954343796, -0.226287022233009, -0.209341108798981, -0.292859941720963, -0.285824567079544, 0.527189671993256
0.044597830623388, 0.082626022398472, 0.042378094047308, 0.011858538724482, -0.104930892586708, -0.116536788642406, 0.121086902916431, 0.021266058087349, 0.065361693501472, -0.087880983948708, -0.114390820264816, -0.137213066220284, -0.102320596575737, -0.110618747770786, 0.045007169246674, 0.213313758373260
0.084985308349133, 0.119902707636356, 0.093444123864174, 0.073246866464615, -0.052335321903229, -0.028900606557727, 0.097918875515461, 0.120410338044167, 0.092301994562149, -0.026067851111293, -0.040278017520905, -0.019364155828953, 0.008710317313671, 0.002355033066124, 0.086460314691067, 0.060256160795689
0.081023402512074, 0.084915399551392, 0.119118973612785, 0.083405435085297, -0.081132508814335, -0.061005022376776, 0.228527739644051, 0.086301416158676, 0.082210078835487, 0.027855977416039, -0.074120827019215, -0.099048957228661, -0.079320654273033, -0.036998830735683, 0.063841536641121, 0.308305025100708
-0.073989801108837, -0.013881975784898, -0.051568686962128, -0.072957746684551, 0.153248697519302, 0.240090116858482, 0.279965251684189, -0.064427465200424, -0.065702334046364, 0.275219619274139, 0.230298936367035, 0.201927259564400, 0.257657676935196, 0.180285945534706, -0.011954762972891, 0.133989259600639
-0.118498548865318, -0.085843287408352, -0.092214852571487, -0.082629494369030, -0.189332723617554, -0.237255692481995, 0.817544102668762, -0.106243468821049, -0.118565358221531, -0.187334075570107, -0.221691876649857, -0.201221346855164, -0.201541483402252, -0.227245867252350, -0.104564093053341, 0.911522448062897
-0.021190820261836, -0.034192394465208, -0.019402056932449, -0.017608776688576, 0.122745975852013, 0.147880256175995, 0.071150571107864, -0.036212116479874, -0.031387448310852, 0.178038775920868, 0.154986724257469, 0.142163157463074, 0.174209609627724, 0.123269915580750, -0.045534286648035, -0.047180701047182
-0.009989148005843, 0.037294607609510, 0.022053746506572, 0.027471749112010, -0.152301162481308, -0.168093964457512, 0.394458502531052, -0.003186961403117, 0.069130212068558, -0.212322130799294, -0.137572661042213, -0.163810133934021, -0.139373168349266, -0.158649802207947, 0.042847160249949, 0.424442648887634
-0.018671844154596, -0.024809615686536, -0.058700975030661, -0.035343732684851, 0.014137912541628, -0.033642459660769, 0.339189648628235, -0.040263149887323, -0.073391884565353, -0.056595128029585, -0.015864232555032, 0.027193743735552, 0.048340607434511, -0.020790271461010, -0.042039472609758, 0.325769007205963
-0.053700421005487, -0.045352432876825, -0.040019895881414, -0.023963239043951, -0.117203913629055, -0.084478430449963, 0.283672451972961, -0.035681765526533, -0.025181122124195, 0.095674484968185, -0.102077007293701, -0.116448931396008, -0.154650092124939, -0.076709456741810, -0.043084915727377, 0.329556137323380
-0.052841506898403, -0.011246431618929, -0.056129097938538, -0.026578195393085, -0.063610412180424, -0.028922116383910, 0.317063748836517, -0.018652573227882, -0.016053579747677, -0.014322025701404, -0.046923317015171, -0.064466387033463, -0.021737912669778, -0.038445446640253, -0.012370009906590, 0.324705541133881
0.085432074964046, 0.081676281988621, 0.108393914997578, 0.078229531645775, 0.120694175362587, 0.194024696946144, -0.053712543100119, 0.109743215143681, 0.041969005018473, 0.108506664633751, 0.112104617059231, 0.163043722510338, 0.204702913761139, 0.201242819428444, 0.059704095125198, -0.238364741206169
-0.026389272883534, -0.047686293721199, -0.042780742049217, -0.049755405634642, 0.044132657349110, 0.051006648689508, 0.164729729294777, -0.041892528533936, -0.034348607063293, 0.042559504508972, 0.032135136425495, -0.008486304432154, 0.034849558025599, 0.040529202669859, -0.029715759679675, 0.174183219671249
0.071677342057228, 0.062560096383095, 0.064168699085712, 0.070690684020519, 0.009583136066794, 0.035995107144117, 0.013241332955658, 0.075640551745892, 0.084006004035473, 0.047517500817776, 0.015485687181354, 0.016714056953788, 0.028850872069597, 0.039120949804783, 0.028226211667061, 0.058592218905687
0.157996013760567, 0.190960183739662, 0.173704102635384, 0.119735829532146, -0.139309629797935, -0.149810999631882, -0.006529618054628, 0.129046455025673, 0.165848061442375, -0.061735294759274, -0.107685394585133, -0.139857634902000, -0.108822487294674, -0.137214794754982, 0.131267085671425, 0.120701231062412
-0.251927971839905, -0.235995411872864, -0.182275265455246, -0.269516438245773, 0.043294966220856, 0.053821939975023, 0.881016254425049, -0.235965192317963, -0.295095086097717, 0.041806172579527, 0.056547909975052, 0.089053548872471, 0.096000447869301, 0.024789310991764, -0.243063509464264, 0.922676682472229
0.097931332886219, 0.098988912999630, 0.074480347335339, 0.055610354989767, -0.119120717048645, -0.156920686364174, 0.106122873723507, 0.053912717849016, 0.116194285452366, -0.069670654833317, -0.125970423221588, -0.122951693832874, -0.157764896750450, -0.137599498033524, 0.057704962790012, 0.133244946599007
-0.118676446378231, -0.090420521795750, -0.129390478134155, -0.127820551395416, -0.033134106546640, -0.019009904935956, 0.533384501934052, -0.124400384724140, -0.130758196115494, -0.050472926348448, -0.032569997012615, -0.040191631764174, -0.013651955872774, -0.067186214029789, -0.140813305974007, 0.498524904251099
0.081215798854828, 0.086580909788609, 0.046762369573116, 0.041097659617662, -0.013204331509769, 0.044983498752117, 0.145742908120155, 0.072568222880363, 0.091976217925549, -0.001281822100282, 0.032198589295149, 0.084803305566311, 0.040671456605196, 0.009378686547279, 0.023239728063345, 0.116418004035950
-0.046524886041880, -0.032711006700993, 0.000631956849247, -0.054371312260628, 0.045433953404427, 0.072747223079205, 0.028531869873405, -0.025851812213659, -0.064054287970066, 0.077167756855488, 0.093376055359840, 0.052680615335703, 0.066283591091633, 0.091570198535919, -0.030340628698468, 0.020612156018615
0.276311278343201, 0.330150544643402, 0.221434265375137, 0.262075394392014, -0.221160218119621, -0.306365787982941, -0.015724748373032, 0.235017374157906, 0.286128461360931, -0.333606958389282, -0.279979318380356, -0.206769749522209, -0.261866152286530, -0.282134711742401, 0.259997367858887, 0.018495684489608
-0.004990107845515, -0.005773728713393, -0.012661729939282, -0.010519786737859, -0.003711530473083, -0.030362918972969, 0.076179295778275, -0.021577926352620, -0.035540413111448, 0.014973856508732, 0.004672761075199, 0.024384569376707, -0.011909449473023, 0.000115387607366, -0.013259480707347, 0.047114059329033
-0.008969731628895, 0.041680522263050, 0.004578663501889, 0.010780319571495, 0.231985121965408, 0.339820444583893, -0.150500357151031, 0.055385284125805, 0.054983329027891, 0.218113720417023, 0.320384562015533, 0.238280594348907, 0.237358003854752, 0.277754604816437, 0.021023757755756, -0.282165825366974
-0.041405320167542, -0.004178731702268, -0.037175305187702, -0.036546863615513, -0.053237169981003, -0.098681285977364, 0.386486440896988, -0.037090335041285, -0.029736975207925, -0.072162687778473, -0.098766840994358, -0.105800375342369, -0.086499989032745, -0.100645437836647, -0.035710103809834, 0.423128187656403
-0.098035782575607, -0.076162949204445, -0.054383128881454, -0.085934460163116, 0.096451580524445, 0.131171166896820, 0.079455241560936, -0.077005393803120, -0.096882894635201, 0.122447460889816, 0.123939312994480, 0.109892487525940, 0.148529499769211, 0.136368840932846, -0.063798323273659, 0.018668973818421
-0.071850962936878, -0.087205544114113, -0.086087025702000, -0.068206302821636, -0.087279342114925, -0.099043957889080, 0.386229753494263, -0.095094643533230, -0.096196249127388, -0.087819330394268, -0.071560196578503, -0.104525066912174, -0.092345021665096, -0.128388822078705, -0.081274300813675, 0.397848427295685
0.218724519014359, 0.192318782210350, 0.189691349864006, 0.184186130762100, -0.189779281616211, -0.185461580753326, 0.055913377553225, 0.133146435022354, 0.215954944491386, -0.125023901462555, -0.163218468427658, -0.180002838373184, -0.207012027502060, -0.178893849253654, 0.172334298491478, 0.077482044696808
-0.169848546385765, -0.189016714692116, -0.128829762339592, -0.168628469109535, 0.222924441099167, 0.332689255475998, 0.133222132921219, -0.179803133010864, -0.202666923403740, 0.148775249719620, 0.296639859676361, 0.268389314413071, 0.267216414213181, 0.291787624359131, -0.154015377163887, 0.016873769462109
-0.030249465256929, -0.035437300801277, -0.036255441606045, -0.031259931623936, 0.018709490075707, 0.023430863395333, 0.127482801675797, -0.033869791775942, -0.034629348665476, -0.003098892979324, -0.009281986393034, -0.016850296407938, -0.006086690351367, 0.017537372186780, -0.018970906734467, 0.144375309348106
-0.069272167980671, -0.093003921210766, -0.045036621391773, -0.024232286959887, 0.009045529179275, -0.018953774124384, 0.654003679752350, -0.071231834590435, -0.083728805184364, -0.000251883524470, -0.027114674448967, -0.012691927142441, -0.002106069354340, -0.026734057813883, -0.059128712862730, 0.638303339481354
