0.093869633972645, 0.100162833929062, -0.081043988466263, 0.028349375352263, -0.030476877465844, -0.107749208807945, -0.066418617963791, -0.000223995491979, 0.065877504646778, -0.021857241168618, 0.176053375005722, 0.087317004799843, 0.002976711373776, 0.085921443998814, 0.062618441879749, -0.022807566449046
0.097333230078220, -0.010547521524131, -0.122748918831348, -0.015287056565285, -0.055121369659901, -0.039193198084831, -0.063680097460747, -0.000109569045890, -0.003528514876962, 0.072934210300446, -0.053119011223316, -0.120861984789371, -0.001034053158946, -0.122883841395378, 0.138945609331131, -0.087505109608173
0.077183336019516, -0.001179016893730, -0.067891843616962, -0.132001489400864, 0.007884135469794, 0.268942624330521, -0.005917110946029, 0.000004704157618, 0.023762205615640, 0.357366412878036, 0.047615826129913, -0.063509412109852, 0.000940371246543, -0.124616377055645, 0.050232373178005, -0.002370666246861
0.044215779751539, -0.124273315072060, -0.185439273715019, 0.114054843783379, -0.078158088028431, 0.067156404256821, 0.003448662580922, -0.000001319279363, -0.046137444674969, -0.051575083285570, 0.235014602541924, -0.081461273133755, -0.000349036039552, -0.013837474398315, 0.020429853349924, -0.026878135278821
0.012184407562017, -0.078894071280956, 0.104007452726364, 0.013828292489052, -0.092196784913540, 0.024382254108787, 0.069007612764835, -0.000122549987282, 0.271706312894821, -0.165343910455704, -0.309313535690308, -0.162940487265587, -0.036355074495077, 0.062340572476387, 0.018738979473710, 0.077174775302410
-0.126178130507469, -0.137786462903023, 0.042717702686787, -0.056870162487030, 0.047956321388483, 0.075254462659359, 0.022315513342619, -0.000296712067211, 0.000900175073184, -0.050699435174465, 0.048039067536592, -0.144814237952232, 0.002765925833955, 0.056345451623201, -0.168224707245827, 0.005083673167974
0.138326913118362, -0.109682947397232, -0.118553534150124, -0.063571818172932, -0.078480549156666, -0.004810859449208, -0.049647901207209, -0.000171088569914, -0.109356038272381, 0.004791388288140, 0.038883037865162, 0.143250569701195, -0.026323143392801, -0.149376854300499, 0.182050243020058, 0.235230326652527
0.012479268014431, -0.212276622653008, -0.161495998501778, -0.162748932838440, 0.003781596897170, 0.409410506486893, -0.071631439030170, 0.000000779541324, 0.114957809448242, 0.005350423045456, -0.031795188784599, 0.083540342748165, -0.028920862823725, -0.396876305341721, -0.115240417420864, 0.263677388429642
0.115211211144924, -0.077455274760723, 0.114452809095383, -0.127965375781059, -0.089372783899307, -0.096540398895741, -0.058117348700762, -0.000270147080300, -0.227642387151718, -0.018055904656649, 0.161161437630653, 0.090956740081310, 0.001762821455486, -0.235628575086594, 0.120239041745663, 0.044562216848135
-0.062179010361433, -0.002363525098190, 0.033004198223352, 0.077811323106289, 0.057307913899422, 0.027798634022474, 0.001043729134835, -0.000001361646582, 0.048640105873346, 0.019195159897208, -0.008363855071366, -0.324312597513199, 0.005156547762454, -0.001066774711944, -0.002285276772454, -0.059874158352613
0.103094153106213, 0.006737240590155, -0.016787169501185, -0.145208597183228, 0.020571948960423, 0.112997323274612, -0.050949811935425, -0.000107880099677, -0.307396680116653, 0.109827160835266, 0.465006738901138, -0.297984361648560, -0.000029764238207, -0.218310862779617, -0.133119985461235, -0.087465949356556
-0.184420093894005, 0.024228645488620, 0.092883899807930, -0.002779202535748, 0.021799396723509, 0.033127728849649, -0.005052515771240, 0.000156126494403, 0.105348408222198, -0.092789269983768, -0.023132650181651, -0.110853135585785, -0.007954753935337, 0.028196435421705, -0.073765821754932, -0.026331739500165
0.076958984136581, 0.115525349974632, -0.063598312437534, -0.109233096241951, 0.001667494070716, -0.114574626088142, 0.000538777210750, -0.000227937693126, -0.117625750601292, -0.138206318020821, 0.152958035469055, 0.311193913221359, -0.007669826503843, -0.078267164528370, -0.150225847959518, 0.038450796157122
-0.093358077108860, 0.018567804247141, 0.059478834271431, 0.130118355154991, -0.075945079326630, 0.071290478110313, -0.028105443343520, -0.000201877235668, -0.008857101202011, 0.035294093191624, 0.072905384004116, -0.152808204293251, 0.000089955196017, 0.163698658347130, -0.096111103892326, -0.158139184117317
-0.190499693155289, 0.060116272419691, 0.068131774663925, 0.040755756199360, -0.050353270024061, -0.000411582528614, -0.051820974797010, -0.000010848865713, -0.032957866787910, 0.178124919533730, 0.062176171690226, -0.004629005677998, 0.000000244897592, -0.016892150044441, -0.161948308348656, 0.050053000450134
0.031768381595612, -0.125794023275375, -0.080824233591557, 0.029033213853836, -0.035586852580309, -0.056062392890453, -0.099944859743118, -0.000108628781163, 0.028852246701717, 0.059862382709980, -0.095981568098068, -0.198160260915756, -0.004989955574274, -0.047700546681881, -0.093313954770565, -0.141711205244064
0.053602825850248, -0.135381549596786, 0.041398722678423, -0.046690937131643, 0.025570176541805, -0.066862076520920, 0.038044400513172, 0.000101145327790, -0.034906033426523, 0.008645136840641, -0.004867677111179, 0.160875231027603, 0.000056260734709, 0.076289087533951, 0.077891416847706, 0.235230892896652
0.075072474777699, 0.096868894994259, 0.133722215890884, -0.182898059487343, -0.106597222387791, 0.022290706634521, 0.039624068886042, -0.000208825353184, -0.103043563663960, -0.271947562694550, -0.010797615163028, 0.080633588135242, -0.017909809947014, -0.181213662028313, -0.222227483987808, 0.258850932121277
0.118053555488586, -0.068603254854679, -0.067267104983330, 0.040269918739796, -0.123056650161743, -0.054308373481035, 0.017039895057678, -0.000023757158488, -0.123248942196369, -0.040340431034565, -0.073266454041004, -0.025291336700320, -0.003576262854040, 0.035167768597603, -0.095922231674194, -0.019685238599777
-0.192145854234695, 0.102551274001598, -0.109264470636845, -0.116152018308640, -0.030283097177744, -0.093936845660210, 0.064405530691147, -0.000527706928551, -0.126172259449959, -0.089565850794315, 0.143447548151016, 0.277729123830795, 0.001353304833174, 0.064040161669254, -0.050885830074549, 0.100719124078751
-0.184177070856094, -0.076921880245209, 0.092671737074852, -0.041750960052013, -0.087779834866524, -0.075012534856796, -0.108461469411850, -0.000142331700772, -0.240947276353836, 0.043245818465948, 0.075093977153301, 0.088909775018692, -0.013678379356861, -0.164086401462555, 0.068749152123928, 0.052316885441542
-0.070871606469154, 0.048012316226959, -0.129780992865562, -0.014563609845936, -0.022189585492015, -0.068778060376644, -0.086240574717522, -0.000156080132001, -0.135172322392464, -0.007582393474877, 0.292046219110489, -0.060790650546551, -0.009206522256136, 0.107742518186569, 0.023724282160401, 0.022564912214875
0.102705009281635, 0.063464976847172, -0.234751194715500, -0.034941494464874, 0.062308680266142, -0.068666502833366, -0.102477185428143, 0.000028038524761, 0.025087717920542, -0.058862894773483, -0.159104123711586, 0.130733564496040, 0.004086427856237, 0.161600679159164, 0.009371882304549, -0.014188909903169
-0.225602969527245, -0.032834522426128, 0.121583789587021, 0.042243856936693, -0.073526196181774, 0.001767516485415, -0.112518891692162, -0.000004711783731, 0.016429193317890, 0.138468429446220, 0.162883922457695, -0.281998664140701, 0.002175839617848, -0.135005071759224, 0.049014661461115, -0.011470120400190
-0.042074035853148, 0.114664539694786, -0.189359083771706, 0.051922563463449, 0.029248483479023, -0.063944257795811, -0.042374528944492, 0.000003034628207, -0.029534637928009, 0.002939151134342, 0.150581017136574, -0.038025330752134, -0.000291511416435, 0.106928557157516, 0.041117981076241, 0.032654911279678
-0.088821865618229, 0.076093018054962, -0.025380099192262, -0.174236506223679, -0.041265558451414, -0.086616761982441, -0.092252232134342, 0.000012372066521, -0.094679795205593, 0.243164494633675, -0.149824917316437, -0.118740946054459, 0.002779194386676, 0.105558805167675, 0.089190982282162, -0.029883589595556
-0.100941576063633, 0.021157035604119, -0.118171527981758, -0.134006023406982, -0.016493871808052, -0.161904573440552, -0.046996001154184, 0.000007513098808, -0.034910961985588, -0.006758762989193, -0.073388762772083, -0.285855472087860, -0.002938314108178, -0.168122187256813, 0.032610967755318, 0.034536946564913
-0.100766666233540, 0.046837013214827, -0.146046727895737, 0.017443764954805, -0.031608294695616, -0.090079702436924, -0.023281434550881, 0.000000775408751, 0.020305586978793, -0.044204287230968, -0.033558737486601, 0.240415349602699, 0.000690799090080, 0.091562770307064, -0.144655495882034, 0.037766061723232
0.108607083559036, -0.185698583722115, -0.061871744692326, -0.013011199422181, -0.108181394636631, -0.019515417516232, 0.004163367208093, -0.000221090769628, 0.032406810671091, 0.174160674214363, 0.067037820816040, -0.034293211996555, -0.005813166033477, 0.065576955676079, 0.044267203658819, -0.040561869740486
0.026610532775521, -0.139058783650398, -0.208819970488548, -0.014952967874706, 0.104899831116199, 0.000373749760911, 0.088099434971809, -0.000000453399849, 0.150956332683563, 0.013793191872537, -0.015412147156894, 0.218485504388809, -0.014953671023250, -0.084916949272156, -0.095453396439552, 0.019973047077656
0.050450928509235, -0.104839839041233, -0.146826401352882, -0.077319875359535, -0.070308551192284, -0.043551359325647, 0.029133152216673, -0.000012984875866, 0.016251662746072, -0.131431356072426, 0.118201717734337, 0.245620712637901, -0.000244651193498, 0.069231912493706, -0.040912978351116, 0.143176004290581
0.020810168236494, 0.106225058436394, -0.070610664784908, -0.097318328917027, -0.034531015902758, -0.113287575542927, -0.003322428558022, 0.000005735391824, -0.011514971032739, -0.174423649907112, -0.045590728521347, -0.134823113679886, -0.003695130581036, -0.056848153471947, -0.033492926508188, 0.093044385313988
0.011579497717321, -0.137348085641861, -0.121706850826740, 0.214841142296791, 0.083866648375988, 0.240373939275742, 0.036010563373566, -0.000002705458655, -0.180298358201981, 0.143954277038574, -0.209180310368538, -0.184768944978714, 0.005780680105090, -0.184667736291885, 0.015932876616716, 0.142306476831436
-0.004951659590006, -0.013577138073742, 0.004101105965674, 0.133577793836594, -0.013257201761007, 0.096187360584736, 0.020270278677344, 0.000005239764505, 0.310429871082306, -0.054662309587002, -0.261990129947662, 0.026199124753475, -0.009651910513639, -0.049594290554523, -0.082313716411591, -0.098423868417740
0.115421861410141, -0.018216358497739, 0.049219038337469, -0.072654023766518, 0.049556270241737, 0.030222142115235, -0.028792779892683, -0.000006023260539, 0.010037529282272, 0.109378539025784, -0.117246858775616, -0.142729729413986, 0.000702294404618, -0.119411118328571, 0.035100333392620, -0.022464297711849
0.082338578999043, 0.126712188124657, -0.033728647977114, -0.071206942200661, -0.084790199995041, -0.157596319913864, -0.110440194606781, -0.000095471070381, -0.238205224275589, -0.136832013726234, 0.044632274657488, -0.081782579421997, -0.008491189219058, 0.049893662333488, 0.124276861548424, 0.027575235813856
-0.084287285804749, 0.050065606832504, -0.095132388174534, -0.031505558639765, 0.043944954872131, 0.330947041511536, -0.005630786996335, -0.000008290421647, 0.071866527199745, 0.088797800242901, -0.167542070150375, -0.251119673252106, -0.001496420823969, -0.296477824449539, 0.013345623388886, 0.029493009671569
-0.189319193363190, -0.031092474237084, -0.131572455167770, 0.049642533063889, -0.022251285612583, 0.108807608485222, 0.049360677599907, -0.000004921351319, -0.207709968090057, 0.040631175041199, -0.125696569681168, -0.007605240680277, -0.004322030581534, -0.002236009342596, -0.153938099741936, 0.103471793234348
0.081920236349106, 0.109637945890427, 0.054598424583673, -0.053107991814613, -0.063365064561367, 0.066666118800640, 0.006742731202394, 0.000154457884491, 0.024103527888656, -0.026677418500185, -0.002124789170921, -0.004727696999907, -0.006275051739067, -0.158900663256645, -0.194625526666641, 0.012434567324817
-0.050230696797371, -0.146156311035156, -0.064819857478142, 0.017765702679753, -0.128258198499680, 0.108266815543175, -0.093088150024414, 0.000012656983017, 0.117179177701473, 0.096816748380661, -0.109821610152721, -0.109857462346554, -0.016703294590116, -0.039412822574377, -0.210667684674263, -0.055377751588821
-0.006473388057202, -0.174989059567451, 0.093346633017063, -0.149978339672089, -0.065661668777466, 0.047947149723768, 0.005444913636893, -0.000001048263584, 0.094333104789257, 0.000400454388000, 0.087414748966694, 0.007338180672377, 0.002527067903429, -0.125665977597237, 0.000476889690617, 0.028139282017946
-0.075887583196163, -0.143692821264267, -0.071704968810081, -0.152714088559151, -0.050423044711351, 0.115972720086575, -0.106493011116982, -0.000250847428106, 0.179114922881126, -0.158507391810417, 0.168136224150658, 0.210770875215530, 0.004261796828359, -0.275543868541718, -0.055962014943361, 0.021684719249606
0.125034973025322, 0.042151741683483, -0.143600359559059, 0.071334458887577, -0.026828199625015, 0.074721045792103, -0.066484428942204, 0.000007342774097, 0.133146613836288, -0.240715578198433, -0.077935211360455, 0.052646916359663, -0.003900978015736, 0.035226937383413, -0.190081074833870, 0.064341224730015
-0.189465388655663, -0.080461017787457, 0.010229200124741, -0.145323678851128, 0.001399297267199, -0.177975133061409, -0.002823440590873, -0.000205396703677, -0.127634167671204, -0.199798271059990, 0.183830589056015, 0.124560132622719, -0.000026037148928, -0.034777522087097, -0.104532778263092, 0.079234711825848
0.001311064464971, -0.168756365776062, 0.028027337044477, -0.039295930415392, -0.087620422244072, 0.021310824900866, -0.022061683237553, -0.000002446875214, 0.028986960649490, -0.209050163626671, 0.215736076235771, 0.145875066518784, 0.001630916958675, -0.009507383219898, -0.108634009957314, 0.048826232552528
-0.087254896759987, 0.055989332497120, 0.019551694393158, 0.229041904211044, -0.047956101596355, -0.073927335441113, 0.009869604371488, -0.000010649858268, -0.072627298533916, -0.054045151919127, 0.030423499643803, -0.212027415633202, -0.004276594147086, 0.249909639358521, 0.064903728663921, -0.075373128056526
-0.194678962230682, -0.175775095820427, 0.049946188926697, -0.037619829177856, 0.048922430723906, 0.077978417277336, 0.011289142072201, 0.000007556682249, -0.051847554743290, -0.166715562343597, 0.062877498567104, -0.076968766748905, -0.014133759774268, 0.059421017765999, 0.025282504037023, 0.050722770392895
-0.106891341507435, -0.033820241689682, 0.096251890063286, -0.014799138531089, -0.007484776899219, -0.052300292998552, -0.049537144601345, 0.000002822834176, 0.046682827174664, -0.093906648457050, -0.168866038322449, -0.152224630117416, -0.005751861725003, -0.004555467981845, 0.003722842782736, -0.057115029543638
-0.148287519812584, 0.119852192699909, 0.021159943193197, 0.081314072012901, -0.069147482514381, -0.012395850382745, -0.027522167190909, 0.000006232641681, -0.075941383838654, 0.119843691587448, -0.040074110031128, -0.007913979701698, -0.000433575827628, 0.077643468976021, 0.008247922174633, -0.087176077067852
-0.154144883155823, -0.230847731232643, 0.053195241838694, -0.032271929085255, -0.080087870359421, 0.047794345766306, -0.083326518535614, -0.000000370766031, 0.150997757911682, -0.142422407865524, 0.179236516356468, -0.092481769621372, -0.022713899612427, -0.068740107119083, -0.172868698835373, 0.101416587829590
-0.084770165383816, 0.033585414290428, -0.205793514847755, 0.075716257095337, -0.044128280133009, -0.055109806358814, -0.010176641866565, -0.000249683012953, 0.134372726082802, 0.089193008840084, -0.132363423705101, -0.017444357275963, 0.000034197113564, 0.130933552980423, 0.082717835903168, -0.137705057859421
0.051439482718706, 0.073500499129295, -0.074430748820305, 0.365902960300446, 0.012735023163259, -0.426585048437119, -0.039816152304411, -0.000016750249415, 0.220719233155251, 0.087766960263252, -0.321054667234421, -0.093810558319092, 0.000027290705475, 0.427174925804138, 0.069966234266758, -0.402791202068329
-0.229567587375641, -0.148137569427490, -0.190678700804710, 0.108607366681099, -0.104729957878590, 0.098517499864101, -0.002477439586073, -0.000036158937291, 0.054789461195469, 0.004968096502125, -0.167182892560959, -0.143327623605728, -0.011268147267401, 0.138244882225990, 0.002685009734705, -0.023098308593035
0.041653186082840, 0.120262794196606, 0.019536400213838, 0.017443824559450, -0.115097872912884, 0.020597252994776, -0.069720715284348, 0.000101735779026, 0.252039968967438, 0.035248026251793, 0.075773678719997, 0.190096080303192, -0.000690520915668, 0.072946533560753, 0.133306458592415, 0.075065717101097
-0.145946428179741, 0.120660454034805, 0.104647912085056, -0.032757412642241, -0.006945475004613, -0.036256287246943, -0.045319817960262, -0.000102842299384, -0.025291748344898, 0.050539810210466, 0.073003664612770, -0.052344966679811, 0.010875871405005, -0.048249553889036, 0.100238069891930, 0.101707220077515
0.020060082897544, 0.050972346216440, -0.002391317160800, 0.325840115547180, 0.059489153325558, -0.249986916780472, 0.010058908723295, 0.000146528196638, -0.427105396986008, -0.002317846287042, -0.431114524602890, -0.261984884738922, -0.000006719741577, 0.336772352457047, 0.073405116796494, 0.225256696343422
-0.104778639972210, -0.098908454179764, -0.079688698053360, 0.040347412228584, 0.066901959478855, 0.076624646782875, 0.056940540671349, 0.000005004607829, 0.040101271122694, 0.117541514337063, -0.069129772484303, -0.033777192234993, -0.000909230788238, -0.041397824883461, -0.163520067930222, 0.009493332356215
0.093330480158329, 0.041593205183744, 0.106031492352486, -0.060701102018356, -0.027233259752393, -0.096141964197159, -0.030502377077937, -0.000000610067218, -0.161172628402710, 0.349546015262604, -0.040493007749319, -0.146053493022919, -0.000070709145803, 0.023117987439036, -0.088377639651299, -0.177962303161621
-0.101679503917694, -0.043475553393364, 0.103601798415184, 0.000318175239954, -0.074715800583363, 0.023413335904479, -0.034504927694798, -0.000092452726676, -0.122847825288773, -0.004245847463608, -0.043941807001829, -0.151285141706467, -0.002278307452798, -0.069508470594883, -0.111477546393871, -0.039886824786663
-0.183142319321632, 0.001563670579344, -0.137485206127167, 0.046717956662178, -0.081861026585102, -0.207663044333458, -0.047377977520227, 0.000001778362503, 0.005432750098407, -0.219554021954536, -0.041603885591030, -0.111873708665371, -0.001676319399849, 0.041445311158895, 0.103430598974228, 0.118046335875988
-0.155322030186653, -0.031796611845493, -0.144124031066895, -0.140560179948807, -0.026594370603561, 0.165438905358315, 0.004140984732658, -0.000030823153793, 0.164000362157822, -0.012278998270631, 0.108094871044159, -0.054616205394268, 0.000018524562620, -0.273010760545731, 0.104827456176281, -0.005581911653280
-0.129815131425858, 0.079096250236034, 0.113341219723225, -0.084249652922153, 0.026562178507447, -0.048349715769291, 0.038018342107534, 0.000027008165489, -0.099357642233372, -0.029988830909133, -0.044902738183737, 0.160902678966522, 0.003698310814798, 0.009737883694470, -0.045655298978090, 0.050156004726887
-0.076693795621395, -0.180878400802612, 0.097336411476135, -0.012575124390423, -0.023125555366278, -0.130251079797745, -0.029718073084950, -0.000003416366326, 0.074648700654507, 0.075422346591949, -0.024031743407249, 0.054339934140444, -0.007075092289597, -0.050488904118538, -0.096705183386803, -0.039953093975782
-0.106544002890587, -0.068707235157490, 0.002414144342765, -0.000515105726663, -0.048721410334110, 0.081370487809181, -0.006086586974561, -0.000008864939446, -0.106721960008144, 0.035220570862293, -0.003516165539622, 0.068175673484802, -0.001394991646521, 0.076022259891033, -0.171377107501030, -0.021098075434566
0.060660827904940, -0.068831823766232, 0.033391248434782, -0.042332161217928, 0.012027510441840, -0.023175157606602, 0.030632225796580, -0.000249398290180, 0.086839020252228, -0.105546109378338, -0.085435681045055, 0.335015296936035, 0.005095040425658, -0.013975298032165, -0.032469041645527, 0.108253024518490
-0.212982714176178, 0.110403463244438, -0.044469650834799, 0.052111569792032, -0.067767091095448, -0.145722627639771, -0.009343677200377, 0.000010608321645, 0.014068483375013, 0.029095202684402, 0.166129276156425, 0.032328754663467, -0.012711254879832, 0.057462349534035, 0.174165695905685, -0.119841232895851
-0.057927392423153, -0.074517808854580, -0.077406369149685, 0.235313117504120, 0.000062866194639, -0.077093683183193, 0.040473736822605, -0.000120559008792, 0.085184589028358, -0.218706533312798, -0.135865226387978, 0.323772758245468, 0.000008371300282, 0.474947959184647, 0.150174900889397, -0.140674710273743
-0.041568789631128, 0.043654780834913, -0.105972491204739, 0.120438836514950, -0.042232081294060, -0.022284410893917, -0.115662500262260, -0.000279702566331, -0.229896306991577, 0.182609960436821, -0.005752770695835, -0.166766121983528, 0.000000315903094, 0.252050995826721, 0.160405427217484, -0.227695271372795
-0.141902714967728, -0.208282336592674, 0.024396438151598, -0.035619158297777, -0.079437978565693, -0.126884430646896, 0.065727494657040, -0.000005783422239, 0.047700837254524, 0.036168057471514, 0.144703090190887, 0.219155192375183, -0.001999071799219, 0.025150163099170, -0.141471028327942, -0.042232032865286
-0.124616906046867, 0.061455283313990, -0.007795616984367, 0.015477281995118, -0.006164851598442, -0.166610762476921, -0.072981283068657, -0.000106535822852, -0.412278324365616, -0.219768419861794, 0.360454320907593, 0.401148527860641, 0.000031257721275, 0.146438553929329, 0.138452470302582, 0.413645058870316
-0.104857742786407, -0.111197039484978, -0.021665383130312, 0.021797338500619, 0.058691862970591, 0.249251320958138, 0.006887869443744, -0.000010116154044, -0.191781759262085, 0.125688046216965, -0.131957367062569, -0.046201858669519, 0.000045672029955, -0.304458171129227, 0.119223020970821, 0.231700897216797
-0.059283707290888, 0.122008331120014, -0.167254984378815, 0.209856808185577, -0.004572080913931, -0.171000555157661, -0.000580014195293, 0.000003409588771, -0.027105744928122, 0.147888243198395, -0.232037186622620, -0.049420040100813, 0.000025069952244, 0.297147303819656, -0.176149994134903, 0.015625664964318
0.010445710271597, -0.003224873216823, -0.140005528926849, -0.088467173278332, 0.080843925476074, -0.030368208885193, -0.097138218581676, -0.000008511393389, -0.144845664501190, 0.153326079249382, 0.208161145448685, 0.077624380588531, -0.004364638123661, 0.066748261451721, -0.161925345659256, -0.043141528964043
-0.194686815142632, -0.087227731943130, -0.058026898652315, -0.103207662701607, -0.029416715726256, -0.016293713822961, 0.111649483442307, 0.000194216496311, 0.042059388011694, 0.074015237390995, 0.231975153088570, 0.060088548809290, -0.005356145557016, -0.156623125076294, -0.208725705742836, 0.012265951372683
-0.024044128134847, -0.112520582973957, -0.049307540059090, -0.012381485663354, 0.011468674056232, 0.105540595948696, -0.069921448826790, -0.000351279886672, 0.081791274249554, 0.042728886008263, -0.101548418402672, -0.134823352098465, -0.014152888208628, 0.032367452979088, -0.041259739547968, 0.010265445336699
-0.131459742784500, -0.084224313497543, -0.096916317939758, -0.013412735424936, -0.040780913084745, -0.254905939102173, 0.014538792893291, -0.000015141348740, -0.005899129901081, 0.018024692311883, 0.008503468707204, -0.031822524964809, 0.001656546490267, 0.024588283151388, -0.119795359671116, -0.018169641494751
0.067077860236168, -0.010216598398983, 0.025138493627310, 0.184842333197594, -0.123052239418030, 0.383517175912857, 0.003112025558949, -0.000018666392862, -0.251593649387360, 0.400750339031219, 0.478259861469269, -0.183983638882637, -0.000003020615623, -0.245053812861443, 0.038085240870714, -0.266848266124725
0.004327737726271, 0.017163438722491, 0.071717321872711, 0.050665110349655, -0.029404979199171, -0.067761048674583, -0.006982328835875, 0.000003349697181, -0.113740004599094, -0.222280338406563, -0.026715654879808, -0.007575441617519, 0.000754780019633, 0.032004032284021, -0.195120915770531, 0.108792252838612
-0.124143883585930, -0.019169891253114, -0.057752285152674, 0.035245768725872, -0.024836633354425, 0.053587947040796, -0.041691076010466, 0.000027222145945, 0.007492129225284, 0.023990171030164, -0.098685458302498, -0.134905427694321, -0.000152726512169, 0.077053882181644, -0.153774261474609, -0.193520158529282
0.112224444746971, 0.091666206717491, -0.093830831348896, 0.167952835559845, -0.034975219517946, 0.211859881877899, -0.008114546537399, 0.000000039641861, -0.171077713370323, 0.365795761346817, -0.314389556646347, -0.141889631748199, 0.003074614098296, 0.049037829041481, -0.029446208849549, -0.037256892770529
-0.170832589268684, -0.074364237487316, -0.055948067456484, -0.021935747936368, -0.069733254611492, 0.031782422214746, 0.037862841039896, 0.000000717195803, 0.032965652644634, -0.017147535458207, 0.268244564533234, 0.167168930172920, 0.001500381156802, -0.087165139615536, 0.103660658001900, 0.109234310686588
-0.234592825174332, -0.187965020537376, -0.007657409179956, 0.021129814907908, -0.042950019240379, 0.023430805653334, -0.030121490359306, 0.000062092818553, -0.019678607583046, 0.159861564636230, 0.037827346473932, 0.011507201008499, -0.001784231862985, 0.169480577111244, 0.063363380730152, 0.006985551211983
0.010051865130663, -0.083061680197716, 0.126361474394798, -0.115638568997383, -0.048429898917675, 0.168827444314957, -0.127013728022575, 0.000174126311322, -0.185312122106552, 0.009948099032044, 0.153059229254723, 0.076418235898018, -0.014931401237845, -0.254213094711304, 0.068425655364990, 0.067634657025337
-0.175604343414307, 0.020638378337026, -0.141207799315453, -0.070190072059631, 0.028242036700249, -0.257475525140762, -0.058545537292957, -0.000001779527793, -0.203143239021301, 0.133308157324791, 0.177911907434464, 0.171013772487640, -0.000017251071768, 0.045435935258865, 0.010483687743545, 0.190922245383263
-0.029127530753613, -0.124377645552158, -0.111734725534916, 0.259854972362518, -0.118298143148422, 0.144600316882133, -0.021818662062287, -0.000006349499927, 0.096014484763145, 0.271598100662231, 0.009401714429259, -0.277673810720444, -0.006708615459502, -0.008299032226205, -0.020061662420630, -0.126897186040878
-0.151178285479546, 0.013266735710204, -0.172555342316628, -0.136418819427490, 0.030392842367291, -0.029614990577102, -0.073663465678692, 0.000010180649042, -0.148601546883583, 0.338250458240509, 0.033846143633127, -0.031461194157600, -0.002235555788502, -0.243704795837402, 0.012985806912184, 0.007432274054736
0.149818852543831, -0.048392407596111, 0.103061139583588, -0.197716653347015, 0.074826478958130, 0.197434574365616, 0.084756597876549, -0.000081331178080, 0.270037382841110, -0.164541259407997, -0.026548849418759, 0.240889444947243, -0.021393494680524, -0.592218458652496, -0.103376865386963, 0.026290580630302
0.103035353124142, -0.090910769999027, 0.062617816030979, -0.045435562729836, -0.013654372654855, -0.073588468134403, -0.097401045262814, -0.000012143003005, -0.196400299668312, 0.130759879946709, -0.119439452886581, -0.210380882024765, -0.024464260786772, -0.304766952991486, -0.089167438447475, 0.065512403845787
-0.093535892665386, -0.008661642670631, -0.025572128593922, -0.201273530721664, -0.001862975768745, 0.585660040378571, -0.002704298822209, -0.000018864495360, -0.316771686077118, -0.302610665559769, 0.079231902956963, -0.347168207168579, -0.000024758233849, -0.355377376079559, -0.067495062947273, 0.112279124557972
0.038078144192696, -0.156201511621475, -0.066188804805279, 0.099834889173508, -0.053689755499363, 0.023482089862227, 0.069041617214680, -0.000000076357111, 0.144387647509575, -0.092310592532158, -0.153192564845085, -0.009598928503692, 0.005039377138019, 0.056461110711098, -0.191656023263931, -0.017656583338976
-0.159409210085869, -0.047695770859718, -0.083852410316467, 0.024169087409973, -0.115441888570786, -0.264550834894180, 0.025281334295869, 0.000025896322768, -0.226841419935226, -0.226204305887222, -0.014530682004988, -0.044313795864582, 0.002469261176884, 0.291049599647522, 0.007622267585248, -0.029889678582549
-0.002239227993414, 0.029035707935691, 0.107771165668964, -0.237343817949295, -0.122394420206547, 0.146656364202499, -0.024466264992952, 0.000147333004861, -0.462829560041428, 0.259664237499237, 0.421811848878860, 0.233830183744431, 0.002069586422294, -0.171014741063118, 0.012610289268196, 0.480985283851624
-0.048274729400873, 0.070830106735229, -0.142267167568207, 0.418408036231995, -0.020430255681276, -0.153195351362228, -0.011276579461992, 0.000001929926611, 0.090949572622776, -0.261620640754700, -0.362477779388428, -0.174057468771935, -0.000626994180493, 0.369301170110703, 0.020383967086673, 0.116744264960289
-0.061284583061934, 0.114609308540821, -0.107175849378109, -0.092640623450279, -0.045659665018320, -0.025270296260715, -0.073250003159046, 0.000140646123327, -0.087428867816925, -0.151954650878906, 0.128391802310944, 0.229388907551765, 0.005691222380847, 0.000238973065279, 0.003099855035543, 0.106119312345982
0.024438664317131, -0.188131913542747, 0.036769520491362, -0.349166572093964, 0.016823222860694, -0.199026897549629, -0.050114221870899, -0.000181709488970, 0.040086504071951, 0.126268997788429, 0.146609351038933, 0.152910813689232, 0.002285532886162, 0.155812829732895, 0.095575347542763, 0.051562275737524
0.069739535450935, 0.002798917237669, 0.055973097681999, -0.071972213685513, 0.008467558771372, -0.157890588045120, -0.026300197467208, -0.000003351061650, -0.054025948047638, 0.047841768711805, 0.192144751548767, 0.059040714055300, -0.005313209723681, -0.045381255447865, -0.053947098553181, -0.002383986720815
-0.017744723707438, -0.087267212569714, -0.128259643912315, -0.009804796427488, -0.046178195625544, -0.041039168834686, 0.013717056252062, -0.000011026282664, 0.049669761210680, 0.025778733193874, -0.003862031502649, 0.024359298869967, -0.007172642275691, 0.036809023469687, -0.078326568007469, -0.040011756122112
0.026384832337499, 0.032150510698557, 0.104281000792980, -0.103827543556690, -0.056596323847771, -0.064430370926857, -0.120737046003342, -0.000138029776281, 0.042435057461262, 0.147277846932411, 0.078595235943794, -0.096590802073479, -0.005975715350360, -0.077069856226444, -0.034022450447083, -0.064807675778866
-0.045450877398252, -0.025962384417653, -0.017627798020840, 0.022855609655380, -0.031106639653444, 0.090410426259041, -0.000120385215268, -0.000006485019185, 0.097186595201492, 0.021969953551888, 0.085648976266384, 0.010464588180184, -0.001199205173180, -0.040611904114485, -0.176394179463387, 0.090607464313507
-0.036827448755503, 0.067692868411541, -0.020871736109257, -0.141760513186455, 0.021810347214341, 0.045112140476704, -0.037094425410032, 0.000034942528146, -0.218198508024216, 0.074663825333118, -0.180682778358459, -0.194600433111191, -0.004596716724336, -0.292256712913513, -0.195576339960098, 0.417303353548050
-0.184518590569496, 0.037373539060354, -0.171498745679855, -0.100499220192432, -0.000799767207354, 0.149020269513130, -0.033588036894798, -0.000037289377360, 0.278060466051102, -0.165546610951424, 0.064918890595436, 0.309645146131516, -0.003860319266096, 0.010179307311773, 0.118477471172810, 0.001720471307635
-0.085565380752087, -0.067309834063053, 0.146880850195885, -0.018834743648767, -0.106409713625908, 0.106217354536057, 0.039494592696428, -0.000140104457387, 0.157404437661171, -0.014404958114028, 0.107215270400047, -0.035959895700216, 0.003047413891181, 0.152373731136322, 0.110989980399609, 0.033638034015894
-0.099993959069252, 0.004875255282968, -0.176912277936935, 0.025459202006459, -0.127386733889580, -0.028806330636144, 0.045858170837164, 0.000159475690452, -0.067900605499744, 0.112899020314217, -0.050525128841400, 0.124262340366840, -0.006486835889518, 0.067748971283436, 0.141120731830597, -0.003901048563421
-0.015937821939588, -0.150685027241707, -0.042977236211300, 0.068543881177902, 0.002324631670490, -0.055670280009508, 0.027555093169212, 0.000007078534964, -0.281636834144592, -0.326719760894775, 0.553804337978363, 0.343866676092148, 0.000002412109779, 0.058403819799423, 0.123331412672997, 0.570576906204224
-0.204493224620819, -0.018526956439018, -0.158297434449196, 0.126891046762466, -0.004125176928937, -0.094358988106251, -0.071619234979153, 0.000008649098163, -0.083896152675152, 0.032141175121069, 0.005823192186654, 0.059112649410963, -0.000011827611161, 0.053531851619482, 0.105966709554195, -0.122416079044342
-0.088863790035248, -0.047040119767189, 0.073189020156860, -0.027073085308075, -0.005082830786705, -0.082068204879761, -0.076082877814770, -0.000002372054723, -0.188581556081772, 0.005348959006369, -0.051064223051071, -0.033199928700924, 0.000982118421234, 0.141875803470612, -0.135715633630753, 0.002731056883931
-0.019594494253397, 0.026047918945551, -0.060404531657696, -0.009549398906529, -0.058528061956167, 0.101080030202866, 0.050681438297033, -0.000001304239163, 0.085472278296947, 0.042669907212257, 0.072323508560658, -0.140027523040771, -0.000339214602718, -0.104072161018848, 0.076974764466286, 0.011121354065835
-0.086893111467361, 0.024692548438907, 0.066860973834991, -0.040951520204544, -0.001498911180533, 0.029503252357244, 0.024122254922986, -0.000303163629724, 0.050520353019238, -0.213408291339874, -0.116156935691833, -0.156237840652466, -0.005097235087305, -0.011026395484805, 0.075795456767082, -0.016519669443369
-0.007715652231127, -0.090076066553593, -0.085948951542377, 0.317124605178833, 0.024587275460362, -0.052010189741850, -0.004176209215075, -0.000014141682186, 0.172732532024384, -0.030215086415410, -0.220608487725258, -0.146612748503685, 0.000011482085029, 0.309386104345322, -0.102403752505779, -0.103138998150826
0.083177842199802, 0.061335183680058, 0.004255491774529, -0.183002859354019, -0.007566669490188, -0.254373788833618, 0.060128528624773, 0.000017609570932, -0.297676146030426, 0.154346302151680, 0.189374610781670, 0.031931150704622, 0.000062910781708, 0.002964515704662, 0.095233619213104, 0.021536394953728
-0.179758965969086, -0.143967613577843, -0.225514054298401, -0.076555520296097, -0.128732487559319, 0.075605154037476, 0.008227898739278, -0.000242873153184, -0.165718480944633, -0.020500123500824, 0.375010162591934, -0.223121508955956, -0.012728272937238, -0.130579069256783, 0.153760731220245, -0.041100397706032
-0.055279009044170, -0.130481615662575, -0.108096644282341, 0.023377645760775, 0.065727472305298, -0.175329580903053, -0.070073381066322, 0.000006762275916, 0.038588367402554, 0.054618004709482, -0.259672790765762, -0.041901517659426, -0.005298957694322, 0.275330334901810, -0.060029380023479, -0.166790351271629
-0.219552740454674, 0.119358435273170, -0.057818546891212, 0.014309846796095, -0.050549250096083, 0.110892489552498, 0.061196424067020, -0.000007407999419, -0.115416318178177, -0.128145456314087, 0.239649862051010, -0.087427526712418, -0.003194512799382, -0.112055391073227, -0.124126486480236, 0.057084456086159
0.088295586407185, -0.112397290766239, -0.030307268723845, 0.009308609180152, -0.055296771228313, 0.182170599699020, -0.020082395523787, -0.000445231271442, -0.339043289422989, 0.117974579334259, 0.211404353380203, -0.095225147902966, -0.000034715732909, -0.078343614935875, 0.019111372530460, -0.132101446390152
0.050327766686678, -0.066985934972763, 0.053728803992271, -0.157542780041695, -0.019125040620565, -0.007362278643996, 0.003522991668433, -0.000313153112074, 0.039951354265213, -0.087137885391712, 0.083625584840775, 0.124834999442101, -0.000381276739063, -0.019801139831543, 0.091455310583115, 0.095155067741871
-0.114492021501064, 0.086018048226833, 0.060123313218355, 0.009650680236518, -0.137895762920380, 0.177006587386131, 0.039329856634140, -0.000021039248168, 0.056466437876225, 0.134364858269691, 0.236483365297318, -0.133638501167297, 0.002820324385539, 0.126712858676910, 0.032944757491350, 0.020543854683638
-0.174287512898445, -0.200784891843796, -0.216681435704231, -0.004849590826780, 0.030181514099240, 0.040360387414694, 0.027509743347764, 0.000011030150745, -0.175567388534546, -0.063911087810993, 0.075621768832207, 0.065487191081047, 0.012954837642610, -0.009278886020184, 0.046383596956730, 0.019064575433731
0.033241413533688, -0.014304274693131, -0.204536214470863, -0.144035816192627, -0.071408934891224, 0.261041998863220, -0.006008832249790, -0.000142788107041, -0.094218388199806, -0.281670749187469, 0.407734274864197, 0.381694585084915, 0.003422710346058, -0.254744350910187, -0.056638881564140, 0.156442120671272
0.076200664043427, -0.096962235867977, 0.060630474239588, -0.042980972677469, -0.094083599746227, 0.002259752247483, -0.032851789146662, -0.000304250861518, 0.049479331821203, 0.210909128189087, -0.024595523253083, -0.258813500404358, 0.000543203030247, 0.026413995772600, -0.127613589167595, -0.115141600370407
0.104449391365051, 0.056864280253649, -0.192618250846863, -0.134262517094612, -0.082336686551571, -0.056047305464745, -0.119136422872543, -0.000003277729320, -0.023615514859557, 0.081740379333496, -0.069799698889256, 0.020410118624568, -0.000831016805023, 0.073539905250072, 0.140281081199646, -0.040530752390623
-0.167433425784111, -0.177838712930679, -0.080828770995140, 0.034776870161295, 0.064538061618805, -0.085287280380726, 0.010789374820888, -0.000218105094973, 0.078139178454876, -0.036945484578609, -0.065845631062984, 0.015251512639225, -0.018406506627798, 0.088337875902653, -0.207242712378502, 0.012916118837893
0.129988893866539, -0.179199531674385, 0.082368016242981, 0.042869858443737, 0.023674225434661, -0.271574169397354, 0.036343276500702, -0.000626677006949, -0.085622616112232, 0.067696526646614, 0.074518457055092, 0.122792646288872, -0.000047886929678, -0.070535212755203, -0.100964166224003, 0.144184425473213
-0.103541582822800, -0.056377366185188, -0.158315166831017, 0.026067297905684, -0.102070622146130, 0.007862719707191, 0.036446053534746, -0.000276630889857, -0.058530360460281, 0.153553843498230, -0.035146288573742, -0.038700241595507, -0.000634539523162, 0.091422922909260, -0.122200272977352, -0.086495541036129
-0.071224950253963, 0.021013431251049, 0.071224652230740, 0.041833315044641, -0.053918268531561, 0.038188200443983, -0.047440119087696, -0.000009380941265, -0.058712165802717, 0.008467964828014, -0.047246068716049, 0.027646774426103, 0.000098394921224, -0.052298367023468, 0.090438500046730, -0.080284327268600
0.015152231790125, -0.077389143407345, -0.155560567975044, -0.003137709805742, -0.020112397149205, 0.165233656764030, -0.022318929433823, 0.000031388779462, 0.077019333839417, 0.030589353293180, -0.144063070416451, -0.210149317979813, -0.000571805110667, 0.048740964382887, -0.131827920675278, -0.156420499086380
-0.084677815437317, -0.149352982640266, 0.037216156721115, -0.091161362826824, -0.017023386433721, 0.013054728507996, -0.031930711120367, -0.000091416353825, 0.206394970417023, 0.023433765396476, -0.167255103588104, -0.133616089820862, -0.023275237530470, -0.071775875985622, -0.084742739796638, -0.145521774888039
0.114803381264210, -0.125371098518372, -0.122088417410851, 0.024617884308100, 0.018579900264740, 0.079497210681438, 0.058725047856569, 0.000227069976972, -0.026535551995039, 0.025657400488853, -0.013288904912770, -0.068827047944069, -0.000025638059014, 0.006759988144040, 0.116658195853233, 0.021397590637207
-0.121332570910454, -0.093354724347591, -0.061515610665083, -0.038329396396875, -0.023215157911181, 0.141756728291512, 0.006568612530828, -0.000004024568625, 0.250512540340424, -0.090969204902649, -0.178573787212372, -0.107683904469013, 0.000317511352478, -0.065539769828320, -0.014939943328500, -0.071006275713444
0.037519384175539, 0.002131241140887, -0.067263551056385, -0.128487169742584, 0.025628341361880, 0.154412642121315, -0.052151653915644, -0.000002885672529, 0.117473803460598, 0.096171364188194, -0.163849070668221, -0.246565848588943, -0.004146931692958, -0.059075307101011, 0.003088456811383, 0.146027967333794
0.083100639283657, -0.020903140306473, 0.069891601800919, 0.114100478589535, 0.011360301636159, -0.120376668870449, -0.042007930576801, -0.000000450762400, -0.019002251327038, -0.075737126171589, -0.145475432276726, -0.124414861202240, 0.000153832123033, 0.202397361397743, 0.037082534283400, -0.195831879973412
-0.160423144698143, 0.060791350901127, -0.053062673658133, 0.109609164297581, -0.000848523515742, -0.280273675918579, -0.043697535991669, 0.000007641104276, -0.027975905686617, -0.106192260980606, 0.019128115847707, -0.031891159713268, -0.000001899788117, 0.050806678831577, -0.117177195847034, -0.131224066019058
0.045687299221754, -0.027084540575743, -0.059549793601036, 0.027114653959870, 0.074883922934532, 0.093876913189888, -0.038085266947746, -0.000000787133217, -0.022112619131804, 0.026774564757943, -0.108900249004364, 0.119723364710808, -0.003583262674510, -0.037556611001492, 0.066931016743183, 0.024148549884558
-0.077220596373081, 0.018480380997062, 0.086538240313530, -0.060824230313301, 0.044817857444286, -0.071974225342274, 0.003556170267984, -0.000119964875921, -0.045248568058014, -0.048710923641920, -0.057126935571432, 0.039646182209253, 0.000672300870065, 0.002036237623543, 0.123986192047596, -0.069506965577602
0.094279162585735, 0.055100735276937, 0.073908120393753, -0.046085920184851, -0.089176334440708, 0.102621696889400, -0.078271247446537, 0.000005689496902, -0.090392507612705, -0.078809015452862, 0.261051326990128, -0.006280279252678, 0.002253615297377, -0.211660981178284, 0.096069574356079, 0.080913625657558
0.044980533421040, 0.100205980241299, -0.011717080138624, -0.189899936318398, 0.039657160639763, -0.102769926190376, -0.007603489793837, 0.000004129106856, -0.023593500256538, -0.025656402111053, 0.123195387423038, 0.055876620113850, 0.000888238253538, -0.090124838054180, -0.152175188064575, -0.006804712116718
-0.127371475100517, -0.114934548735619, 0.104896008968353, 0.125268712639809, 0.064576670527458, -0.305800169706345, -0.145843118429184, -0.000120094140584, 0.234560415148735, -0.109150931239128, 0.031414266675711, 0.155050471425056, -0.002341955900192, 0.353887230157852, 0.112032219767570, 0.027214361354709
0.040699094533920, 0.005383449606597, -0.097908310592175, 0.245532542467117, -0.017919922247529, -0.455222606658936, -0.039244446903467, -0.000003561229278, 0.132012873888016, -0.140142410993576, -0.318679928779602, 0.401744157075882, -0.000389892345993, 0.331887423992157, -0.127880245447159, -0.247536405920982
-0.059825241565704, -0.046342007815838, 0.034532845020294, 0.035477064549923, -0.005886081606150, 0.009999166242778, 0.001904401113279, -0.000117779389257, -0.179633855819702, 0.140341579914093, -0.089518852531910, 0.109318420290947, -0.000006515313089, 0.158688023686409, 0.010108177550137, 0.308996886014938
0.024546569213271, -0.062957361340523, -0.031495150178671, -0.345970690250397, -0.018864417448640, 0.073800869286060, -0.066523566842079, 0.000056081578805, -0.099405042827129, 0.077928461134434, 0.058848541229963, 0.075836591422558, 0.007589926011860, -0.427279174327850, -0.067422278225422, 0.128360077738762
-0.123211577534676, -0.057355843484402, -0.056091781705618, -0.065400898456573, 0.053568989038467, 0.015332771465182, -0.024973489344120, 0.000015282917957, -0.135466322302818, -0.183079794049263, 0.340500891208649, 0.034599211066961, 0.009144886396825, -0.088202573359013, -0.151435062289238, 0.102713160216808
-0.041148737072945, -0.095208927989006, 0.009322931058705, 0.017493546009064, 0.047141131013632, -0.026380423456430, -0.096729978919029, -0.000269424403086, 0.019600074738264, -0.129033088684082, -0.118487119674683, -0.079670749604702, -0.011452455073595, -0.060945659875870, -0.000206287848414, -0.021651981398463
-0.084702506661415, -0.116339683532715, -0.047339174896479, -0.042984079569578, -0.081059895455837, 0.003907171543688, 0.081339418888092, -0.000010769108485, 0.055519629269838, -0.075031332671642, 0.028067633509636, -0.032644368708134, 0.013084582053125, 0.134895265102386, -0.033047206699848, 0.015861945226789
0.104259505867958, 0.047726292163134, 0.045355308800936, 0.024283180013299, -0.109260775148869, 0.041793983429670, 0.007110691163689, 0.000003487778031, -0.075538583099842, -0.000616082048509, -0.134456425905228, -0.010706873610616, -0.000589961244259, 0.063423305749893, 0.088534153997898, -0.072409927845001
-0.097013689577579, 0.092562064528465, 0.105641461908817, 0.043141722679138, -0.084793120622635, 0.124253571033478, -0.009950540959835, -0.000013877931451, 0.111952938139439, -0.101707108318806, -0.206368774175644, -0.255012273788452, -0.006102728657424, -0.072803549468517, -0.119429171085358, 0.048291888087988
-0.024820387363434, -0.148583874106407, -0.178772062063217, -0.051434561610222, -0.014839115552604, 0.042158648371696, 0.015133504755795, -0.000090077832283, -0.178256839513779, 0.106460407376289, 0.074017450213432, 0.028039718046784, -0.000005895716185, 0.039779428392649, 0.027128880843520, 0.221974700689316
-0.069894723594189, -0.078254699707031, 0.108575724065304, 0.287579327821732, 0.029924403876066, -0.134984001517296, -0.032413933426142, -0.000001161724072, -0.100474558770657, -0.008739795535803, -0.290174573659897, -0.051762022078037, 0.000103272264823, 0.446791708469391, 0.110285058617592, -0.049984052777290
0.004522271454334, -0.054573241621256, -0.045856229960918, 0.055650580674410, 0.060288414359093, -0.281443685293198, -0.069790825247765, 0.000017901877072, -0.007967009209096, -0.167984768748283, -0.039135485887527, -0.097446292638779, -0.001989074517041, 0.113861583173275, -0.130102246999741, -0.084345512092113
0.007272600196302, 0.096612952649593, -0.086650654673576, -0.038636669516563, 0.041167035698891, 0.080068588256836, -0.011783504858613, -0.000135220499942, 0.016694512218237, -0.128414630889893, 0.042944077402353, 0.086215406656265, 0.009350774809718, 0.072040073573589, 0.014991804026067, 0.044990457594395
-0.151789948344231, 0.124173209071159, 0.117526218295097, -0.005189185030758, -0.122801482677460, -0.123843125998974, -0.064627207815647, 0.000004901408374, -0.268825262784958, 0.120635196566582, -0.095915436744690, -0.114656195044518, -0.013318393379450, -0.001716953469440, -0.225240528583527, -0.083499602973461
-0.026843668892980, 0.068198539316654, 0.110282756388187, 0.036365162581205, 0.027911793440580, -0.013008737005293, -0.078332819044590, -0.000007748696589, 0.127293393015862, -0.302278548479080, -0.045383863151073, 0.102477520704269, 0.002500751754269, 0.296548277139664, -0.092327579855919, 0.160555019974709
-0.166193157434464, -0.112982802093029, -0.098530746996403, -0.041933029890060, 0.011454078368843, -0.188146442174911, 0.030763119459152, -0.000004706428626, -0.270755857229233, 0.174158975481987, -0.126136034727097, 0.145448446273804, -0.000021725021725, 0.012925351038575, -0.123760052025318, -0.144145771861076
-0.226954847574234, 0.123010501265526, -0.133110791444778, 0.253671288490295, -0.083649419248104, -0.075166106224060, -0.013221235014498, 0.000004968340363, 0.479622274637222, -0.132477894425392, -0.311287581920624, 0.114220045506954, -0.001467843889259, 0.285066366195679, -0.027064537629485, -0.249499008059502
-0.184396550059319, 0.073011390864849, -0.132991433143616, -0.041719429194927, 0.000079187135270, 0.248599335551262, 0.058496139943600, 0.000074212359323, -0.038876399397850, 0.398686945438385, 0.021287221461535, -0.171030461788177, 0.000115047856525, -0.038644436746836, -0.001873150933534, -0.393294274806976
-0.068376690149307, -0.044369127601385, -0.060639027506113, -0.027899699285626, 0.065054789185524, -0.129600435495377, -0.106225147843361, 0.000025207153158, 0.139438822865486, 0.109781034290791, 0.093420691788197, -0.106519654393196, 0.008004472590983, 0.063843317329884, 0.119705602526665, 0.033208742737770
-0.026032473891973, -0.106750607490540, 0.124933980405331, 0.063282802700996, 0.072896659374237, 0.022464655339718, -0.057970881462097, -0.000001787388783, -0.087314099073410, 0.004520644433796, -0.086860358715057, -0.233420252799988, 0.002152144210413, 0.202830597758293, -0.031135493889451, 0.075237154960632
-0.101402632892132, -0.101213365793228, 0.071813717484474, -0.014411164447665, -0.050468895584345, -0.038977496325970, -0.089628838002682, -0.000003292605697, 0.062333155423403, -0.072689943015575, 0.051625624299049, 0.280591368675232, -0.001095199957490, -0.046885605901480, -0.095920257270336, 0.052583709359169
0.037104908376932, 0.022040326148272, 0.069842681288719, 0.012596339918673, 0.053145192563534, 0.075900442898273, -0.042252801358700, -0.000031697680242, -0.096422716975212, 0.016437878832221, -0.000802522059530, -0.143411159515381, -0.000670360575896, 0.115327142179012, -0.161516889929771, -0.070695728063583
-0.099618121981621, 0.041506413370371, 0.071518540382385, -0.009774968028069, -0.019651900976896, 0.094476737082005, 0.057423382997513, 0.000005161994977, 0.116599366068840, 0.064059004187584, -0.153930693864822, 0.118091762065887, -0.002069354522973, 0.155899420380592, -0.022073788568377, -0.045013237744570
0.141485184431076, 0.123204484581947, -0.029098287224770, -0.037536676973104, -0.015633404254913, -0.096793346107006, 0.063566118478775, 0.000061219667259, 0.204190969467163, -0.146610260009766, 0.126430079340935, 0.004540239460766, 0.009549800306559, 0.150321081280708, -0.144927367568016, -0.004685739055276
0.007432925049216, -0.074589893221855, -0.181439682841301, -0.045862030237913, -0.124454014003277, -0.171669811010361, 0.061796754598618, -0.000033904874726, 0.017539836466312, 0.340948313474655, 0.253017395734787, -0.020761003717780, -0.001605878351256, -0.010479534976184, 0.061201032251120, 0.023922968655825
-0.122593127191067, 0.068866215646267, 0.062037583440542, -0.136796116828918, -0.013250205665827, -0.012248366139829, -0.015286247245967, -0.000228261473239, -0.142841219902039, 0.211081668734550, 0.247808545827866, 0.281219661235809, -0.000035028006096, -0.070666588842869, 0.068228341639042, 0.139451280236244
-0.041642051190138, -0.169200614094734, -0.159391015768051, 0.088733851909637, 0.003542862134054, 0.016851583495736, 0.053150407969952, -0.000009127006706, 0.026707328855991, -0.050424695014954, -0.052330046892166, 0.017580885440111, 0.004552006721497, 0.032238397747278, -0.124420419335365, -0.023771258071065
0.096693679690361, 0.000698312884197, 0.053405877202749, -0.152075007557869, 0.073532819747925, -0.060804758220911, 0.051788523793221, 0.000000941512099, -0.121488265693188, -0.146753802895546, 0.248689770698547, 0.348174870014191, -0.009537165984511, -0.007621660362929, -0.001886184094474, 0.121918134391308
-0.040406689047813, -0.072651565074921, 0.132491871714592, -0.117094323039055, 0.061147063970566, -0.115692958235741, -0.092143714427948, -0.000126013925183, 0.240690693259239, 0.027656039223075, -0.062484659254551, -0.146411627531052, -0.003215989330783, 0.038447242230177, -0.202812701463699, -0.052051980048418
-0.141702815890312, 0.102059304714203, -0.116866342723370, -0.445667535066605, 0.032026212662458, 0.314486742019653, 0.017797639593482, -0.000000426213830, 0.378520846366882, 0.557166159152985, -0.035601582378149, -0.254209995269775, 0.002462475560606, -0.441197901964188, -0.070235058665276, -0.300601243972778
-0.141906082630157, -0.045658946037292, 0.083630770444870, -0.193390667438507, -0.094179958105087, 0.148136883974075, -0.118741735816002, -0.000011285017536, 0.252046853303909, 0.596766114234924, -0.038636121898890, 0.002507768804207, -0.000120203018014, -0.236702963709831, -0.174923151731491, -0.089347586035728
0.002395357703790, -0.124887205660343, -0.023901989683509, -0.055373661220074, -0.061893392354250, 0.041388712823391, -0.058099668473005, 0.000006965297416, 0.015123930759728, 0.014736803248525, -0.089045256376266, 0.055167455226183, -0.000530912191607, -0.070659510791302, -0.044374920427799, -0.008847609162331
-0.180944100022316, -0.113639764487743, -0.150597885251045, 0.081876672804356, -0.012316659092903, 0.077829450368881, 0.035226833075285, -0.000070986498031, 0.034807179123163, -0.048885438591242, 0.136729016900063, -0.097623899579048, -0.000167444595718, 0.010605820454657, -0.143079712986946, -0.185989171266556
-0.150802209973335, 0.003579787444323, 0.087798766791821, -0.024900045245886, 0.000014603722775, 0.381280243396759, 0.034658335149288, 0.000011408962564, 0.329615652561188, -0.283960819244385, 0.048666499555111, 0.008471542038023, 0.003879443509504, 0.055362801998854, -0.149110347032547, -0.006239346228540
-0.136871069669724, -0.037091154605150, 0.016958573833108, 0.183505445718765, 0.014098281040788, 0.283571034669876, -0.003753856988624, -0.000082591701357, 0.258211404085159, -0.465475469827652, -0.056707818061113, 0.211606577038765, 0.027628775686026, 0.071674413979053, 0.005184270907193, 0.237239912152290
-0.019029190763831, 0.100163877010345, 0.093818776309490, 0.248399764299393, -0.008047910407186, 0.028635550290346, 0.008268771693110, -0.000014485215615, 0.336415022611618, 0.123545244336128, -0.190845429897308, 0.000399725162424, -0.001228652428836, 0.357358157634735, 0.041310027241707, -0.289778321981430
0.132242515683174, 0.106098182499409, 0.061210021376610, -0.028091492131352, 0.025852650403976, -0.147460564970970, -0.045953247696161, -0.000127686449559, -0.073391981422901, -0.003852392546833, -0.006871385965496, 0.112636394798756, -0.005569250322878, 0.182247042655945, 0.111025393009186, -0.073246762156487
0.130112051963806, 0.051721926778555, 0.055069405585527, 0.317164033651352, 0.032825306057930, -0.160687908530235, 0.027608249336481, -0.000008137365512, 0.106392130255699, -0.442712068557739, -0.124464616179466, 0.358035653829575, 0.000093623777502, 0.124187000095844, -0.140986070036888, -0.214437469840050
-0.194254189729691, -0.113590911030769, -0.138398110866547, -0.147611677646637, -0.125134721398354, 0.122814238071442, -0.025595031678677, 0.000153843924636, 0.007590767927468, -0.127161845564842, -0.024140592664480, -0.032332938164473, -0.011615136638284, -0.325236052274704, 0.086109116673470, 0.042675483971834
-0.047265097498894, 0.027519473806024, -0.135886386036873, 0.022933999076486, -0.050410922616720, 0.180129244923592, -0.031316775828600, -0.000003601840490, 0.032083630561829, -0.029461368918419, -0.092315927147865, -0.201075896620750, 0.003725952468812, 0.075978703796864, 0.099182352423668, 0.040060643106699
0.054568126797676, 0.132635310292244, 0.104765914380550, 0.067010544240475, -0.043295212090015, 0.023310033604503, -0.022641077637672, -0.000183755051694, 0.082207195460796, 0.120090834796429, -0.020948775112629, -0.149506077170372, -0.013134375214577, -0.001431030221283, -0.135849833488464, -0.046553559601307
0.070434711873531, -0.110228151082993, -0.088060632348061, -0.245590463280678, 0.019810806959867, 0.330402970314026, 0.002464908873662, 0.000001625739060, 0.184502735733986, -0.044367227703333, -0.190431907773018, -0.013788166455925, 0.017674703150988, -0.361453682184219, 0.036964196711779, 0.275867700576782
-0.195153191685677, 0.073468625545502, -0.121268846094608, 0.190217867493629, 0.020589714869857, -0.477751135826111, -0.084663063287735, -0.000114067021059, 0.323295533657074, 0.185681089758873, -0.275570809841156, 0.034688152372837, -0.000000740633368, 0.341702818870544, 0.140978753566742, -0.396493077278137
-0.014706066809595, 0.086747527122498, -0.155703365802765, -0.057174798101187, -0.078595407307148, 0.064917653799057, 0.013123775832355, 0.000207435281482, -0.370055168867111, 0.414442181587219, 0.042135506868362, -0.222147390246391, -0.000017840393411, -0.341338485479355, 0.140308842062950, -0.055922187864780
-0.161334559321404, 0.034412339329720, 0.029182406142354, 0.127941608428955, 0.026387400925159, -0.178650915622711, 0.008077197708189, -0.000003404962399, 0.087936468422413, 0.199140653014183, -0.029990173876286, 0.023106042295694, 0.000317286147038, 0.255641996860504, -0.083020657300949, -0.143118783831596
-0.125612318515778, -0.139255553483963, -0.214131847023964, -0.087134212255478, -0.087164163589478, -0.110340662300587, -0.003950775600970, 0.000017621718143, -0.149336934089661, 0.173432618379593, -0.030424140393734, -0.104846149682999, -0.006620727013797, -0.001156408106908, -0.008221754804254, -0.017998136579990
0.067666500806808, 0.066028803586960, 0.089755728840828, -0.004407793283463, -0.049862727522850, 0.096673794090748, -0.066708721220493, -0.000001664749220, -0.108668908476830, -0.031427375972271, -0.119770139455795, -0.006165019702166, 0.000719938369002, 0.025347122922540, -0.088618546724319, 0.043986510485411
-0.040463883429766, -0.158493950963020, -0.163001835346222, -0.087405055761337, -0.078820303082466, -0.150389373302460, 0.013809083029628, -0.000005488466286, 0.087055630981922, -0.087506189942360, 0.058944519609213, 0.177282020449638, -0.011974252760410, 0.064402736723423, -0.066212736070156, 0.020160524174571
0.075698725879192, 0.075030878186226, -0.085593640804291, -0.060921899974346, -0.039426222443581, 0.033306237310171, -0.060895480215549, 0.000012639266060, 0.121372088789940, -0.081318043172359, 0.101540796458721, 0.088992863893509, -0.001356047461741, 0.083283439278603, -0.164104476571083, 0.097152188420296
0.104809738695621, -0.024340270087123, -0.054392680525780, 0.023105833679438, 0.044309940189123, 0.185789257287979, 0.054112203419209, 0.000004489334970, 0.046157214790583, 0.050695516169071, -0.175913497805595, 0.004639873281121, -0.017977183684707, -0.141505882143974, -0.054222259670496, 0.193780317902565
-0.097757250070572, -0.157412454485893, 0.054273623973131, -0.015720188617706, -0.038569532334805, 0.083670154213905, -0.029379576444626, 0.000013844742170, -0.064757972955704, -0.150970801711082, 0.017162937670946, -0.074094749987125, -0.008768304251134, -0.062198802828789, -0.216950580477715, 0.143132433295250
-0.053480092436075, -0.058158013969660, 0.082338370382786, -0.102577947080135, 0.028942096978426, 0.425846576690674, -0.012777561321855, -0.000117858893645, -0.146650776267052, 0.302453815937042, 0.124186828732491, 0.032209273427725, -0.000019121021978, -0.248856157064438, -0.169344574213028, 0.123231366276741
-0.012280033901334, -0.077897161245346, 0.012124526314437, 0.013034314848483, -0.071933306753635, 0.155667051672935, -0.137077987194061, -0.000381177640520, 0.115331888198853, -0.098116546869278, 0.046126771718264, -0.083384320139885, -0.001551538356580, -0.009781649336219, -0.082024350762367, 0.006533468142152
-0.111236967146397, -0.167424380779266, -0.188436046242714, 0.097573794424534, -0.005638631992042, -0.113719508051872, -0.003122688503936, -0.000190012622625, 0.084895901381969, -0.169793263077736, 0.021714540198445, 0.074334174394608, -0.009386543184519, 0.033107221126556, 0.102654345333576, -0.115425035357475
-0.002704966114834, -0.043514776974916, 0.013597045093775, 0.120071284472942, -0.074116028845310, -0.563083171844482, 0.049659963697195, -0.000291117146844, -0.074966721236706, 0.251751273870468, 0.228295505046844, 0.067301064729691, 0.000057886540162, 0.227646216750145, -0.092030279338360, 0.020885460078716
-0.074171334505081, -0.052513901144266, -0.147116214036942, -0.193692088127136, -0.104696415364742, 0.051752738654613, 0.073876887559891, -0.000006135068361, 0.031536608934402, -0.065809056162834, 0.106047652661800, 0.299875646829605, 0.016920106485486, -0.047656863927841, 0.029348643496633, 0.176342815160751
-0.016921116039157, -0.115269750356674, -0.199446678161621, 0.015760295093060, 0.021641246974468, -0.018723828718066, -0.064904615283012, -0.000133765264763, -0.001156753511168, -0.092565469443798, 0.180049911141396, -0.031779799610376, 0.002305588452145, 0.107473157346249, -0.135805964469910, 0.114129647612572
-0.079697072505951, -0.017901442945004, -0.072776131331921, -0.056200370192528, -0.019242573529482, -0.102037131786346, -0.019928753376007, -0.000001015678777, -0.040460333228111, -0.190727978944778, -0.005305340047926, -0.151739507913589, -0.002100233221427, -0.092214658856392, 0.024369560182095, -0.039415992796421
-0.040021818131208, 0.026359366253018, 0.056589789688587, -0.209546923637390, -0.039425853639841, -0.209057241678238, 0.047823306173086, -0.000096961492090, -0.369050294160843, 0.289820432662964, -0.056783545762300, 0.053043395280838, -0.000006047015177, 0.049789723008871, -0.192626610398293, -0.050706844776869
0.030278706923127, 0.085144765675068, -0.086772397160530, -0.084744773805141, -0.015332506038249, 0.065397351980209, -0.048607308417559, -0.000152428765432, -0.046930860728025, -0.302510023117065, 0.137569829821587, 0.025544906035066, -0.004371296148747, 0.000827339885291, -0.050288017839193, 0.183672145009041
-0.046902224421501, -0.032344508916140, 0.004993585869670, 0.250478953123093, 0.018763519823551, -0.022263772785664, -0.033253539353609, 0.000001027952749, 0.092306748032570, -0.181428879499435, -0.066623538732529, 0.094199001789093, 0.000581864209380, -0.021800583228469, -0.024158310145140, -0.187467649579048
0.033971931785345, -0.106780119240284, 0.011773101985455, -0.104113511741161, -0.092051237821579, 0.014705689623952, -0.144406750798225, 0.000166921439813, 0.008249274455011, 0.007016489282250, 0.162549838423729, -0.049667660146952, -0.006427016574889, -0.125007882714272, -0.033618573099375, 0.064881503582001
-0.180235907435417, 0.094667106866837, -0.077372245490551, 0.029936743900180, -0.021786227822304, -0.007076670415699, 0.039031650871038, -0.000293700897601, -0.210037708282471, -0.089627437293530, -0.031645178794861, 0.162467494606972, -0.005342065822333, -0.058038357645273, -0.150652229785919, 0.219358742237091
0.083003483712673, -0.095813572406769, 0.089624308049679, 0.142703577876091, 0.061406556516886, 0.114366099238396, -0.013931359164417, 0.000005212289580, 0.108447074890137, -0.110650636255741, -0.061161208897829, -0.032598178833723, -0.003216967452317, -0.069509983062744, 0.052120745182037, 0.060635533183813
0.096846207976341, -0.007438633125275, 0.011415372602642, -0.027312014251947, -0.029552424326539, 0.072113856673241, -0.128402024507523, 0.000149058250827, 0.018367603421211, 0.014635995030403, -0.049268089234829, 0.165869906544685, 0.009660860523582, 0.001802755286917, 0.132074818015099, 0.009759951382875
-0.172811165452003, 0.035775445401669, 0.047456242144108, 0.055214021354914, -0.136389076709747, 0.031548511236906, 0.039531886577606, -0.000009508704352, -0.119800269603729, 0.213400095701218, 0.016733357682824, -0.037331782281399, -0.003045239485800, -0.123340129852295, 0.097220763564110, -0.019992737099528
0.068831801414490, 0.081351451575756, -0.112718574702740, 0.008553558029234, -0.037596765905619, 0.012328868731856, 0.001184611232020, 0.000010617342014, 0.256822019815445, -0.147945672273636, -0.236852765083313, 0.165024533867836, -0.004882336594164, 0.171940475702286, -0.077933207154274, -0.086060956120491
-0.050159759819508, 0.108700223267078, -0.075706668198109, -0.023431379348040, 0.064339905977249, 0.017738245427608, -0.155154585838318, -0.000246226438321, -0.098775960505009, -0.030209098011255, -0.017411191016436, 0.132398530840874, 0.018613403663039, 0.094568662345409, -0.170526608824730, 0.041279390454292
0.084443390369415, -0.009355265647173, 0.005682132206857, 0.134548202157021, -0.030811998993158, -0.008920045569539, -0.064305551350117, -0.000003261122856, -0.165798410773277, 0.072591185569763, 0.065957829356194, -0.144452646374702, -0.000030608269299, -0.082786612212658, 0.132241427898407, 0.158179774880409
-0.141842156648636, -0.132378995418549, 0.004066202789545, 0.025187291204929, -0.034708946943283, -0.080060161650181, -0.088636331260204, -0.000010725246284, 0.034109786152840, 0.073835842311382, -0.235545456409454, -0.248590528964996, -0.007126963231713, 0.073097512125969, -0.103751994669437, -0.140515998005867
-0.126321628689766, -0.075073547661304, -0.017566815018654, -0.064656250178814, -0.030911928042769, 0.167923539876938, 0.002572056371719, 0.000006121854312, 0.220863536000252, -0.033428698778152, -0.073356054723263, -0.095167763531208, 0.002674389630556, -0.100785069167614, -0.060233522206545, 0.062530465424061
-0.155632287263870, 0.057097122073174, -0.063411734998226, 0.126311421394348, -0.051007300615311, -0.153285101056099, -0.003074334235862, -0.000002991565225, 0.038910381495953, -0.257800966501236, -0.143048360943794, 0.129132166504860, -0.001340007875115, 0.395845472812653, 0.106191009283066, -0.089946962893009
0.057376738637686, -0.040123853832483, -0.144795596599579, -0.030147293582559, 0.015991678461432, -0.058615945279598, -0.028257275000215, 0.000007128528978, 0.023949023336172, -0.018196225166321, -0.078526757657528, -0.034397367388010, -0.003894926048815, -0.003328890074044, -0.139392495155334, -0.012969670817256
0.144151464104652, -0.203827038407326, 0.125681489706039, 0.032259132713079, -0.045475229620934, -0.015759151428938, -0.089173458516598, 0.000074532683357, 0.124569848179817, -0.027484418824315, -0.150180935859680, 0.020879190415144, -0.006727914791554, -0.013121838681400, 0.062912628054619, -0.034112133085728
-0.160353794693947, 0.029276072978973, -0.116545960307121, 0.054501578211784, -0.080101378262043, -0.061458073556423, 0.098891146481037, -0.000003256344371, 0.151754006743431, -0.043103557080030, -0.175396233797073, 0.178829744458199, -0.010151996277273, 0.112467393279076, 0.132327303290367, 0.026172123849392
-0.007041799370199, -0.160298749804497, 0.040571119636297, -0.029864905402064, -0.080962486565113, -0.022483425214887, -0.008179550059140, -0.000025600387744, 0.132427275180817, -0.059889700263739, 0.013107578270137, -0.134191706776619, -0.003811022266746, -0.164421409368515, 0.028749197721481, -0.044974945485592
-0.147923052310944, 0.110105216503143, 0.055509269237518, 0.045240893959999, 0.037051998078823, 0.020802848041058, 0.006401338614523, -0.000268842501100, -0.027109989896417, -0.121055379509926, 0.042068127542734, 0.171791151165962, -0.011018441990018, -0.008819886483252, -0.050781477242708, 0.002198500325903
-0.005863332655281, -0.020928587764502, -0.007290048059076, -0.072359338402748, 0.014260465279222, -0.069684438407421, 0.015944845974445, -0.000211861697608, 0.059304442256689, -0.146245718002319, 0.065255902707577, 0.171678587794304, 0.009641737677157, 0.165711402893066, 0.007601192686707, 0.034174866974354
-0.031740017235279, -0.131294563412666, -0.146999537944794, 0.069291733205318, -0.073562942445278, -0.124073237180710, -0.027199681848288, -0.000006549106274, 0.005339199677110, -0.102844230830669, -0.080594122409821, -0.101528614759445, 0.000822634785436, 0.126013845205307, 0.027157686650753, -0.003082735929638
0.094477638602257, -0.174476563930511, 0.030388800427318, 0.054012287408113, 0.082370445132256, 0.036584820598364, 0.014162840321660, -0.000258060317719, -0.003623748896644, 0.218354657292366, 0.082636572420597, -0.222838535904884, 0.003391632111743, -0.065410532057285, -0.138130083680153, -0.061338439583778
-0.083674751222134, -0.192440152168274, -0.213809505105019, 0.021820800378919, 0.028952900320292, -0.008590639568865, 0.068256527185440, 0.000142762437463, -0.125660851597786, 0.127287462353706, 0.214589089155197, -0.039992488920689, -0.008827454410493, 0.045384954661131, -0.169437482953072, -0.024313110858202
-0.074912339448929, -0.013012436218560, -0.034928038716316, 0.004137597512454, -0.019702499732375, 0.045657198876143, 0.010745637118816, 0.000005330542081, 0.029883760958910, 0.062507204711437, -0.142104104161263, -0.140966385602951, -0.000046957051381, -0.117993287742138, 0.122902870178223, -0.003952314145863
-0.148093342781067, -0.044262140989304, 0.055234000086784, 0.000265453243628, -0.039498180150986, 0.323716670274734, -0.057917021214962, 0.000070202760980, -0.070077627897263, 0.074215866625309, -0.033151537179947, -0.005985738243908, 0.000640268903226, -0.376990616321564, 0.079413570463657, 0.248718738555908
-0.033284824341536, -0.128637298941612, -0.145153924822807, -0.104268409311771, 0.074715815484524, 0.068794794380665, -0.022988840937614, -0.000359325000318, -0.054657470434904, -0.321141421794891, 0.028120992705226, 0.061368837952614, -0.013130369596183, -0.115239366889000, -0.181985914707184, 0.070149675011635
-0.207373484969139, -0.009263247251511, 0.048299018293619, 0.037632379680872, 0.071329377591610, -0.129410549998283, -0.109039984643459, -0.000030443512514, -0.046575281769037, 0.007307982537895, 0.120373226702213, -0.179466277360916, -0.022339768707752, -0.061899874359369, -0.124651990830898, 0.010132088325918
-0.108824357390404, 0.072236858308315, -0.153089001774788, -0.088953152298927, -0.082995072007179, 0.188906043767929, 0.062638916075230, -0.000265136652160, 0.159738346934319, -0.187219232320786, -0.158641502261162, -0.010232830420136, 0.007191979326308, -0.158898830413818, 0.090729549527168, 0.102638579905033
-0.143037572503090, -0.134165391325951, 0.121307536959648, 0.212369784712791, 0.013676396571100, 0.023094981908798, 0.063027583062649, -0.000093561458925, 0.072831466794014, 0.066168077290058, -0.194894582033157, -0.165311619639397, -0.002483987947926, 0.173392832279205, 0.047339092940092, -0.107365742325783
-0.182381257414818, -0.199916794896126, -0.227040246129036, -0.115183524787426, -0.068894423544407, -0.141067802906036, -0.088498085737228, -0.000013173634215, 0.040497243404388, -0.094678729772568, 0.239990159869194, 0.392803639173508, -0.008954294025898, -0.127888098359108, -0.158886730670929, 0.170300558209419
0.066704653203487, 0.108045749366283, -0.175381332635880, 0.003255988238379, 0.088869564235210, 0.010145095176995, -0.107665732502937, 0.000001922161800, -0.121850043535233, 0.048144645988941, 0.036784783005714, 0.104501746594906, -0.003584762103856, -0.041204422712326, 0.086762353777885, -0.080951288342476
-0.141267657279968, -0.028498323634267, -0.119746148586273, -0.055932845920324, 0.010911159217358, 0.494680732488632, 0.006792278960347, -0.000018882081349, -0.268088549375534, -0.031607244163752, 0.221639305353165, -0.178852751851082, 0.000085677551397, -0.196594074368477, -0.155689075589180, 0.246617019176483
0.097960084676743, -0.156654044985771, 0.070056691765785, -0.017529478296638, -0.021621659398079, 0.087545529007912, 0.078751489520073, -0.000172199841472, -0.051058802753687, -0.161057144403458, -0.020386036485434, -0.092861272394657, -0.011988216079772, -0.055531077086926, -0.063377588987350, 0.104578867554665
-0.019803484901786, -0.042078450322151, -0.164035603404045, 0.153389692306519, -0.094890892505646, -0.127180308103561, 0.015313000418246, -0.000003604487802, 0.289719998836517, -0.128893047571182, -0.237570464611053, 0.066395476460457, -0.025998530909419, 0.407125830650330, 0.080838799476624, -0.186944499611855
0.004610228352249, -0.102635547518730, 0.106563635170460, 0.009875703603029, 0.068911544978619, 0.036717016249895, 0.033541899174452, -0.000020295148715, -0.051866918802261, -0.104635588824749, -0.138394773006439, -0.046482153236866, -0.004693340044469, 0.000474083470181, -0.104315221309662, 0.047370392829180
0.065104745328426, 0.029052134603262, 0.035514712333679, -0.091060258448124, 0.021049963310361, -0.133577480912209, 0.027738343924284, 0.000002350011073, -0.011165033094585, -0.113044939935207, 0.084178134799004, -0.014964610338211, 0.000326042063534, -0.007076560519636, -0.171104446053505, 0.048623207956553
-0.165752604603767, -0.002181429648772, -0.031382489949465, 0.131962195038795, 0.041189301759005, -0.120866559445858, -0.051687669008970, -0.000006318008673, 0.159950852394104, -0.175874188542366, 0.252948462963104, -0.262504488229752, -0.000360626494512, -0.088777206838131, -0.044079739600420, 0.052206382155418
-0.135072141885757, -0.121504448354244, -0.004189606290311, 0.227203741669655, -0.006213196553290, -0.510963797569275, 0.073456928133965, -0.000143268349348, -0.161800950765610, 0.003468375885859, 0.247314617037773, 0.306617647409439, -0.000003488555876, 0.296449840068817, 0.042375952005386, 0.163964614272118
-0.195021331310272, -0.107027985155582, -0.093601971864700, -0.133593767881393, -0.065832160413265, 0.029707331210375, 0.045705307275057, 0.000141716009239, -0.106197386980057, 0.130438476800919, 0.116787575185299, -0.274864614009857, -0.000718449591659, -0.289550751447678, -0.002752328757197, -0.022049073129892
-0.110919117927551, -0.004647949710488, 0.085070364177227, -0.001972852041945, -0.002055390039459, 0.115379832684994, -0.017724625766277, 0.000001920476279, 0.083628125488758, 0.093439511954784, 0.115977145731449, 0.183496221899986, -0.001185005996376, 0.158590048551559, -0.022547364234924, 0.016769040375948
-0.209244728088379, 0.128329470753670, 0.125751957297325, 0.067855961620808, -0.150223806500435, 0.064898870885372, -0.095686189830303, -0.000091642374173, -0.104862667620182, -0.017612049356103, 0.098026938736439, -0.281157523393631, -0.007333224639297, -0.066483810544014, 0.017902841791511, -0.043074149638414
-0.048238180577755, -0.008655380457640, -0.148470699787140, 0.082500398159027, 0.019130213186145, -0.160873025655746, 0.046656355261803, -0.000276546896202, -0.011925332248211, 0.057885728776455, -0.308481186628342, -0.010323368944228, -0.007703607901931, 0.135731488466263, 0.023301897570491, -0.004504139069468
-0.081172995269299, -0.184869885444641, -0.013496189378202, 0.107279293239117, 0.048793096095324, 0.415540516376495, 0.019869551062584, 0.000010651370758, 0.411558151245117, -0.213875681161880, 0.065966822206974, -0.082647345960140, -0.011580207385123, -0.309718310832977, -0.180562734603882, 0.112253658473492
0.128858268260956, 0.016904152929783, 0.096183978021145, -0.042659435421228, -0.040064401924610, -0.173520341515541, 0.032057560980320, 0.000004487018487, 0.029112085700035, 0.231724113225937, -0.122413009405136, -0.072287119925022, -0.012323616072536, 0.024072499945760, 0.020762119442225, -0.022593140602112
0.025864155963063, -0.060173813253641, -0.166845649480820, -0.053618628531694, 0.068895779550076, 0.138323947787285, 0.006297617219388, -0.000014958062820, 0.160005047917366, -0.154693037271500, -0.029231872409582, -0.115390941500664, 0.004629720002413, -0.381941109895706, -0.197518169879913, 0.014978851191700
0.109227634966373, 0.077151186764240, 0.076470173895359, 0.002154688583687, -0.069364808499813, -0.041019115597010, -0.090073183178902, -0.000013698159819, 0.010663108900189, -0.046930238604546, -0.006435899063945, -0.027405278757215, -0.012420574203134, -0.019484644755721, -0.068137228488922, -0.029175305739045
-0.221872121095657, 0.116478912532330, -0.125250011682510, 0.325599461793900, 0.065315224230289, -0.069478914141655, 0.053877204656601, 0.000003367485533, 0.403920918703079, -0.171009495854378, -0.095576785504818, 0.069664321839809, -0.008757737465203, 0.450103044509888, 0.019234579056501, -0.200860366225243
-0.224635779857635, 0.017066288739443, 0.080515235662460, -0.067867137491703, 0.030698971822858, -0.119330495595932, -0.170011475682259, -0.000143592129461, -0.319285124540329, -0.334814459085464, 0.367461889982224, 0.554439187049866, -0.000425000878749, 0.079053401947021, -0.130158081650734, 0.214586213231087
-0.065793506801128, -0.137296020984650, -0.006347797345370, -0.060582436621189, -0.012536798603833, -0.004955586977303, 0.019444577395916, -0.000117737792607, 0.150089383125305, -0.039118442684412, 0.043020389974117, 0.136147558689117, -0.008560176007450, 0.037662442773581, -0.189530894160271, 0.039704516530037
-0.210527434945107, 0.097197934985161, -0.148034229874611, -0.051884431391954, 0.003234392497689, -0.028799487277865, 0.024857515469193, 0.000175121778739, 0.037865102291107, 0.217813491821289, -0.014204781502485, 0.003854740876704, 0.010953662917018, -0.114362426102161, -0.176528647542000, -0.124260365962982
0.093638151884079, -0.125421166419983, -0.064278066158295, 0.477231621742249, 0.025327887386084, 0.192047715187073, 0.017999591305852, 0.000001541027927, 0.427458375692368, -0.272659778594971, -0.385220080614090, 0.105353891849518, 0.000413919507992, 0.143306836485863, -0.042631197720766, -0.285209476947784
-0.177497223019600, -0.164678990840912, -0.102908574044704, -0.085651002824306, 0.003040542127565, 0.023946514353156, 0.050880219787359, -0.000121386845422, 0.171843484044075, -0.224901571869850, 0.063540555536747, 0.041383646428585, 0.007649604231119, -0.226849630475044, -0.165800020098686, -0.000824285554700
-0.119515076279640, -0.007098720408976, 0.106752417981625, -0.100878179073334, 0.078499518334866, -0.050631318241358, -0.061079669743776, 0.000013235849110, -0.134547919034958, -0.080898150801659, 0.171162858605385, 0.098666273057461, -0.011741591617465, -0.043220646679401, 0.046465825289488, 0.007411878556013
0.004281605593860, -0.079543292522430, 0.024430448189378, -0.143528640270233, -0.044473305344582, -0.121897332370281, 0.036321226507425, -0.000125538790599, -0.128450259566307, -0.039942219853401, 0.074223071336746, 0.208311855792999, 0.000021486966943, -0.049025598913431, 0.075842782855034, 0.102770581841469
-0.090153872966766, -0.107023820281029, 0.129702240228653, 0.246826216578484, -0.022813430055976, -0.219054371118546, -0.016369767487049, 0.000001494780463, 0.197890207171440, -0.123593226075172, -0.220340147614479, -0.031922645866871, -0.000531672791112, 0.322759062051773, 0.029392166063190, -0.256994754076004
-0.153877407312393, -0.010934986174107, 0.003932922612876, 0.108453102409840, -0.025126691907644, 0.112321563065052, -0.076518625020981, 0.000004435374649, 0.238547161221504, -0.123929321765900, 0.011293187737465, 0.117053374648094, 0.004517541732639, 0.004605664405972, 0.038951043039560, -0.032923176884651
-0.129945620894432, 0.004142114426941, 0.008143053390086, 0.032098662108183, -0.034671634435654, -0.141110539436340, -0.050571762025356, -0.000272627134109, -0.050749152898788, -0.063810415565968, -0.029820235446095, -0.202824801206589, -0.000257352308836, -0.202362105250359, -0.128562301397324, -0.103845760226250
0.141104608774185, -0.010726121254265, -0.140643775463104, -0.105729058384895, -0.092537470161915, 0.081971295177937, 0.055110715329647, -0.000257889245404, 0.159783512353897, -0.049113959074020, -0.055442370474339, 0.145038679242134, -0.011400601826608, -0.073760345578194, 0.099744945764542, 0.116596408188343
0.031839206814766, -0.138908103108406, 0.047409031540155, 0.066493727266788, -0.000843532732688, -0.177467718720436, -0.046873591840267, -0.000003782910426, -0.106025837361813, 0.097043253481388, -0.066981367766857, -0.059671256691217, -0.000171556253918, 0.234959915280342, -0.128493785858154, -0.037682376801968
0.114888183772564, -0.171758472919464, -0.094866633415222, -0.033840619027615, 0.006757958792150, -0.005945547949523, 0.068787872791290, 0.000008261589755, 0.058137532323599, 0.081659086048603, -0.095127858221531, 0.119824178516865, 0.005913808010519, -0.070768058300018, -0.087300337851048, -0.005372824147344
-0.115653514862061, 0.016946701332927, -0.004816338885576, 0.241909682750702, -0.094226710498333, 0.177110835909843, -0.023363357409835, 0.000001000492830, -0.035986240953207, -0.149686008691788, -0.174763947725296, -0.102829791605473, 0.000005436891570, 0.159156054258347, 0.033706936985254, 0.278894126415253
0.045430433005095, -0.165874928236008, 0.058220438659191, -0.030377356335521, 0.027703355997801, 0.084230370819569, -0.013654557056725, -0.000005944382792, -0.024722084403038, -0.146070837974548, -0.066490240395069, -0.126904636621475, 0.000922918668948, -0.140694990754128, -0.132892459630966, 0.081724837422371
0.052463732659817, -0.203557983040810, 0.018707294017076, 0.080998964607716, 0.112814709544182, -0.063123166561127, -0.051708307117224, -0.000002474529992, -0.016675546765327, -0.110618777573109, -0.114487498998642, 0.009836843237281, -0.008923234418035, 0.097003877162933, -0.150996088981628, -0.138169586658478
-0.171923846006393, 0.095584407448769, 0.102328173816204, -0.196765929460526, -0.043132986873388, 0.239184230566025, -0.103901334106922, -0.000325855042320, -0.235495328903198, 0.173896417021751, 0.078646905720234, -0.177165180444717, -0.000423562974902, -0.609752774238586, -0.110128439962864, 0.061315201222897
-0.088829994201660, 0.022325115278363, -0.056264974176884, -0.110297262668610, 0.019212655723095, -0.084200471639633, 0.001684532733634, -0.000017213771571, -0.078228972852230, 0.074084766209126, -0.057449370622635, -0.113597385585308, -0.003571687964723, -0.269722938537598, -0.033060289919376, 0.112147159874439
-0.131231218576431, -0.132485687732697, -0.131378024816513, -0.012382223270833, -0.000673302332871, -0.010635472834110, -0.112258456647396, -0.000123131510918, -0.206622540950775, -0.111772768199444, 0.084702797234058, 0.046808660030365, 0.003064282005653, 0.048927765339613, 0.166748821735382, 0.107719585299492
-0.067788377404213, -0.106970757246017, 0.038460947573185, -0.030147157609463, -0.099216885864735, 0.060063716024160, 0.063866667449474, 0.000102527228591, -0.058128185570240, -0.096023179590702, 0.017679093405604, -0.019945381209254, -0.021929224953055, -0.015305031090975, 0.011366455815732, 0.123317897319794
0.105988226830959, -0.049682516604662, 0.020231666043401, -0.043767496943474, 0.017905713990331, 0.114823937416077, 0.016339857131243, -0.000006710442904, 0.217261895537376, 0.007940055802464, -0.026363708078861, -0.092149674892426, -0.003584189340472, -0.239803016185760, -0.155175730586052, -0.077094607055187
-0.059656724333763, 0.038307614624500, -0.081169165670872, -0.070432737469673, -0.000229710189160, -0.138207286596298, 0.054860372096300, -0.000014446774003, 0.001370772370137, 0.133270680904388, -0.020379746332765, -0.110603064298630, -0.000572715420276, -0.096879489719868, 0.151146695017815, -0.121614709496498
0.095850907266140, 0.067316956818104, -0.063471026718616, 0.101916991174221, -0.082993805408478, 0.159960299730301, -0.067885860800743, -0.000123183112009, -0.148656427860260, 0.585982918739319, 0.087486393749714, -0.118995949625969, -0.000693654292263, -0.057899016886950, -0.162765339016914, 0.131759524345398
-0.211523622274399, -0.038698535412550, -0.192972198128700, 0.054735150188208, -0.024524496868253, 0.069944165647030, 0.076478496193886, -0.000001518218141, 0.194513157010078, -0.039265792816877, 0.136812850832939, 0.212276771664619, -0.021573366597295, -0.033437162637711, 0.049699231982231, 0.059144277125597
-0.166571602225304, -0.151805073022842, 0.081651464104652, 0.491922974586487, -0.001460721017793, -0.273149549961090, 0.056840121746063, -0.000154538138304, 0.242316126823425, -0.082739852368832, -0.454573541879654, 0.310420393943787, -0.000001398887207, 0.460515707731247, 0.154345780611038, -0.316291719675064
0.038587503135204, -0.082754299044609, -0.104550413787365, -0.043431416153908, 0.005939450114965, -0.017818694934249, 0.074830576777458, -0.000001105888828, 0.123753778636456, -0.027003204450011, 0.079071119427681, 0.107873633503914, -0.002450122497976, 0.115838348865509, -0.036376215517521, 0.044646240770817
0.039893325418234, 0.055856019258499, -0.038663625717163, 0.322241216897964, -0.001376706873998, -0.065835379064083, -0.017797870561481, -0.000004592785899, 0.001296589616686, -0.004174364730716, -0.362815201282501, -0.022362207993865, 0.000040173639718, 0.272774964570999, 0.088298358023167, -0.059245631098747
-0.093317151069641, -0.151015907526016, -0.103402517735958, 0.287929981946945, 0.017165021970868, -0.149761244654655, 0.007804846391082, -0.000010495682545, 0.125282004475594, -0.193911105394363, -0.210095822811127, 0.090033240616322, 0.000000889268563, 0.351663917303085, -0.000302251748508, -0.061291776597500
-0.001573137706146, 0.040360033512115, -0.092620037496090, -0.143310442566872, 0.011457766406238, -0.153364256024361, -0.003668118501082, -0.000003217465974, -0.074225030839443, 0.148649841547012, -0.133557438850403, -0.032626081258059, 0.002502478659153, -0.218233138322830, -0.037498746067286, -0.166182652115822
-0.126917943358421, 0.103018589317799, -0.058313746005297, 0.023048764094710, 0.042690590023994, -0.038115873932838, -0.039400529116392, 0.000000174269545, -0.115980036556721, -0.003181255422533, -0.077171348035336, 0.006597630679607, -0.004512249492109, 0.183114588260651, 0.042565681040287, -0.000954574032221
0.023359188809991, -0.034228164702654, 0.098962314426899, -0.044424116611481, -0.044761784374714, -0.122866481542587, -0.025155335664749, -0.000004099685611, -0.017940191552043, 0.036666583269835, -0.150349020957947, -0.180206954479218, -0.000180157454452, 0.195929288864136, -0.089296132326126, -0.060439568012953
-0.164608925580978, -0.099528513848782, -0.100632354617119, 0.220019146800041, 0.021686727181077, 0.307331562042236, 0.021387875080109, 0.000001074270699, -0.085210666060448, -0.062151908874512, -0.214591518044472, -0.129326298832893, -0.003535891184583, -0.035893034189939, -0.130116835236549, 0.186595380306244
-0.044428613036871, 0.050008695572615, -0.014596831053495, -0.198436439037323, 0.015185283496976, -0.204343885183334, -0.082339026033878, -0.000303586828522, -0.463232487440109, 0.700521171092987, 0.102778606116772, 0.039952483028173, -0.000000407641153, -0.040689874440432, 0.107990801334381, 0.025101490318775
-0.154989466071129, -0.083285927772522, -0.146130636334419, -0.014303028583527, -0.111575953662395, 0.154564604163170, -0.101726524531841, -0.000094501170679, 0.126727983355522, 0.103082127869129, -0.013601391576231, -0.091797709465027, 0.000032298114093, 0.044509880244732, -0.132210224866867, -0.006765078753233
0.030263122171164, -0.182648852467537, -0.048631746321917, 0.039409585297108, -0.024535471573472, -0.020133588463068, -0.027322184294462, -0.000007642314813, 0.210816591978073, 0.105449266731739, -0.066712900996208, 0.001229069777764, 0.005522382911295, 0.128120601177216, -0.078291282057762, -0.095206387341022
-0.209292769432068, -0.071482777595520, -0.096953667700291, 0.052410684525967, -0.079187005758286, 0.104095973074436, 0.028277862817049, 0.000037527875975, -0.030798656865954, -0.085427209734917, -0.051241703331470, 0.064382001757622, 0.001233152928762, 0.202269226312637, 0.056025091558695, 0.113189645111561
0.066400244832039, -0.186719626188278, -0.152582779526711, 0.002905539236963, -0.120345696806908, -0.009044887498021, -0.100239515304565, -0.000268402072834, -0.097480520606041, -0.133751004934311, -0.211431533098221, -0.276202559471130, -0.004641473758966, 0.008166936226189, -0.217790678143501, -0.013438988476992
-0.109742052853107, -0.080904774367809, -0.193440243601799, -0.063092529773712, -0.027875825762749, -0.156325563788414, 0.042477302253246, -0.000015332941985, -0.226260527968407, 0.097789376974106, -0.042950294911861, -0.023472234606743, 0.001218756893650, -0.121471799910069, 0.134471222758293, 0.113486506044865
-0.134301811456680, -0.113380327820778, -0.155253976583481, -0.060781303793192, -0.051061358302832, -0.106308415532112, -0.031957704573870, -0.000011661331882, -0.077377617359161, -0.156923130154610, -0.021225675940514, 0.182249829173088, -0.001718385610729, -0.066324390470982, -0.097108870744705, 0.075358949601650
-0.180302113294601, -0.010716108605266, -0.155334576964378, 0.042525872588158, 0.088241018354893, -0.069171518087387, 0.050285942852497, -0.000257879641140, 0.002167651429772, 0.125029236078262, -0.101088963449001, -0.042157836258411, -0.009279329329729, 0.043191794306040, -0.111523829400539, -0.048973567783833
-0.079442456364632, -0.200012326240540, 0.092255115509033, 0.003999108914286, -0.080382861196995, 0.124352023005486, 0.046027351170778, -0.000106769708509, -0.140085399150848, 0.114287763834000, -0.037974607199430, 0.082635469734669, -0.006014444399625, 0.094484694302082, 0.094945095479488, 0.121459081768990
-0.092577643692493, -0.176658362150192, -0.058552175760269, -0.199653491377831, -0.064503028988838, -0.038850676268339, 0.028849435970187, 0.000000645329123, 0.039148259907961, -0.149357974529266, 0.023383136838675, 0.174970343708992, -0.008246729150414, -0.132737904787064, -0.074590176343918, 0.067949227988720
-0.042894341051579, 0.051772899925709, -0.097338281571865, -0.231009230017662, -0.089305862784386, -0.231124311685562, -0.027007048949599, 0.000003690750646, -0.235779255628586, 0.324482619762421, -0.192061394453049, -0.225998401641846, -0.000008231229913, -0.065743431448936, -0.052083902060986, 0.052496369928122
-0.076249182224274, 0.040756225585938, -0.002239956520498, 0.488865494728088, -0.020486291497946, 0.113232366740704, 0.054600745439529, 0.000011523181456, 0.282203525304794, 0.109059154987335, -0.356819540262222, -0.152618795633316, -0.000007078963790, 0.427766203880310, -0.045039296150208, -0.451303213834763
0.054305464029312, -0.001046382356435, 0.068660013377666, 0.213868126273155, -0.046790279448032, 0.034995697438717, 0.019609281793237, 0.000001098453822, -0.391385406255722, 0.603829503059387, 0.297493904829025, -0.074041761457920, -0.000000987255362, -0.425434529781342, -0.132612168788910, -0.153230890631676
-0.185709178447723, 0.050856981426477, 0.004370693583041, -0.007615314796567, 0.102699451148510, 0.005320652853698, 0.013416870497167, -0.000287040340481, 0.077493317425251, 0.228475823998451, 0.097131423652172, -0.171648383140564, 0.001708926865831, -0.096796482801437, 0.087073393166065, -0.069024704396725
-0.072369769215584, -0.072902880609035, -0.132324248552322, -0.023950636386871, -0.011446987278759, -0.080047674477100, 0.032131232321262, -0.000004064087079, 0.149446129798889, -0.118370018899441, 0.055260647088289, 0.159960821270943, 0.000041300860175, 0.122823663055897, 0.139997869729996, 0.016994534060359
-0.181525066494942, -0.080707862973213, -0.069876626133919, 0.031343080103397, 0.007252441253513, -0.147721424698830, 0.019667606800795, -0.000002026971288, -0.057082507759333, -0.162200480699539, 0.001503444858827, 0.152028158307076, 0.000081213845988, 0.235455647110939, -0.127339780330658, 0.002008073031902
-0.029687905684114, -0.134083136916161, 0.004030325915664, 0.084136903285980, -0.037367340177298, -0.075677990913391, 0.045858934521675, -0.000002914547622, -0.061637111008167, -0.019220516085625, -0.103324733674526, -0.105119027197361, 0.000089564098744, 0.024569241330028, 0.073858343064785, -0.086661808192730
-0.098192833364010, 0.092823505401611, 0.053789600729942, 0.437822014093399, -0.024485548958182, -0.202064648270607, 0.007472053170204, -0.000128404353745, 0.112590149044991, -0.069156341254711, -0.253034234046936, 0.267785549163818, -0.000057187029597, 0.600419700145721, -0.078218154609203, -0.094864137470722
-0.093892946839333, 0.054295469075441, 0.053949728608131, 0.046134933829308, 0.013375345617533, -0.108355373144150, -0.067449234426022, -0.000016864889403, -0.032751604914665, 0.153588116168976, -0.202025875449181, -0.206806257367134, -0.000273083162028, 0.209985122084618, -0.072415612637997, 0.103596352040768
0.121706150472164, -0.027159756049514, -0.208604589104652, -0.095055200159550, 0.106265522539616, -0.059300497174263, -0.099384762346745, -0.000152666631038, -0.069772958755493, 0.090008705854416, 0.151330247521400, 0.103676281869411, -0.018454223871231, -0.147133126854897, -0.133699581027031, 0.048673652112484
0.071699172258377, 0.013506773859262, -0.056466668844223, -0.000937683507800, 0.119841098785400, 0.007566682994366, -0.098979406058788, 0.000000607492439, -0.067475877702236, 0.093310214579105, -0.088949695229530, 0.070268318057060, -0.004232927691191, -0.025428762659431, 0.104250073432922, -0.004167764913291
-0.189052298665047, 0.011861008591950, -0.149429440498352, 0.085725642740726, 0.035333883017302, -0.062293644994497, 0.005048286635429, -0.000190298917005, 0.177178263664246, -0.010066017508507, -0.006099981255829, 0.041347477585077, 0.002862394088879, 0.076113477349281, 0.075263023376465, -0.049737542867661
0.065705105662346, -0.029073463752866, 0.013631768524647, 0.050359826534986, -0.036916263401508, -0.233223780989647, 0.035268004983664, -0.000269182928605, -0.196810752153397, -0.040322504937649, -0.200938284397125, -0.003200097940862, 0.000175554901944, 0.356608569622040, -0.071871556341648, -0.020381296053529
0.144503638148308, 0.099444687366486, -0.208683058619499, 0.122600577771664, 0.000529649318196, -0.109915152192116, -0.042540073394775, -0.000205838136026, 0.008697953075171, -0.195671379566193, -0.242990955710411, 0.191061228513718, -0.002594614867121, 0.326368600130081, -0.215309560298920, -0.008558187633753
0.091083079576492, -0.059086810797453, 0.017674826085567, 0.084419339895248, 0.109232507646084, 0.070156075060368, -0.029654229059815, 0.000225479030632, -0.007645475678146, 0.054238744080067, -0.123116180300713, -0.131239101290703, -0.024939890950918, 0.015743015334010, -0.050592429935932, 0.019975166767836
-0.064811244606972, 0.002672285307199, 0.102048292756081, 0.082867294549942, -0.047282874584198, 0.064584240317345, -0.028455223888159, -0.000005125449206, 0.024304354563355, 0.051984712481499, -0.036434542387724, -0.200852170586586, 0.000003451418706, 0.106109559535980, -0.089417845010757, 0.034259904175997
0.003078912384808, 0.046358276158571, -0.202064886689186, -0.150567144155502, -0.102800406515598, 0.202667981386185, 0.052772730588913, -0.000265538401436, 0.167685016989708, 0.101553358137608, 0.191881611943245, 0.034327138215303, 0.014049839228392, -0.300323039293289, 0.038768325001001, -0.009454612620175
-0.163045704364777, -0.112918622791767, -0.044899526983500, 0.032441474497318, 0.077825017273426, -0.003620768431574, -0.018258064985275, 0.000015288551367, -0.017183324322104, -0.022459793835878, 0.066149808466434, 0.018314711749554, -0.012293308973312, -0.021374281495810, -0.215714767575264, 0.065415024757385
-0.121279962360859, 0.050439093261957, -0.061502587050200, -0.068316921591759, 0.050188135355711, 0.061948005110025, 0.004303263500333, 0.000008563500160, -0.223866119980812, 0.131060764193535, 0.016628479585052, -0.129130125045776, -0.000229637415032, -0.057624273002148, 0.046501174569130, 0.102376811206341
0.109380021691322, -0.102661296725273, -0.129561632871628, 0.345080107450485, -0.054390635341406, -0.149497732520103, 0.060453101992607, -0.000096488765848, -0.017343627288938, -0.090016745030880, -0.237144187092781, 0.001996533712372, -0.000830394739751, 0.371328771114349, 0.080228209495544, 0.029816363006830
-0.104341737926006, -0.064350098371506, 0.133257791399956, 0.167592495679855, 0.096668370068073, -0.049664650112391, -0.071155667304993, 0.000001592746685, 0.014593291096389, 0.082418814301491, 0.073647625744343, -0.299230545759201, -0.001435042941011, 0.100104525685310, -0.094951249659061, -0.118257455527782
-0.207410782575607, -0.112962372601032, -0.065547659993172, 0.103346444666386, 0.027767665684223, 0.094256252050400, 0.022235197946429, 0.000332531228196, 0.254083812236786, -0.027100265026093, -0.299549251794815, -0.165765732526779, -0.021352199837565, -0.058034494519234, -0.003198923543096, -0.140805587172508
0.092659480869770, -0.002367665059865, 0.062947355210781, -0.159726679325104, -0.092314191162586, -0.112099528312683, 0.012788089923561, 0.000049045771448, 0.103340826928616, 0.410036027431488, -0.025883432477713, -0.167502656579018, 0.000002500172286, 0.267476677894592, -0.057264536619186, -0.009480319917202
0.046919927000999, -0.113574363291264, 0.019045339897275, 0.015850231051445, -0.093262642621994, -0.141939520835876, -0.040131326764822, 0.000009382279131, 0.017556123435497, 0.132014438509941, 0.046086359769106, 0.065433420240879, -0.000287312868750, 0.165947675704956, 0.096798568964005, -0.095135763287544
0.048436671495438, 0.095315150916576, 0.015147713012993, 0.101913966238499, -0.044644050300121, -0.112898722290993, -0.037217970937490, 0.000005549582966, 0.023532353341579, -0.054855208843946, 0.026242649182677, 0.091219186782837, -0.000211680118809, 0.162651926279068, 0.026365483179688, -0.141760632395744
0.018482752144337, -0.024233262985945, -0.095411732792854, 0.097006797790527, -0.068416662514210, -0.158256039023399, 0.034303989261389, -0.000000331523665, 0.070031866431236, -0.249413475394249, -0.140405446290970, 0.233248487114906, -0.000563553825486, 0.174559608101845, 0.055582594126463, 0.006463653873652
0.096932463347912, -0.155689015984535, -0.029198527336121, 0.158195242285728, -0.086295917630196, 0.104802086949348, -0.105671688914299, -0.000089138578915, -0.093106992542744, -0.118578597903252, 0.195935592055321, -0.322094619274139, 0.000017714526621, -0.080401398241520, 0.088132739067078, -0.251905620098114
0.073429092764854, -0.082656636834145, 0.085531838238239, -0.052363753318787, -0.003014315618202, 0.090548001229763, 0.017393141984940, 0.000148054328747, 0.118739567697048, -0.074630372226238, 0.028730351477861, 0.119914896786213, 0.010690624825656, -0.029572840780020, -0.102848783135414, -0.010815049521625
-0.009198735468090, -0.038528945297003, -0.029279923066497, 0.078013770282269, 0.021076831966639, -0.211166903376579, -0.096495509147644, 0.000013296069483, -0.074964269995689, -0.062271762639284, -0.074695318937302, 0.145532742142677, 0.001058283261955, 0.128788083791733, -0.189868807792664, -0.057966962456703
0.034600343555212, -0.059301506727934, -0.185705140233040, 0.124531902372837, -0.091151133179665, -0.033377710729837, -0.119912423193455, -0.000005375267847, -0.103993870317936, 0.111428253352642, 0.160034328699112, -0.274782150983810, 0.001745065907016, 0.021090883761644, -0.206212863326073, -0.102210529148579
0.060025267302990, 0.059520874172449, -0.011814017780125, -0.101965226233006, -0.097796790301800, -0.033078446984291, -0.054572138935328, 0.000004230163086, 0.028501555323601, -0.213690206408501, 0.279398113489151, 0.104851834475994, 0.004024869762361, -0.051687505096197, 0.069692358374596, 0.219730615615845
-0.101281113922596, -0.168938100337982, 0.107952162623405, 0.062162972986698, 0.010361527092755, 0.267385959625244, -0.034876473248005, -0.000001472102099, -0.100231945514679, 0.335048824548721, 0.136558175086975, -0.086808584630489, -0.000000999102440, 0.040218386799097, -0.147890478372574, -0.177404850721359
0.060304526239634, 0.104681819677353, 0.019368553534150, -0.093428812921047, -0.033781159669161, -0.085060559213161, -0.125884220004082, -0.000243791218963, -0.030888654291630, 0.010720286518335, 0.033914867788553, 0.285970240831375, -0.023949777707458, -0.028970340266824, -0.228431284427643, 0.064476609230042
-0.118446119129658, 0.113261602818966, -0.068742670118809, 0.009355643764138, 0.003845139872283, 0.232703149318695, 0.036426026374102, -0.000006667461548, 0.273533314466476, -0.239193201065063, 0.027693545445800, 0.209588944911957, 0.005605442915112, -0.052715439349413, -0.154008671641350, 0.185702502727509
-0.111829109489918, -0.005699166096747, -0.052089601755142, 0.088852509856224, -0.047419324517250, -0.046255949884653, -0.067112863063812, -0.000004711693691, -0.044721145182848, 0.133332639932632, 0.036055732518435, -0.243567749857903, 0.000035656219552, -0.026097359135747, -0.016104195266962, -0.086987286806107
-0.020692827180028, 0.018449008464813, -0.016234772279859, -0.167486846446991, 0.049048475921154, -0.007968762889504, 0.030710533261299, 0.000011866164641, 0.082766965031624, -0.131489410996437, -0.040629077702761, 0.104492157697678, -0.001968828029931, -0.111985765397549, -0.201268151402473, 0.188794836401939
0.019929397851229, -0.132639303803444, 0.062925875186920, -0.025978641584516, 0.041241452097893, 0.371990501880646, -0.031634405255318, -0.000324286782416, 0.034929838031530, -0.187778472900391, 0.239964947104454, 0.061335314065218, -0.002580305095762, -0.076560728251934, -0.053310342133045, 0.157260462641716
0.090506516396999, 0.030067408457398, -0.003757601371035, 0.186890378594398, -0.003270892659202, -0.083186566829681, -0.009724959731102, -0.000002425379080, 0.074866645038128, -0.039199020713568, -0.105136856436729, 0.040522813796997, 0.000130293818074, 0.212605938315392, -0.146886184811592, -0.093101590871811
