0.051006954163313, 0.078734971582890, -0.073474690318108, 0.063270762562752, -0.035520695149899, 0.112451441586018, -0.089960232377052, 0.125154286623001, 0.002914624288678, -0.115690402686596, -0.051016237586737, 0.002364654326811, 0.053780954331160, -0.062008436769247, 0.031486883759499, -0.032619260251522
0.054693020880222, -0.028406195342541, -0.115878850221634, 0.047632738947868, 0.051412139087915, -0.034721326082945, -0.007940723560750, 0.124863065779209, -0.017029911279678, 0.005355562549084, -0.008974660187960, 0.025754887610674, -0.018244445323944, 0.003526279237121, 0.095414452254772, -0.114330828189850
0.033027838915586, -0.022811649367213, -0.082144692540169, 0.153622999787331, -0.004160067997873, -0.052417442202568, -0.073655955493450, -0.231636390089989, 0.000001811019501, 0.035217117518187, 0.023248510435224, -0.163532167673111, 0.038612946867943, -0.053156390786171, 0.042732108384371, -0.006080497521907
0.021565278992057, -0.131850495934486, -0.180343285202980, -0.113728694617748, -0.022788234055042, 0.209971994161606, 0.080019585788250, 0.088088341057301, -0.000001494294111, -0.008949961513281, -0.064170591533184, 0.036098994314671, -0.020743187516928, -0.077980637550354, 0.007251623086631, -0.048436321318150
0.009127351455390, -0.084159940481186, 0.096299424767494, -0.203409478068352, -0.446492701768875, -0.289579719305038, 0.407548397779465, -0.034928381443024, 0.000560820626561, -0.067748866975307, -0.216549858450890, 0.009724861010909, -0.102784410119057, -0.074243068695068, 0.015463134273887, 0.049228947609663
-0.037507828325033, -0.136751130223274, 0.039442636072636, -0.018970174714923, 0.212389960885048, -0.015167135745287, -0.000450402090792, 0.035468496382236, -0.002618667436764, 0.044754151254892, 0.060235533863306, 0.045619461685419, 0.031184364110231, 0.015731625258923, -0.117210783064365, -0.037779692560434
0.082838460803032, -0.124568454921246, -0.105920888483524, -0.116158127784729, -0.124599024653435, 0.130660891532898, -0.099489219486713, -0.139180421829224, -0.016247669234872, -0.169054239988327, -0.082211330533028, 0.030672708526254, -0.145896211266518, 0.038977507501841, 0.110015623271465, -0.007217217702419
0.007215928751975, -0.202294841408730, -0.136456057429314, -0.093185946345329, -0.125667557120323, 0.103946611285210, -0.252943634986877, -0.160017937421799, -0.003806346561760, -0.015301671810448, -0.039369955658913, -0.009274490177631, -0.091127671301365, -0.027480300515890, -0.071282915771008, -0.082754068076611
0.067101493477821, -0.093313612043858, 0.104944415390491, 0.034270524978638, -0.139492601156235, 0.268489688634872, -0.164886966347694, -0.037043318152428, -0.053869649767876, -0.183857679367065, 0.044712968170643, 0.084661461412907, 0.018623434007168, 0.025679722428322, 0.070188038051128, -0.088902398943901
-0.023546608164907, -0.013323072344065, 0.034185934811831, 0.118941873311996, -0.026978842914104, -0.062063738703728, 0.026015795767307, 0.134741097688675, 0.000041665698518, -0.130532950162888, 0.078693486750126, 0.162520483136177, 0.018872655928135, 0.049261458218098, 0.007826228626072, -0.023597015067935
0.092241086065769, -0.018007835373282, -0.020579185336828, 0.044366512447596, 0.331733673810959, 0.021712228655815, -0.246332228183746, 0.378807961940765, -0.000006891394605, -0.142503365874290, -0.144679486751556, -0.047266487032175, 0.027495909482241, -0.048028383404016, -0.142574533820152, -0.060738522559404
-0.103918910026550, 0.005048711784184, 0.089181356132030, -0.214836627244949, -0.032978311181068, -0.039906173944473, 0.124005809426308, -0.169417813420296, 0.000518070883118, 0.141344144940376, 0.069461584091187, -0.069545991718769, -0.066622495651245, -0.042811792343855, -0.062587969005108, -0.061041660606861
0.035906016826630, 0.084571309387684, -0.051515962928534, 0.049325812608004, -0.086236923933029, 0.016321582719684, 0.036434348672628, -0.076063036918640, -0.017142167314887, -0.082706302404404, 0.021180475130677, -0.171634539961815, -0.023837482556701, 0.021256381645799, -0.106773123145103, -0.046191670000553
-0.031456828117371, 0.001679425244220, 0.059553317725658, 0.003227848559618, 0.089413113892078, 0.151593938469887, -0.056688223034143, 0.162049710750580, -0.002848742064089, 0.053506769239902, 0.050853013992310, 0.080472044646740, -0.098654560744762, -0.009472631849349, -0.089113436639309, -0.032140392810106
-0.146793901920319, 0.064697951078415, 0.095070652663708, 0.115537561476231, -0.009047063998878, -0.235394641757011, -0.169040516018867, 0.169870108366013, 0.015214807353914, 0.097772926092148, 0.263321220874786, 0.123576693236828, -0.034197952598333, 0.139352947473526, -0.179371640086174, -0.139670491218567
0.012322044000030, -0.110378846526146, -0.062415447086096, 0.009801397100091, 0.078889578580856, -0.087183468043804, -0.205346658825874, 0.079988434910774, -0.003499029902741, 0.072220452129841, 0.014967249706388, -0.026640433818102, -0.036770172417164, -0.024049209430814, -0.065422415733337, -0.068348325788975
0.038054630160332, -0.160665377974510, 0.043055906891823, 0.027062840759754, 0.183102622628212, -0.146310135722160, 0.155002832412720, -0.052495334297419, -0.000011094557522, 0.153563737869263, 0.009160669520497, -0.074657388031483, -0.056792598217726, -0.024268848821521, 0.035162396728992, -0.123024344444275
0.063902139663696, 0.077740140259266, 0.125252068042755, -0.100197076797485, 0.025130545720458, 0.174657821655273, -0.052728690207005, -0.145248010754585, -0.021532550454140, -0.155635938048363, -0.042242698371410, -0.041410222649574, -0.080888681113720, 0.014189413748682, -0.186865538358688, 0.062260575592518
0.073591731488705, -0.086283519864082, -0.064118124544621, -0.046838298439980, 0.040059387683868, -0.168315872550011, 0.026252022013068, -0.090273022651672, -0.029532831162214, 0.008864386007190, -0.052938401699066, 0.002580933971331, -0.028247300535440, 0.016716791316867, -0.095040291547775, -0.086784385144711
-0.063912779092789, 0.061756759881973, -0.076269797980785, -0.048667274415493, -0.111452303826809, -0.011452348902822, 0.220897093415260, 0.014895203523338, -0.000179912283784, 0.109614752233028, -0.000145210418850, -0.029243204742670, 0.033199291676283, -0.013362530618906, -0.036785714328289, -0.002037923783064
-0.082092829048634, -0.084116570651531, 0.080446608364582, -0.126250624656677, 0.087769821286201, -0.052578225731850, -0.175662681460381, -0.146764025092125, -0.014308071695268, -0.016886942088604, 0.042386904358864, -0.037957169115543, -0.113962024450302, -0.041615374386311, 0.034620136022568, -0.097770541906357
-0.033552572131157, 0.027438674122095, -0.121834352612495, 0.073716118931770, -0.180603399872780, -0.035614836961031, -0.048771150410175, -0.127709612250328, -0.044284820556641, -0.066791526973248, 0.086646333336830, -0.003869069274515, -0.118699930608273, 0.045610349625349, 0.003717664629221, 0.029635988175869
0.061919882893562, 0.040532466024160, -0.214014038443565, -0.026514247059822, -0.026676740497351, -0.004939552862197, -0.171107232570648, 0.166237220168114, -0.020020084455609, -0.116200216114521, -0.081506587564945, 0.022799823433161, 0.026676185429096, 0.034899294376373, -0.007817317731678, -0.112389631569386
-0.130260840058327, -0.053098157048225, 0.120764099061489, 0.021644508466125, 0.132741093635559, -0.074006617069244, -0.125314205884933, -0.115673497319221, -0.001438801991753, 0.168581470847130, 0.261762350797653, -0.113683320581913, 0.059946943074465, -0.019013555720448, 0.020553562790155, 0.076516069471836
-0.021406069397926, 0.102474488317966, -0.197750151157379, -0.007411684375256, 0.047329936176538, -0.087111763656139, 0.058718718588352, -0.128833800554276, 0.006571626756340, 0.272617757320404, -0.035718794912100, -0.085804231464863, -0.149289861321449, -0.041607204824686, 0.008449447341263, -0.091212876141071
-0.061508353799582, 0.065496571362019, -0.030089261010289, 0.087262973189354, 0.258420199155807, -0.169285818934441, -0.228003799915314, -0.055819712579250, -0.029322480782866, 0.034890282899141, 0.017480073496699, -0.005396391265094, 0.094642564654350, 0.019870433956385, 0.077740900218487, -0.089162379503250
-0.048918414860964, 0.006159996613860, -0.139507740736008, -0.108306236565113, 0.023325016722083, -0.018271854147315, -0.117444425821304, 0.053669080138206, 0.016718111932278, 0.074696682393551, -0.023353505879641, -0.046965397894382, -0.068698465824127, 0.009230488911271, 0.027533035725355, -0.032015249133110
-0.070109993219376, 0.041011348366737, -0.168890371918678, -0.047806151211262, -0.135782107710838, 0.386590093374252, -0.128118023276329, -0.180963352322578, -0.019196789711714, 0.140746280550957, -0.135459616780281, -0.061313096433878, 0.087760493159294, -0.137414142489433, -0.126131594181061, 0.057113219052553
0.046691607683897, -0.144129738211632, -0.045477457344532, -0.127845749258995, -0.093330591917038, 0.012302999384701, -0.039255607873201, 0.002114739734679, -0.000032116891816, 0.148381173610687, -0.010922269895673, 0.029732480645180, -0.031428895890713, 0.006939638406038, 0.012698188424110, -0.068113937973976
0.021900525316596, -0.146522939205170, -0.191103145480156, -0.092886120080948, 0.117661699652672, 0.121661268174648, 0.156170845031738, 0.083150126039982, 0.015532422810793, -0.033856596797705, -0.126298710703850, -0.079256467521191, -0.096105426549911, -0.016520483419299, -0.089574225246906, -0.004221118055284
0.038816381245852, -0.127012223005295, -0.148599579930305, 0.046660963445902, 0.081076435744762, -0.093005381524563, 0.017274178564548, 0.071002155542374, 0.022897290065885, 0.149278685450554, 0.003522288287058, -0.004541759379208, -0.001172178657725, 0.010843475349247, -0.052606374025345, -0.024222319945693
0.015071098692715, 0.096829846501350, -0.079233512282372, -0.196241319179535, 0.076648294925690, 0.012850819155574, -0.035113714635372, 0.108606785535812, 0.011597514152527, 0.081498213112354, -0.017192859202623, 0.061290081590414, -0.053595401346684, 0.016001712530851, -0.022125208750367, -0.099311828613281
0.008128182031214, -0.142320260405540, -0.118062421679497, -0.096580520272255, -0.095621757209301, -0.194216340780258, 0.180402398109436, -0.029862146824598, -0.000007212348464, -0.007072103675455, 0.121911421418190, 0.050459124147892, 0.039731167256832, 0.016184873878956, 0.013832116499543, -0.004086304921657
-0.004031561780721, -0.023657860234380, 0.003592242253944, -0.133979201316833, 0.102715127170086, 0.084633730351925, 0.056886728852987, -0.187993660569191, -0.000009656166185, 0.183004006743431, -0.148589566349983, -0.245835721492767, -0.084950953722000, -0.084789678454399, -0.053209595382214, -0.004362508188933
0.042556814849377, -0.029957104474306, 0.038454845547676, 0.088451020419598, -0.023041337728500, -0.044804271310568, -0.105607099831104, 0.136584818363190, -0.008115794509649, -0.075554631650448, -0.036414802074432, 0.056437022984028, 0.006099719088525, 0.046445682644844, 0.013208987191319, 0.011979224160314
0.008329929783940, 0.083435989916325, -0.027015520259738, -0.159945055842400, -0.130730420351028, 0.011597043834627, -0.226662889122963, -0.325624018907547, 0.000052917719586, 0.211539983749390, -0.034249462187290, -0.167811334133148, -0.113621167838573, -0.095713444054127, 0.082873255014420, -0.054350763559341
-0.048579111695290, 0.034390892833471, -0.122053556144238, -0.017023026943207, -0.006004035938531, -0.145013421773911, -0.068126536905766, 0.218157500028610, -0.000708352890797, 0.014046043157578, -0.105991974473000, -0.003393879625946, -0.019791146740317, -0.038893140852451, 0.020991090685129, 0.049463238567114
-0.044942159205675, -0.042957253754139, -0.093769721686840, -0.078212551772594, -0.036477372050285, -0.069597125053406, -0.017183806747198, -0.015658600255847, -0.002320008119568, -0.048605643212795, -0.254135876893997, -0.051874943077564, -0.031764581799507, -0.005659712478518, -0.086165606975555, -0.013614511117339
0.039016153663397, 0.095181472599506, 0.055368393659592, -0.013741779141128, 0.018990838900208, 0.051885727792978, 0.057320710271597, -0.030020520091057, 0.000004073287073, -0.200232684612274, -0.084599889814854, -0.042740914970636, -0.039426639676094, -0.023779256269336, -0.133799135684967, -0.023705799132586
-0.022666020318866, -0.147484540939331, -0.058479581028223, 0.115494087338448, 0.039384100586176, 0.058341439813375, -0.091697797179222, -0.045891948044300, 0.000735183071811, 0.115375898778439, 0.055899076163769, 0.028205031529069, -0.122199334204197, -0.004561055451632, -0.150516837835312, -0.038254629820585
0.003107506548986, -0.230350241065025, 0.106095582246780, -0.039749834686518, 0.018114477396011, 0.157055735588074, -0.207506656646729, -0.050808619707823, -0.027169110253453, -0.112700909376144, 0.054574016481638, -0.089104093611240, 0.054630193859339, -0.097570553421974, -0.007561772130430, 0.043940793722868
-0.039297770708799, -0.135827496647835, -0.067771956324577, -0.072170630097389, -0.365544438362122, 0.071754969656467, -0.043143484741449, -0.223585784435272, -0.000000052795514, 0.386629015207291, -0.014379422180355, -0.213907033205032, 0.048221725970507, -0.127647563815117, -0.061270259320736, 0.024870000779629
0.092555992305279, 0.024325614795089, -0.142274856567383, -0.034522328525782, -0.244881927967072, -0.142187669873238, -0.009890427812934, -0.171165838837624, -0.000006299025245, 0.201872840523720, 0.106626048684120, -0.053101446479559, -0.073019117116928, -0.022937279194593, -0.139781489968300, -0.052433554083109
-0.105360500514507, -0.091074891388416, 0.010029970668256, 0.242943108081818, -0.024617616087198, 0.093979969620705, 0.127315163612366, 0.080547973513603, -0.000005637045888, 0.118226110935211, -0.120475478470325, 0.061510667204857, 0.037572681903839, -0.006063892971724, -0.089018687605858, -0.072513535618782
0.003191188676283, -0.184342414140701, 0.029783286154270, -0.041391868144274, 0.048840425908566, 0.006060624495149, -0.064511857926846, 0.025603700429201, 0.001056778477505, -0.226411670446396, 0.196776926517487, -0.013838289305568, 0.020258812233806, 0.002349861199036, -0.085263885557652, -0.059724759310484
-0.026078246533871, 0.031183887273073, 0.015131388790905, 0.130597963929176, -0.073274277150631, 0.127533286809921, 0.033440422266722, -0.126212984323502, -0.002613049931824, -0.046589676290751, 0.034467797726393, -0.029375936836004, -0.096357800066471, -0.066511690616608, 0.028692964464426, 0.030100136995316
-0.070809431374073, -0.148158192634583, 0.038948170840740, 0.030445437878370, -0.125962048768997, 0.078757792711258, 0.081204898655415, 0.053529765456915, -0.001197164761834, -0.009858615696430, 0.060758434236050, -0.048999536782503, -0.082066386938095, 0.010414217598736, 0.007969936355948, 0.005281626712531
-0.071016676723957, -0.060076989233494, 0.121220454573631, 0.169431731104851, 0.009062164463103, 0.055133059620857, -0.080946490168571, 0.120557904243469, -0.010647228918970, -0.021050890907645, 0.019384087994695, -0.015036617405713, -0.154177039861679, 0.025084964931011, 0.002615411998704, -0.120631933212280
-0.088440559804440, 0.110990047454834, 0.023708365857601, 0.086071535944939, 0.026308238506317, -0.070032767951488, 0.082321085035801, -0.139469966292381, -0.015741705894470, 0.130014106631279, 0.033195730298758, -0.008931545540690, -0.013905405066907, 0.008680627681315, 0.002054757904261, 0.013947918079793
-0.018089596182108, -0.189403653144836, 0.039172720164061, 0.120690323412418, -0.240306273102760, 0.122288219630718, -0.099469378590584, 0.197873353958130, 0.017094044014812, -0.105855636298656, 0.437933087348938, 0.264932334423065, -0.097739651799202, 0.191229954361916, -0.060856815427542, 0.043018683791161
-0.048694748431444, 0.013535597361624, -0.207830652594566, 0.139808475971222, -0.039859648793936, -0.168531209230423, 0.032078173011541, 0.032666668295860, 0.017441328614950, -0.123176597058773, -0.034609753638506, -0.041374593973160, 0.004192077089101, 0.020089054480195, 0.049220602959394, -0.051366493105888
0.041169598698616, 0.072712540626526, -0.086760796606541, -0.100727289915085, 0.017779022455215, 0.348966300487518, -0.143868520855904, -0.011074686422944, -0.050513170659542, 0.124426327645779, -0.001650419086218, 0.052208509296179, 0.033897567540407, -0.034004472196102, 0.048192162066698, -0.036760412156582
-0.127193197607994, -0.141913875937462, -0.151677846908569, -0.098078951239586, 0.142774745821953, 0.237837523221970, -0.017066001892090, 0.137942001223564, 0.001351803075522, -0.292073100805283, -0.145952835679054, 0.194645300507545, -0.054509859532118, -0.106859497725964, -0.012915524654090, -0.045493707060814
0.021278722211719, 0.087110906839371, 0.016874039545655, 0.004422247409821, 0.072966679930687, 0.016798473894596, -0.132046893239021, 0.256675422191620, 0.010535798035562, -0.002942824503407, 0.111133232712746, 0.098477706313133, -0.002794156549498, 0.032340947538614, 0.070065744221210, -0.038828186690807
-0.089197084307671, 0.096088066697121, 0.097850717604160, 0.102257512509823, -0.077270135283470, -0.151828855276108, -0.045541331171989, 0.173746794462204, 0.001256382791325, -0.014873697422445, -0.050043329596519, 0.007226935587823, 0.046012029051781, 0.017893865704536, 0.065307147800922, -0.049887597560883
0.040252614766359, 0.014349259436131, -0.014806360937655, -0.297831594944000, -0.532564580440521, -0.063344374299049, 0.510804891586304, -0.327562004327774, 0.000004969981092, 0.277113437652588, -0.068202719092369, -0.088596291840076, -0.059210307896137, -0.168653890490532, 0.074465036392212, 0.008233622647822
-0.045534268021584, -0.115114882588387, -0.078157842159271, 0.160311296582222, 0.016945322975516, 0.094729475677013, 0.117095306515694, 0.042374439537525, -0.000706972263288, 0.118491254746914, -0.078054152429104, 0.010036409832537, -0.035324286669493, 0.048543877899647, -0.140738636255264, 0.051908988505602
0.053797818720341, 0.021172236651182, 0.118541292846203, -0.113039903342724, -0.150845378637314, -0.062948144972324, 0.062874808907509, 0.028909629210830, -0.042720109224319, 0.164356112480164, 0.188122168183327, 0.251815259456635, 0.104709602892399, 0.185809537768364, -0.076476231217384, 0.043327085673809
-0.044337294995785, -0.062257163226604, 0.106950938701630, -0.065939128398895, 0.166029885411263, -0.019034991040826, -0.117881521582603, -0.048525243997574, -0.003829426364973, 0.108667589724064, -0.067275226116180, -0.053020287305117, -0.114560671150684, -0.070815369486809, -0.088275939226151, -0.054074816405773
-0.146715119481087, -0.019617820158601, -0.183339968323708, -0.174688056111336, 0.044489305466413, 0.050297070294619, -0.089338794350624, -0.102508828043938, 0.024424538016319, 0.119040504097939, 0.052468162029982, -0.114047691226006, -0.133219107985497, -0.006591940298676, 0.098998568952084, -0.019282475113869
-0.079966962337494, -0.047047540545464, -0.161812588572502, -0.015085064806044, -0.080800093710423, 0.072383955121040, 0.208245113492012, -0.038319677114487, -0.001241330755875, 0.130379498004913, 0.034793540835381, -0.016641097143292, 0.002948455745354, 0.003723576199263, 0.083418481051922, -0.034943267703056
-0.023368854075670, 0.038797385990620, 0.069688163697720, 0.301429539918900, -0.256973743438721, -0.121243976056576, 0.139594480395317, 0.088017687201500, -0.013618790544569, -0.081939361989498, -0.026649832725525, 0.149692162871361, 0.013611564412713, 0.118248805403709, -0.025352099910378, 0.005971923936158
-0.046378154307604, -0.214625149965286, 0.102584630250931, -0.086333639919758, 0.096069492399693, 0.011012283153832, -0.049858666956425, -0.154892846941948, 0.009277836419642, -0.133610472083092, -0.035343892872334, 0.012904871255159, -0.101090267300606, 0.038054995238781, -0.096901312470436, -0.072727084159851
-0.065594792366028, -0.094583801925182, 0.002800037385896, -0.065007865428925, 0.027332022786140, 0.028064155951142, 0.057190101593733, 0.119312062859535, -0.006123995874077, 0.096390597522259, 0.020048098638654, 0.023469112813473, -0.136388197541237, -0.027476228773594, -0.163016438484192, -0.082913987338543
0.020437799394131, -0.061916772276163, 0.022848837077618, -0.142625898122787, -0.019785121083260, 0.001517177559435, 0.029126841574907, -0.052425831556320, 0.000047055087634, -0.128319591283798, -0.052786666899920, -0.031706694513559, 0.020061329007149, -0.080517627298832, -0.022631945088506, -0.020061220973730
-0.111736953258514, 0.078495636582375, -0.039267975836992, 0.025987118482590, -0.019148115068674, -0.058027975261211, -0.013237730599940, 0.104142308235168, -0.000174029919435, -0.046736001968384, 0.061456128954887, -0.031195648014545, -0.109455443918705, -0.018859378993511, 0.115779757499695, -0.027161104604602
-0.021738443523645, -0.091424740850925, -0.065447740256786, 0.033489286899567, 0.111533001065254, 0.083371490240097, 0.046641476452351, 0.054087288677692, 0.000009952891560, 0.174720019102097, -0.088486105203629, -0.144647240638733, 0.045470453798771, -0.053388562053442, 0.056387942284346, 0.020130636170506
-0.012542692944407, 0.016449591144919, -0.076556265354156, 0.043840900063515, -0.127211779356003, 0.001671640668064, -0.047191977500916, -0.056439470499754, 0.000084874336608, 0.021171161904931, -0.072858944535255, 0.005241264589131, -0.015820188447833, -0.011786695569754, 0.066743761301041, 0.017624761909246
-0.064819127321243, -0.212171748280525, 0.021525958552957, 0.000829988741316, 0.023677226155996, -0.007183970883489, 0.227381899952888, 0.129634603857994, -0.031541839241982, 0.004961301572621, 0.264550894498825, 0.174060359597206, -0.101679258048534, 0.156680911779404, -0.109228275716305, 0.066745646297932
-0.052383095026016, 0.031842485070229, -0.006198776420206, -0.261466830968857, -0.034503992646933, 0.168227106332779, 0.112460575997829, -0.317745268344879, 0.000006123498224, 0.458040624856949, -0.370062589645386, -0.060065634548664, -0.073572188615799, -0.124175615608692, 0.049830716103315, 0.010275561362505
-0.073964469134808, -0.097684577107430, -0.029976688325405, -0.170266658067703, 0.254784733057022, -0.090312615036964, 0.307987630367279, -0.009040261618793, 0.013068834319711, 0.413957178592682, -0.410934776067734, -0.053349360823631, -0.046851631253958, -0.110792383551598, 0.110948033630848, -0.064773678779602
-0.025072006508708, 0.094032548367977, -0.152468577027321, -0.166474655270576, -0.134849324822426, 0.038907714188099, 0.019810030236840, -0.245151326060295, -0.001155534875579, 0.190823107957840, -0.200031280517578, -0.142820522189140, 0.037837959825993, -0.114955134689808, -0.168760314583778, 0.065328024327755
0.026637131348252, -0.026568802073598, -0.155752927064896, -0.018363248556852, 0.023261984810233, 0.126072570681572, -0.230228617787361, 0.218745440244675, -0.009982906281948, 0.041634257882833, 0.113234445452690, 0.034137863665819, -0.136275321245193, 0.025816688314080, -0.156690061092377, -0.021304212510586
-0.092881523072720, -0.087993249297142, -0.045031376183033, -0.132612407207489, -0.050503756850958, 0.132399499416351, -0.023494735360146, 0.188680768013000, 0.011126847937703, -0.101510897278786, 0.070833995938301, 0.152138113975525, -0.014955668710172, 0.008055386133492, -0.128487646579742, -0.086432158946991
0.010266532190144, -0.127099677920341, -0.046114381402731, 0.100162610411644, -0.052529647946358, 0.005301011726260, -0.065417326986790, 0.207894057035446, 0.030198497697711, -0.184824809432030, 0.084727525711060, 0.073339611291885, -0.096616335213184, 0.120828136801720, -0.048643801361322, -0.043334972113371
-0.079268425703049, -0.108259364962578, -0.104887239634991, 0.223753809928894, 0.004362900741398, -0.094367451965809, 0.118547238409519, 0.041913997381926, 0.014765195548534, 0.170090168714523, 0.224164530634880, 0.043286707252264, 0.049732312560081, 0.002646557753906, -0.114515990018845, 0.069103628396988
0.058926321566105, -0.051335841417313, 0.038359597325325, 0.086453340947628, -0.074352636933327, 0.187188059091568, 0.015217532403767, -0.138679549098015, 0.010071135126054, -0.164374917745590, 0.009087684564292, -0.046337187290192, 0.003098079469055, -0.021105661988258, 0.029302587732673, -0.005720338784158
0.009400962851942, 0.002020539017394, 0.090918362140656, 0.431615084409714, 0.085346303880215, -0.173751413822174, -0.022744735702872, 0.233580380678177, -0.000047866582463, 0.010941512882710, 0.337291717529297, 0.090392015874386, 0.056569289416075, 0.172644361853600, -0.198374509811401, -0.026584170758724
-0.026549195870757, -0.030413959175348, -0.052878074347973, -0.094906561076641, 0.303425043821335, -0.005160302855074, -0.141257658600807, 0.179211467504501, -0.000010084389942, 0.103332400321960, 0.042079955339432, 0.005573600064963, -0.001069735619240, 0.028124960139394, -0.123800165951252, -0.072680838406086
0.090474992990494, 0.075811438262463, -0.130811482667923, -0.020298557356000, 0.143183231353760, -0.126135930418968, 0.040129333734512, 0.060718789696693, -0.006762913893908, 0.033820796757936, -0.228873133659363, -0.105459801852703, 0.056561142206192, -0.066460028290749, -0.011390715837479, 0.006320243235677
-0.070359028875828, -0.083462350070477, -0.049543648958206, -0.103842094540596, 0.146980166435242, 0.191534250974655, 0.029724415391684, -0.115417554974556, 0.000419898162363, 0.180091515183449, 0.076969109475613, -0.080892898142338, 0.061557617038488, -0.048998877406120, 0.057252090424299, 0.037250842899084
-0.043759338557720, -0.164825662970543, -0.005408133845776, 0.164833709597588, 0.084111630916595, 0.367220312356949, -0.149625584483147, 0.028772100806236, -0.031384289264679, 0.247283712029457, 0.211860746145248, -0.023970870301127, -0.021968092769384, 0.029167817905545, 0.006712564732879, 0.027803905308247
0.009279156103730, -0.098109379410744, 0.107606850564480, 0.110259786248207, -0.204785019159317, 0.189137011766434, -0.331768453121185, -0.058864437043667, -0.045870147645473, 0.068483605980873, 0.071244969964027, -0.108303822577000, -0.129290327429771, -0.024997591972351, 0.029476029798388, 0.050305631011724
-0.120315618813038, 0.008410784415901, -0.170698836445808, -0.028152279555798, -0.078706085681915, 0.284267991781235, -0.354509532451630, 0.073027454316616, 0.016647193580866, 0.009597279131413, 0.207476809620857, -0.038893517106771, -0.058373410254717, -0.024305822327733, -0.015940614044666, 0.001428059651516
-0.012938054278493, -0.093252718448639, -0.096750810742378, -0.090685807168484, -0.053768731653690, -0.051039952784777, 0.075357757508755, -0.129722267389297, 0.000001430031944, 0.125555619597435, -0.072804577648640, -0.024718496948481, -0.081251621246338, -0.104330569505692, -0.014691353775561, -0.045303530991077
-0.055165633559227, -0.012484730221331, -0.153270214796066, 0.173756569623947, -0.185835003852844, -0.143264636397362, 0.043627422302961, -0.144720956683159, 0.002900199964643, 0.099083617329597, 0.018855968490243, 0.074229769408703, -0.053517088294029, 0.102763637900352, 0.008589584380388, 0.003587091341615
0.105622902512550, -0.045518353581429, 0.086628101766109, -0.120693117380142, -0.175713658332825, -0.270783990621567, 0.125252619385719, -0.156300961971283, -0.000008088625691, 0.027494400739670, 0.112533643841743, 0.007644353900105, -0.058259189128876, -0.014121040701866, -0.085656583309174, -0.017151787877083
0.055216066539288, -0.073886811733246, 0.044497177004814, 0.222459644079208, -0.351553738117218, -0.235452741384506, 0.340420305728912, -0.304640531539917, 0.000020800220227, -0.116679228842258, -0.103187181055546, 0.001199203543365, -0.070241101086140, -0.051546204835176, -0.039244864135981, -0.007556078024209
-0.086490318179131, -0.043013393878937, -0.062188964337111, 0.111408397555351, 0.012229105457664, -0.138494044542313, 0.001846779370680, 0.027534911409020, 0.000005653181688, -0.003405527677387, -0.089087642729282, -0.021742967888713, -0.000419706339017, 0.003931155428290, -0.039425179362297, -0.067442283034325
0.028303643688560, -0.179913982748985, -0.067161954939365, -0.192732542753220, 0.067551523447037, 0.039686426520348, 0.498003274202347, -0.202657520771027, 0.000148570470628, 0.328781932592392, -0.125804409384727, -0.229789495468140, 0.060545656830072, -0.180631414055824, -0.158872202038765, 0.016119655221701
-0.092537648975849, -0.064052678644657, -0.078453175723553, -0.361015796661377, -0.205054908990860, 0.218841433525085, 0.175789505243301, -0.099401883780956, -0.065820209681988, 0.258472770452499, -0.012632980011404, 0.030764942988753, 0.050444032996893, -0.138899326324463, -0.010302479378879, -0.151014819741249
-0.000237837710301, 0.006804564036429, 0.094312384724617, -0.050206441432238, 0.070490740239620, 0.037975825369358, -0.027277192100883, -0.154976680874825, -0.000006807318186, 0.104315139353275, -0.034068122506142, -0.213985338807106, 0.060612902045250, -0.142697721719742, -0.020628450438380, -0.003815449308604
-0.035452481359243, 0.051939051598310, -0.180581271648407, -0.261591076850891, -0.006035267375410, 0.063074551522732, 0.200582817196846, -0.373816668987274, -0.000006930275504, 0.367727309465408, -0.293488770723343, -0.298948943614960, -0.062214773148298, -0.128939926624298, 0.022092200815678, 0.052195180207491
-0.037077166140079, 0.112893372774124, -0.118270091712475, -0.067900516092777, -0.039111502468586, -0.146908611059189, -0.107084557414055, -0.106211163103580, -0.055312227457762, 0.020676581189036, -0.007813122123480, 0.042671721428633, 0.078018084168434, 0.019111260771751, -0.008613764308393, -0.093205541372299
0.017139993607998, -0.167906880378723, 0.036625985056162, -0.004263069014996, -0.619439721107483, -0.276103675365448, 0.368717998266220, 0.045789297670126, -0.000003161373343, 0.237377420067787, 0.017003936693072, 0.286704719066620, 0.060490787029266, 0.063949353992939, 0.071147367358208, -0.053979698568583
0.062653705477715, -0.016226803883910, 0.065954558551311, -0.040927451103926, 0.312376677989960, 0.015327326953411, -0.091350406408310, 0.248619481921196, -0.004072147887200, -0.010636418126523, -0.038801722228527, 0.055784735828638, -0.108403980731964, -0.045879129320383, -0.058659311383963, -0.118455685675144
-0.003550585824996, -0.114963695406914, -0.142232492566109, -0.068139791488647, 0.003311253618449, 0.140761330723763, 0.040144801139832, 0.190012678503990, 0.001969450153410, 0.080695942044258, -0.021420152857900, -0.007039123214781, -0.126402214169502, 0.006666834466159, -0.086568996310234, -0.036384139209986
0.010452531278133, 0.007264035753906, 0.068963430821896, -0.143486455082893, -0.039768286049366, -0.008757546544075, -0.171987369656563, -0.068917259573936, -0.000005526785571, 0.083045840263367, 0.027244236320257, 0.000247359159403, -0.024327473714948, -0.025980357080698, -0.024490674957633, 0.002377715427428
-0.019539620727301, -0.044005230069160, -0.017899187281728, -0.127637475728989, 0.296769499778748, 0.098564840853214, -0.177571013569832, 0.086971506476402, -0.010721355676651, -0.069219641387463, -0.148270905017853, -0.012450989335775, -0.058462798595428, -0.069091238081455, -0.148913934826851, -0.002249102108181
-0.016238136216998, 0.045670136809349, -0.028514849022031, 0.083863027393818, 0.049277268350124, 0.187707215547562, -0.111434288322926, 0.094192944467068, 0.000006548013971, -0.104241691529751, 0.123758465051651, 0.017494861036539, -0.064622394740582, -0.004861952736974, -0.127006813883781, 0.049378316849470
-0.132555767893791, 0.031733475625515, -0.200865879654884, -0.004534516483545, -0.209455564618111, 0.142544880509377, -0.100947611033916, 0.025578027591109, -0.002102307043970, 0.091754660010338, 0.064708866178989, -0.000053296098486, -0.113572701811790, -0.046250164508820, 0.097459003329277, -0.101850330829620
-0.027339581400156, -0.063293822109699, 0.106481909751892, -0.056181367486715, 0.026446169242263, 0.042848277837038, 0.097813218832016, 0.021358076483011, 0.003401210065931, 0.037159804254770, 0.091936342418194, -0.007121094968170, 0.014089311473072, -0.064564280211926, 0.049796696752310, -0.055850587785244
-0.063393019139767, -0.008113230578601, -0.154147505760193, -0.410275787115097, -0.476641893386841, -0.166853070259094, 0.463139772415161, -0.205522105097771, -0.000005665695880, 0.283356636762619, -0.197238877415657, -0.049969922751188, -0.066188119351864, -0.089703142642975, 0.087762430310249, -0.115581534802914
-0.007729614153504, -0.193025588989258, -0.044853977859020, -0.034649215638638, 0.076779395341873, -0.064638331532478, 0.113845258951187, -0.106116190552711, 0.000487619370688, -0.117306143045425, -0.036213025450706, -0.022287949919701, -0.025906650349498, -0.059900607913733, 0.059367630630732, 0.005837361328304
-0.107309117913246, -0.035868626087904, -0.152081996202469, -0.015381399542093, -0.031755968928337, -0.056645121425390, 0.020017836242914, 0.077551089227200, -0.001403933740221, 0.147965878248215, 0.062666811048985, 0.095254600048065, 0.002508359029889, -0.030271437019110, 0.069933943450451, -0.062283966690302
-0.040276061743498, -0.053799517452717, 0.069505609571934, 0.060690145939589, -0.194350853562355, -0.087442532181740, 0.032746743410826, -0.018095923587680, 0.000121239056170, 0.124936245381832, 0.049180611968040, 0.053867761045694, 0.048801057040691, 0.042904075235128, -0.102910481393337, -0.061764214187860
-0.007402408868074, 0.008429809473455, -0.055134411901236, 0.032347444444895, -0.052407369017601, 0.033148322254419, 0.237268850207329, -0.063366368412971, -0.000003954486601, 0.139272019267082, 0.040462180972099, 0.015505948103964, -0.019903305917978, -0.074111960828304, 0.045554604381323, 0.048925042152405
-0.039666146039963, 0.008391471579671, 0.067930757999420, -0.273780465126038, 0.162188157439232, -0.115630485117435, 0.128728613257408, 0.173052117228508, 0.000005863496881, 0.293837726116180, -0.254379153251648, 0.053684566169977, -0.068992391228676, -0.012761203572154, 0.062030933797359, -0.083435699343681
-0.004161776509136, -0.083627514541149, -0.099665269255638, 0.424245715141296, 0.324130207300186, -0.242695897817612, 0.007532318588346, 0.145403355360031, 0.002407855587080, 0.066281467676163, -0.196290686726570, -0.094254411756992, -0.007951397448778, -0.004510451108217, -0.102046184241772, 0.009573789313436
0.040461249649525, 0.033945612609386, 0.004008320625871, -0.138927787542343, 0.098084732890129, -0.104558162391186, 0.340566962957382, 0.113420411944389, -0.000003876847586, 0.310743868350983, 0.042090497910976, 0.060220547020435, 0.069447800517082, -0.025113441050053, 0.054065521806479, 0.076149687170982
-0.061475865542889, -0.121291577816010, -0.183413788676262, -0.069725416600704, -0.221320286393166, -0.259757280349731, 0.229318201541901, 0.064372636377811, 0.000311182724545, 0.193812295794487, -0.073567353188992, 0.026589503511786, -0.107844196259975, 0.098499305546284, 0.095365308225155, -0.015916667878628
-0.024633761495352, -0.171826198697090, -0.136950075626373, 0.129637926816940, 0.226639240980148, -0.150967851281166, -0.126340270042419, 0.057355150580406, -0.000006990731436, 0.049356907606125, 0.016761250793934, -0.017729302868247, -0.141074463725090, 0.053139548748732, -0.055853240191936, -0.125486537814140
-0.108461953699589, 0.067740015685558, -0.042884796857834, -0.151851594448090, 0.038135480135679, -0.123894870281219, 0.283643960952759, -0.152388557791710, -0.000002050579042, -0.009889179840684, -0.205187633633614, -0.136857107281685, -0.035462498664856, -0.099777795374393, -0.084083914756775, -0.005327301099896
0.082520566880703, -0.165300741791725, -0.036399304866791, -0.004518953617662, 0.183410182595253, 0.250723809003830, -0.087766177952290, 0.092731855809689, -0.009879590943456, 0.005227361805737, -0.160908594727516, -0.110707916319370, -0.135328426957130, -0.025683905929327, -0.000449152605142, 0.004075402859598
0.038272000849247, -0.101061083376408, 0.067302398383617, 0.230084940791130, -0.064199291169643, -0.064519710838795, 0.213045164942741, 0.011235531419516, -0.005656965542585, -0.069658406078815, 0.312710821628571, 0.160457670688629, -0.040613275021315, 0.260393738746643, 0.077428236603737, -0.088300324976444
-0.038252256810665, 0.052367880940437, 0.045259729027748, -0.143752574920654, -0.202941283583641, 0.187910452485085, -0.012361857108772, 0.035550050437450, 0.006585558410734, -0.128557220101357, -0.009279570542276, 0.080556847155094, 0.034706704318523, -0.019691100344062, 0.007862225174904, 0.049808952957392
-0.069582574069500, -0.136644110083580, -0.169846802949905, 0.076191224157810, 0.184161633253098, -0.319762855768204, 0.008880951441824, 0.337300479412079, -0.000005401895578, 0.101511031389236, -0.189464166760445, 0.073861658573151, 0.038998484611511, -0.025727102532983, 0.025461139157414, 0.035753976553679
0.023943619802594, -0.028366412967443, -0.202786356210709, 0.071707256138325, 0.129875272512436, 0.111812084913254, -0.084593057632446, 0.072828628122807, -0.020584564656019, -0.091537602245808, 0.090468540787697, -0.011497618630528, 0.038806643337011, -0.019889047369361, -0.071263097226620, -0.063157871365547
0.058096703141928, -0.113392233848572, 0.066954225301743, 0.040571376681328, 0.135408818721771, 0.034030895680189, 0.030039878562093, 0.158613294363022, 0.000063961342676, -0.012250085361302, 0.038711383938789, 0.216579169034958, 0.026060815900564, -0.067152984440327, -0.122934952378273, -0.022218102589250
0.072355806827545, 0.032154697924852, -0.160531967878342, 0.077958248555660, 0.089513219892979, -0.120793133974075, -0.101595178246498, 0.019279405474663, 0.005775838159025, -0.218214288353920, -0.045429985970259, 0.037414498627186, -0.008403653278947, 0.087069593369961, 0.074915222823620, -0.034832570701838
-0.041986208409071, -0.128131479024887, -0.057233702391386, -0.169707939028740, -0.011837927624583, -0.013120754621923, 0.072408795356750, -0.063361652195454, 0.000017542697606, 0.297219574451447, -0.236034482717514, -0.034690875560045, -0.116457343101501, -0.100517436861992, -0.143648609519005, -0.052069120109081
0.061663288623095, -0.187982723116875, 0.072253361344337, 0.016467820852995, -0.024916935712099, -0.000370864639990, 0.085548952221870, 0.040628455579281, -0.002602721331641, 0.168734997510910, -0.036963455379009, 0.041200529783964, 0.076620504260063, 0.033379457890987, -0.112396873533726, -0.020921710878611
-0.049535274505615, -0.076416991651058, -0.152845293283463, 0.001210070913658, 0.058842115104198, -0.008188081905246, 0.009999160654843, 0.076246008276939, -0.003751223674044, 0.025083579123020, -0.003171510063112, -0.004037869162858, -0.078003719449043, 0.023110158741474, -0.109928578138351, 0.066870406270027
-0.040297430008650, 0.004825338255614, 0.076372072100639, 0.019666459411383, -0.048278633505106, -0.094991929829121, 0.007030662149191, 0.041006464511156, -0.026184454560280, -0.040055725723505, 0.094139017164707, 0.032350551337004, 0.007219235412776, 0.041734479367733, 0.061177380383015, 0.019505595788360
0.007628919091076, -0.067335531115532, -0.130171820521355, 0.121404759585857, -0.132223159074783, -0.121915251016617, 0.182575374841690, 0.015332506969571, -0.000002787959602, -0.002193998079747, 0.082692369818687, 0.119057580828667, -0.066966019570827, 0.019720766693354, -0.088494785130024, -0.019457705318928
-0.041579585522413, -0.112935274839401, 0.033294457942247, 0.009830861352384, -0.251700133085251, -0.398812949657440, 0.185469359159470, 0.059466991573572, 0.002268380951136, 0.014049476012588, -0.216475471854210, 0.165561839938164, -0.088902652263641, 0.094462357461452, -0.064918220043182, -0.102240055799484
0.058993883430958, -0.126339271664619, -0.105292432010174, 0.041895255446434, -0.105470716953278, 0.072731591761112, 0.109152510762215, -0.119152046740055, 0.000659930170514, 0.061636585742235, -0.112743958830833, 0.053338531404734, 0.001638478599489, -0.010217336937785, 0.066273957490921, 0.036856416612864
-0.058628574013710, -0.111715994775295, -0.066037058830261, -0.001223976258188, 0.074028313159943, -0.085006564855576, 0.018966218456626, 0.028816763311625, -0.001515369978733, -0.097645498812199, -0.137458086013794, -0.066925719380379, 0.005030091851950, -0.064430378377438, -0.007891791872680, 0.049328934401274
0.026169711723924, -0.016861759126186, -0.074498362839222, 0.050921414047480, 0.220600888133049, -0.232475981116295, 0.021754965186119, -0.054025616496801, 0.000073529146903, 0.149842903017998, -0.003616010770202, -0.088259175419807, -0.038205359131098, -0.034307789057493, 0.006591281853616, -0.059696242213249
0.076945587992668, -0.040812939405441, 0.073444373905659, 0.005038780625910, -0.133849531412125, 0.014498250558972, -0.069170266389847, 0.098114639520645, -0.000123126723338, -0.050382513552904, -0.045605707913637, 0.001258114119992, 0.016613192856312, -0.039564806967974, 0.019088545814157, 0.011665072292089
-0.102276042103767, 0.060228776186705, -0.069793336093426, -0.089142896234989, 0.063958503305912, 0.171763107180595, -0.166683882474899, -0.120385482907295, 0.015784243121743, -0.047592271119356, 0.026232879608870, -0.037117201834917, 0.004600902553648, 0.000513617647812, -0.119243144989014, -0.083433777093887
0.019089132547379, -0.034376438707113, -0.046200178563595, 0.102415502071381, -0.116265095770359, 0.015518529340625, 0.047325968742371, -0.159978628158569, 0.000002119451892, 0.149564906954765, -0.005963859148324, -0.049091625958681, -0.024997012689710, -0.076210752129555, 0.035608123987913, -0.012765652500093
-0.023957015946507, 0.001133838202804, 0.084394767880440, 0.167859300971031, 0.082289278507233, 0.319180965423584, -0.159400269389153, 0.256514757871628, 0.004771935753524, -0.059245787560940, 0.050789419561625, 0.065557174384594, 0.008698053658009, 0.011282788589597, 0.082075133919716, -0.056406702846289
0.037863470613956, 0.029391458258033, 0.055366069078445, -0.014764562249184, -0.169298902153969, 0.067613676190376, -0.015794590115547, 0.012463890947402, 0.001999447355047, -0.115041851997375, 0.106949083507061, 0.033903561532497, 0.036299988627434, -0.010576056316495, 0.038700763136148, 0.009564371779561
0.028402365744114, 0.089637733995914, -0.013257629238069, -0.019219310954213, -0.111394546926022, -0.135554537177086, 0.077469445765018, -0.175866037607193, -0.000421409175033, -0.104390449821949, 0.325393497943878, -0.026888253167272, 0.054694555699825, -0.006369607523084, -0.096325427293777, -0.050012234598398
-0.006269638892263, -0.088924333453178, 0.069235980510712, 0.065421223640442, 0.193908929824829, -0.106869041919708, -0.298783153295517, 0.022323206067085, -0.000034046068322, 0.121875539422035, 0.094860613346100, -0.015828711912036, -0.125161647796631, 0.103910006582737, 0.034055188298225, -0.049942690879107
0.044617313891649, -0.008581273257732, -0.108489751815796, 0.217750519514084, -0.022342268377542, 0.000701518496498, -0.105016507208347, -0.064112424850464, -0.001833256101236, 0.022249994799495, 0.189068615436554, 0.078501366078854, -0.147302076220512, -0.004414322786033, -0.128489583730698, -0.060605917125940
-0.026267515495420, -0.067223176360130, 0.030652046203613, -0.184382319450378, 0.121395125985146, -0.011545442976058, 0.020543321967125, 0.134836450219154, 0.000256067141891, -0.116201542317867, -0.057876083999872, 0.013156767934561, -0.068170391023159, -0.053987327963114, -0.028869943693280, 0.047725979238749
0.017088985070586, -0.069555521011353, -0.032450243830681, -0.184976324439049, 0.290553867816925, 0.099104195833206, -0.189031913876534, -0.049983717501163, 0.000079275734606, -0.055858001112938, -0.118757963180542, -0.243974953889847, 0.047523245215416, -0.113199569284916, -0.043390806764364, -0.027235338464379
-0.050387609750032, -0.068820759654045, -0.050571538507938, 0.118938662111759, 0.021801933646202, -0.158173546195030, -0.098006360232830, -0.091934263706207, -0.008702483028173, -0.160809263586998, 0.164488375186920, 0.030570132657886, 0.090805880725384, 0.066754266619682, -0.129593491554260, -0.098236657679081
-0.016220977529883, -0.110078744590282, 0.009158582426608, -0.052748430520296, 0.174538910388947, -0.102379299700260, -0.171326100826263, -0.119467891752720, 0.011518136598170, 0.014323156327009, -0.115274667739868, -0.074718095362186, -0.090731181204319, -0.019260991364717, -0.020131288096309, 0.012230734340847
-0.044011555612087, -0.129118040204048, -0.043899126350880, -0.140846818685532, -0.097639583051205, -0.063688270747662, 0.122233763337135, -0.063125863671303, 0.013126804493368, -0.123052813112736, 0.041320782154799, -0.011889716610312, 0.077042683959007, -0.023075319826603, -0.039829507470131, 0.038818072527647
0.059566061943769, 0.027154522016644, 0.044726811349392, -0.131210982799530, 0.056753605604172, -0.173871129751205, -0.020935108885169, -0.270942062139511, -0.010817739181221, -0.017714282497764, -0.090205959975719, -0.151560053229332, -0.011723633855581, -0.013410013169050, 0.059481982141733, -0.063440874218941
-0.046852402389050, 0.073294609785080, 0.104968719184399, 0.221813023090363, -0.149202108383179, -0.164649203419685, 0.019687896594405, 0.000407373707276, 0.001689430326223, -0.036960404366255, -0.091471791267395, -0.085913635790348, -0.066796809434891, 0.084006115794182, -0.109505474567413, -0.080157056450844
-0.002542099216953, -0.180356428027153, -0.157048925757408, -0.222509339451790, -0.186420634388924, 0.198169648647308, -0.036988407373428, -0.111669436097145, -0.002032949356362, 0.119429104030132, 0.154704362154007, -0.029783871024847, -0.107007421553135, 0.046258393675089, -0.030751314014196, -0.102845184504986
-0.027877427637577, -0.074043117463589, 0.109722644090652, 0.056934613734484, 0.153172820806503, -0.156601905822754, 0.029753053560853, 0.085181564092636, 0.000020962208509, 0.140126675367355, -0.116653420031071, 0.049389671534300, -0.132942795753479, 0.032323859632015, 0.090692237019539, -0.069003544747829
0.002648306777701, -0.065127909183502, -0.040400456637144, -0.020735872909427, -0.065324902534485, 0.053611304610968, -0.138788819313049, -0.061165552586317, 0.000187652447494, 0.035007596015930, -0.077809631824493, -0.032978624105453, -0.068750418722630, 0.006376498844475, -0.089771851897240, -0.007116264197975
0.007363106124103, 0.072999924421310, -0.077095367014408, 0.176547870039940, -0.223770007491112, -0.023935893550515, 0.095215350389481, 0.090693712234497, -0.002389673842117, -0.186902374029160, 0.050909072160721, 0.062829516828060, 0.073584266006947, 0.055708687752485, -0.006658372003585, 0.048087660223246
-0.052695225924253, 0.074969552457333, 0.087833136320114, 0.043334733694792, -0.049586214125156, -0.149123251438141, -0.017965329810977, 0.041818704456091, -0.005733762402087, 0.004417895805091, 0.147768154740334, 0.075887441635132, -0.076561808586121, 0.181092947721481, -0.125484600663185, -0.057146869599819
-0.005332336761057, 0.044020827859640, 0.092228218913078, -0.013349662534893, -0.168551847338676, -0.055415332317352, 0.023722479119897, 0.051042784005404, -0.007225566543639, -0.109650425612926, -0.046956077218056, 0.134452253580093, 0.049158792942762, 0.054190140217543, -0.072385758161545, -0.049082368612289
-0.085724741220474, -0.133434459567070, -0.102800369262695, 0.095262356102467, 0.074429579079151, -0.152944460511208, 0.111268334090710, -0.297493875026703, -0.000008705140317, 0.124845981597900, 0.111343957483768, -0.231873452663422, 0.074448809027672, -0.005164959467947, -0.139996200799942, 0.009378842078149
-0.090947888791561, 0.071472436189651, -0.097948916256428, -0.070968955755234, -0.026877794414759, -0.254813283681870, 0.166607171297073, 0.004556876607239, 0.000004529811122, 0.024309592321515, 0.161041349172592, -0.046110998839140, -0.008387215435505, -0.008246284909546, -0.021782254800200, -0.086521640419960
-0.086892202496529, 0.035171609371901, -0.122071981430054, -0.043314203619957, 0.057660300284624, -0.016291756182909, 0.358168035745621, 0.040180593729019, -0.000002027962182, 0.318755000829697, -0.010802998207510, 0.099540106952190, 0.011951094493270, 0.008935349993408, -0.015567452646792, 0.034680433571339
-0.033552397042513, -0.064045965671539, -0.057611264288425, 0.103023484349251, -0.066688224673271, -0.033921282738447, 0.033822655677795, -0.103275790810585, 0.029602216556668, 0.226561397314072, -0.027288848534226, -0.051023740321398, 0.074890784919262, -0.039476417005062, 0.076742812991142, 0.066043496131897
-0.009789653122425, -0.126978129148483, 0.122548215091228, 0.003845187835395, -0.045274246484041, -0.105265192687511, -0.097350656986237, -0.167014941573143, -0.012495681643486, 0.078400358557701, -0.063830405473709, -0.036112852394581, 0.060091141611338, 0.034049183130264, -0.040868561714888, -0.090461999177933
-0.053055513650179, -0.112402677536011, 0.065874539315701, 0.011956424452364, 0.011056178249419, -0.154674232006073, -0.065627165138721, 0.115205131471157, 0.010135911405087, 0.047856319695711, -0.043083459138870, 0.007367572281510, -0.005596883594990, -0.012903283350170, -0.094181329011917, -0.043315481394529
0.017409985885024, 0.005445270799100, 0.064415372908115, 0.100756116211414, 0.109803378582001, -0.051445294171572, 0.000549563206732, -0.007058455608785, 0.000072485163400, -0.089746668934822, -0.015131584368646, -0.001321892603301, -0.018215212970972, -0.007463003508747, -0.106767185032368, 0.029965657740831
-0.058754831552505, 0.027925612404943, 0.082472853362560, -0.155778303742409, 0.075014092028141, 0.127451688051224, 0.125513315200806, -0.035168722271919, 0.029028248041868, -0.115311160683632, -0.033521525561810, 0.014924348331988, -0.045058380812407, 0.048964176326990, -0.027580991387367, -0.079861775040627
0.044262029230595, 0.074964702129364, -0.016999479383230, -0.253287315368652, 0.114891722798347, 0.244515925645828, -0.063318334519863, -0.020744742825627, -0.000013923847291, 0.024362178519368, -0.093598432838917, -0.075788274407387, 0.027160752564669, -0.111768178641796, -0.074608750641346, 0.016236474737525
0.006756122689694, -0.077254943549633, -0.144336834549904, -0.070572771131992, 0.090955667197704, 0.088944837450981, 0.121876232326031, -0.058476287871599, 0.006501567550004, -0.038482986390591, 0.032162830233574, -0.001367797027342, -0.032700724899769, 0.003468196839094, 0.023923911154270, -0.024791788309813
-0.030582923442125, 0.044039517641068, 0.048463370651007, 0.047455307096243, -0.001321870950051, 0.090699940919876, 0.105441354215145, 0.037602711468935, -0.000683468882926, 0.069739654660225, -0.047516714781523, -0.053672563284636, -0.017754934728146, 0.019920242950320, 0.022886900231242, -0.036157719790936
-0.013641986064613, -0.171946391463280, -0.139911353588104, 0.027934635058045, -0.162058293819427, 0.070899702608585, 0.029190760105848, -0.168067723512650, -0.004285600036383, -0.047555640339851, 0.124869078397751, -0.029041273519397, 0.068569384515285, 0.028813393786550, -0.082546956837177, -0.009918812662363
0.055181693285704, -0.014067653566599, 0.046860262751579, 0.152047708630562, -0.013768573291600, 0.155155390501022, 0.041436236351728, 0.049736332148314, -0.043705035001040, -0.203102812170982, 0.165189281105995, 0.113894626498222, -0.061341721564531, 0.122612163424492, -0.013654267415404, -0.018080545589328
-0.020497357472777, -0.088713169097900, 0.121778279542923, -0.108044750988483, 0.090009756386280, -0.200845405459404, -0.219316184520721, 0.104663714766502, 0.029713327065110, 0.042758241295815, 0.025195805355906, -0.033172529190779, -0.025216508656740, 0.018193077296019, -0.172315016388893, -0.012824244797230
-0.048522621393204, 0.072592303156853, -0.097212441265583, 0.034789334982634, 0.085433863103390, -0.011174478568137, 0.029147699475288, 0.016778277233243, 0.000113367452286, 0.129912555217743, 0.017571287229657, 0.032664835453033, 0.045414220541716, -0.029889963567257, -0.033859774470329, 0.027282113209367
-0.043705046176910, -0.046461034566164, 0.057812385261059, 0.072308383882046, 0.084734223783016, 0.034931503236294, -0.170998424291611, -0.054085973650217, -0.000032670111977, -0.039450518786907, 0.003495563752949, 0.005816990509629, -0.000047297391575, -0.025029880926013, -0.103031739592552, -0.073426090180874
0.002069485839456, -0.141891300678253, -0.027517225593328, 0.175755873322487, 0.297646552324295, -0.188158899545670, -0.105394594371319, -0.015210960991681, -0.000005238793165, 0.020218314602971, -0.178025126457214, -0.066709816455841, -0.016851911321282, -0.034102939069271, -0.046482987701893, 0.046975158154964
-0.122404254972935, -0.114022813737392, -0.129758805036545, 0.045280721038580, -0.154897540807724, -0.175698563456535, 0.017177464440465, -0.045112103223801, 0.000009871419024, -0.378106266260147, -0.062471166253090, 0.081067338585854, -0.021749433130026, -0.030851965770125, -0.100995332002640, -0.004746005870402
-0.077601358294487, -0.007349046878517, 0.102920420467854, 0.175593778491020, 0.230007261037827, -0.090747296810150, 0.054140333086252, 0.161101400852203, 0.002404434839264, -0.148606508970261, -0.045131079852581, -0.011636212468147, 0.069318272173405, 0.058845791965723, -0.144716650247574, -0.013457648456097
-0.078527547419071, -0.045462954789400, 0.015566674992442, -0.436567932367325, 0.143854916095734, -0.056699506938457, 0.047566402703524, -0.090903140604496, -0.000828170450404, 0.309191793203354, 0.307593673467636, 0.175845250487328, 0.075194276869297, 0.030448459088802, 0.005495064426214, 0.012591714970767
0.009719994850457, 0.097213000059128, 0.101642079651356, 0.176950499415398, -0.081404320895672, -0.013863783329725, -0.027217583730817, -0.080211326479912, 0.004125148989260, -0.183461070060730, 0.195553109049797, 0.084082290530205, -0.079106286168098, 0.054781936109066, 0.022427430376410, -0.065926454961300
0.096931211650372, 0.094485312700272, 0.068711996078491, -0.109098739922047, 0.042433455586433, -0.104939602315426, -0.117351680994034, 0.080011129379272, 0.006497185211629, 0.141001105308533, -0.104008816182613, -0.009030854329467, -0.087195254862309, 0.006694178096950, 0.096848480403423, 0.013084512203932
0.089495524764061, 0.032551936805248, 0.049317006021738, 0.081355199217796, -0.581269621849060, -0.237114593386650, 0.185201793909073, 0.255797713994980, 0.000271455239272, 0.030181603506207, 0.208251655101776, 0.495349615812302, -0.099754624068737, 0.266720443964005, -0.116041444242001, 0.002882730681449
-0.065494410693645, -0.106238991022110, -0.117688812315464, 0.364094942808151, 0.110475920140743, 0.051807299256325, -0.125760614871979, -0.100631535053253, 0.000002692558837, 0.293673485517502, -0.192161440849304, -0.185752898454666, -0.037771433591843, -0.104052066802979, 0.064368404448032, -0.048613402992487
-0.025733377784491, 0.015141494572163, -0.181555643677711, 0.068146012723446, -0.129683703184128, 0.016001805663109, -0.134148970246315, -0.037589967250824, -0.024188937619328, -0.154779702425003, 0.125343441963196, 0.088136292994022, 0.090586975216866, 0.056752111762762, 0.079043790698051, 0.003710340242833
0.027977894991636, 0.087654769420624, 0.085903644561768, -0.043836269527674, 0.239192217588425, -0.086644217371941, 0.012887953780591, -0.130881100893021, -0.000064763902628, 0.169299557805061, -0.131969034671783, -0.220707446336746, -0.096894346177578, -0.097268275916576, -0.101872339844704, -0.052755318582058
0.070161812007427, -0.145670637488365, -0.115429572761059, 0.181492120027542, -0.126841023564339, -0.106068663299084, 0.015871793031693, 0.093332387506962, -0.049070939421654, -0.018524169921875, 0.137569025158882, 0.043839681893587, 0.089092649519444, 0.068238191306591, 0.039375651627779, -0.067767627537251
-0.073063969612122, 0.043409220874310, -0.085781231522560, 0.464467793703079, -0.276994407176971, -0.253034234046936, 0.263268560171127, -0.241036683320999, -0.000022963091396, 0.068025387823582, 0.087487496435642, -0.111075997352600, 0.003015992464498, -0.022767977789044, 0.068071141839027, 0.004251188132912
-0.000640841084532, 0.048456478863955, -0.145015046000481, 0.136609464883804, 0.139738097786903, -0.021849479526281, -0.082116447389126, 0.160655885934830, -0.000097551957879, -0.108152627944946, 0.040406122803688, 0.059641301631927, -0.028969176113605, 0.108638308942318, 0.086396984755993, -0.004611856769770
-0.102675721049309, 0.011747132986784, 0.025633828714490, -0.046691708266735, -0.275170534849167, -0.381594955921173, 0.330343127250671, 0.185246631503105, 0.003541003679857, 0.126855120062828, -0.171436086297035, 0.240448281168938, 0.010014515370131, 0.005920338444412, -0.051754470914602, -0.007424816489220
-0.031170703470707, -0.107846528291702, -0.152513712644577, -0.145002588629723, 0.113435633480549, -0.127702906727791, 0.068804211914539, -0.034661818295717, 0.000001267231596, -0.093459956347942, -0.326488643884659, -0.100129440426826, -0.043479416519403, -0.080480150878429, -0.015292555093765, -0.006727442145348
0.062036942690611, 0.050286401063204, 0.096059814095497, -0.025616073980927, 0.079355977475643, -0.042032904922962, -0.028099566698074, 0.063334308564663, -0.002406085608527, 0.067963540554047, -0.154965236783028, -0.074949570000172, 0.038627956062555, -0.024968842044473, -0.088768891990185, 0.005112752318382
-0.022338958457112, -0.150723740458488, -0.136252254247665, -0.264854997396469, -0.176856130361557, 0.406546741724014, 0.209836900234222, 0.016607923433185, 0.008131367154419, 0.365381896495819, -0.095822140574455, 0.116434514522552, -0.091969192028046, -0.149637117981911, -0.055764786899090, 0.042802289128304
0.046959668397903, 0.069059669971466, -0.092343099415302, -0.021766325458884, -0.040184166282415, 0.106455922126770, -0.127336040139198, -0.188487723469734, 0.006651048548520, 0.050861947238445, -0.141228452324867, -0.155330181121826, -0.110856093466282, -0.114768318831921, -0.167647108435631, 0.054247990250587
0.072694577276707, -0.045938711613417, -0.057734455913305, 0.279355913400650, 0.014811183325946, 0.122763119637966, 0.186131522059441, 0.026855628937483, 0.014744042418897, 0.014010465703905, -0.082267314195633, 0.111097827553749, -0.082920536398888, 0.030146650969982, -0.036192096769810, -0.034120846539736
-0.047994714230299, -0.164041161537170, 0.050467569380999, 0.098517656326294, 0.006325089372694, -0.173655986785889, -0.009106256067753, 0.013061670586467, -0.041241679340601, -0.125761136412621, 0.168207421898842, 0.149933323264122, -0.044021628797054, 0.082422211766243, -0.156552508473396, -0.042497768998146
-0.020514313131571, -0.066380560398102, 0.070765703916550, -0.125892519950867, 0.029169155284762, -0.088027536869049, 0.029112711548805, -0.075066119432449, -0.000014269019630, 0.118892051279545, -0.027509866282344, -0.223935142159462, -0.028103478252888, -0.074625119566917, -0.150228023529053, -0.018862310796976
-0.004548874218017, -0.068910203874111, 0.009625662118196, -0.161396875977516, 0.067684963345528, 0.035046420991421, 0.062320575118065, 0.107013724744320, -0.000039713737351, 0.147644996643066, -0.020604951307178, 0.084795095026493, -0.011392074637115, -0.073415175080299, -0.067906871438026, 0.035013414919376
-0.006517481058836, -0.148409873247147, -0.148264274001122, 0.052687928080559, -0.049896851181984, 0.252804189920425, -0.136185258626938, -0.060163017362356, -0.000405691243941, 0.285183995962143, 0.076958887279034, 0.112250134348869, -0.098902903497219, 0.182215705513954, 0.059309124946594, -0.052109051495790
0.000986485625617, -0.057110805064440, 0.013087715022266, -0.263307034969330, -0.320643723011017, -0.148156702518463, 0.255480319261551, -0.060612574219704, 0.000156240363140, 0.035139024257660, 0.016735604032874, 0.119915366172791, -0.067177966237068, 0.025282829999924, -0.065250657498837, -0.055910661816597
-0.021086275577545, -0.063790760934353, -0.132176324725151, -0.011315812356770, -0.241697430610657, 0.176061630249023, 0.065039552748203, -0.259773015975952, -0.019160551950336, 0.009126317687333, 0.052947346121073, -0.125024124979973, 0.081014156341553, -0.042633987963200, 0.011867712251842, 0.067974552512169
-0.004813152831048, -0.120509631931782, -0.161057561635971, -0.112191118299961, -0.076080560684204, 0.380444586277008, -0.117470040917397, -0.161559388041496, -0.005391995422542, 0.208011135458946, -0.165610432624817, -0.127241119742393, 0.055691257119179, -0.181659072637558, -0.096114635467529, 0.021900650113821
-0.033605407923460, -0.041116397827864, -0.088875994086266, -0.149830922484398, 0.093964546918869, 0.188118383288383, -0.144685223698616, -0.040567446500063, -0.008422904647887, 0.008681159466505, 0.046640332788229, -0.020095178857446, -0.098945833742619, -0.004684099927545, 0.016368705779314, 0.067510835826397
-0.012414082884789, 0.003935624845326, 0.040334947407246, -0.017209226265550, 0.044608291238546, 0.214869961142540, 0.103694677352905, 0.107146784663200, -0.000135551235871, 0.065464399755001, -0.128004238009453, 0.066328987479210, -0.009941106662154, -0.041258092969656, -0.119590349495411, -0.032227672636509
0.023476213216782, 0.074569448828697, -0.087897643446922, 0.092160575091839, -0.031757574528456, -0.104230992496014, -0.028806645423174, 0.027625495567918, -0.008979273959994, 0.065634325146675, -0.171947672963142, -0.004090039990842, -0.145199984312057, -0.037068635225296, -0.062192097306252, -0.101538635790348
-0.022724715992808, -0.037649773061275, 0.003878900548443, 0.246007442474365, -0.031158337369561, -0.031309425830841, 0.061366833746433, -0.028262898325920, -0.000001228269753, 0.062836900353432, -0.027436489239335, 0.066404603421688, 0.034756571054459, 0.008398433215916, -0.026668852195144, -0.007934361696243
0.028033476322889, -0.125219926238060, 0.011326373554766, 0.043286848813295, 0.100162133574486, -0.116190500557423, -0.238258838653564, -0.004805880133063, 0.002406490733847, -0.024918312206864, 0.125041484832764, 0.018781162798405, -0.035770930349827, 0.019591584801674, -0.041069675236940, 0.012676713056862
-0.090034045279026, 0.079829648137093, -0.090524941682816, -0.063255153596401, 0.337632209062576, 0.049640946090221, -0.006488017737865, 0.072714038193226, 0.000049880542065, 0.190989494323730, -0.103782445192337, -0.043886553496122, -0.101143702864647, 0.014983779750764, -0.143591031432152, -0.073645032942295
0.037878315895796, -0.113979764282703, 0.089816406369209, 0.197759866714478, 0.043592814356089, -0.067588329315186, -0.087144173681736, -0.110004611313343, 0.000008482729754, -0.145730122923851, 0.100243501365185, -0.080630250275135, -0.070529654622078, 0.009371072053909, 0.032972294837236, -0.037131343036890
0.050740949809551, -0.025002878159285, 0.009234337136149, 0.032092317938805, -0.130522444844246, 0.020838707685471, -0.231131523847580, 0.074686996638775, -0.055205717682838, 0.085208214819431, -0.013247855007648, 0.022738499566913, 0.061846688389778, 0.020994046702981, 0.063523866236210, -0.015462328679860
-0.073541976511478, 0.009999552741647, 0.043577332049608, -0.083197169005871, -0.074414566159248, 0.052296724170446, 0.155310735106468, 0.025710979476571, 0.000000804538502, -0.032897047698498, 0.099006034433842, -0.093729272484779, -0.063569344580173, -0.049334939569235, 0.058066111057997, 0.034468125551939
0.053357962518930, 0.078496590256691, -0.134240195155144, -0.115424878895283, 0.108036182820797, 0.150543332099915, -0.053755667060614, -0.084850862622261, -0.012332193553448, -0.156939461827278, 0.031379751861095, 0.145537644624710, -0.102878399193287, 0.089936159551144, -0.073914729058743, -0.056530300527811
-0.025463653728366, 0.076801136136055, -0.066076412796974, -0.003772606374696, -0.076580815017223, 0.108643174171448, -0.169836789369583, -0.034966725856066, -0.007695609703660, -0.026230113580823, -0.108235113322735, 0.008205205202103, 0.081761494278908, -0.016582097858191, -0.147208720445633, -0.090692900121212
0.068558312952518, -0.040870338678360, 0.007136499974877, -0.131945103406906, -0.044526711106300, 0.018198901787400, -0.040977302938700, 0.115143269300461, 0.011415382847190, -0.034189626574516, 0.002063723979518, 0.052121382206678, -0.011758488602936, 0.015071362257004, 0.112183310091496, -0.149946883320808
-0.055061634629965, -0.124858208000660, 0.003881090786308, -0.028585815802217, 0.113210208714008, 0.001245584688149, -0.112479321658611, -0.035241737961769, -0.000231806421652, 0.008495841175318, 0.008725686930120, -0.119244642555714, -0.118166178464890, 0.054454244673252, -0.075626865029335, 0.024018405005336
-0.094745226204395, -0.103843189775944, -0.022291159257293, 0.096244730055332, 0.025474911555648, 0.046570837497711, 0.142815068364143, 0.123973704874516, 0.016910219565034, 0.137938261032104, -0.108159214258194, 0.010090902447701, 0.020025687292218, -0.036104165017605, -0.048825372010469, 0.029217390343547
-0.049668446183205, 0.032370485365391, -0.046001449227333, -0.016590692102909, -0.139651864767075, -0.027067620307207, 0.050277635455132, -0.241881504654884, 0.000012262310520, 0.059439856559038, -0.021760586649179, -0.115232087671757, -0.035190533846617, -0.052376810461283, 0.049888230860233, -0.039947751909494
0.042745392769575, -0.061119683086872, -0.141143709421158, -0.105280809104443, 0.115913383662701, 0.023702979087830, -0.144069731235504, -0.054177936166525, 0.017249539494514, -0.079022563993931, -0.071679383516312, 0.024084016680717, -0.060861840844154, 0.107438065111637, -0.112625941634178, -0.104524113237858
0.050084941089153, -0.162874177098274, 0.093099594116211, 0.008320272900164, -0.034411184489727, -0.094972997903824, -0.097270302474499, -0.001013688975945, -0.000008831027117, -0.038520835340023, -0.076697327196598, -0.064098268747330, -0.037524547427893, -0.001551248715259, 0.031559620052576, -0.043808124959469
-0.080440327525139, 0.007522183470428, -0.101429775357246, 0.020242389291525, -0.039636634290218, -0.069862850010395, 0.215736359357834, 0.005094653926790, 0.001892057247460, 0.091450296342373, -0.051723219454288, 0.018292298540473, -0.051589917391539, -0.010631285607815, 0.084656298160553, -0.078589297831059
0.000322843756294, -0.218977943062782, 0.050378512591124, 0.270384728908539, 0.053826484829187, 0.057102192193270, 0.028807276859879, -0.062718756496906, 0.028571097180247, 0.093111224472523, 0.133142083883286, 0.029448721557856, -0.111871160566807, 0.070454992353916, 0.021993635222316, 0.002327499911189
-0.055822998285294, 0.074500821530819, 0.044890359044075, -0.007254530210048, -0.070040084421635, -0.079257287085056, 0.087941564619541, -0.039665933698416, 0.000115007584100, -0.010716298595071, -0.101962484419346, -0.046668689697981, -0.093871191143990, -0.062433298677206, -0.038629416376352, -0.022833004593849
0.001409700606018, -0.022284545004368, -0.005710437893867, -0.107695557177067, 0.048858504742384, -0.046171378344297, 0.056921593844891, -0.016275499016047, -0.001107182819396, 0.065682455897331, 0.047422584146261, -0.070721693336964, 0.036589734256268, -0.011781027540565, -0.010681563057005, -0.042180374264717
-0.019090374931693, -0.200292289257050, -0.204309448599815, -0.001712653785944, 0.166043907403946, -0.037405710667372, -0.182962670922279, 0.024519912898540, -0.000562690314837, -0.095041513442993, 0.046327408403158, 0.013698507100344, 0.079001538455486, 0.001773031894118, 0.025925843045115, -0.031271107494831
0.059667501598597, -0.194288626313210, 0.030513245612383, -0.168672934174538, 0.116218298673630, -0.095425061881542, -0.022444089874625, -0.147153437137604, 0.004627577494830, 0.119402520358562, 0.146325320005417, -0.036528550088406, 0.053252343088388, 0.030642785131931, -0.124378226697445, 0.014577557332814
-0.035450175404549, -0.163136512041092, -0.160702183842659, -0.193527385592461, 0.312582343816757, 0.213188990950584, 0.107399761676788, -0.326667517423630, -0.000647692882922, 0.028618503361940, 0.510924100875854, -0.288534015417099, -0.054265365004539, -0.102291271090508, -0.104479879140854, -0.006204753648490
-0.051073793321848, -0.035951662808657, -0.040743488818407, -0.105673745274544, 0.006238247733563, 0.277690380811691, -0.105420723557472, 0.205976009368896, 0.018515810370445, -0.197016626596451, -0.260084956884384, 0.062052208930254, -0.034105703234673, -0.052623499184847, 0.093340128660202, 0.000558248779271
-0.105116672813892, -0.078302912414074, 0.071207582950592, 0.002232423285022, -0.174058765172958, -0.031207891181111, -0.019674371927977, -0.094999000430107, 0.023574726656079, -0.021374387666583, -0.014789384789765, -0.093828387558460, 0.088656537234783, -0.024750204756856, 0.058960653841496, 0.002454526489601
-0.016129804775119, -0.140902310609818, -0.137484401464462, -0.094111345708370, 0.146141469478607, 0.056258026510477, -0.094219110906124, -0.040725722908974, 0.000571791548282, -0.098534256219864, -0.158373743295670, 0.054120063781738, -0.145273208618164, 0.006746406201273, -0.164204955101013, 0.042033176869154
-0.098227024078369, -0.022193290293217, 0.042689152061939, 0.111886739730835, 0.356678724288940, 0.044731657952070, -0.192745953798294, 0.063263319432735, 0.000021131030735, 0.213307425379753, -0.019931104034185, -0.238265559077263, -0.087368428707123, -0.105889424681664, -0.123747512698174, -0.033668369054794
-0.052752401679754, 0.047199159860611, -0.135786041617393, 0.073043331503868, -0.258048444986343, -0.199441865086555, 0.378362894058228, -0.215805292129517, -0.000003788727099, 0.044955994933844, 0.008280434645712, -0.122426137328148, 0.030613057315350, -0.009569312445819, 0.059649918228388, -0.011772799305618
-0.086218401789665, -0.162975937128067, 0.130227372050285, 0.033339053392410, -0.107354111969471, 0.019634205847979, 0.180854380130768, 0.128139972686768, -0.013984487392008, -0.167694434523582, 0.005472492426634, 0.076603382825851, -0.046982049942017, 0.039937734603882, 0.037745747715235, -0.060646947473288
-0.084571927785873, -0.166964128613472, -0.165555328130722, -0.085036851465702, -0.094010964035988, -0.038018446415663, -0.000591524876654, -0.161845713853836, -0.000045852222684, 0.037535902112722, 0.066208131611347, -0.080468058586121, -0.083383128046989, -0.049333345144987, -0.109358824789524, 0.020744130015373
0.042705330997705, 0.083853594958782, -0.161451861262321, 0.059529703110456, 0.075892038643360, -0.112908348441124, -0.244342193007469, 0.136935874819756, -0.026740664616227, -0.065639019012451, 0.044914416968822, 0.046507213264704, -0.041400507092476, 0.020447853952646, 0.049255408346653, 0.071908585727215
-0.073767952620983, -0.056764077395201, -0.146641105413437, -0.071110583841801, 0.001157739432529, 0.084914676845074, 0.016991088166833, -0.028084211051464, -0.019438374787569, -0.029613537713885, -0.019729521125555, 0.081650719046593, -0.069150753319263, 0.016855720430613, -0.128739342093468, -0.080365017056465
0.065338551998138, -0.129353612661362, 0.057458311319351, -0.211671963334084, -0.108103841543198, -0.127788916230202, 0.163042470812798, 0.222073346376419, -0.001803761348128, -0.009676836431026, 0.125988021492958, 0.198866948485374, -0.074362009763718, 0.115843087434769, -0.057163272053003, 0.044085983186960
-0.006094942800701, -0.048908010125160, -0.138665363192558, 0.007522082887590, 0.011037247255445, 0.003249496687204, 0.153031587600708, 0.018712259829044, 0.002696200273931, 0.143082201480865, 0.013662073761225, 0.095392458140850, -0.152425795793533, -0.005038175731897, 0.042672518640757, -0.110852539539337
0.010343182832003, -0.128455281257629, 0.110339514911175, -0.164280310273170, -0.201931700110435, 0.159074261784554, 0.125413224101067, -0.015473048202693, 0.004442371428013, 0.160435169935226, -0.081407546997070, -0.022919457405806, -0.054269365966320, 0.044198893010616, -0.101850688457489, 0.027941379696131
0.026778191328049, 0.012870671227574, 0.034661296755075, -0.038027986884117, -0.150038808584213, 0.024451777338982, 0.146076545119286, -0.131222605705261, 0.000034458975279, -0.076566763222218, -0.037634935230017, -0.059359591454268, 0.041928712278605, -0.092416942119598, -0.115662127733231, -0.021646330133080
-0.049697335809469, -0.016389496624470, -0.030830960720778, -0.161048784852028, 0.025371978059411, 0.028825690969825, -0.140720546245575, -0.142145231366158, 0.000100842997199, -0.011261405423284, 0.035555612295866, 0.002539937617257, -0.007071574218571, 0.030006986111403, -0.025864915922284, -0.054937228560448
-0.102454021573067, -0.143906861543655, -0.003583128098398, 0.053802333772182, -0.000527811702341, 0.036836270242929, 0.287534654140472, 0.166194662451744, -0.000005505784884, -0.049862444400787, -0.153660818934441, -0.001936106709763, -0.142223551869392, -0.122043728828430, -0.024572419002652, 0.096911236643791
-0.135798081755638, -0.150903373956680, -0.109016843140125, 0.031108159571886, 0.132347702980042, 0.189945295453072, 0.104365833103657, -0.084077157080173, -0.012067394331098, -0.135031461715698, 0.046108175069094, -0.012468145228922, -0.098512396216393, 0.002187668578699, -0.017318384721875, 0.052815832197666
-0.059230510145426, -0.022552914917469, 0.081968508660793, -0.009082747623324, 0.025323793292046, 0.233829483389854, -0.035667236894369, 0.042567826807499, 0.002090501831844, -0.199816420674324, 0.054505683481693, 0.024747597053647, -0.028483215719461, -0.045360900461674, -0.023512933403254, 0.013626560568810
-0.071545660495758, 0.075105443596840, 0.096235208213329, -0.055205542594194, -0.067510560154915, -0.072341643273830, 0.044512934982777, 0.059668749570847, 0.000337958714226, 0.050025217235088, 0.046657733619213, 0.075477875769138, -0.051900040358305, -0.008147401735187, 0.007825347594917, -0.088544040918350
-0.017040338367224, -0.026638764888048, -0.127194672822952, 0.085665792226791, 0.402992010116577, 0.145347833633423, -0.085235536098480, -0.034011039882898, -0.000005268998848, 0.060285348445177, -0.257506281137466, -0.138478189706802, -0.060067951679230, -0.140902638435364, 0.007462871726602, 0.021865798160434
-0.045791756361723, -0.192805737257004, -0.015098496340215, 0.018744504079223, -0.055911853909492, 0.001915764529258, 0.116083972156048, -0.130945101380348, 0.000025899578759, -0.172609090805054, -0.070456899702549, 0.004792355932295, -0.043111842125654, -0.017521699890494, -0.120531551539898, 0.028941117227077
0.066287957131863, -0.004017293918878, 0.090803287923336, -0.086449719965458, -0.079985186457634, 0.057818241417408, -0.007733765058219, -0.143241360783577, 0.000413190602558, 0.006140109151602, 0.002281954046339, 0.044216670095921, -0.120392113924026, 0.022042060270905, 0.012362220324576, 0.007204373832792
0.018323041498661, -0.074628777801991, -0.164925292134285, 0.011803230270743, -0.055366545915604, -0.161558985710144, 0.156260624527931, 0.137937888503075, 0.009412423707545, -0.137433797121048, 0.023926934227347, 0.033961601555347, 0.044692847877741, 0.008133413270116, -0.162708029150963, -0.077717602252960
0.077485643327236, 0.052897673100233, 0.069651812314987, 0.311736315488815, -0.433732032775879, -0.146024540066719, -0.101286359131336, 0.036534730345011, 0.005330945830792, -0.023287437856197, 0.145251989364624, 0.096558645367622, -0.095654942095280, 0.108706034719944, -0.049216628074646, -0.016426609829068
-0.090858668088913, 0.067809239029884, -0.094081863760948, -0.451283037662506, 0.500493347644806, -0.015368293970823, 0.219910219311714, -0.264292508363724, 0.000657820375636, 0.161554634571075, 0.492137402296066, -0.123188018798828, -0.104692168533802, 0.030397396534681, 0.001144056092016, -0.040499981492758
-0.031947974115610, -0.001152741489932, 0.056216344237328, -0.158711493015289, -0.218786537647247, 0.066112928092480, -0.103272475302219, -0.313153564929962, -0.000335187331075, 0.307601124048233, -0.015209984034300, -0.144806340336800, -0.010407643392682, -0.019800605252385, -0.126551255583763, -0.007080066483468
-0.033009443432093, -0.178514182567596, -0.007239938247949, 0.058173548430204, 0.032696295529604, 0.147720903158188, -0.086644262075424, 0.326121509075165, -0.019839614629745, 0.001372608006932, 0.029453545808792, 0.187596604228020, -0.120484627783298, 0.119584850966930, -0.184551969170570, -0.124546661973000
-0.064712144434452, 0.060069534927607, -0.115494675934315, 0.060280952602625, -0.150094494223595, 0.101290680468082, 0.039606481790543, -0.068340145051479, 0.004215540364385, -0.251868218183517, 0.127412691712379, 0.113591477274895, 0.059582311660051, 0.054982431232929, -0.094138436019421, 0.012231956236064
0.057854384183884, -0.143658638000488, -0.066553309559822, -0.061267532408237, -0.035003770142794, 0.066565893590450, 0.113926596939564, -0.115489043295383, -0.018961431458592, 0.005091288592666, -0.139048516750336, -0.099861353635788, 0.014837988652289, -0.027189161628485, -0.042043324559927, -0.114293478429317
-0.097558803856373, -0.180575042963028, -0.103522770106792, 0.064790308475494, -0.452930033206940, 0.185180872678757, 0.315278083086014, -0.274383753538132, -0.020617565140128, 0.156352192163467, 0.602705776691437, 0.007714065723121, 0.077717475593090, -0.025857962667942, -0.123964719474316, 0.001957911765203
-0.022913936525583, -0.017184874042869, 0.072623021900654, -0.005165616050363, -0.044815853238106, 0.015414910390973, -0.190792828798294, 0.196316227316856, -0.009099669754505, -0.265945285558701, 0.138824298977852, 0.275129526853561, -0.045626774430275, 0.091770507395267, 0.013892285525799, 0.013506877236068
0.004553324077278, -0.099170990288258, 0.021512700244784, -0.057846546173096, 0.011075983755291, 0.315743029117584, -0.015604703687131, -0.074097998440266, 0.016573088243604, -0.087272837758064, 0.090078361332417, 0.046813581138849, -0.023807462304831, -0.113466106355190, 0.025807600468397, -0.033477228134871
-0.020746411755681, -0.092789530754089, 0.090905964374542, 0.174758464097977, -0.078090660274029, 0.051348067820072, 0.005994291044772, 0.008972950279713, 0.001301765558310, -0.175582215189934, 0.083807289600372, 0.120332263410091, -0.029792003333569, 0.027097381651402, 0.001167906215414, 0.005486879032105
-0.088888891041279, -0.025345727801323, 0.004592383746058, 0.124208219349384, 0.387671023607254, -0.027640076354146, -0.184009045362473, -0.083577729761600, 0.006249098572880, 0.514645934104919, -0.152870416641235, -0.407742947340012, 0.097052238881588, -0.178002104163170, 0.022202730178833, 0.008252124302089
-0.049302890896797, -0.009785218164325, 0.009642468765378, 0.050074089318514, 0.341322481632233, -0.181119129061699, -0.204913228750229, 0.012848942540586, 0.000564982474316, 0.345076054334641, -0.221374318003654, -0.318388938903809, -0.003506752662361, -0.158610329031944, -0.139018163084984, -0.068697556853294
0.042197197675705, -0.020137500017881, -0.090166769921780, 0.107133582234383, 0.111694537103176, 0.197198271751404, -0.077978283166885, 0.471872001886368, -0.000805141986348, -0.502299666404724, 0.129940152168274, 0.479922920465469, -0.010099713690579, 0.147783786058426, 0.005769855808467, 0.000107628875412
0.021520951762795, -0.174687668681145, 0.057000152766705, -0.041282977908850, 0.020349929109216, 0.058946117758751, -0.091408818960190, 0.030679348856211, 0.000006784825018, 0.002290959935635, -0.055853109806776, -0.046233989298344, -0.057030722498894, -0.028575144708157, -0.096594765782356, -0.003554225433618
0.048121616244316, -0.124999463558197, -0.069369994103909, -0.285475254058838, -0.119114197790623, 0.005375446286052, 0.288162350654602, -0.148202314972878, -0.000001336135824, 0.215178117156029, -0.110089264810085, -0.034416265785694, 0.037756484001875, -0.091142833232880, -0.053646791726351, 0.043162733316422
-0.067652568221092, -0.002471770625561, -0.006348529830575, 0.018487276509404, -0.081832982599735, -0.109927594661713, -0.091749608516693, 0.204793259501457, 0.000220943853492, -0.246894523501396, 0.209318816661835, 0.236897274851799, 0.021954258903861, 0.142821490764618, 0.023633228614926, -0.005688770208508
0.020048411563039, -0.167037650942802, 0.055344074964523, -0.086857594549656, 0.063689127564430, 0.014900401234627, -0.029935196042061, 0.082377500832081, 0.000078043573012, 0.012590143829584, 0.049987811595201, -0.044112905859947, 0.009234679862857, -0.008816761896014, -0.086645282804966, 0.013817924074829
0.023590378463268, -0.176843672990799, 0.014271968044341, 0.158759430050850, -0.018793761730194, -0.154388949275017, 0.032933190464973, -0.114202186465263, -0.000168601487530, 0.042473644018173, -0.036431364715099, -0.094173587858677, -0.055256031453609, -0.083680510520935, -0.098009251058102, -0.013673629611731
-0.099896848201752, 0.089928738772869, 0.111452370882034, 0.003030587919056, 0.119375891983509, 0.101604513823986, -0.260478615760803, 0.110524244606495, -0.016719250008464, -0.178251773118973, -0.112731784582138, -0.033579949289560, -0.007092366460711, 0.048612546175718, -0.120358444750309, 0.086075954139233
-0.042369395494461, 0.002308225026354, -0.063979484140873, 0.191129684448242, -0.081629507243633, 0.056148421019316, 0.123313844203949, -0.042593434453011, 0.007998777553439, -0.057465627789497, 0.096743240952492, 0.003179555060342, -0.038090251386166, -0.019245767965913, -0.014101780019701, -0.033293467015028
-0.032194864004850, -0.090684972703457, -0.082563534379005, -0.026057716459036, 0.176014289259911, 0.064838729798794, -0.120768092572689, -0.251182258129120, -0.000019713217625, 0.105004698038101, 0.375042229890823, -0.085106134414673, 0.024043513461947, -0.050951212644577, 0.066509954631329, -0.005521262995899
-0.018948379904032, -0.117667116224766, 0.033467426896095, 0.099629618227482, -0.161502137780190, 0.061465345323086, 0.027849191799760, 0.105079658329487, -0.067622534930706, -0.207494378089905, 0.354118317365646, 0.409114718437195, -0.127890795469284, 0.242281004786491, 0.002446296624839, 0.047205910086632
0.063325047492981, -0.066366784274578, 0.021569715812802, -0.073195643723011, -0.012249590829015, 0.110524930059910, 0.078764334321022, 0.050424102693796, 0.003552013775334, -0.230674177408218, -0.037043921649456, 0.147460669279099, -0.115731462836266, 0.094000108540058, -0.122654855251312, 0.001345779746771
-0.035680077970028, 0.023133069276810, -0.081662051379681, 0.105884693562984, 0.108200632035732, 0.110444143414497, 0.203116625547409, -0.138844475150108, -0.005184960085899, 0.136766046285629, 0.124300055205822, -0.032117906957865, -0.029277812689543, 0.023751234635711, 0.111247688531876, 0.066301926970482
0.040771372616291, 0.035582710057497, -0.053054995834827, 0.415681749582291, -0.205927044153214, 0.012622592039406, 0.061653014272451, -0.372503757476807, -0.006500524468720, 0.118264198303223, -0.022799849510193, -0.134780943393707, -0.040664400905371, -0.020654991269112, -0.132873535156250, 0.018068611621857
-0.077469654381275, -0.037491105496883, -0.146197661757469, 0.008653575554490, -0.008295648731291, 0.043832030147314, 0.169216066598892, 0.097956232726574, -0.000016850703105, -0.068886928260326, 0.099168181419373, 0.075916782021523, -0.105581551790237, 0.002552245510742, 0.021462103351951, -0.008259368129075
-0.110541909933090, -0.207749277353287, 0.088989891111851, -0.074312947690487, 0.129214465618134, -0.042543821036816, 0.054261162877083, -0.156650081276894, 0.009647214785218, -0.008607973344624, -0.029817035421729, -0.050295904278755, -0.069477312266827, -0.057166051119566, 0.091769136488438, -0.127284049987793
0.019680893048644, -0.074656173586845, -0.089831843972206, -0.258640676736832, 0.438141822814941, -0.200872868299484, 0.128569349646568, -0.329092741012573, -0.000008987530236, 0.254983872175217, 0.030016724020243, -0.424364984035492, -0.035731185227633, -0.107476867735386, -0.042312800884247, -0.089254900813103
0.043250098824501, 0.057487096637487, -0.066338419914246, 0.148973733186722, -0.109889000654221, -0.153637215495110, -0.018631005659699, 0.066773548722267, -0.005854906048626, 0.177192449569702, -0.161145165562630, -0.084710337221622, -0.121078193187714, -0.068495392799377, 0.090048260986805, 0.015603849664330
-0.030806828290224, -0.163876667618752, -0.089729495346546, 0.060642544180155, -0.008572754450142, -0.053036939352751, -0.047535959631205, -0.082777708768845, -0.000010489418855, -0.054628744721413, 0.002288128947839, -0.182050108909607, 0.030895197764039, -0.084920525550842, -0.033904757350683, 0.027336997911334
0.002998367417604, 0.019288364797831, -0.074482217431068, -0.070812784135342, 0.067686870694160, -0.034580662846565, -0.019825255498290, -0.090660013258457, -0.003333937143907, 0.051557749509811, -0.019969332963228, -0.014844612218440, 0.034821718931198, 0.034371789544821, -0.024207042530179, -0.006748580373824
-0.060000989586115, 0.081162050366402, -0.056549526751041, 0.099861614406109, 0.071801416575909, -0.140933036804199, -0.046577196568251, 0.057097055017948, -0.009560891427100, 0.098948158323765, -0.026542723178864, 0.009125826880336, -0.075306639075279, 0.047669779509306, 0.021535200998187, -0.084365703165531
0.010776341892779, -0.051453918218613, 0.084858715534210, -0.001476723002270, -0.065631948411465, 0.261943817138672, -0.123355545103550, 0.027810847386718, 0.002014064462855, 0.164395749568939, 0.030295895412564, 0.024023883044720, -0.042292088270187, -0.056881096214056, -0.045306559652090, -0.045756932348013
-0.097457885742188, -0.140289574861526, -0.130404919385910, 0.001341371680610, 0.102828122675419, 0.124449826776981, 0.068740412592888, 0.064074866473675, 0.000499568006489, 0.174422562122345, -0.098515272140503, 0.040510747581720, -0.113431476056576, -0.008376976475120, -0.105186395347118, -0.004505997058004
-0.018578443676233, 0.017089335247874, -0.015152782201767, -0.203080490231514, 0.283842533826828, 0.007306261453778, -0.190593212842941, 0.242140412330627, 0.000037645859265, -0.037641976028681, 0.059026133269072, 0.135109409689903, -0.021105905994773, 0.104821316897869, 0.056903429329395, -0.028054337948561
-0.062166038900614, -0.090324938297272, -0.130117580294609, -0.088230520486832, 0.075291357934475, 0.099460624158382, -0.114416576921940, 0.096962615847588, 0.011412670835853, -0.111772589385509, 0.026540540158749, 0.078312166035175, 0.002818411681801, 0.019005658105016, -0.100169740617275, 0.031804814934731
0.004583019763231, -0.166530549526215, -0.045132827013731, 0.118753224611282, 0.275239825248718, 0.023899618536234, -0.147421821951866, -0.083335995674133, 0.000007709328202, 0.062883235514164, -0.369176864624023, -0.256802260875702, 0.052686925977468, -0.086296506226063, -0.082659117877483, 0.004146496299654
-0.096180222928524, -0.080500647425652, -0.086059354245663, 0.000913222902454, -0.012926590628922, 0.016468252986670, 0.025093568488955, 0.132896363735199, -0.003433802397922, 0.123804785311222, -0.054781641811132, -0.038456037640572, 0.015106493607163, -0.006230608560145, 0.028942950069904, -0.071285456418991
0.027624513953924, -0.142894849181175, -0.116175465285778, -0.182736426591873, -0.035282135009766, -0.194179564714432, 0.043568976223469, -0.021200053393841, -0.000000028311334, 0.050346750766039, 0.020567364990711, -0.042221281677485, -0.102724537253380, -0.027874192222953, -0.119077533483505, 0.027559012174606
-0.054697949439287, -0.086075171828270, -0.163996964693069, -0.132268741726875, 0.117997810244560, -0.090483985841274, -0.036450337618589, 0.264010876417160, -0.007356292102486, 0.022955814376473, -0.134841769933701, 0.156273022294044, 0.014300175011158, -0.005524139851332, 0.077437810599804, 0.034648161381483
-0.083750553429127, -0.151073962450027, -0.200517877936363, 0.069705478847027, -0.027819603681564, -0.183214575052261, -0.080853894352913, -0.237365096807480, -0.010997838340700, 0.169935494661331, 0.094971135258675, -0.045952565968037, -0.082364380359650, -0.034464444965124, -0.081565469503403, -0.019727243110538
-0.072002530097961, -0.024766040965915, -0.120892740786076, 0.155563339591026, -0.051872454583645, -0.021168883889914, 0.206637799739838, -0.173627167940140, 0.000037715362851, -0.104797191917896, -0.020730808377266, -0.062301114201546, -0.068381480872631, -0.054263614118099, -0.067259415984154, -0.006798279471695
-0.037221424281597, -0.201469674706459, 0.082591354846954, 0.077665999531746, 0.000921103986911, 0.059806697070599, 0.132882252335548, -0.176079168915749, -0.013920906931162, 0.096166200935841, 0.056494627147913, -0.036793116480112, -0.076401598751545, -0.042891282588243, 0.057411108165979, -0.048492908477783
-0.063580803573132, -0.220819383859634, -0.072389848530293, 0.010961973108351, 0.201685905456543, -0.059064351022243, 0.139817312359810, 0.074394598603249, -0.009730986319482, 0.026473024860024, -0.177205994725227, -0.048581168055534, -0.153891310095787, -0.021864686161280, -0.087830528616905, -0.048878259956837
-0.029407527297735, 0.039107732474804, -0.143333703279495, -0.185992076992989, 0.163131311535835, 0.021426288411021, -0.139208942651749, 0.348919987678528, -0.036112572997808, -0.176169306039810, -0.153200045228004, 0.199464157223701, -0.027640715241432, -0.009510742500424, -0.033510178327560, 0.009205603972077
-0.034728702157736, 0.016392402350903, -0.002028994495049, -0.010893641039729, 0.083474002778530, 0.215746775269508, 0.023193730041385, 0.197204008698463, 0.006792823784053, -0.153551280498505, -0.091736301779747, 0.021270876750350, 0.011451120488346, -0.044473662972450, -0.048837747424841, -0.037364602088928
0.028242530301213, -0.038463197648525, 0.086637698113918, 0.080171518027782, 0.031742863357067, -0.109395146369934, 0.006167963147163, 0.048007987439632, -0.013932506553829, -0.071113690733910, 0.057897996157408, 0.116572499275208, -0.031536895781755, 0.094576068222523, -0.076936751604080, -0.017657937481999
-0.100539535284042, 0.027033964172006, 0.003902753582224, -0.025235962122679, -0.321801662445068, -0.027396695688367, 0.167754113674164, -0.172857806086540, 0.000168387050508, -0.120707660913467, 0.088932968676090, -0.002755047753453, 0.021201642230153, 0.015431508421898, 0.052037917077541, -0.087528191506863
-0.048556610941887, -0.107480138540268, -0.154706671833992, 0.060640938580036, 0.114386402070522, -0.110743671655655, 0.125061720609665, 0.047686792910099, 0.023723017424345, -0.099978193640709, -0.050396472215652, -0.064625039696693, -0.050957318395376, 0.079107254743576, 0.113981485366821, 0.010215492919087
-0.112851738929749, -0.094899177551270, -0.072990790009499, 0.054500669240952, 0.167583018541336, -0.037772748619318, 0.072289273142815, 0.042544469237328, -0.000002788126267, 0.001935787498951, -0.186324790120125, -0.101150795817375, -0.067032538354397, -0.034155759960413, -0.160455226898193, -0.039850458502769
-0.013055701740086, -0.185515671968460, 0.004360930528492, -0.235734000802040, 0.160628646612167, 0.507295429706573, -0.095169812440872, 0.247489884495735, -0.081308037042618, -0.333755016326904, 0.058059412986040, 0.161121189594269, 0.040646351873875, -0.042528379708529, 0.024662984535098, -0.004531983286142
-0.049048472195864, 0.089667528867722, 0.056491922587156, -0.084251709282398, 0.114012561738491, 0.087620720267296, -0.131728887557983, 0.348310738801956, -0.048399638384581, -0.093632057309151, -0.225923627614975, 0.129291176795959, 0.083979524672031, 0.045485261827707, -0.129071161150932, 0.051509153097868
-0.031487207859755, 0.029094787314534, 0.050056867301464, -0.209042802453041, 0.003430549986660, 0.162576466798782, -0.222942382097244, 0.191350206732750, 0.015188277699053, 0.138499781489372, -0.065921708941460, 0.003931756597012, -0.073007203638554, -0.008508281782269, -0.052604608237743, 0.041613630950451
0.080745451152325, -0.046622566878796, -0.194603592157364, 0.078116364777088, -0.022353598847985, 0.027283461764455, -0.166603192687035, 0.025147275999188, -0.004815433640033, -0.170263931155205, 0.052917376160622, 0.030245538800955, -0.082939624786377, 0.039758749306202, -0.117305167019367, 0.054941866546869
0.048155795782804, -0.007228872273117, -0.053827796131372, 0.061934854835272, 0.085407570004463, -0.025768212974072, -0.104986056685448, 0.095329903066158, -0.030124926939607, 0.006989201996475, -0.053375758230686, 0.041117735207081, -0.026806453242898, 0.100480161607265, 0.065604604780674, 0.089545130729675
-0.089419737458229, -0.003248731838539, -0.138802692294121, 0.107700690627098, 0.164925262331963, -0.101389691233635, 0.044303778558969, 0.036499675363302, 0.000005030230113, 0.012061239220202, -0.019820388406515, -0.018733177334070, 0.035922050476074, 0.019112762063742, 0.052448909729719, 0.000470092927571
0.031429648399353, -0.040911819785833, 0.012291481718421, -0.111667163670063, 0.175276458263397, -0.090083919465542, 0.030200723558664, -0.029444327577949, -0.000840547261760, 0.025405058637261, -0.144452929496765, -0.172479376196861, 0.014110363088548, -0.094596177339554, -0.051841232925653, 0.040637541562319
0.084721289575100, 0.076947949826717, -0.186264917254448, 0.221087709069252, -0.103160299360752, 0.007887461222708, 0.079569354653358, -0.013227967545390, 0.001693376456387, -0.207051157951355, -0.107113838195801, 0.010702447965741, -0.026395965367556, -0.004814882297069, -0.155486375093460, -0.030478188768029
0.031850211322308, -0.055625878274441, 0.012322971597314, -0.121564410626888, -0.010695504024625, -0.018500981852412, 0.071962580084801, -0.200159341096878, -0.001769453054294, 0.011739347130060, -0.028724059462547, -0.038621056824923, -0.066116027534008, 0.009544332511723, -0.026581589132547, 0.035447493195534
-0.041952077299356, -0.019982321187854, 0.127941414713860, -0.003300544805825, 0.177959084510803, 0.156065493822098, -0.041036698967218, -0.050065021961927, -0.004960143938661, -0.093099385499954, 0.088434912264347, -0.066110022366047, 0.009330821223557, 0.007111744955182, -0.092617169022560, -0.067539282143116
0.002288653515279, 0.018946396186948, -0.145167067646980, 0.029062351211905, -0.118623204529285, 0.047040738165379, 0.347051709890366, -0.157378345727921, -0.000004289400749, 0.176022231578827, -0.074420377612114, 0.053619820624590, 0.047143988311291, -0.015754418447614, 0.018934810534120, -0.022032871842384
-0.084697902202606, -0.106658622622490, -0.037422709167004, 0.087426528334618, -0.080247446894646, -0.301266491413116, 0.114589251577854, 0.005367513280362, 0.000000456658938, 0.024667702615261, -0.069881074130535, -0.006799531169236, -0.055762454867363, -0.006699454970658, -0.155277609825134, 0.010495432652533
-0.077046893537045, 0.037112712860107, -0.073268219828606, 0.382421076297760, -0.146579891443253, -0.107109934091568, 0.274912953376770, -0.039391584694386, -0.000003640071554, 0.046668190509081, -0.150647997856140, -0.147791698575020, -0.035551611334085, -0.057651400566101, 0.040988724678755, -0.001241803984158
0.058434434235096, -0.118454545736313, -0.124685622751713, -0.011220646090806, 0.142451360821724, 0.182840570807457, 0.139910265803337, 0.131886258721352, -0.015930378809571, 0.034675594419241, -0.143781766295433, 0.014417494647205, -0.053725518286228, -0.025127058848739, 0.043080952018499, 0.025281002745032
-0.029837122187018, -0.057443615049124, 0.098199464380741, 0.003716445760801, -0.043923579156399, 0.132192909717560, -0.019129557535052, -0.024730367586017, -0.000009439763744, 0.060174938291311, 0.131267115473747, 0.072785668075085, -0.006272183731198, -0.037438567727804, -0.060162588953972, 0.034616962075233
-0.069570228457451, -0.056961935013533, -0.051923848688602, 0.099870145320892, 0.242006942629814, -0.002944431966171, -0.045642197132111, 0.411823004484177, -0.000002314996436, -0.130810961127281, -0.026826063171029, 0.234221547842026, -0.021643120795488, 0.087525770068169, 0.003094724379480, -0.000742419506423
0.043732758611441, -0.024293944239616, 0.061746474355459, -0.109851330518723, -0.107978828251362, 0.119255416095257, -0.014030173420906, 0.126503616571426, 0.000195555548999, 0.005715955980122, -0.148097261786461, 0.032335951924324, -0.003784091444686, -0.039898708462715, -0.042626991868019, -0.041032508015633
0.023770669475198, -0.115531548857689, 0.014224939979613, -0.099139019846916, 0.116324990987778, -0.125581517815590, -0.036832351237535, -0.059213753789663, 0.001375477877446, -0.217314809560776, 0.063551433384418, -0.039874877780676, -0.041098874062300, -0.029577953740954, 0.045187629759312, -0.036859601736069
0.035746235400438, 0.088857896625996, 0.016934506595135, 0.064409226179123, 0.323691606521606, -0.170798063278198, -0.040460623800755, 0.019816121086478, -0.000006134832802, 0.112250491976738, 0.053398191928864, -0.122512787580490, -0.005818981677294, -0.010635538958013, 0.003567182458937, 0.078055500984192
0.009156654588878, -0.032916225492954, -0.077835835516453, -0.147050797939301, -0.037048190832138, -0.126455187797546, 0.100697748363018, -0.073467023670673, -0.001498089870438, -0.147745162248611, -0.088283605873585, -0.011742706410587, -0.004833800252527, -0.029866134747863, 0.027577474713326, 0.031142108142376
0.046118848025799, -0.145470947027206, -0.024550648406148, -0.097016267478466, 0.047716096043587, 0.039050213992596, -0.055462244898081, -0.111797586083412, 0.000573220662773, 0.175256460905075, -0.077839761972427, -0.019256852567196, -0.064126305282116, -0.011811951175332, 0.039423622190952, 0.026339208707213
0.040895037353039, -0.089592404663563, 0.079366579651833, -0.013474787585437, -0.108835309743881, -0.013022674247622, 0.124624155461788, 0.117880083620548, -0.001609401311725, 0.123870588839054, 0.054297421127558, 0.118455201387405, 0.080427132546902, 0.005635209381580, -0.083581037819386, -0.064636372029781
-0.002523366594687, -0.037176597863436, -0.021879343315959, 0.001483295345679, 0.228471532464027, -0.092552997171879, -0.122642301023006, 0.086789302527905, 0.000000503226374, 0.000421095930506, -0.106568410992622, -0.107264250516891, 0.018070837482810, -0.079952135682106, -0.125451281666756, 0.032562829554081
0.025345545262098, -0.081411160528660, -0.189943775534630, 0.320069015026093, -0.025946039706469, 0.045646511018276, -0.120317853987217, -0.117554970085621, -0.018774721771479, 0.196725159883499, 0.133456796407700, -0.046661596745253, 0.068330250680447, -0.012706104665995, -0.191924199461937, 0.022976601496339
0.031470529735088, 0.038079272955656, -0.010744642466307, -0.056367151439190, -0.187254235148430, 0.026040762662888, 0.001599121838808, -0.085274271667004, 0.001952895661816, -0.079176761209965, -0.100149430334568, -0.086115576326847, 0.045904822647572, -0.099021896719933, 0.034230478107929, 0.058359794318676
-0.045628774911165, -0.206783249974251, 0.109578400850296, -0.125489160418510, 0.017043020576239, 0.230364426970482, -0.167187884449959, 0.411937475204468, 0.022042019292712, -0.213693812489510, -0.048799760639668, 0.354190230369568, 0.067977949976921, 0.065084896981716, -0.097201891243458, -0.011928071267903
0.044323615729809, 0.081323571503162, 0.018341030925512, 0.128724053502083, -0.193540111184120, -0.086211651563644, 0.026348492130637, 0.162277624011040, 0.022544777020812, -0.102706395089626, -0.188962668180466, 0.083414107561111, -0.148159012198448, 0.012706806883216, -0.198877781629562, -0.087315537035465
-0.031804636120796, 0.076722882688046, -0.051970429718494, 0.035154677927494, -0.060820363461971, 0.208433836698532, 0.043306834995747, -0.050355084240437, -0.000043683729018, 0.043150339275599, -0.211875498294830, -0.085713118314743, 0.060806810855865, -0.073654696345329, -0.113186359405518, -0.062844373285770
-0.047576330602169, -0.022819234058261, -0.052616961300373, -0.054227031767368, 0.028730416670442, 0.058431338518858, -0.087921582162380, 0.134042456746101, 0.000045092674554, 0.140639990568161, 0.014333461411297, 0.062574259936810, 0.062042936682701, 0.002385710831732, -0.022068616002798, -0.104667671024799
-0.010267259553075, 0.002905262401327, -0.013197817839682, 0.146426036953926, -0.066283784806728, 0.166810512542725, 0.061442077159882, -0.080224163830280, -0.000000515153829, -0.139622777700424, 0.077715098857880, 0.016857683658600, -0.010530646890402, -0.029944591224194, -0.108438059687614, 0.008305527269840
0.014735423028469, -0.155040428042412, 0.066982731223106, -0.047700814902782, -0.164823755621910, 0.110640950500965, 0.123364627361298, -0.188017010688782, -0.000010508323612, 0.055697087198496, 0.162210270762444, -0.165778562426567, -0.090619102120399, -0.120730087161064, -0.053295135498047, 0.040449574589729
0.045936565846205, 0.018074631690979, -0.003900375915691, 0.078555293381214, 0.131726861000061, 0.239718809723854, -0.061992201954126, 0.089517578482628, 0.005994366481900, 0.045949749648571, 0.018855702131987, -0.017034843564034, 0.009097962640226, -0.081296920776367, -0.109410397708416, -0.006415220443159
